[
   {
      "weights": [
         [
            0.8620298587770131,
            -0.4998341277713406,
            -0.3218348790009351,
            0.1798244368986916,
            0.33469804702660105,
            0.20943448833172254,
            0.5688735823945911,
            1.5298717207269152,
            0.24101595348811736,
            0.8919599582807684,
            0.1974473173470439,
            -0.46535303522624205,
            0.13209815615979323
         ],
         [
            -0.6185037239122373,
            -1.4306072825504172,
            0.5028467697771993,
            0.3705013621269908,
            0.06519819417041482,
            0.6826397445719056,
            1.2575675057798295,
            1.2059786109976067,
            2.0,
            -0.5522152666618061,
            -0.7344560741960816,
            -0.032266550106204814,
            -0.11038769170810683
         ],
         [
            0.028819523870641676,
            -0.6816932800682602,
            -0.9826431046693191,
            0.10824035688634011,
            -0.689109901930823,
            -1.416764328037374,
            0.008508086442263498,
            -0.8517930006315318,
            2.0,
            0.6998251959641595,
            0.18011143133842653,
            0.9425716528292812,
            -0.5013391267469914
         ],
         [
            -0.6386430094851128,
            -0.532914138440041,
            0.33806488812282715,
            1.0583334462410257,
            -0.8361853265855312,
            -0.4352764460061819,
            -0.09198769276706775,
            -0.0044242198288173,
            -0.3628462716491276,
            0.17570614278672264,
            -1.525006244963417,
            -0.14013226827309438,
            -0.5104958630840712
         ],
         [
            0.03541968035231319,
            -1.59267449680738,
            -0.6286161662184677,
            1.417413967954081,
            -0.007689782831311651,
            0.37049515148033935,
            -0.345652943067571,
            0.03382201520053351,
            0.13737219737568476,
            -0.35318271137698726,
            -0.5728659965270475,
            -1.6895872587368734,
            0.09433646387250991
         ],
         [
            0.337357973091896,
            -0.4062494519121359,
            1.1131308559817519,
            -0.7677421689340421,
            -0.5048681152121888,
            -0.3246044904986856,
            0.008677230374492322,
            -0.06537405172887374,
            0.8542213508782005,
            -0.10834668479826103,
            -1.0358841592500985,
            0.7984469307927741,
            0.6784067662260406
         ],
         [
            -0.23573469383577383,
            -0.5523706314295903,
            0.9780555495161362,
            -2.0,
            0.7913998597699066,
            0.01977692313518225,
            0.11692008505230243,
            -0.27951084801954323,
            0.7222352146351587,
            0.5047024433172492,
            0.11103527909646471,
            -0.004405041044807255,
            -0.484443566862833
         ],
         [
            -1.938119232830118,
            1.1927187646163853,
            -0.35136922243076707,
            0.267797480482882,
            -0.5854048882803019,
            0.32293225334091596,
            1.4444256532551458,
            -1.5160921856579859,
            -0.14820590111718202,
            -0.053901212087500545,
            -0.7173696861534242,
            -0.6764635042286065,
            -1.0653196586818012
         ],
         [
            -1.426362295490949,
            1.7158537384857309,
            -0.9769967596883203,
            0.13501854021561377,
            0.06743426748743667,
            0.024756246508442145,
            0.4516166539265677,
            0.02815017369746869,
            -0.022114848745876485,
            -1.1953537923149815,
            -0.1734724602310569,
            -0.7703197012004048,
            -0.20238670418111715
         ],
         [
            1.9632136376145681,
            0.28868431043471515,
            0.06834565962641267,
            1.159613256664438,
            -0.11562817571163544,
            0.16875803781271959,
            -0.6367012789960123,
            -1.0283718690608392,
            -0.19869450164241337,
            -2.0,
            1.4608786464927956,
            -0.06358676096175851,
            -1.3179726935838605
         ],
         [
            -0.16724344835104948,
            -1.1717155723269255,
            0.7790313096522016,
            -0.16800806212859343,
            -0.08852856392259237,
            -0.19762645419793445,
            0.029319475488760578,
            -1.4102533821460987,
            0.6501558265611739,
            0.1153467142591515,
            -0.5985048739785167,
            -1.112937955076972,
            -0.8186753626236801
         ],
         [
            -0.6000780982851042,
            0.3996659155337305,
            1.824517321857885,
            -0.028553952533869994,
            0.21108591744997435,
            0.4096474233882052,
            0.15879422906962726,
            1.8239087888875192,
            -1.1132721997262138,
            0.257100091842227,
            -0.09052946557171813,
            0.30981699187509043,
            -0.7250498751593929
         ],
         [
            -0.041796335683747146,
            -0.727789097802132,
            0.1967853000529137,
            1.0366285083607107,
            -1.3028109556478875,
            -1.3942454765437293,
            1.2656152003929182,
            0.4094382113713523,
            0.8138890936761645,
            1.154320776847623,
            -0.25591591583955015,
            0.22660636663515135,
            2.0
         ],
         [
            -0.8553996969409502,
            -0.36333340863323244,
            -0.05419584766702527,
            0.6156186010802935,
            -0.13892549430419537,
            -0.6167661250564822,
            -0.1678993107446311,
            -0.7551677489617601,
            -0.40619259429105303,
            0.5809195704319128,
            0.44484775002019866,
            0.16637726322190344,
            0.1764190068668342
         ],
         [
            -2.0,
            -0.2674135296181889,
            1.577698208481926,
            -1.0204843536832948,
            0.2900486661410262,
            0.3030805160768843,
            -0.6952538699266114,
            -0.6166317064488414,
            1.897929222659434,
            0.3281104251700044,
            0.4522676839952223,
            0.2691277082591038,
            0.13905442432554319
         ]
      ],
      "biases": [
         [
            -1.7313362034233475,
            0.22368139693559325,
            -0.5067079331235955,
            1.7823804183456096,
            0.8214955411287754,
            0.3680442330088745,
            0.7017698870688251,
            0.2391061748963626,
            -1.1235043684381647,
            -0.17153095888600267,
            -0.23204422095113314,
            0.7853097094374406,
            -0.616424747816416
         ]
      ]
   },
   {
      "weights": [
         [
            -0.25799010375293113,
            0.7785519860266951,
            -0.3668425511237482,
            2.0,
            0.6467101669092697,
            1.3667691040025607,
            -2.0,
            1.8059682378539972,
            -0.17417085596126292,
            -0.881217414707733,
            -1.7121330116222442,
            -0.95160644038881,
            -0.7683742204476964
         ],
         [
            -0.17545120097229266,
            0.9678392773131548,
            1.2719813766656265,
            0.3378927343300741,
            0.253064350926383,
            0.9371397435509028,
            0.9826819278404835,
            -0.5720259299024902,
            -1.8994103306389971,
            -0.51316668689614,
            -1.6140939786137836,
            -1.6227139467727245,
            -0.7298166928788006
         ],
         [
            1.2659820915428264,
            1.7395144170601626,
            1.2528270614078805,
            0.6105623725533978,
            0.11296389906830993,
            -0.13415840687202762,
            -0.7654225225726446,
            0.28320104852118827,
            -1.1245782893566558,
            -0.5728566854744945,
            1.6047491111288787,
            -0.15797228982447345,
            1.3312841355753866
         ],
         [
            0.4715360659771966,
            -0.08012674321655108,
            0.9745222117488902,
            0.9348474684277435,
            -0.35828323056690603,
            -0.48229156346679536,
            -0.3446155697251179,
            0.13680016807544954,
            0.6148257818493975,
            0.5314516872939373,
            -1.3037044142783827,
            0.26897072177184933,
            1.2130495745490408
         ],
         [
            -0.26583276073633066,
            -1.1338646473224765,
            -0.6819729780589816,
            0.8525602366108083,
            -1.2216895542360782,
            0.017942373644867705,
            -0.041183892331216984,
            -0.7755588175845894,
            -0.06380114756782666,
            0.09589331194783303,
            -1.7052222051539347,
            0.7421268140961158,
            0.12445289296156742
         ],
         [
            -0.3448535771174397,
            0.359419792408882,
            -2.0,
            -0.23444494166324392,
            0.008564730735684126,
            0.4311892074168059,
            -0.5178109865831934,
            0.8876836266887727,
            -0.1016489106309835,
            -0.5020019022193686,
            -0.5617206581593798,
            0.5189076385533969,
            2.0
         ],
         [
            -0.7411913794191086,
            -0.12441509995323444,
            0.02869139710093222,
            -1.8236352207604754,
            0.14394779727751317,
            -1.0436003530562954,
            0.7078739373943914,
            -1.0427872393688562,
            -0.7274316292742262,
            0.5688446750370479,
            0.7427002091541959,
            -0.9327345861206253,
            1.149290582885101
         ],
         [
            -1.0303163952848027,
            0.4061291262642275,
            -0.8851378440932545,
            0.36138949712043006,
            0.676660750542671,
            0.5248906392191427,
            0.3145644658271786,
            0.8188588004746589,
            0.6648672907143802,
            -1.358941202573362,
            -0.8739716920090814,
            -1.0674693468265164,
            0.2504391215635171
         ],
         [
            0.04318909793337335,
            -0.09328427795614289,
            0.5202666842809273,
            -2.0,
            0.1349663230352844,
            0.11564783566937295,
            0.15549060294434017,
            -0.4242588497887148,
            -0.423199183808517,
            0.6669542595055218,
            0.839877625107006,
            0.8525738345346262,
            -0.09530777693970262
         ],
         [
            -1.6136348643562037,
            -0.13476652063639827,
            1.1455629099146316,
            -0.3524635487129393,
            -0.747737781789193,
            -0.29584371498925877,
            -0.6732530838639179,
            0.06171809327846369,
            0.0477815988445526,
            0.3945177545502683,
            0.6060011245028547,
            -0.3176556735335655,
            -0.6357830869347678
         ],
         [
            1.7649841039074299,
            0.28219734203409175,
            -0.7713253587241459,
            0.16287111221082484,
            -0.16023883804497546,
            0.8921424951832657,
            -0.050341625931861284,
            0.22877233799751773,
            0.28665958213733633,
            0.6479186930053839,
            -0.8106324036057712,
            0.09858216790381401,
            -0.5031308543675044
         ],
         [
            -0.21984407703540254,
            -0.8243581517927131,
            0.3670415148465177,
            -0.06916169746793885,
            1.8097400787058195,
            1.0824622295951112,
            0.8619317796067579,
            -0.7361839079643614,
            0.15047763057095115,
            -0.4823451277807454,
            0.23850008780427023,
            1.681554568084107,
            1.1270113567509763
         ],
         [
            -0.24109016099679426,
            -0.6231642313591947,
            -0.7310882818824666,
            -0.13040911991863735,
            -0.9103816761862953,
            1.0676084976685205,
            -0.21505595758322232,
            -0.10684223360391576,
            0.04131791199574691,
            0.8833162574677608,
            0.28669427345743304,
            0.16833251827715398,
            -0.12301718663071545
         ]
      ],
      "biases": [
         [
            0.9597256420022103,
            -0.9183096913508286,
            0.6799380279681586,
            -2.348451205629098,
            -1.305159235214626,
            -0.2874690109696439,
            -0.9514689989119025,
            0.41971677851959627,
            -0.3570530784048754,
            0.030159289474462014,
            0.9044778443079033,
            1.067247761521082,
            -0.5531504199629786
         ]
      ]
   },
   {
      "weights": [
         [
            0.38468654204942565,
            0.9765701157661923,
            -0.9971010568783346
         ],
         [
            0.7596002714261925,
            1.8786279300499822,
            -0.10313622957624993
         ],
         [
            -0.7817645827257861,
            -0.08735833688911053,
            0.5539691688882774
         ],
         [
            0.7113434006033813,
            0.7906752569005471,
            -0.8125083608273223
         ],
         [
            -2.0,
            0.01491121847736314,
            -0.30463706596003814
         ],
         [
            -1.14863338506703,
            -0.6164931144476894,
            -0.054525339641756876
         ],
         [
            1.5040129303546295,
            0.13559847960870317,
            0.48478195423335413
         ],
         [
            1.7526341266352212,
            0.014308617744016802,
            1.0098562927726114
         ],
         [
            0.286810179775213,
            0.6818201273494287,
            -0.2595383069693519
         ],
         [
            1.2336413555487769,
            -0.0072511210234875705,
            0.009824486959105753
         ],
         [
            1.142091517450838,
            0.11846660105237716,
            0.0608355011990732
         ],
         [
            0.10933060197426164,
            0.2408660780680109,
            0.03632623993071095
         ],
         [
            -1.607456207249334,
            2.0,
            -0.6662775878149453
         ]
      ],
      "biases": [
         [
            0.010053096491487338,
            1.1216282883863644,
            0.610769893097696
         ]
      ]
   },
   {
      "genes": "011111100111001000011000110000101111001101000001001110110011011001011001110000011011001101010001001111010011010100010100000101001010001001010001101011100110101111111011000101010010011000001110010110100100000000110010011000010101001110110001000100100011010011101000101101011110001111101110100011011000011111111010111111101110011111001010010001111010010110010101001100001011110101100010101101100011100011000110001010000100001111110010011100111111111110000010000110101101101111111011111111000110100110000110101010000110001010101111100100011000101100011011111111000101110100000001100011011001001000010001000001011010010000000111001011111001111111000110011100010100100001011100101110101000101110000100110111010101110001111110011101011110011011011111001000000111100000010000100101011100110111110111101111101100011000111011000010100000101010100011000111010011111001111101101110111111000110110101001101001100101110000010100011101000010111110011110000100100011011010001110101001000010110101110001110101000000011001010001000001010010000010000010100010111000110001111011000000010010100010100110011011101110010001010100010000010010111010111110110011101001001000010011011111110100000101011011010111000001011100110001100011011010011100100111111011100000001110000111110100111000000100000011111000101100101000100100110000000000000111010110100110000100100011100011110101010010110001111001101111000001010011100100110110010010001100101100111010111110010110101000011011101101111010110101001100100001101100010110011011011110000110100011001010110011100011110110011101111010110011010001010010001001001100000110100101100101001111111111011011111010111010001100010011111001111100011101001010100000101000111110111001100111100111110010101011001101100011001101001111010101011100100111001000101011100000010110010110010101000001011111100000100011100100011000110000111011110111000110101000110101001110110010011010010110100111110101100000101101111001100111111111010110001010000010011010110010100110011001011100100011111111101001011011010100001101000001101011100100011000101100100101101101110111101100001110011000100100101011111111001010110110110110001110001111000011110010101010101100011001100111101110011010010001001101011111010010010000110100000001010011111010111011010101101011001110101100000001101111001011011111100011010001111101001011000100000111010110000010100011100100010100010110101010010010111001001001011110100000000111111001000001100100011110100011000011110110101100000111100100101110011101010011011100010001111100101101010111100000010101011101001001110000100111001111110001011001011110010011011001010011001110111010001111100000100001100110110000001011010011000011010001011001101011111001101110111100001010011011010010001110001100011010101111101110011111110101001110111111011100101010101011011100000110010010000011000111001100001101110111110000000011101000111001110100111001111001001100111010000110011011010000110110110000001100000111100001010110110001100000001010011100100011010000001110100111100100001110100001111001010110000010000100110001110100100001101110110001110000011000000000111010101011011011011100101110011000010110001010000110111010001010101010100001001110000111000101000011100111011101100000000011001000101000111111111111110110011001000101101100100010111000100000110101101010111011111111001011010001000001100011000000111101100011000111001011010010010000000011000100010011000001111110110001100001100010000011001101000001010110110001101110101111001010010111110111011110101011111101101110111101011010010110100001110011101001010100101111100111110000101011000001100111011001101000010101110011001111010010010111011010101010101110010111010011101011001001111100101000101010100111101111000011010010100011111011000011110000011011100010100110011000111011111001100001000011101110111011100110001011110101000111110111101110100100011010100000010111110001100100011001010011111010101010110011011111100110001111000111000101011101101110111100100111101110000110100000101110001110001011011001010111111111110110011000000110001001010000111001101111001101101101111111110101111001110110101100101111000110001010001110000111101110110010001001110010101000000100101000011110110100000001110111000100100110001001111100010000100011011011001011111000100011110111111111100000000010110011010010001110011100010001101011011110111000010111100101111110111100110011101111000110010111010101111100011011001101001000000110010100011100100000000010011001111001011011011000000110111111110011100001000110100100111010101111111010110111010011110101011011001011001011011111011010111100000001011101100000101101010111100111000101010011111011010001101111001000100101101100001100001101100111100001010110001010100000100000010001100001110000000110010101010000010111010110000001011110101001011010000111010111111000100110111000001011000111011000011011111110111101111111010100000111000101011000100100011001010001100110010100111001110011101001111110000110010111001100011010110101011011000011011001000000101101101110011000101011100100100100010000110100011100011001100010010100100100101011101100101111010110010100011010001100001010111100011111010101011001001110100111101100110111111111111101101100101001000111100111000000011001010010110011001000110100101100110010001100011000110101110111100001001000000101001101011101000111001010001011110011001110110110001110101110101101011100110111010110100011011000101001100100100110110001011110000101110011100010001001100110001001011101101101110111110101000100111000010110110110001101110010101011110100011111101110000111101000010111011001110101011100100100011101100011111101000010000111110001110101100010110001000100101011011101111000000010010001100110111001010111101000111100100101010001110101000110010000010011101111111110010110100111011110001000011011110001110110100100100101001011100110110110110101001111000000001101000100110111011000110011101001010111000101001110001010001110001110111001010001010101001111000100101001111010100111100100011110001000100101100100010110101110111111100001001111011001100111111001111110111011001110111101010011100111110000100011111000000011010011110010001111000011111001111001001101001111000001110110111010000000010010111101000001111100101101110111110100101000110111011101100011001111101100001100010111011010011110011011100100001010101010111110101000111110010100100011001010110110111110110010001011001101110010111011100010010000000100001010101001110100001110100001110000010011010000110100011010001110011100000101100110100000000001100000101010010001010011111010000110110001111001001100001111111110001010101010110000111101011100011101100000001100100100000010000111110110110010101101001110000110010011100111100111110011011011001011000110100000000010001101000011011011010001111011101011011001110110010101001111011100101011101011011101010100101000100001011111100011110011110111010001110001101111000101111110001000011011111111100011101101101001001000000110101011000111101001101011000000001100101010010001011101011101110000110101010110101111110010100110110000100001110011110010010110100011001101000111010010110001100011011101010100010110110101001111000110010001110010110100000010111001100000011000100000100110101101110111001011110011000111001101110011001110111010001011000011011100010010111011110010100110000111101111101000000101010000001000011110011111100011010000010100111100000100110111100011111011111010111101001011101010000000100100100111011001101101011111001101001100110010010000001010010010010101111111110111100111110101001000011111100111000111110101000100011001000110101100000000110001000000111001000010111011000001000010111101000101110000110101111110101000010001111010010010110100100011001000100001100010110100101011110110001011001101111011010110000110100100110111101000111000010000110001101001110001000001111010101110110101100001010000110101111100111110101011111110111011111100111010110111100011111110101011110011000011011100001011010111101000011111000001100010001000101010111100000011101100001100101010111101000001010001110010011101111110010010000101000011101110110011111010100010000100001011011101010101111101001000010011111100111100111001011001011110000011010010101001000001011001011001100001100010011001111111100011111101110000111001110101001010000001000101011111110101101101010101000000100110011100010111010001100111000011111101011101100100100101011110110100110001101011100101111101110101010010110010001000101101110110010100000100101000001000100000000101001111011001101001100101110001010101010011001001011100011001001100110111000000101001110000101101011001010111011111000111101010111010010010111111101011001110111100001110111101110111000110001011110110000000001010000110100000010011010111010111110011110011011101010110110100010000111101011111000001100000000001110011101111111110101010100000011011110000001010010000101010111111101111010110110111000001101000111100001110001000010101111000011101010000011101110000101111001111100100011010100000100101001100010110100000001000000010101000100111011010001011100110011101010101011100111000000100000011100111111001010010111010010001000001111011010000010010000010110010011000110101110101100101110010101111111000110000010011100000110110001100000000111110101111100110001000101100001110010011010110111101111010001001100110110110100000011010111010010010001111101000101011011101011111110110000110101000100000101000111110101001000101011001111111100000100110011110110110001010111110011110111001100010011100111111000101101101000010111110110111000101000101101101001111011100011100011011010111100011111110111011011000011011001110001100110110010011110111000000111111101000110001001001000111001001111011111110001111011100111000001110101001100000011011001011010111101001001011111010001001011000001000010001110101010101011101000111000001010010110110111100010111101000011100010011000110010011101000001110101110011100001011001111101000000011000100110000000101000000000111010110010011100001000101011010010011000111111011101100010000101001010100001000000111001011000101001001011000101001011010110111110011000101110000000100011010000010001100000010000100010111111101110100100011001111101001001101100100000111111110100110010010101100101001101011001100110010101110111100100000001000000110101111100011000111111001100010001000111101101100000000001010000010010101000110110011101010001101100001011001100010011000000000010010010111001100000001100111000110100001101111100011011011000011011100010010111010110011110111100111100101011000000011001010100001110100001110101001100011101010110001100011101110011111111111010111110010001100010110010110000001001000010110011100011100010110001111101011111101000010001010110010110100011111111011001101001001000010111011110000110111000101011000101100101111110110111000010110110011110110111100111010100111110011101100011001001101001110111101011111111101001001110001101101101001010010100101001011100010100111010001100001000000111100010111111000010101111010100000111111000100011000101110110001110110001011010100110101010010100111001000011110101110101100001101001101100000001001110111011101011010100011101111100010011111100100110111010111011111001110100000010100110101100110011110000101000110110110100111100110101010000101001100100100000010100110000110010000111001100100000011100010000100010100010111100111111000111110001101000011011100010001100001101110111010011011111000011100101000111001011100100110010111011101100010111000001011100011110101010110011101010000011010100110111000110111010101111111110111100100100011000010111000000001110001110110101000001111000011101100001010001101100111001101110101111111111001001110100111011111111001100000001001101000111010111111001100111011101000010111110100111101000110011000101100011001101110000011001001110100110100100000100000110110100101010010001110011111011010001011100001110110100101111010110001011110001110101001010001011100001101101011100100111101001110000110110111011110000001010100111011011010100011010101011111011000011110011000100001111001011100001111110100100000001010011111001111011100101100111001000001000011001101100010101010000000111001011001000111010011110110010011110000101010000100110010100010010111010110111000111110111011101110010110011001100100100110010101011011010101110011011000011000010010011000100011101110011010111000001111110100110010110101110110011100110111001101001001110101100110110000110011011010000101000100110101011011001001100000101010110110101001100001100010100001010000010101001101001000110010011010101100000111011101101001101100001101001011011110011001111110010000000100100110001000110101010010111001010010101110011100111001110011010001111010000001001101001000100110010100000111011000000011011011100110101000011000010101100000111110110001010110110000110010110000110010001110000011100100001011101001010011111101111011101100010110011000100010100110100011000010110110001100101100101101010101100000101110001100000011100111110101111000110111101101101100100000010011111000100011001101010011101110100010101100000011110100111001100101100000010010010111010000001010110100000100010001101101100100111111011011101101100010100010011101010111110110111100111011000101101111111110000011101111000100010011001111100100101000001110000011001101101101001101001001000000010110110011010111000111001001010000000101011001100100011001111101011001011110001101001000100100110010000101000111000110011011010110001000111011111011001110010101000100001010001101010000001100111001111001101001000001011010001101011010111111110011100100100011000111001110000010011110111011111010111010000100101101010000101101010011111101110100101011101101100110110000100111000001000000001000101111101110011001000100011000110010001110011110011000101000010011101010011100111100100100001100011100110100101110011001000001010101011111101100000110001100111111000111010011111110010101111111101110100010001110010001100011111001011001000100110010000001010001101101101011110010111011001011010110011110101001110111111101000001101000010100000100001100011000000111111110101101110010011011101000011110001101111110100111001001100010110111010001111110011100010010001011010100110000101000100101010100010101101111101101000011011000101010111001101001000011000111000001111111111101010010011110111000000010001110011000111111011001111101100100010000111000110010100110011100100101010110000011101001010101101101010101101010000011101001000111000001001101011000010100100111101111010000100101011001000001000101110011010001001010100101100010111000010110000000000000111010011011101100100101000101110101000111010001001110110010111101111111000110010010011111000010001001101111101100110011111010010011110000011100110011110011110101000111111110101001110111110111000011111010100011011000010110101001000001001001000100000001100001010111010010110101110011001111111000110110001101100010100110000101001010011010010001000011100101110001111000000100100000100101001110000100010110100000001101011000001101010110000111100110001111011110101100111001000100111111100100001100010001110010100111111100001111110011110010011011100110101000000011001001011110111100101100100100100110110000011101111110011110001001010000011001010001110110001111001010111110111100000111111001000001010000010101001001000001101100110000000100010000000111010100101101011001000010000111001011011100000011011101111101110101101111010001001000110100110110001010100111011100011000001100000010010010011001010100111010000100011010011011100010000010101100011000000101001101101010011101001100010001110101111110110001001011100011011001010000111011100100010000111000101001000010011011100011011010111110110111110010011110100111110111010010101101000100100000100000110110101110101111010101100010100100101010011001101110100100110111101010000110100111101101001010101111000001100101001001010100100100100111110100001100101010111001010111010100011001000011111011111011000101000011101110110011000001001110010111010111111110110011010011100100001000100000001001101111111000111111000010010110011011001001001101001011110010000010000010100101011111110111101111001100100110000000101000100111100011001110101110000110111000111110000110111101100000010010101011000111101000010011001110000110100111111110101111110110101010011111111001010110011010010011111100101101100110101111100010000001010110000011001111111001010110111011000100100011001110000001101101101110100001011001101111000101100100111011101010101101001000000110100101001010101100011111011110011101000111001010100000110000110101000110101010011011101011011111010010101001001000001011010001111001111111111011000100010010000111101000001010001011110100110010010111010011100000011101000101011101011000100001000001100000001000110000001111110010010011001110100100000101011011011111101101101000111010001000011001100111000011001110000001011011010000001010001111011001111010111001000111110000110101000000101000101001010010000111000010001001101101011010111110000000011110101110011101110000011010000100010100010110000001110010110000011011101100101100101000000111100110100100111110000100111110101011101111110010010101111010011010011000101000100110111010101000001100111000101101011010110010000101010111100000000011110100001110011001000010101011000111101011110010001000010100011010000100011000001010111011111001011001101110110011001100000011101100101111111001101001110111100011001000000110001110110001001011110001100101110001111101001001010111100111101100101111000100111011000101000011001001111101100000000101100111001001001001111010011000110001010100000100001010101110101111011011110000111010010100011010101001101100100101010000111010000001110110001111011011101101000"
   }
]