[
   {
      "weights": [
         [
            2.0,
            -2.0,
            -2.0,
            -0.6490166404762442,
            -2.0,
            0.8175128147712758,
            0.4743092656303849,
            -0.7259264015303516,
            0.2731252600763109,
            -0.754475986522741,
            -1.4148952635746008,
            -0.6619529063367308,
            0.6586962641136856
         ],
         [
            2.0,
            2.0,
            1.8992887566664767,
            0.1780510596451041,
            0.15966768924890007,
            -2.0,
            1.0421009145455484,
            0.488714466939106,
            -0.8737156576916327,
            -0.06429318278646787,
            -2.0,
            -0.012531964590261714,
            -2.0
         ],
         [
            2.0,
            0.027828452776403972,
            0.07873234315814208,
            2.0,
            1.3185396925110378,
            -2.0,
            -1.5431137566569038,
            -2.0,
            0.6510966614433652,
            -0.7567994714559618,
            -2.0,
            1.6753733960097088,
            0.33396441228707757
         ],
         [
            -1.9753465206747423,
            1.718288370273009,
            2.0,
            2.0,
            -0.47667693006879214,
            1.3141278469332478,
            2.0,
            0.677677619003586,
            2.0,
            -2.0,
            -0.12196034993256857,
            2.0,
            -2.0
         ],
         [
            0.5508330830359056,
            -2.0,
            0.41125215297760204,
            -0.6786007016318528,
            2.0,
            -2.0,
            -0.6277653660274221,
            -0.6458999387261984,
            2.0,
            -2.0,
            -2.0,
            -0.9577034092551724,
            -2.0
         ],
         [
            2.0,
            2.0,
            1.1251736824799063,
            2.0,
            -0.06137322577764538,
            -2.0,
            0.6121466340913159,
            0.7535337889341241,
            2.0,
            -1.4522245518731978,
            2.0,
            -2.0,
            1.5709707969772506
         ],
         [
            -0.30074523784199464,
            -2.0,
            1.7292592750167795,
            -0.8514939620906098,
            -2.0,
            -2.0,
            -2.0,
            0.1119240323403376,
            -2.0,
            0.39108068092267073,
            -1.5508257750426626,
            -2.0,
            2.0
         ],
         [
            -0.9051107228644202,
            -2.0,
            -2.0,
            -2.0,
            1.7169491148881137,
            2.0,
            1.0732694017368725,
            2.0,
            -2.0,
            0.11284751846201745,
            -1.6295326710437261,
            2.0,
            -0.9298689375919811
         ],
         [
            0.4507059479839863,
            -2.0,
            0.747612501090499,
            1.0016813529297055,
            1.1540227261299785,
            -2.0,
            -2.0,
            -0.8463372404812624,
            -0.460833648161615,
            -0.21587367720135694,
            -2.0,
            -2.0,
            1.7149377991269694
         ],
         [
            -2.0,
            -1.0243782909790813,
            -0.6914951022846713,
            0.06180744968872469,
            2.0,
            -2.0,
            -1.129282207597045,
            -1.805374922587012,
            -2.0,
            -0.917696570432132,
            0.5212162827281624,
            -1.931032140826672,
            2.0
         ],
         [
            2.0,
            2.0,
            0.37142328756030213,
            -2.0,
            -1.2494164781722457,
            1.7270403344234517,
            -2.0,
            1.1052160148077745,
            -2.0,
            0.41487253508139793,
            -2.0,
            -2.0,
            1.2203619981003178
         ],
         [
            -2.0,
            2.0,
            2.0,
            2.0,
            -0.2386044838423755,
            -1.2481799686753887,
            -2.0,
            -0.9936659589935662,
            0.8395398682393044,
            -2.0,
            2.0,
            0.7855161461417509,
            -1.831766662353042
         ],
         [
            2.0,
            0.8392381051369191,
            -0.02387662208747936,
            0.25138142266455016,
            2.0,
            0.5221415009132904,
            2.0,
            -1.8362348931605466,
            -0.746689608238381,
            -2.0,
            2.0,
            -2.0,
            0.3101395292243205
         ],
         [
            1.0827973991679438,
            2.0,
            2.0,
            -0.12816971112291625,
            2.0,
            0.8595398170736064,
            2.0,
            -1.2659689200302764,
            1.9837178636140487,
            -1.4458224938423325,
            -2.0,
            -2.0,
            -0.15860431808230854
         ],
         [
            1.415864777164615,
            2.0,
            -2.0,
            -2.0,
            2.0,
            0.9951533267580099,
            2.0,
            0.7783814139821386,
            2.0,
            -2.0,
            2.0,
            -0.7538504158519812,
            -2.0
         ]
      ],
      "biases": [
         [
            1.034291976443345,
            8.529380195277406,
            -1.4651680504662732,
            8.201327110843632,
            -1.5821282311120952,
            5.029287430153501,
            -0.7366813788489828,
            2.105946807046585,
            1.1808849013323217,
            -0.34520352851220726,
            -2.9513273158252575,
            -3.40456180020903,
            -0.25401769079200154
         ]
      ]
   },
   {
      "weights": [
         [
            0.9422066842686477,
            2.0,
            -2.0,
            -1.3394516709429756,
            2.0,
            2.0,
            -0.6705571417252446,
            -0.029151947606665757,
            -0.3758665496206501,
            2.0,
            -2.0,
            2.0,
            -0.039669813248030546
         ],
         [
            -2.0,
            -1.2405631051724457,
            -0.06296755657869448,
            2.0,
            1.936239946164907,
            2.0,
            -2.0,
            -2.0,
            -0.8527104239939578,
            -2.0,
            -2.0,
            0.017829129548860085,
            1.2182856723000874
         ],
         [
            0.11206983620692233,
            1.2185357941658814,
            2.0,
            1.2627380378726767,
            -2.0,
            0.04593837599236342,
            2.0,
            -2.0,
            -2.0,
            0.1316254427134871,
            2.0,
            0.5948402646886087,
            -2.0
         ],
         [
            -2.0,
            2.0,
            -2.0,
            -1.8593233380985235,
            -1.422230054349213,
            -2.0,
            -0.07243559962134957,
            2.0,
            -0.7484133951751899,
            -0.45637625403829046,
            2.0,
            -2.0,
            1.3389057584818331
         ],
         [
            -2.0,
            -0.9243229763075768,
            -2.0,
            -2.0,
            -2.0,
            0.7747492299623601,
            -2.0,
            -0.38471070604860996,
            0.004113462794480706,
            2.0,
            2.0,
            2.0,
            -0.3006755744403315
         ],
         [
            -0.35353899408406225,
            -0.4097503304817932,
            1.2059700502265787,
            -0.2605968865359494,
            -1.5566442079191403,
            -2.0,
            -1.6212893341534707,
            2.0,
            -1.3492182471552874,
            2.0,
            -2.0,
            2.0,
            2.0
         ],
         [
            0.7865391940737669,
            1.8700924373201921,
            -2.0,
            2.0,
            1.1830985057795864,
            -2.0,
            0.4459557035862328,
            0.8885618037144116,
            2.0,
            1.0023311991968076,
            -2.0,
            2.0,
            -0.458762239496307
         ],
         [
            1.876054317166022,
            1.4235992497855157,
            -0.1545983522615416,
            -1.598667619830989,
            1.367096044184149,
            2.0,
            -2.0,
            -0.07664516315384984,
            -1.7351449707825035,
            -0.9267994752742069,
            2.0,
            0.3874990237657608,
            -2.0
         ],
         [
            2.0,
            -1.1161058332036087,
            0.41241819181923206,
            -0.6675206586608184,
            2.0,
            1.8812088261188775,
            2.0,
            -0.42962778855484096,
            2.0,
            2.0,
            1.9297316779993765,
            2.0,
            -2.0
         ],
         [
            0.1802830307174938,
            2.0,
            -2.0,
            0.5795427915688863,
            0.24810986561033715,
            -2.0,
            2.0,
            0.04889094198594826,
            -1.723799446442183,
            -1.4609012630984497,
            2.0,
            -2.0,
            -2.0
         ],
         [
            2.0,
            -2.0,
            2.0,
            -2.0,
            0.6651820900639676,
            -0.534587892000903,
            2.0,
            -0.3330568611371429,
            1.8912909611857855,
            2.0,
            -0.8563895512620955,
            -2.0,
            -2.0
         ],
         [
            -2.0,
            1.9993435055184876,
            -0.3220785939616944,
            1.0950047168984127,
            -0.7066145664046675,
            -0.3507324131746132,
            2.0,
            -2.0,
            0.9738261393303992,
            2.0,
            1.2286944749660071,
            2.0,
            -0.043306533940174335
         ],
         [
            0.5870265027608771,
            -2.0,
            -0.037422726393315384,
            -2.0,
            -2.0,
            -2.0,
            -2.0,
            2.0,
            -2.0,
            0.0024957488415535568,
            -2.0,
            -2.0,
            -2.0
         ]
      ],
      "biases": [
         [
            -3.5616060513045062,
            -0.8148229715025715,
            -9.44741554068815,
            2.5266901579274026,
            -2.2519910279977156,
            -1.148991106373035,
            -0.8727256239155973,
            -0.4622566189748239,
            -0.6759822730347744,
            -2.1374600871983285,
            -0.6862035104255972,
            -1.1438583289710913,
            -1.12561056142114
         ]
      ]
   },
   {
      "weights": [
         [
            2.0,
            -2.0,
            2.0
         ],
         [
            1.4268751857719297,
            2.0,
            0.3501548067532734
         ],
         [
            0.6995236833870337,
            1.4676495470083153,
            -2.0
         ],
         [
            2.0,
            -0.15006073225771704,
            2.0
         ],
         [
            2.0,
            -2.0,
            1.7042106032505109
         ],
         [
            2.0,
            2.0,
            -0.05423362045233941
         ],
         [
            1.4966094002606904,
            2.0,
            1.6819002598285724
         ],
         [
            -1.6565814084007118,
            -0.23643868908362817,
            -0.048518908382690476
         ],
         [
            -2.0,
            2.0,
            -1.409338015095325
         ],
         [
            -2.0,
            -0.21043938787618674,
            -1.5136585753552199
         ],
         [
            2.0,
            -0.6926452285517819,
            1.3819157440572605
         ],
         [
            0.32514245746674714,
            2.0,
            0.7231949588544146
         ],
         [
            0.09329323629421832,
            2.0,
            2.0
         ]
      ],
      "biases": [
         [
            0.040672563597333844,
            -0.6782123497927255,
            0.19584069846779664
         ]
      ]
   },
   {
      "genes": "011000110110011010100110111111011110010101001010110010000001010101100010101101001001011010001100100010111000101000110110000010111000001010000000100101110110000101101110000000011100000110010100000100010010101010011110111011111110101100111000011011100000111101100011000000101101010000111010011110011100010011110001100001101000100000111010110111010100000101111110111000001011101000000010010111100100000110011010101101010100001010010100111101100101010111011110011011011110100010100101110100001011100000000100011100001001101101111011010111010100111110100001011111000001100101110111001001011111111000000000011110100011111010111001111100010110010110001111010110111110101010010001001011001011000111011110000100000111111010011011001111100001110101100000010000101110000100111010011110110110001010100111100101111010110101010011010101111111000001111100001000101010111011111101000110011001101101100100100010011010111001011101010110010110000010111100111001100010111010110000000111111000101101111011010110011100100001101100011110001111000111010100011110010011101111100111000111011110100011010100001101100001011100000100110000010010010101010010001000001110010111011001000111110001101001111111000111100101010111001010001110000110101010000111001111101010111011100111011101101011101001010001010101110001110111010001111110001011100111000111000001001001110101101101010000010010001110001010001001101001111000011011110101110100001100101000111000001010111010110101111100111110011100101000111001110100111110000100111010010010101011000010110001001111011111010011010010001111100101111110010000100111111001111100100111111110110000010011111010001110010010000100100110000000101001000001100010111111000010000010011110011100111111100000000100101010000111111010111011110100001110110110011001100101100111010001000010011101011010011110100110110100001011111111100101001110100111100011101000000110111111110100100010000000110111010001001110111001010100101110001100010100101001010010111110101100101001011001011001001011011110100100100010100001100010111000101011101101010100111111001000010010001110001111100100011111010011011110100110011110010101110100011011100011011001100001001111100000010101011000110011000101000011110011011010110011110111001100010101111000100110011000110000100100011000101100110110100100111000100000110011110111101000010000000011110001001101010000000101100010100100100001110111011111110100110101101001100001111101001110110011100100001101011000011100010111100010111110101101001111111100100101010111010110010111011001110010101010100000011011010100001000100101000000000000101111111001100010010100101010100101010010111000111011110100010000011100100111111011110001011001101100111110100010010110110110001111010000111111011110101010010100010111110001100010011101111110010101100000100001011110000010010000000011011101011010010110000110100110001011011000100001101010010100101011000010011010001110110010100100100110001111000010101111101011011100110110101010110111100000011010010101010101101001000001110000110111000100100111110100001000010011101010000100010111110110011110101011011100110110011111101010000011000101101101100001110001110010101100101011110111000101110101010010100111011010100100110001010101111000111010110100111010011111111110000100110011100101101011011111110010000001100001001110100101111101000100010100111110000101101101101000011101000010110000111110110010111110011110111011001101101110010000110101110110110100001001100110001010001100011011000001110001100001111011100100010010000111110001110001001000100010011101000110001110011011101000011100001111011100100010110001111101110000110110111110000100011111010111110011100100010010001011110110100001110100101111110010101011111011101010001011100010100000110100011110010110010100100010010010101111010111111101110111111110101000010001001011010110111001100100011100001011001100110010000000010111000010000010110000001100010011001110101110110100111001010101101101010011111011111100011001010000010000001111100111001101001101001011110100000011001100111110101110110100001010001110101110100110100110010101000000000000011010011101010010100000010100011100101001010100100011011110100101001001010000101111011100001110110000100101010111000010010110000110000000001010101011100000001101000111101101100101101011010010010111110000101100110111001000101111110110011001110101100001011100000111010010011111000101111111101000101100100011001111110001110011111100101011010100111110001010100100000000011100110000110100101101011100000010111011010000011010111100111100111010100010010100100010101100101010110000101011000111000001001111000000011001010010110111111011001111101101011010000011010110111100001000000100100100000111111010010100100101100010001010010101001110011001000110010001101001101001011010011101011110000010101111000101110001001111101011000111000000100110000001100010010111110100011000011011101100111110101011100011001001010000110111111000011110010000001101110001111000010100011001100100011011001100010110010110011000011000101011111110110010011010010100101000011111000000000010001110110100101001101010001101100011001011000010000101111001100100000110011100001101010010101101001111011111101111000001110110000100101001100101000100101000101101101100010101101111100100011101010011100101100101011001010001101000111101100011100110010011111010001001010000100001101100101000110001111101010110111000101000110101111011100101011100001100000101111101110101111111100111111111110100000000100111001100011011000111000011000000100111000011111110110110110001000011101000010011000000001100101011111111011101011010100101110111101110111101111010001101011001100110101101010111011011000001010101011001010010000110011001110111011001101110010101000011111001000101010100111101010111001000111100000110010101110010110101110011001010100111011000110100010100000100001000010111110110011100110001001011000000000101010111000010111101010001101011111000000000100001101000000011011011001001000110010011111010101001110100010000101101110001000110011101001000110001110111110010101111000100001110110101101100100011001001100111111101000011000001000110011011010111111100001100010000010001001100101000000110001000011100110100000101001011001100000010000011000010111011011010010110010010010001111010011010011010111110001010101000111100010101101011001111001001111000000001111000100000011001000101111111000110001010011010010100000000011010011110101110100000001111001110101101011001000000000001001011001100010111110110000011011100110110111010010110011101000111100100101100100100110001010111100000100101100110001110001110010010001011111101100000001000111100111011010010011000000101000011111000100001010010011000010100111010001100100100101000010110111010000100110001001101110111011100000010011111001100001111110011010011010101100010010111010001001011110000111000111010111110011000011100010010101010110111100100110000000000011010000101110001100101110000010000010010001111100101111101100000001101100000110011010011010110110010010010111101101011111000000011111011101011010100101000001110110010111111111111100101001011100101001001000011100100010111000001111000110100110111001010110110111010101011110010101111101010001001110000000110110010011110111000110011010100010110011100111101101111111000100010011100110100110111011000000010000010111011010101010011110010001111110100010101101001000101100110100000111000010010000000010100001010110100010110101001010110110100110010001111010001110100011111101100010001100110011011010110011011010100011111000110101011010101011000010110111111110111010111001110000111111000110010000001110110111101001101010011111011100010101101001001001110001111000111111010100110000111000111110101011101110100011101111111000100101100000001011010101010111111001101011010101100110010001011011110000010010100010011100100011100001101011011110111101000101100111101111111111011010010000000100101110001100010100111000101010100101010010001110111001110011001110000101111000111100101011111011000000101111110010001101100101110010000110010100100010110111010011100001011101001010111100010011001111000100011101110010000111101011110110101110000001000111000101011110010110010111010001000001111110011111110100110001010000111101110000111100000011111101110110000011011101000100100011101000010000010011100001111111101010010110101010010001010100100010101010100011011000000000000101110010110111110011001001100101100101111111011011110111111111100101110110110111110010001111011001010001001000110111111001111100001101110100001101001101110010110111001000011000000001100000001011010110011101100010111011011100110101110010101111011010100101010111101111110110001010010110001011000001101011001011111000000111010100101111110000001011011000110100111110101000001111110111101001110010011101000111001011101100001010000101111110001011100011111100100010101100111110110010100101010011111110110100000000000011110110111010111011011111011111111011100110101100001011111110101110111000000101110111001110111101100100110100000010100111010010001100110110100000000010110000101100111010010110101000100100101001111001100000100101100000010111101001111000000100101111010000001100010000011101111011000011001011111000111101011111000011001111001011101100000100111000001000001111101111111000101101111101000010010001001001001001111001100011101001011101100101000010011010100010111011010000100101000110000110010101101110111100110001010101010011011110111110111001011100010011100100001110100101110011001110010100110101100010111000011100111111111000110100011110001111001011110011101101000110100110111001011000011100111110011111010110011001110000001000101101100110011101100101111010010010011110100101100111101101100100000001111111111101101100111000001111110110000001101000010100100010101101101111011101001010011001110000001001101001000101000110100100000110000010110010100111000001011101010101100101001010001000110110100000111001001011101110110100001001100000000001100100110011110010011000001101110000101100011111101010100101110101111110001100011000111010110100000001100100110010110101111110010100011101001110001100001100111101111000010110011110011110101101111111011000010010010011111010101010000111111110011010100011000011111001100000010001111000001111111001000010000101000001010101101001100110100110000001101000001011011100011101011010001111100010001110111100011010001110001000001011000011110001110000111110000010111011111010000101110110001111000111000000110011001010001011101011100111111101110011100001011001011111011010110011101100010001000101011000001001001101110000110000001111101000101011100000101011111011010101110011000110101001110111000100010010011100000010101100011011101110010111110010010100010010101111011110110111001001100000101000000000011101110001111000100010101111001010110011101010101111100000001101100010111110110101011000100000100100001101001011000000010100111100110001001101010111011111100010111000000100111110001111101011011000111000011011010100001001110101011100111100000100100101110000001000101000100000011010100100100111111010011110011010010011011110010010110010010110100101100111011000000111010111010011110101001001111011110011100110101110101110011011010000000011000010011001010001001001011000010001111010111110011101110100000110010010010011110100110001111010001100111000010111011001011010100110110110101011000101111001111111111110001001000010111011001000010101101111111110011010110110010011101011111011111101101001000011100101010010101000010000011110010101101110000100110010010011110110010110111110111100010011000000111000000100110001000110011110011000110010000111000000001110100111000101001010011100010100001000011011101001010010100001101110010101001001011100001110001000110011111101011000111000000110001101100101101010010011011111000011100101011000000100001010101101001110101011011010001111000011011111010101010000111101111000111010100011111101010111110011110101010010001101101100000101100111011111101010011010110111101110000110010111001100000011110000101010100010111010110110101100010000010111001111001101000110011001111111011111101101001001000010101111011110001011101001010011011010110101110010110000101011100011100000110001111100001000100100001101101111101101100001101101011011110000000000100000011110010100001100010011000100110111110011111100110011101010011010010111001001010101011101110000001101001010111001100100011010000111101000011100011001011011010101111101110110111110010100100101000110101100110101001100101101001011101010001001100100111000010010110101111001101110000000101111110011001111011111011111111011010010000011000110110011001100110110010010011011110010111110110111110110111110010001010010010011010001001101110111000001001010100110111000111000001110010001111010110001000100000110010100111100101101001001100010001011001101001110111001011111001100111001011000010010010001001010010010110110000000000001010101110111011100011011101011100111100000100100111010000110110010000111010000000111100110010100110001101100100100110000011011001000111110110100101111111001001101111011101101000011010011010101101011011011100110011101111111111000001001010110100111110010100000110011010110011010111101000010001111011000000111011011100000100110011000101001110110010100111000101000011101110000010010101111001010001001010101111000011011001111010110101101101100010000111101001101100111111110110100001110001001001111100111110101110111110101010000110000000001101100110110111001101110101111110011110010001010111101110001101100000001101111011110001000001000011101100110011111101000001100111101110111111010001001110101011001001111011101100100111110001010010010001010101010110101110111001100101110100101011001101011011111011111100001101000001110100110011110111111110110111011001101111000111010011001111111100010101010011101101100110110100110100000010101011001010100001000000001001011110100000101011100110111011000111101011100100001101100000011010100111001011110111101100010001011110010100010100110100110100101110010111011100001101011011001000011100010000010110010010000101100011100111011110101111011000010110010001000100000011000101100100111100011000001010111101100111100110000110101011100011011010111110101111101000111000010101000111101011111010100101111010011101001010110111111000000010101100000110110100100110101001100010111000010110111101010011111111000101111101011111000010101111000001110111101101100110010110111001101010011101110110111110111001000101011110011010000000011010101010101011110111011011001000010101110101101110110000000010101101100100010001011110101101000010011000010100010010101000101010111011001100101001010111000000100011010010001100111100111110001110110101101101101011110010100000011100000110111111100101111110010001010011011111110010110101100111100011010010100110011101100110100000000111001001111001111110101000111010000000000111111001010111101111110010000011011001011100011100000000010110011001100010001000000011011101000011011110100011111101110000111011010111101100111100010010011101100011000100010001010100101000100010111110101101100000111100001110101101111111111101100011011111010101110011110000110001001010000011110111010001011001101111101101100111010001001110111001101111101010100111011101111101001001111100010111011000001110001011110010100110011011110111101100001010110000100100000001100010010000000000100011010000010010000111110111000111101110101111100111001001110110110011000000111000111100101000100111000001000100011000100101100111110101100101010001101101011001011001110100000010100011010001011110001110111100011000110100010000010111101100101010111001100111110111110101101010100010100101011000111010010101000100111010101100100000110000010100000110010101001111100001101110111111100010000100010101001000101001101000101000100010011100110111011011101110111110010000000101000011111100110101000010011110001001010111001011100001011100011011111001001001111000001101001011110001110001110110011010011010001110011001110000100001000110011111101111101001011010000111010101100100101010011001001110111001101001111100101101101011101110011010100010100011011001001001010110001101110110111110000001001101100000000000001101011111111011001010010111000010010010011111001000010011001110000111000011001001111011010010100011001111111010101010001001010110000101101100000101110111000011000000101011101011100100001110101001100110000111000010010011000000101111111100001111100010110101101101100100100100111000000111010100111100001100111111011000111000000110001010001101101011000111111010110000010100110001010110001011001001111100000100110011000000111110011000001001000010101011111000000001110101011110100001001100110101110001011110010111000011101111011011110100101110010011111111010001101101101000100100010011001110110001111100000101100111111110011110000111100111101110111000101111011101101110000010100101001000011101101111010111001111100100101110010100111001111110101011010100111101101100110010011000110111101010100111100000100000101110100111111111000101100100001011001001000001100110011101111101010011001100000111101100110000001101110001110010011001001110001010110111101111101110011010001110001001100010011001111000101101011101000100111011000011010101110110011100110011110111100111110011011011001110011101110111101010001100000110001111100110110111100001001001010010010110011110011000100110011010100000010100011010100001101101110110100100010100110000101100010010011011100010101100110011001110010101011111101101011000110101000111101100000101100011010101010001011111010100001101000110110100101011101010010010000011001000011010011010101110001101111111010111100110011110000010101010111000010110001011111110101100111000100101111000110100110111101010011110"
   }
]