[
   {
      "weights": [
         [
            0.06603873431736734,
            -0.03664830210887616,
            0.014939433780325986,
            0.18359434808299935,
            0.004985664075087057,
            -0.06847700947730433,
            0.048386874604073954,
            0.10970807185759512,
            0.012277046406342432,
            -0.04472142056821373,
            0.14466856076673537,
            -0.20370261224882805,
            0.10727957419643387
         ],
         [
            0.08866719001485504,
            -0.08402325731728044,
            0.08155919493080802,
            0.04888190105001501,
            0.05922916812859421,
            -0.03983809973599775,
            0.12812064145897578,
            0.08310698077372491,
            0.19728845815254742,
            -0.05201617591977602,
            -0.11354459447366688,
            -0.011532038592512167,
            -0.0372239765212091
         ],
         [
            -0.10803443967672076,
            -0.09918446180217726,
            -0.027333419347360603,
            0.10172708276346827,
            -0.04237480057741007,
            -0.02590406784006315,
            -0.032142366679503584,
            -0.04174879173814025,
            0.055621914153103184,
            0.07014381108630786,
            0.08429285540393784,
            0.03955841186519832,
            -0.09783914181916788
         ],
         [
            -0.036709437373743325,
            0.04579821436711968,
            0.1397817028156475,
            0.06251047473845468,
            -0.09278270733129398,
            0.03165716830728238,
            -0.033868228675656586,
            0.009712947112336768,
            -0.09852770475794485,
            0.10627694514238822,
            -0.002931110342811811,
            -0.1159464365817594,
            0.008641285770471015
         ],
         [
            0.0307072913719285,
            -0.1272422546829916,
            0.0016006273733056098,
            0.03554677550037677,
            -0.03407916112146592,
            0.06853498892113148,
            0.08199306022627793,
            0.004459185156122923,
            0.07925273328427361,
            -0.031399541141984094,
            -0.18541912014845285,
            -0.04320236041899097,
            -0.0028272513143878407
         ],
         [
            -0.10019067658610828,
            -0.12221849001169773,
            0.08965744944402582,
            -0.08747229090852307,
            -0.061961055173338865,
            -0.14815759603347872,
            0.0005090894751588596,
            0.02700647513640908,
            0.03830102575978485,
            -0.046218369281978415,
            -0.03976475544739396,
            0.057013337580357155,
            0.11140679637039394
         ],
         [
            -0.08487186680579858,
            -0.038600744360765334,
            0.01977237626669809,
            -0.16805423277500356,
            -0.021502768527637005,
            0.02044063530764467,
            -0.026947167690108548,
            -0.06005510815833566,
            -0.04805236624010323,
            0.012525475108526998,
            0.029544133535771486,
            0.005962214712039062,
            -0.0998373829231643
         ],
         [
            -0.042791880831639824,
            0.08319224952943055,
            -0.09886923147407285,
            -0.0023618089915801634,
            -0.1128739354231699,
            -0.006355333563216627,
            0.09311597999092813,
            -0.10106572181643206,
            -0.10812183066751532,
            -0.01431714465226915,
            -0.09446262611457427,
            -0.032463540401830596,
            -0.07169580203674324
         ],
         [
            -0.053649978857012844,
            0.08070779849502305,
            -0.1465985540887774,
            -0.008924925771175093,
            0.015274978012974717,
            -0.05875731154238608,
            0.11648835649689702,
            0.04040238504646888,
            -0.10850864671959581,
            -0.1302962942265412,
            -0.030012288628543094,
            -0.08674008962196265,
            -0.08652830286357763
         ],
         [
            0.1173552845279936,
            0.08194537923745746,
            0.035358936763719845,
            0.02022390851863665,
            0.026208103072596134,
            0.08813857070687307,
            -0.0717145802488018,
            -0.00900466756382903,
            -0.00781840350400163,
            -0.09710233634394959,
            0.10588073939912016,
            0.024329168588574757,
            -0.10296389641882478
         ],
         [
            0.0004689346004645115,
            -0.13440587494722656,
            0.1523809047614001,
            -0.15387089518743938,
            -0.02192679966648875,
            -0.07152911263983121,
            -0.07022919830472639,
            -0.13339059128934738,
            0.02315584464778559,
            -0.007989561510644814,
            -0.08365091043115414,
            -0.19514152579127383,
            -0.005954146333906718
         ],
         [
            -0.1369286103218284,
            0.08859513427911228,
            0.033782569757330155,
            0.028897367643772376,
            -0.036635316926411164,
            -0.04147110969934033,
            0.06768804211552325,
            0.09367876036053233,
            -0.08026517866101754,
            0.05205586486222315,
            0.028439542383490453,
            0.015918777232241388,
            0.026379298369459053
         ],
         [
            -0.00880961282105432,
            -0.16285108792058547,
            0.005280883383784027,
            0.09482765939144754,
            -0.030992403828881687,
            -0.13091810042976962,
            0.12180995585557222,
            -0.05245555947244884,
            0.09014576088195367,
            0.06489161537651225,
            -0.06943804741616415,
            0.13204442776209863,
            0.13816168130625492
         ],
         [
            -0.01715194144873902,
            -0.057926345579947344,
            -0.02120912480433244,
            0.08864959312508464,
            -0.11347859381011804,
            -0.0666466850805532,
            -0.108682499066246,
            -0.08835361079744863,
            -0.09345810689284309,
            0.07033110139972831,
            0.1308698846112479,
            0.00011621250577315142,
            -0.02831755920648276
         ],
         [
            -0.12494963332493342,
            -0.09672769491241857,
            0.04373565448928399,
            -0.030564028564878887,
            0.027738938616973616,
            0.04408495384706101,
            -0.011970714763784782,
            0.054854983255062814,
            0.12044255707101145,
            0.052207778785848966,
            0.024657086400859316,
            -0.014274935110616234,
            0.09287301231777322
         ]
      ],
      "biases": [
         [
            -0.08011061266653974,
            0.09424777960769379,
            -0.015707963267948963,
            0.08953539062730911,
            0.042411500823462206,
            0.028274333882308135,
            0.039269908169872414,
            0.02984513020910303,
            -0.03612831551628262,
            -0.058119464091411166,
            -0.0439822971502571,
            0.042411500823462206,
            -0.042411500823462206
         ]
      ]
   },
   {
      "weights": [
         [
            -0.09098569009823679,
            0.02487504494789064,
            -0.015612492452409383,
            0.1479030370456316,
            0.02452435933341727,
            0.12730898063101226,
            -0.08744109596850239,
            0.05363202840177697,
            0.029669842506533706,
            -0.07825728229287772,
            0.005455415207845395,
            -0.13351355468749587,
            -0.08536096742587196
         ],
         [
            -0.10697333254890662,
            0.043414553612221705,
            -8.938650237968679e-05,
            0.017091867274198792,
            0.06109975662586882,
            0.061679608121612384,
            0.0355049777183736,
            -0.03634010122559037,
            -0.137697983860707,
            -0.1277759365588897,
            -0.07354097556979097,
            -0.06551931791635421,
            -0.10209990230146251
         ],
         [
            0.07123877683522739,
            0.14822242253020676,
            0.1326412658897686,
            0.002522559228088148,
            -0.04454936902569122,
            0.006483182767126834,
            -0.10211281313520391,
            0.1110417711044676,
            -0.15842345573898262,
            0.0028070086113558303,
            0.03072825830042776,
            -0.1165032667970882,
            0.10005854481857887
         ],
         [
            0.12585023730029693,
            0.05319626144480867,
            0.04382758590695544,
            0.06854220881822107,
            -0.056823071022133465,
            -0.12499068133874344,
            -0.03280584521550039,
            0.0029506181827814813,
            0.071516072411957,
            0.039757007192165975,
            -0.06250094605488153,
            -0.0198843979478665,
            0.14923543035585793
         ],
         [
            0.008901738719620635,
            -0.07656364044837836,
            -0.06156150135100203,
            0.07271069877588159,
            -0.05111363246004923,
            -0.04080540897726144,
            -0.027989203186139858,
            -0.1149924710857129,
            -0.02296044307115935,
            0.04814110361326817,
            -0.10328579935865637,
            0.06470206025082928,
            0.0820413921381052
         ],
         [
            -0.1598137698210008,
            0.039919807481058674,
            -0.06653991581405075,
            -0.05354672099152426,
            -0.022191903311316444,
            0.06059628252783231,
            -0.10093490050252288,
            0.11865269493268736,
            -0.04854714336044456,
            0.05438745195530301,
            -0.09925608495991295,
            0.050566949128906094,
            0.050395830663001344
         ],
         [
            -0.05028873906382379,
            -0.08671598811015693,
            0.004186974402931833,
            -0.09635208971313164,
            0.03814249245146098,
            -0.031007902647064833,
            0.07961733047730844,
            -0.09431825854356528,
            -0.16808208239599357,
            -0.06109777261467596,
            0.0962577464302955,
            0.012039714602894264,
            0.037365862198602884
         ],
         [
            -0.0977766392337647,
            0.03546985789081278,
            0.0008533725567237173,
            0.04869925478883594,
            0.08190856029471794,
            0.09601896076429571,
            0.05929456971504753,
            0.11029687365934758,
            0.036267409714774324,
            0.026691469323343913,
            -0.13601155356535577,
            -0.1497540593902574,
            0.040717899244873026
         ],
         [
            0.06486608724314293,
            -0.05464268831698842,
            -0.07167135574497267,
            -0.010848228153716492,
            0.11282915609413036,
            0.047475275086474436,
            -0.0034739853273033586,
            -0.053745599781325745,
            -0.1862832602870544,
            0.04754278882641305,
            0.0633820900071013,
            0.05800748803574985,
            -0.04818388713585572
         ],
         [
            -0.028798663947290554,
            0.029857366153013303,
            -0.016954723603098,
            -0.06876444892760315,
            -0.14182192846886413,
            -0.06612248061287307,
            -0.0914079657125563,
            0.00716057408897597,
            0.054378943417091166,
            0.037345199996240364,
            0.1543020247175184,
            -0.06946985389997186,
            0.03259298407372592
         ],
         [
            0.0757850553674948,
            0.006153109025217273,
            -0.08014839654429412,
            -0.04035897057599672,
            -0.1018052146882053,
            -0.005308788821152318,
            -0.01641242527309152,
            0.1712811924368245,
            -0.024597042866358235,
            0.07782137556276317,
            -0.16430942908876484,
            -0.07923640803067467,
            0.03102841099147496
         ],
         [
            -0.10226886102504262,
            -0.0894909412523969,
            0.06730258967813067,
            -0.10056877257896532,
            0.1577312634541719,
            0.061174666806461275,
            0.13171942981403292,
            -0.10084324868422405,
            0.11246435946251465,
            -0.03319470781776693,
            0.18823460534683356,
            0.0618776631785265,
            0.05971491842197221
         ],
         [
            -0.03307688988835779,
            0.02537556086506719,
            -0.10239803955087234,
            -0.16732946312366495,
            -0.1057578135123665,
            0.016595256704437,
            -0.051259504182041594,
            -0.05029356583929948,
            0.0005834004820542806,
            -0.04338724391452835,
            0.08136684911250827,
            0.08979270193740915,
            -0.1117074530777922
         ]
      ],
      "biases": [
         [
            0.015707963267948963,
            -0.08482300164692441,
            0.058119464091411166,
            -0.08953539062730911,
            -0.0958185759344887,
            -0.08168140899333462,
            -0.02984513020910303,
            0.08168140899333462,
            -0.03612831551628262,
            0.01884955592153876,
            0.08325220532012953,
            0.09738937226128358,
            -0.08011061266653974
         ]
      ]
   },
   {
      "weights": [
         [
            0.09140780657016462,
            0.024299160634401087,
            -0.1418046185493307
         ],
         [
            0.03832154800467249,
            0.07759262684129775,
            -0.07768932908217262
         ],
         [
            0.0028415770984001132,
            -0.02738931084728992,
            0.009398402705835618
         ],
         [
            0.00234343074773455,
            0.029639905460897578,
            -0.001575036455266108
         ],
         [
            -0.1770905713741563,
            -0.014880815240252556,
            0.06229653629568456
         ],
         [
            -0.0884918225577937,
            -0.0970727923437091,
            -0.05546781743783381
         ],
         [
            0.15116783028988034,
            -0.007432488320605531,
            0.09250763240878727
         ],
         [
            0.11180233385213187,
            -0.01578430413052139,
            -0.026019751105964585
         ],
         [
            0.03267302489180006,
            0.05194847903893575,
            0.014705040897035532
         ],
         [
            0.1302122181931491,
            -0.01353430633066716,
            0.043607669251850015
         ],
         [
            0.025028221727563065,
            0.05013475099501665,
            0.09602133891927887
         ],
         [
            -0.01400126616971097,
            0.13719352049954778,
            0.005224472660171998
         ],
         [
            -0.04830583551732075,
            0.08844398769408054,
            -0.044622745153965984
         ]
      ],
      "biases": [
         [
            0.006283185307179586,
            0.02984513020910303,
            0.02199114857512855
         ]
      ]
   },
   {
      "genes": "0111110101110010000110111100001011110000000000010011101100110110010110011100010110110011011100010111110100110101001101000010010010100010010100011010111001101011111110000101010100000111000011100101101001000000001100000110000110010011101100010101001001000100111010001110010111100011111011101000100110000111111110101011111011100111110010100101011110100110010101010011000010111101011000101011011000111000110001100010000001000011111100100111011111111111100000100001101011011011111110111111110001100001100001101010010001100010101011111001000110001011101110111101110001011101111010010100000110100010000100010100010110100100000001110010111101011111110001100111000101001000010111000011001010001011100001110101110101011100011011100111010111100110110111110010000001111000000100001001010111001101111101111011111011000110001110110000101000001010101000110011000100111100011101011011101111110010101101010011010000011011100000100000111010000101111100111111011001000110110100011101010010000101101011100011101000000100111010100001110010100110000000000101000101110001100011010110000000100101000101001100110111111100001110101000100000100101110101111101100111010010010000101000111111101000001010110110101110000010110101100011000110110100111001001111110111000001011100001111101101110000001000000111110001011001010001111001100010000000001110101101001100011001000111100100100010000101100011110011011110010010100111001001101100100100011001001001110101111100101101110000110111011011100101101010011101000011011000101100110110111100001101001010100101100111000111101101110001110101100110100010100000010010011000001101001011001010011111111110110111110101110100011000100111100011111000111000010101000001010001111101110011000011001111100100010110011011000110011010010110001010101011001110110001101111000100101100101100101010000010111111100000001011001000001001100001110111101110001101010001101110011101100100110100001110001111101010000001011011110111001111111110111100011100000100110101100100001000110010111001000111111100110010110110101000011010000011010111110000110001011001001011011011101111111000011100110001101001010111111110000101101101101100011100011110000110101101110101011000110111001111010001111000100010011010111110100100100001111000000010100111110101110110100011010110010111011000001011001110010110111111000110100011111010010110001000001110101100000101000111001000101000101101110100101101110010011010111101000000001111110010000011001000111101000110000111101101011000011111001001011100111010000110111000110011111001001010101100110000101010111010010011000001001110011111100001110010001100100110110010100110011101110101011111000001010011001101100000110110100110000010101110110010010111110011111101111010010100110110100101011100011000110101011111011100110111101000111111111110111001010101010110111000001100100100001110001110011000011000101111100000000110010011110000101011110111110010011000110100001100110110100001101101100000011000001110000010101101100010000000010100111011000110100001011101001111001000011101000011111110101100000100001001100011101010000011011101100011100000110000000001000101010110110110111001010100110000101100010100001101110100010110011101000010011100001110000010111111001010111011000000000110000001010001111101111111101100110010001011011001000101110001000010101011010110110111110110010110101111001111000110110000111011000110001110010110100100100000000110001000110110000011111101100000000011110100000010011010000010101101100011011101011110010100101111101110111110010111111001011101111010111000101101000011100111010010001000011100001111100001010110000011001110110011000000100111101010011110100100101110110111010101011100101110011111000110010011111001010001010101000101011101000110100101000100110110000111100000111000000101001111110001111011110011000010000111011101110111000101010111100110001111101001011101001000110101000011000011010011101000110010100111110001010101100110111111001100011110001110001010111011011101111001111100011101001100000001011100011000010110110010101111111111100100010000001100010010100001110011011110011011101011111111101011110000101101011001011110001100010100011100001111111101100100010000100101010000011001010000001101101011000000101010001001001100010011111010100001000110110110010101110001100011100111101111000000000110100110100100111100111000100011010110110001110000101111001011111101111001100111001110101100101110101011111000110110101010110000001100101000111001000000100100110011110010111110110000001110001111100111000010001101001001110101011101110101100010010111101010110110010110010110111110110101111000000011111011000001010110101111001110111010100111110110100111011110010001001010011100010000010111001111000010101100010101000010000010100011100011101000001100101110101100101110101100000010111101010011110100001110101100110001111101000000010110001010110000110111001001111011111110101000001110000011110001001000110010100011001111101001010011100111010000111100001111101110010100110101101010111010000101110010000001011011011100110001110111001001000000100001101000011001110010000101101001001001010111001001011110101100101000110100010000010101011000111110101010110010011101111111101001101111111111111011111001010010001111001010000000110011100100100110010001101001011001100100101000110001101011101101001010010000001010011010111010001110010100000011100110011101101100011101011101011010111001101100101101000110110001010000001001011101100010111100001011000111000100000011001100010010111011011011100111101010001001110000101101101000011111010101010111101001011111011100001111000010101110110011101010111001111000110011000111101010110100001111100011101011000101010010000101010110111011110000000100100011001101110001100011010001111000001010100011001010000100100000100111011111101100101101001110111100010000110100100011101101001001001010011111001101101101101010011110000000011010111001111110110001100111010010101010111010110100010110001100011101110011100010101010011110111001010011110101001111011000001100010001001111001010101101011101111111000000011110110011000011110011111101110110011101111110100101111111100001000111110000000110100111100100011110000011010011111010011010011110001111111101110100100000100101111010001011111001011011101110101010010001100010111011000110011101011000011000101110110100111100110111001000010101100101110101010001111100101001111110010101101101111101100100100110011011100101111111000100100000000101010101011111101000011101101011100000010110100001111000111100011100111000001011111101000011000011000001010100110010100111110100111100100011110010001000011111111100010101010101100001111010110000111001000000011001001000000100001111101101100101011010011100001100100111001111001111100110010110100110001101000011000100011010000110110110110011110111010110110011101100101010011110111001010111010110111011101001010001000010111111000111100111101110100010100011011110001011111100010000110111111100000111011011010110010100001101010110001111010011010101000000011001010100110010111011111011100001101010101101011111100101001101100001000011100111100100101101000110011010001110100101100011000110111010100000101101101010011110001100100011100101001000000101110011000001110001000001001101001001101110010111101010001110011011100110011101110100101101101010111100100101100111100101001100001100011111010000001010000000110000111001111111000110100000101001111010001001101111000111110100110101111010010111011100000001001001001101110011011010110110011010011011100100010000010100100100101011111111101111001111101010010000011111111110000011101010001000110010001101010100000001100010000001110010000101110110000010000101111010001000100001101011111101100011100011110100100101101001000110010001000010001110101001010111101100010110011011110010101101001100001001001111010001110000100000100011010011100110000011110101111111101011000010100001101011011001111101011111111101110111111001110101101111000111111001010111010111000101011100010101111111010010111110000011000101010001010101111000000111101000011001010101111010001010100011100100111011111100101100001010000111111101100011110110000100001000010110110111101011111010010000101110111010111001000010110010111100000110100101011010000010000010110011000111000001110011110111000111111011100001110011101010010000000010001010111111011010011000101010000011001100111000101110100011001110000111111011111011001001001011111101101001100011010111000011111010101010101001100100010001011011001100101000001001010000010110000000001010011111110011010011001011000010101010100110010110011000110010011001101110000001010011100001010110110010101110111100011111010101110100100101111111011110011101111000010101111011101010001100010111101100000000010100000101000100100110101110101111100111100110111010101101101000100001111010111110010011000000000011100111010011111101010101000000110111100000010100111101010110111111011110101101101110000011010001101000011100010000101111110000111010101101111011100001011110011111001001110101000001001000011000101101000010010011000101010001001100110100010111000100110110101010111000110000001000001111001111110010010101110100100010000111110110100000100101000101100100110001101011101011001011100101011111110001100000100111000001101100010000000010011101011111001100010001011000011100100110101101111001110100010111001101101101110000110100110100100100011111010011000101111010111111101100000101011101000001010000111101010010000110110001111111000001001100111101101100010110111110111101110001000100111001111110001011011001000101111101101110001010001011101010011110001000101000110110100000000111011101110110110001110110011100011011101100100111101110010001111111010001100010010010001110010011110001111100011110111001110000111101010000000011111011010110111111010010010111111100101110110000010000100011101010101010111010000110100010100100101101110110101111010000111000000110001100100111010000011101011100111000010110011111110000000010001001100000001010000000001110011101110111011110011000110100010010001111110111011000100001010010101000010000000110010110001010010010110001010000110101101111100110001111100000001100110100000100011000000100001000101100111010111001000110011111010011011001001000001111111101001000100101011011100011100110011011100101011101111001000000010000001100001111010110001111110111000100010000111011011000000000010100000100101010001101100111010100011010000010110011000100110000000000100100101110011000000001001110001101000011111111000110110110010110111100100101110101100111011111001111001010110000000110100101000011101011011101010011000111010111100011000111011100111110111110101101100100011000101100100100000010010000101100111011101001101100010101010110111010000100010101100100101000111100110110011010010011000100111011100011101110001010110001010001011111101101010000101101010111101110111001110101001111010100011011110010011010011101111010111011111010010011100011011011000010100101001010010110000101001110100011000011010001111000001111111100101011110101000001111110001000110001011101100011101100010110111001101010100101110001100000111101011101011000001010011011001000010011111110111010110101000111011111000100111111101010100100011110111110011101000000101001011011001100111100000010001100101101001011001101010100001010011101001100000010001100001100100001110000001000000111000101001011101000101111011111110001111100011010000101111000100011000011010101110100110111110011111001010001111010111001011100101110111011000101110000111011000111101010101100111010010000110101001100110001100110101011111111001111001001100110000101110000000011010011101101010010011110000111011001000100011011001111011011101011101111110010011101000110111011110011000000010011010101110101111111011001110111011000101111101001110110101100110010011011110011011000000110010011111001101001000001000010101101001110100110011100111110110100010111000011100001101011111011100010110000011111010010100010111000011011010111001001111010011100001101101100111100000010101001110110110101000110101010011110100000111100110001000011110010111000011111101101000000010100111110011110110001011000110010000010000100011010000101010100000001110010000010001110100111111100100111100001010100101001100110100100100010100100110001111101110110001100011100100011101001001100100010110110101011100111111000010000100100110001000111011100110110110000010011101001100101101111101100111001100010011010010011001011001101100001010110111100001010001001101010110110010011000001010101011101010011001100000101000010100000101010011001010001100100110101011000001110111011110011011000011000010110111100110001011100000000001001001100011000101001100110110010000101101110111000110011100110100011110100000010001110010001001100101000111110110001010110110111000100010001110000101011000001111100100010101101100011100101110001100100011100000111001000010111010010110111111011110111011010101100010001000101001110000110000001101100011001011101011010101011000001010000011000000111001111101011110001100011011011011001010000100111110001001011011010100111011001010101010110000111001001110011001011000010100100100110101000010101101001001000100011010011001001111110000111011011000111001100111010101111101101111001110110001011011111111100000111011100001000100110101111001001100000011110110110011011011010011010010010000000100101100110101110001110010010100000001010010001001000110011111010110010111100010010010010000101100100001010001110001100110110101100010001110111111110011100111010001010010100011010100001011001110011111011010010000010110111011010000101111111100111001001000110001111011100000111111100110111110101110100001001011101001110011010100111101000111001010111011011001101100001001110000010000000010000011111010000110010001000110101100100011100111100110001010000100111010100111001111001001000011000111001100001011100000011000010011111111111011000001100011001111110001100101111111100101011111111011101001100011100100011000111100010110010001001100100000010100011011001010110000101110110010110101100111101010011111111111010000011010000101000001000011000110000001111110100011011100100110111100000111100011010110101001110010011100101101110100011111100111000100100010110100101100001010001001010101000101011011111011010000110110101010101110011010010000110001110000001111111111010100100111101111100000100011000000001101110110000111000001001100001110001100101000000011001001000011100000111010010101011011010101011010100000111010010001110000010011010100000101001001111011110100001001000000010000000001011100110100010011001001011000101101000101100000000000001000100110111011001001010001011001010001110100010011100100101111011111110001110100100111110000100011010101111101001100011110100110111100001111001100111101011101010000111001101010011101111101110000111110101010110110000101101110010000010010010001000000011110010101110100101101011100110011111110001101101010111000101001100001010010000110100100010000111001011100011110000101001000001001010011100001000101101000000011010110000011010101100001111001100011110111111010001110010001001111110001000011011100011100101001111111000111111100111101100110111000111010011001010010010111101111001011001001010001101100000111011011100111100010010101100110010100101101100011110010101111101111000000111111010001000100000100010010010000011011001000000001000100000001110101001011001110010100100101110011010111000010110111011111011100111011110100010010001101001101100010101001110111000110000001000000100010100110010101001110100001010111000110111000100000101011001110000000110011011010100111010011001100011101010111101100010010111000110000010100001110111001011100001110001010010000100110111000110110101111101011111100100111101001111101110100101011010001001000001000001101101011110011110101011000101001001010101110111011101001001001111010100111101001000011010010101011110110011011010010010101001000101001111101000011001010101110010101110100000110000000111110111110110101010001111011101100111000010010010101110101111111101000110100111100100011101000000010011011111110101110010110000100001110110010010011010010101100111000100010101000110110011101111101100011001001100000001011001001111000110011111011100001101110010111100001101110011000000100101010110001111010000100110011100001101001111111101011111101100011000111111110010101100110100100110111001010011001101011111000100000010100100000110011111110011101101110110101001000110011100000011011011011111000010110011011110001011001000110111010101011010010000001101001000110101011000111110101100111010001100010101000001100001101010001101010000110111010110111110110101010010010100010110010111010011111111110110001000100100001111010000010100010111101001100100001100100111000000111010001010101010110000000010000011000000010001100000011111100100100110011101001000001010110110111111011011010000110100011000110011001110000111011100000001110110100000010111011110110011110101000010000011100001001010000011010001010010100111001110001000010011011010110001111100000000111101011100111011100000110100011000101000011110000011100101100000110111011001011001010000001111001101001001111111001001111101110111111111100110101011110100110100010001010001001101010101010000011001110101011010110101100110001010101111001000000111101011011100110010100101010010001111010111100100010000101000110100001000110000010101110111110010110011011101101110010000000111101001011111110011010011101100000110010000001100011101100110010111100011001011100001111010010010111100001111011001010010111001110110011010000110010010111010000000001011001111010010010011110100110001101111101000001000010100011101011110111111100001110100101000110101010011011001001010100001110100000011101100011110110011011010001"
   }
]