[
   {
      "weights": [
         [
            2.0,
            -0.7444535707617043,
            -0.583994180533138,
            2.0,
            0.9057511133737349,
            -0.0703619650694582,
            0.1340240385307927,
            2.0,
            1.0835557577701203,
            0.7954643749498979,
            2.0,
            -0.3849371147192147,
            0.9455936852308274
         ],
         [
            -0.5146336679977154,
            -2.0,
            2.0,
            2.0,
            0.4440477380342128,
            0.5921441732987766,
            2.0,
            0.4228901510087282,
            2.0,
            -2.0,
            -2.0,
            0.1975033490203616,
            -0.06650273611595298
         ],
         [
            -0.5444813220841862,
            -1.8124808519002167,
            -1.0067404582851645,
            0.10172708276346827,
            -0.2571712479497201,
            -0.4246252841298368,
            -0.09255386750296578,
            -0.8448460910941485,
            0.6638785210701859,
            1.312249955838318,
            2.0,
            1.845766317858876,
            -0.3413479781718629
         ],
         [
            -2.0,
            -2.0,
            0.4534542483263692,
            1.76005020667401,
            -2.0,
            -0.08049768942587324,
            -1.7983858380779036,
            -0.7114153382595925,
            -0.4215807831628201,
            2.0,
            -1.2664929708405452,
            -0.500149959065096,
            -0.13083215694047928
         ],
         [
            0.05112764362026215,
            -1.433715631076365,
            -0.9680409321214976,
            0.29001578044115,
            2.0,
            2.0,
            -0.10620162288992852,
            0.7978396939347938,
            1.8565402719574429,
            -0.09181104196544629,
            -0.5009014022265332,
            -2.0,
            0.10108867823594542
         ],
         [
            1.2005615016041022,
            -0.5270989957759333,
            1.8993166394421226,
            -1.0765917127978393,
            -0.7351689792536286,
            -0.2633212991626352,
            0.5575798586720364,
            -0.8518341931870352,
            0.9068673481431785,
            -0.5662935641912912,
            -0.42237092732932136,
            0.5783761435092851,
            1.4222474164628713
         ],
         [
            -2.0,
            -0.8199989318736963,
            2.0,
            -0.9284701171088072,
            0.6788511678898073,
            0.9050158211736521,
            0.9059377577576921,
            -0.3324223518574412,
            0.25892549313997676,
            2.0,
            0.20913262065456795,
            -0.052785567910090064,
            -1.888124891451977
         ],
         [
            -2.0,
            2.0,
            -0.23212143679420238,
            0.48252311645622026,
            -1.1169358351085636,
            0.9512773624489723,
            1.378045126389863,
            -2.0,
            -0.37968376351169747,
            -1.4021666342562311,
            -1.9869625025227244,
            -1.688658175287074,
            -1.4508682963020647
         ],
         [
            -0.4979818168566322,
            0.45621663484771785,
            -1.352209127567659,
            0.1012476348117234,
            0.015274978012974717,
            -0.08520863774889913,
            0.5991918699369275,
            -0.0483542490005317,
            -0.6898935631240901,
            -1.1948670242357584,
            -0.3117467820556237,
            -1.4274258640390256,
            -0.38334244102788917
         ],
         [
            1.7387711507751846,
            2.0,
            0.20029255107718394,
            0.3650380466829482,
            -0.3787255112408683,
            0.2996872324426187,
            -0.5337012850248827,
            -1.3948143317847403,
            -0.28688918475861974,
            -2.0,
            2.0,
            0.22893535252824337,
            -1.459848797751143
         ],
         [
            -0.015898321156381803,
            -1.8220164122528828,
            0.4732702740082484,
            -0.9982912112625485,
            -1.222192221835219,
            -0.16904238073383235,
            -0.6746539461211423,
            -2.0,
            0.8143062525530229,
            -0.3161930839939813,
            -1.708672954589142,
            -0.8548228986113842,
            0.29251929034817303
         ],
         [
            -1.8217869453217919,
            0.8088517411961959,
            0.5785480311137197,
            0.028897367643772376,
            0.013209813282691864,
            1.0027279689849478,
            -0.0034358476883236356,
            0.4018822828438688,
            -2.0,
            0.34666646848545685,
            -0.4161843323481807,
            1.0677992528521238,
            -1.4845011712215535
         ],
         [
            -1.0372122139886801,
            -2.0,
            0.20315697549332506,
            0.48692940857537464,
            -2.0,
            -0.49338710537054276,
            2.0,
            1.0744647355016137,
            1.3224465887501713,
            2.0,
            -0.1548893675938065,
            0.8948187284856177,
            2.0
         ],
         [
            -1.5555589502421883,
            -0.8191740950432884,
            -0.34410733341831085,
            0.6271141723534229,
            -0.32676619277199215,
            -0.16830597154057986,
            -0.5181382268697121,
            -0.21904386518678398,
            -0.2814049983436144,
            1.2613620210980725,
            2.0,
            0.012085238547593757,
            0.01587270422615865
         ],
         [
            -2.0,
            -0.7658648317092198,
            0.6345542002794193,
            -1.23112148746566,
            1.2542698673586234,
            0.0683371651960612,
            -2.0,
            -1.4334104389136713,
            1.5215486837364096,
            1.1567652376866306,
            2.0,
            1.0932692466528577,
            2.0
         ]
      ],
      "biases": [
         [
            -6.047743176043573,
            0.8054866776461627,
            -0.8968937648149325,
            2.0091237812841736,
            1.0257610115284705,
            0.6683893421169307,
            0.7819645581272908,
            0.8455840312620068,
            -0.895291994529956,
            -0.3297256420022092,
            -1.362194622827501,
            0.8190796085640069,
            -0.2915044046113884
         ]
      ]
   },
   {
      "weights": [
         [
            -0.24902550342354624,
            2.0,
            -1.1113646525560086,
            0.7540888446214842,
            0.41478097830824107,
            0.9031407915007135,
            -2.0,
            0.3106408737977777,
            -0.593604461231421,
            -1.442969610984555,
            -2.0,
            -1.4908807380978946,
            -0.5402060674906218
         ],
         [
            -1.0100440896880432,
            1.2332021073575659,
            1.3314857692192734,
            0.3201847710621252,
            0.25235638162956336,
            1.967661820867683,
            2.0,
            -1.4111497835331122,
            -2.0,
            -1.023196246605128,
            -2.0,
            -0.5191476183604601,
            -0.4410467877233631
         ],
         [
            2.0,
            2.0,
            2.0,
            2.0,
            -0.030894502249229586,
            -0.04095486630207904,
            -2.0,
            0.43875857373954663,
            -2.0,
            -1.1643256723286561,
            1.3968697725786998,
            -1.8724147043174104,
            2.0
         ],
         [
            2.0,
            -0.14691435122173105,
            0.7525664929887302,
            1.6451306296194415,
            -0.8408938341901423,
            -2.0,
            -0.2059341547029123,
            0.9286054367282788,
            2.0,
            0.16300921251229547,
            -0.35466906283873223,
            -0.011287053375327935,
            2.0
         ],
         [
            0.2724946455219821,
            -1.7620458682666216,
            -1.5907251441914523,
            2.0,
            -0.7385383742475947,
            1.4995087020571318,
            -0.5206528912431196,
            -2.0,
            -2.0,
            0.3536632110743994,
            -2.0,
            1.9786931244217685,
            2.0
         ],
         [
            -2.0,
            1.6896409695109977,
            -2.0,
            -1.8662679011080734,
            -0.02816092935313705,
            2.0,
            -2.0,
            0.9982323065111308,
            -0.5321179155717571,
            -0.05049749760798018,
            -2.0,
            0.15266871037057436,
            2.0
         ],
         [
            -0.8256869386344964,
            -0.35521154732554444,
            1.2051338236516098,
            -1.2291838824962207,
            0.7106734332508515,
            -2.0,
            2.0,
            -1.4069465047278347,
            -1.317343078852288,
            0.027083639393093994,
            1.4873019372370755,
            -1.619433667819348,
            2.0
         ],
         [
            -2.0,
            2.0,
            -0.30223953123120245,
            0.09330987046981098,
            1.3133686836662664,
            0.5093153990933004,
            2.0,
            2.0,
            0.5112275662451119,
            -0.1325872782136586,
            -1.1553345220534916,
            -2.0,
            0.8786957405383425
         ],
         [
            -0.5717046668815573,
            -1.9742045488147213,
            0.381709153033698,
            -2.0,
            0.19094862018554154,
            1.4563291904028723,
            1.1304463036178882,
            -2.0,
            -0.4699690769062128,
            0.47340559776977637,
            2.0,
            1.9143790790719741,
            -2.0
         ],
         [
            -2.0,
            -1.280784151139692,
            1.0297930107880655,
            -2.0,
            -0.23983961926086564,
            -0.09328619579977081,
            -1.092394628286542,
            0.15485083450718204,
            -0.14772281782457708,
            0.24954430279601184,
            1.3420453213385066,
            -1.0694609663018766,
            -0.43842026894809893
         ],
         [
            1.3115681653137903,
            2.0,
            -1.9672014026027225,
            -0.03093419261522734,
            -2.0,
            2.0,
            -1.6169433178415176,
            0.6957192113616771,
            0.4679870064822611,
            1.3058301666989283,
            -2.0,
            -0.03224968516798185,
            -0.21061759230237387
         ],
         [
            -0.9188528862581792,
            -2.0,
            2.0,
            -0.3266307084375828,
            0.5349436313335092,
            0.8799135618304952,
            2.0,
            -1.859157335603134,
            2.0,
            -0.6913097160523896,
            0.5104292764052986,
            2.0,
            1.3992325459108326
         ],
         [
            -0.14187776900197424,
            -0.2408545158928837,
            -2.0,
            -0.42656838527761654,
            -2.0,
            0.4365819614805178,
            -1.5916311193337471,
            -1.385426246779312,
            0.37735329357974995,
            2.0,
            1.6375437570325235,
            1.3882793614969595,
            -0.23887558794825495
         ]
      ],
      "biases": [
         [
            0.3736283004441059,
            -4.500929013763781,
            1.5219114254625794,
            -4.440433454548387,
            -4.161902477575775,
            -1.6368494715173507,
            -0.30500883333825946,
            0.6000707631680061,
            -0.32322121930420883,
            1.021504380495906,
            2.7311414600184327,
            0.5135574890451343,
            -0.9527521661324699
         ]
      ]
   },
   {
      "weights": [
         [
            2.0,
            0.5055778961136626,
            -0.6042691917487975
         ],
         [
            2.0,
            1.2268757578886418,
            -1.1998618414341053
         ],
         [
            -0.024950456619215577,
            -0.5323406159527564,
            0.1151727335737084
         ],
         [
            0.1770956330534287,
            0.5340469504275706,
            -0.1831590918327561
         ],
         [
            -2.0,
            0.01062803317018355,
            -1.280424661907476
         ],
         [
            -2.0,
            -1.0898382416423573,
            -1.0468792640014597
         ],
         [
            0.7269686792591434,
            0.5852621736945542,
            1.0746226406434116
         ],
         [
            0.7255987510800888,
            -0.02803651547952158,
            2.0
         ],
         [
            0.11548275543028796,
            0.1962360840296804,
            -0.12363566058519644
         ],
         [
            0.9284643933689254,
            -0.22640155304420748,
            0.05020501382438858
         ],
         [
            2.0,
            0.28104181103386644,
            -0.12564236722431282
         ],
         [
            -2.0,
            1.0978571964987862,
            0.7433439126361007
         ],
         [
            -0.447066877190145,
            0.63007669576401,
            -0.1897643257498144
         ]
      ],
      "biases": [
         [
            0.06923893421169301,
            0.13131857292005333,
            1.6199114375203194
         ]
      ]
   },
   {
      "genes": "011111010111001000011011110000101111000000000001001110110011011001011001110001011011001101110001011111010011010100110100001001001010001001010001101011100110101111111000010101010000011100001110010110100100000000110000011000011001001110110001010100100100010011101000111001011110001111101110100010011000011111111010101111101110011111001010010101111010011001010101001100001011110101100010101101100011100011000110001000000100001111110010011101111111111110000010000110101101101111111011111111000110000110000110101001000110001010101111100100011000101110111011110111000101110111101001010000011010001000010001010001011010010000000111001011110101111111000110011100010100100001011100001100101000101110000111010111010101110001101110011101011110011011011111001000000111100000010000100101011100110111110111101111101100011000111011000010100000101010100011001100010011110001110101101110111111001010110101001101000001101110000010000011101000010111110011111101100100011011010001110101001000010110101110001110100000010011101010000111001010011000000000010100010111000110001101011000000010010100010100110011011111110000111010100010000010010111010111110110011101001001000010100011111110100000101011011010111000001011010110001100011011010011100100111111011100000101110000111110110111000000100000011111000101100101000111100110001000000000111010110100110001100100011110010010001000010110001111001101111001001010011100100110110010010001100100100111010111110010110111000011011101101110010110101001110100001101100010110011011011110000110100101010010110011100011110110111000111010110011010001010000001001001100000110100101100101001111111111011011111010111010001100010011110001111100011100001010100000101000111110111001100001100111110010001011001101100011001101001011000101010101100111011000110111100010010110010110010101000001011111110000000101100100000100110000111011110111000110101000110111001110110010011010000111000111110101000000101101111011100111111111011110001110000010011010110010000100011001011100100011111110011001011011010100001101000001101011111000011000101100100101101101110111111100001110011000110100101011111111000010110110110110001110001111000011010110111010101100011011100111101000111100010001001101011111010010010000111100000001010011111010111011010001101011001011101100000101100111001011011111100011010001111101001011000100000111010110000010100011100100010100010110111010010110111001001101011110100000000111111001000001100100011110100011000011110110101100001111100100101110011101000011011100011001111100100101010110011000010101011101001001100000100111001111110000111001000110010011011001010011001110111010101111100000101001100110110000011011010011000001010111011001001011111001111110111101001010011011010010101110001100011010101111101110011011110100011111111111011100101010101011011100000110010010000111000111001100001100010111110000000011001001111000010101111011111001001100011010000110011011010000110110110000001100000111000001010110110001000000001010011101100011010000101110100111100100001110100001111111010110000010000100110001110101000001101110110001110000011000000000100010101011011011011100101010011000010110001010000110111010001011001110100001001110000111000001011111100101011101100000000011000000101000111110111111110110011001000101101100100010111000100001010101101011011011111011001011010101100111100011011000011101100011000111001011010010010000000011000100011011000001111110110000000001111010000001001101000001010110110001101110101111001010010111110111011111001011111100101110111101011100010110100001110011101001000100001110000111110000101011000001100111011001100000010011110101001111010010010111011011101010101110010111001111100011001001111100101000101010100010101110100011010010100010011011000011110000011100000010100111111000111101111001100001000011101110111011100010101011110011000111110100101110100100011010100001100001101001110100011001010011111000101010110011011111100110001111000111000101011101101110111100111110001110100110000000101110001100001011011001010111111111110010001000000110001001010000111001101111001101110101111111110101111000010110101100101111000110001010001110000111111110110010001000010010101000001100101000000110110101100000010101000100100110001001111101010000100011011011001010111000110001110011110111100000000011010011010010011110011100010001101011011000111000010111100101111110111100110011100111010110010111010101111100011011010101011000000110010100011100100000010010011001111001011111011000000111000111110011100001000110100100111010101110111010110001001011110101011011001011001011011111011010111100000001111101100000101011010111100111011101010011111011010011101111001000100101001110001000001011100111100001010110001010100001000001010001110001110100000110010111010110010111010110000001011110101001111010000111010110011000111110100000001011000101011000011011100100111101111111010100000111000001111000100100011001010001100111110100101001110011101000011110000111110111001010011010110101011101000010111001000000101101101110011000111011100100100000010000110100001100111001000010110100100100101011100100101111010110010100011010001000001010101100011111010101011001001110111111110100110111111111111101111100101001000111100101000000011001110010010011001000110100101100110010010100011000110101110110100101001000000101001101011101000111001010000001110011001110110110001110101110101101011100110110010110100011011000101000000100101110110001011110000101100011100010000001100110001001011101101101110011110101000100111000010110110100001111101010101011110100101111101110000111100001010111011001110101011100111100011001100011110101011010000111110001110101100010101001000010101011011101111000000010010001100110111000110001101000111100000101010001100101000010010000010011101111110110010110100111011110001000011010010001110110100100100101001111100110110110110101001111000000001101011100111111011000110011101001010101011101011010001011000110001110111001110001010101001111011100101001111010100111101100000110001000100111100101010110101110111111100000001111011001100001111001111110111011001110111111010010111111110000100011111000000011010011110010001111000001101001111001001101001111000111111110111010010000010010111101000101111100101101110111010101001000110001011101100011001110101100001100010111011010011110011011100100001010110010111010101000111111010100111111001010110110111110110010010011001101110010111111100010010000000010101010101111110100001110110101110000001011010000111100011110001110011100000101111110100001100001100000101010011001010011111010011110010001111001000100001111111110001010101010110000111101011000011100100000001100100100000010010111110110110010101101001110000110010011100111100111110011001011010011000110100001100010001101000011011011011001111011101011011001110110010101001111011100101011101011011101110100101000100001011111100011110011110111010001010001101111000101111110001000011011111110000011101101101011001010000110101011000111101001101010100000001100101010011001011101111101110000110101010110101111110010100110110000100001110011110010010110100011001101000111010010110001100011011101010000010110110101001111000110010001110010100100000010111001100000111000100000100110100100110111001011110101000111001101110011001110111010010110110101011110010010110011110010100110000110001111101000000101000000011000011100111111100011010000010100111101000100110111100011111010011010111101001011101110000000100100100110111001101101011011001101001101110010001000001010010010010101111111110111100111110101001000001111111111000001110101000100011001000110101010000000110001000000111001000010111011000001000010111101000100010000110101111110110001110001111010010010110100100011001000100001000111010100101011110110001011001101111001010110100110000100100111101000111000010000010001101001110011000001111010111111110101100001010000110101101100111110101111111110111011111100111010110111100011111100101011101011100010101110001010111111101001011111000001100010101000101010111100000011110100001100101010111101000101010001110010011101111110010110000101000011111110110001111011000010000100001011011011110101111101001000010111011101011100100001011001011110000011010010101101000001000001011001100011100000111001111011100011111101110000111001110101001000000001000101011111101101001100010101000001100110011100010111010001100111000011111101111101100100100101111110110100110001101011100001111101010101010100110010001000101101100110010100000100101000001011000000000101001111111001101001100101100001010101010011001011001100011001001100110111000000101001110000101011011001010111011110001111101010111010010010111111101111001110111100001010111101110101000110001011110110000000001010000010100010010011010111010111110011110011011101010110110100010000111101011111001001100000000001110011101001111110101010100000011011110000001010011110101011011111101111010110110111000001101000110100001110001000010111111000011101010110111101110000101111001111100100111010100000100100001100010110100001001001100010101000100110011010001011100010011011010101011100011000000100000011100111111001001010111010010001000011111011010000010010100010110010011000110101110101100101110010101111111000110000010011100000110110001000000001001110101111100110001000101100001110010011010110111100111010001011100110110110111000011010011010010010001111101001100010111101011111110110000010101000100000101000011110101001000011011000111111100000100110011110110110001011011111011110111000100010011100111111000101101100100010111110110111000101000101110101001111000100010100011011010000000011101110111011011000111011001110001101110110010011110111001000111111101000110001001001000111001001111000111110001111011100111000011110101000000001111101101011011111101001001011111110010101011000001000010001110101010101011101000011010001010010010110111011010111101000011100000011000110010011101000001110101110011100001011001111111000000001000100110000000101000000000111001110111011101111001100011010001001000111111011101100010000101001010100001000000011001011000101001001011000101000011010110111110011000111110000000110011010000010001100000010000100010110011101011100100011001111101001101100100100000111111110100100010010101101110001110011001101110010101110111100100000001000000110000111101011000111111011100010001000011101101100000000001010000010010101000110110011101010001101000001011001100010011000000000010010010111001100000000100111000110100001111111100011011011001011011110010010111010110011101111100111100101011000000011010010100001110101101110101001100011101011110001100011101110011111011111010110110010001100010110010010000001001000010110011101110100110110001010101011011101000010001010110010010100011110011011001101001001100010011101110001110111000101011000101000101111110110101000010110101011110111011100111010100111101010001101111001001101001110111101011101111101001001110001101101100001010010100101001011000010100111010001100001101000111100000111111110010101111010100000111111000100011000101110110000110110001011011100110101010011011000110000011110101110101100000101001101100100001001111111011101011010100011101111100010011111110101010010001111011111001110100000010100101101100110011110000001000110010110100101100110101010000101001110100110000001000110000110010000111000000100000011100010100101110100010111101111111000111110001101000010111100010001100001101010111010011011111001111100101000111101011100101110010111011101100010111000011101100011110101010110011101001000011010100110011000110011010101111111100111100100110011000010111000000001101001110110101001001111000011101100100010001101100111101101110101110111111001001110100011011101111001100000001001101010111010111111101100111011101100010111110100111011010110011001001101111001101100000011001001111100110100100000100001010110100111010011001110011111011010001011100001110000110101111101110001011000001111101001010001011100001101101011100100111101001110000110110110011110000001010100111011011010100011010101001111011000011110011000100001111001011100001111110110100000001010011111001111011000101100011001000001000010001101000010101010000000111001000001000111010011111110010011110000101010010100110011010010010001010010011000111110111011001110001110010001110100100110010001011011010101110011111100001000010010011000100011101110011011011000001001110100110010110111110110011100110001001101001001100101100110110000101011011110000101000100110101011011001001100000101010101110101001100110000010100001010000010101001100101000110010011010101100000111011101111001101100001100001011011110011000101110000000000100100110001100010100110011011001000010110111011100011001110011010001111010000001000111001000100110010100011111011000101011011011100010001000111000010101100000111110010001010110110001110010111000110010001110000011100100001011101001011011111101111011101101010110001000100010100111000011000000110110001100101110101101010101100000101000001100000011100111110101111000110001101101101100101000010011111000100101101101010011101100101010101011000011100100111001100101100001010010010011010000001010110100100100010001101001100100111111000011101101100011100110011101010111110110111100111011000101101111111110000011101110000100010011010111100100110000001111011011001101101101001101001001000000010010110011010111000111001001010000000101001000100100011001111101011001011110001001001001000010110010000101000111000110011011010110001000111011111111001110011101000101001010001101010000101100111111111101101001000001011011101101000010111111110011100100100011000111101110000011111110011011111010111010000100101110100111001101010011110100011100101011101101100110110000100111000001000000001000001111101000011001000100011010110010001110011110011000101000010011101010011100111100100100001100011100110000101110000001100001001111111111101100000110001100111111000110010111111110010101111111101110100110001110010001100011110001011001000100110010000001010001101100101011000010111011001011010110011110101001011111111101000001101000010100000100001100011000000111111010001101110010011011110000011110001101011010100111001001110010110111010001111110011100010010001011010010110000101000100101010100010101101111101101000011011010101010111001101001000011000111000000111111111101010010011110111110000010001100001000110111011000011100000100110000111000110010100000001100100100001110000011101001010101101101010101101010000011101001000111000001001101010000010100100111101111010000100100000001000000000101110011010001001100100101100010110100010110000000000000100010011011101100100101000101100101000111010001001110010010111101111111000111010010011111000010001101010111110100110001111010011011110000111100110011110101110101000111101110101001110111110111000011111010101011011000010110111001000001001001000100000001111001010111010010110101110011001111111000110110101011100010100110000101001000011010010001000011100101110001111000010100100000100101001110000100010110100000001101011000001101010110000111100110001111011111101000111001000100111111000100001101110001110010100011111100011111110011110110011011100011101001100101001001011110111100101100100101000110110000011101101110011110001001010110011001010010110110001111001010111110111100000011111101000100010000010001001001000001101100100000000100010000000111010100101100111001010010010111001101011100001011011101111101110011101111010001001000110100110110001010100111011100011000000100000010001010011001010100111010000101011100011011100010000010101100111000000011001101101010011101001100110001110101011110110001001011100011000001010000111011100101110000111000101001000010011011100011011010111110101111110010011110100111110111010010101101000100100000100000110110101111001111010101100010100100101010111011101110100100100111101010011110100100001101001010101111011001101101001001010100100010100111110100001100101010111001010111010000011000000011111011111011010101000111101110110011100001001001010111010111111110100011010011110010001110100000001001101111111010111001011000010000111011001001001101001010110011100010001010100011011001110111110110001100100110000000101100100111100011001111101110000110111001011110000110111001100000010010101011000111101000010011001110000110100111111110101111110110001100011111111001010110011010010011011100101001100110101111100010000001010010000011001111111001110110111011010100100011001110000001101101101111100001011001101111000101100100011011101010101101001000000110100100011010101100011111010110011101000110001010100000110000110101000110101000011011101011011111011010101001001010001011001011101001111111111011100100010010000111101000001010001011110110110010000110010011100000011101000101010101011000000001000001100000001000110000001111110010010011001110100100000101011011011111101101101000011010001100011001100111000011101110000000111011010000001011101111011001111010100001000001110000100101000001101000101001010011100111000100001001101101011000111110000000011110101110011101110000011010001100010100001111000001110010110000011011101100101100101000000111100110100100111111100100111110111011111111110011010101111010011010001000101000100110101010101000001100111010101101011010110011000101010111100100000011110101101110011001010010101001000111101011110010001000010100011010000100011000001010111011111001011001101110110111001000000011110100101111111001101001110110000011001000000110001110110011001011110001100101110001111101001001011110000111101100101001011100111011001101000011001001011101000000000101100111101001001001111010011000110111110100000100001010001110101111011111110000111010010100011010101001101100100101010000111010010001110110001111011001101101000"
   }
]