[
   {
      "weights": [
         [
            1.231419218980556,
            -2.0,
            -0.8152065604702151,
            1.7159836901999304,
            2.0,
            -0.0703619650694582,
            0.11203288995566416,
            2.0,
            0.20510004805326681,
            2.0,
            2.0,
            -1.254910524271376,
            0.529960977160898
         ],
         [
            -0.09086820061245403,
            -2.0,
            2.0,
            1.015138495909357,
            0.1888132355638256,
            0.7308698333875977,
            2.0,
            0.471898996404729,
            2.0,
            -0.4356887214304979,
            -0.6222879332967483,
            0.2884148528582592,
            -0.053507161828388695
         ],
         [
            -2.0,
            -0.3634233899849996,
            -0.32043075487659317,
            0.10172708276346827,
            -1.9262685111325049,
            -2.0,
            -0.28896093658512156,
            -0.7029169145508615,
            2.0,
            2.0,
            1.3607042838809522,
            0.5794256404921267,
            -0.7479585817950966
         ],
         [
            -2.0,
            -2.0,
            0.7537285822086777,
            2.0,
            -2.0,
            -1.331856045526884,
            -0.8833637818621735,
            -0.2816587222992039,
            -1.1271559750577003,
            1.3062813045372463,
            -2.0,
            -1.1280260391168986,
            -2.0
         ],
         [
            0.07584003260064683,
            -2.0,
            -1.333394898683297,
            2.0,
            1.0273190263914653,
            0.8243491089988312,
            -0.379971522016495,
            0.0645653781390976,
            1.6033279040781045,
            -0.18360307568306203,
            -1.1279146552483574,
            -2.0,
            -0.01722548102941355
         ],
         [
            0.3678889500645107,
            -2.0,
            2.0,
            -0.5727731609788337,
            -2.0,
            -0.20454697432363297,
            0.3890488937571624,
            -1.9613208587754591,
            2.0,
            -0.3461652607327497,
            -2.0,
            0.43273014021543627,
            1.2795217804895336
         ],
         [
            -2.0,
            -2.0,
            0.7004095100490634,
            -1.003151556246495,
            0.5498246437595464,
            2.0,
            0.11747760424179016,
            -0.6332187992297527,
            0.6737130890874153,
            1.8337112284245454,
            0.17094235722192655,
            -0.7465642943460455,
            -2.0
         ],
         [
            -2.0,
            2.0,
            -0.24526302944779219,
            0.600470019964733,
            -2.0,
            2.0,
            1.1313194663010415,
            -2.0,
            -2.0,
            -2.0,
            -2.0,
            -2.0,
            -0.895306387573365
         ],
         [
            -2.0,
            2.0,
            -2.0,
            0.482778593697727,
            0.015274978012974717,
            -0.11989005277110444,
            2.0,
            -1.2674780845445444,
            -2.0,
            -2.0,
            -0.3755698017891601,
            -2.0,
            -1.0175371120863543
         ],
         [
            2.0,
            0.4106975815431517,
            2.0,
            2.0,
            -1.5232387431616474,
            1.1979172850850879,
            -1.8942144988590466,
            -1.223079838357659,
            -0.7514024468237512,
            -2.0,
            0.8872612481777908,
            1.5642627346710765,
            -2.0
         ],
         [
            -0.09011070712233117,
            -2.0,
            1.6923587219393863,
            -0.41696823071667216,
            -2.0,
            -0.18430786922013973,
            -1.057485799192938,
            -1.8638639676827211,
            2.0,
            -1.5476266651486585,
            -1.0046774225036739,
            -0.7962034556210205,
            0.6365104268655613
         ],
         [
            -2.0,
            1.077577389227276,
            2.0,
            0.02764073058233646,
            0.25630714881192446,
            1.612303160879824,
            -0.4665508740095578,
            1.8798556682805505,
            -2.0,
            0.7210027382263832,
            -0.6845471503348514,
            2.0,
            -1.92977548701725
         ],
         [
            -2.0,
            -2.0,
            0.6538472298826606,
            1.5481417643969708,
            -2.0,
            -2.0,
            0.9933497541087053,
            2.0,
            0.45350857886862284,
            1.9094534698453758,
            -0.9648008412873508,
            2.0,
            2.0
         ],
         [
            -2.0,
            -0.4129528817679496,
            -0.5251471648302324,
            0.2839947203197523,
            -1.4676068490376928,
            -0.4258103882097099,
            -2.0,
            -0.316884575712322,
            -0.5429448086544885,
            0.9833222138016328,
            2.0,
            0.009142760751516819,
            0.08317358635421047
         ],
         [
            -2.0,
            -1.342855950139994,
            2.0,
            -2.0,
            0.7805176710817996,
            0.1518061882234465,
            -0.3425547761701454,
            -2.0,
            1.460265528573583,
            1.204818346235859,
            2.0,
            0.9273931545433168,
            2.0
         ]
      ],
      "biases": [
         [
            -2.097769802664635,
            4.038052927683109,
            -0.3690707812546182,
            1.0534911093874693,
            1.0998318108697012,
            0.2020619358586174,
            1.0497787143782142,
            0.1655353906273091,
            -0.4250929037879262,
            -1.1689379978238055,
            -0.6814158903626739,
            0.2861283034585413,
            -2.552486623386328
         ]
      ]
   },
   {
      "weights": [
         [
            -0.4570520456404197,
            1.3330652480918248,
            -2.0,
            2.0,
            0.9062765435525002,
            0.9387425859011705,
            -0.4823437363237871,
            -0.49981929177586537,
            -1.9796221037924622,
            -2.0,
            -1.7481064392610175,
            -2.0,
            -2.0
         ],
         [
            -2.0,
            2.0,
            0.600972543327367,
            0.9847334147112605,
            1.2930643026954176,
            2.0,
            0.7796111465858654,
            -2.0,
            -2.0,
            -2.0,
            -2.0,
            -2.0,
            -2.0
         ],
         [
            2.0,
            2.0,
            1.9458270192057883,
            1.3276596719094074,
            0.027379831633078545,
            -0.398999099310954,
            -2.0,
            2.0,
            -2.0,
            -2.0,
            0.6817724732226901,
            -2.0,
            0.83436826028489
         ],
         [
            0.6585847367562483,
            -0.15890549979685958,
            2.0,
            0.5043121079447875,
            -1.3188761192826577,
            -2.0,
            -0.6923677660019412,
            1.7474992136009495,
            0.3714629638627283,
            0.19515523087832098,
            -2.0,
            0.031217369322672453,
            2.0
         ],
         [
            0.5878574635086514,
            -1.178559172533848,
            -2.0,
            1.6788699400193783,
            -1.765494074921144,
            0.9055087020571319,
            -0.2823431757768083,
            -2.0,
            -0.30862414921475106,
            1.72293747863913,
            -0.5389229512276338,
            1.9990028760613041,
            1.9035457424896582
         ],
         [
            -2.0,
            1.8454639651290514,
            -2.0,
            -2.0,
            -0.12577154503411214,
            2.0,
            -1.15245697179043,
            2.0,
            -0.3558657162804981,
            -0.06079838576490267,
            -2.0,
            0.7089739940955796,
            2.0
         ],
         [
            -0.5393506688935706,
            -2.0,
            2.0,
            -0.9602458726146742,
            2.0,
            -2.0,
            2.0,
            -0.7855394778477741,
            -2.0,
            0.6069685708697657,
            2.0,
            -1.2961504885410402,
            2.0
         ],
         [
            -1.627121718197467,
            2.0,
            -0.8637439358425905,
            0.8957700119279728,
            1.1968200159016504,
            0.6868286671873017,
            2.0,
            2.0,
            0.6745903842317815,
            -2.0,
            -0.2574186286763822,
            -2.0,
            0.16361170023302765
         ],
         [
            -0.8753860999903743,
            -1.3606293448621034,
            0.9580631135666254,
            -2.0,
            0.501479585100416,
            2.0,
            2.0,
            -2.0,
            -0.8594425316749041,
            2.0,
            2.0,
            2.0,
            -1.5178740872653558
         ],
         [
            -2.0,
            -2.0,
            2.0,
            -2.0,
            -2.0,
            -0.15470212233566877,
            -2.0,
            0.28419596170184974,
            -0.8904661445899169,
            0.5142478403515255,
            2.0,
            -2.0,
            -0.697349463577998
         ],
         [
            1.7837672741424324,
            2.0,
            -2.0,
            -0.04035897057599672,
            -2.0,
            2.0,
            -0.5758460305432497,
            2.0,
            0.9218630985918024,
            1.1704319430127734,
            -2.0,
            0.025949429689531005,
            -1.2122458686309976
         ],
         [
            -1.0692599673980767,
            -0.897561704420403,
            1.6228733136584768,
            -0.4462590209394301,
            1.0893772546902796,
            2.0,
            2.0,
            -2.0,
            1.0116590244921089,
            -1.0919291831582367,
            0.9095089211425295,
            1.4912448646755374,
            2.0
         ],
         [
            -0.28700165880582157,
            -0.15196956632960051,
            -2.0,
            -2.0,
            -1.0235586624816293,
            1.2352368101703681,
            -1.7440824334825193,
            -2.0,
            0.15084888293949095,
            1.6888073728841004,
            2.0,
            2.0,
            -0.7413888379556441
         ]
      ],
      "biases": [
         [
            0.32137166941154066,
            -8.499318247361053,
            1.3053141050055233,
            -2.3619821826017127,
            -8.723946565891733,
            -2.0795397259066863,
            -0.9161194218893164,
            3.0716812522427013,
            -1.3152742675647315,
            1.646035321295302,
            1.8531238174573994,
            11.418309269329859,
            -2.9855927621094636
         ]
      ]
   },
   {
      "weights": [
         [
            2.0,
            1.5193389076421353,
            -2.0
         ],
         [
            2.0,
            0.6823182748723775,
            -1.37882644176349
         ],
         [
            -0.6409504325037333,
            -0.3155884136470616,
            0.4939160844545319
         ],
         [
            0.21990094390835158,
            2.0,
            -0.49111484676614026
         ],
         [
            -2.0,
            0.019570510966260488,
            -0.41872556815101186
         ],
         [
            -2.0,
            -2.0,
            -2.0
         ],
         [
            2.0,
            1.5545099231578965,
            0.4599677919535598
         ],
         [
            2.0,
            -0.06840377123636789,
            1.4068916683277435
         ],
         [
            0.07775266962903107,
            0.15674935815255223,
            -0.0034631000022979285
         ],
         [
            2.0,
            -0.101286514665232,
            0.07951474737731185
         ],
         [
            0.5575680260095666,
            2.0,
            -0.06850962599559449
         ],
         [
            -2.0,
            2.0,
            1.980113769560571
         ],
         [
            -0.6493677653470674,
            0.9882846620463943,
            -0.9288085406720777
         ]
      ],
      "biases": [
         [
            0.09244247478164161,
            0.21328759896187394,
            0.9389911063730353
         ]
      ]
   },
   {
      "genes": "011111010111001000011011110000101111000000000001001110110011011001011001110001011011001101110001011111010011010100110100001001001010001001010001101011100110101111111000010101010000011100001110010110100100000000110000011000011001001110110001010100100100010011101000111001011110001111101110100010011000011111111010101111101110011111001010010101111010011001010101001100001011110101100010101101100011100011000110001000000100001111110010011101111111111110000010000110101101101111111011111111000110000110000110101001000110001010101111100100011000101110111011110111000101110111101001010000011010001000010001010001011010010000000111001011110101111111000110011100010100100001011100001100101000101110000111010111010101110001101110011101011110011011011111001000000111100000010000100101011100110111110111101111101100011000111011000010100000101010100011001100010011110001110101101110111111001010110101001101000001101110000010000011101000010111110011111101100100011011010001110101001000010110101110001110100000010011101010000111001010011000000000010100010111000110001101011000000010010100010100110011011111110000111010100010000010010111010111110110011101001001000010100011111110100000101011011010111000001011010110001100011011010011100100111111011100000101110000111110110111000000100000011111000101100101000111100110001000000000111010110100110001100100011110010010001000010110001111001101111001001010011100100110110010010001100100100111010111110010110111000011011101101110010110101001110100001101100010110011011011100000110100101010010110011100011110110111000111010110011010001010000001001001100000110100101100101001111111111011011111010111010001100010011110001111100011100001010100000101000111110111001100001100111110010001011001101100011001101001011000101010101100111011000110111100010010110010110010101000001011111110000000101100100000100110000111011110111000110101000110111001110110010011010000111000111110101000000101101111011100111111111011110001110000010011010110010000100011001011100100011111110011001011011010100001101000001101011111000011000101100100101101101110111111100001110011000110100101011111111000010110110110110001110001111000011010110111010101100011011100111101000111100010001001101011111010010010000111100000001010011111010111011010001101011001011101100000101100111001011011111100011010001111101001011000100000111010110000010100011100100010100010110111010010110111001001101011110100000000111111001000001100100011110100011000011110110101100001111100100101110011101000011011100011001111100100101010110011000010101011101001001100000100111001111110000111001000110010011011001010011001110111010101111100000101001100110110000011011010011000001010111011001001011111001111110111101001010011011010010101110001100011010101111101110011011110100011111111111011100101010101011011100000110010010000111000111001100001100010111110000000011001001111000010101111011111001001100011010000110011011010000110110110000001100000111000001010110110001000000001010011101100011010000101110100111100100001110100001111111010110000010000100110001110101000001101110110001110000011000000000100010101011011011011100101010011000010110001010000110111010001011001110100001001110000111000001011111100101011101100000000011000000101000111110111111110110011001000101101100100010111000100001010101101011011011111011001011010111100111100011011000011101100011000111001011010010010000000011000100011011000001111110110000000001111010000001001101000001010110110001101110101111001010010111110111011111001011111100101110111101011100010110100001110011101001000100001110000111110000101011000001100111011001100000010011110101001111010010010111011011101010101110010111001111100011001001111100101000101010100010101110100011010010100010011011000011110000011100000010100111111000111101111001100001000011101110111011100010101011110011000111110100101110100100011010100001100001101001110100011001010011111000101010110011011111100110001111000111000101011101101110111100111110001110100110000000101110001100001011011001010111111111110010001000000110001001010000111001101111001101110101111111110101111000010110101100101111000110001010001110000111111110110010001000010010101000001100101000000110110101100000010101000100100110001001111101010000100011011011001010111000110001110011110111100000000011010011010010011110011100010001101011011000111000010111100101111110111100110011100111010110010111010101111100011011010101011000000110010100011100100000010010011001111001011111011000000111000111110011100001000110100100111010101110111010110001001011110101011011001011001011011111011010111100000001111101100000101011010111100111011101010011111011010011101111001000100101001110001000001011100111100001010110001010100001000001010001110001110100000110010111010110010111010110000001011110101001111010000111010110011000111110100000001011000101011000011011100100111101111111010100000111000001111000100100011001010001100111110100101001110011101000011110000111110111001010011010110101011101000010111001000000101101101110011000111011100100100000010000110100001100111001000010110100100100101011100100101111010110010100011010001000001010101100011111010101011001001110111111110100110111111111111101111100101001000111100101000000011001110010010011001000110100101100110010010100011000110101110110100101001000000101001101011101000111001010000001110011001110110110001110101110101101011100110110010110100011011000101000000100101110110001011110000101100011100010000001100110001001011101101101110011110101000100111000010110110100001111101010101011110100101111101110000111100001010111011001110101011100111100011001100011110101011010000111110001110101100010101001000010101011011101111000000010010001100110111000110001101000111100000101010001100101000010010000010011101111110110010110100111011110001000011010010001110110100100100101001111100110110110110101001111000000001101011100111111011000110011101001010101011101011010001011000110001110111001110001010101001111011100101001111010100111101100000110001000100111100101010110101110111111100000001111011001100001111001111110111011001110111111010010111111110000100011111000000011010011110010001111000001101001111001001101001111000111111110111010010000010010111101000101111100101101110111010101001000110001011101100011001110101100001100010111011010011110011011100100001010110010111010101000111110010100111111101010110110111110110010010011001101110010111111100010010000000010101010101111110100001110110101110000001011010000111100011110001110011100000101111110100001100001100000101010011001010011111010011110010001111001000100001111111110001010101010110000111101011000011100100000001100100100000010000111110110110010101101001110000110010011100111100111110011001011010011000110100001100010001101000011011011011001111011101011011001110110010101001111011100101011101011011101110100101000100001011111100011110011110111010001010001101111000101111110001000011011111110000011101101101011001010000110101011000111101001101010110000001100101010011001011101111101110000110101010110101111110010100110110000100001110011110010010110100011001101000111010010110001100011011101010000010110110101001111000110010001110010100100000010111001100000111000100000100110100100110111001011110101000111001101110011001110111010010110110101011110010010110011110010100110000110001111101000000101000000011000011100111111100011010000010100111101000100110111100011111010011010111101001011101110000000100100100110111001101101011011001101001101110010001000001010010010010101111111110111100111110101001000001111111111000001110101000100011001000110101010000000110001000000111001000010111011000001000010111101000100010000110101111110110001110001111010010010110100100011001000100001000111010100101011110110001011001101011001010110100110000100100111101000111000010000010001101001110011000001111010111111110101100001010000110101101100111110101111111110111011111100111010110111100011111100101011101011100010101110001010111111101001011111000001100010101000101010111100000011110100001100101010111101000101010001110010011101111110010110000101000011111110110001111011000010000100001011011011110101111101001100010111011101011100100001011001011110000011010010101101000001000001011001100011100000111001111011100011111101110000111001110101001000000001000101011111101101001100010101000001100110011100010111010001100111000011111101111101100100100101111110110100110001101011100001111101010101010100110010001000101101100110010100000100101000001011000000000101001111111001101001100101100001010101010011001011001100011001001100110111000000101001110000101011011001010111011110001111101010111010010010111111101111001110111100001010111100110101000110001011110110000000001010000010100010010011010111010111110011110011011101010110110100010000111101011111001001100000000001110011101001111110101010110000011011110000001010011110101011011111101111010110110111000001101000110100001110001000010111111000011101010110111101110000101111001111100100111010100000100100001100010110100001001001100010101000100110011010001011100010011111010101011100011000000100000111100111111001001010111010010001000011111011010000010010100010110010011000110101110101100101110010101111111000110000010011100000110110001000000001001110101111100110001000101100001110010011010110111100111010001011100110110110111000011010011010010010001111101001100010111101011111110110000010101110100000101000011110101001000011011000111111100000100110011110110110001011011111011110111000100010011100111111000111101100100010111110110111000101000101110101001111000100010100011011010000000011101110111011011000111011001110001101110110010011110111001000111111101000110001001001000111001001111000111110001111011100111000011110101000000001111101101011011111101001001011011110010111011000001000010001110101010101011101000011010001010010010110111011010111101000011100000011000110010011101000001110101110011000001011001111111000000001000100110000000101000000000111001110111011101111001100011010001001000111111011101100010000101001010100001000000011001011000101001001011000101000011010110111110011000111110000000110011010000010001100000010000100010110011101011100100011001111101001101100100100000111111110100100010010101101110001110011001101110010101110111100100000001000001110000111101011000111111011100010001000011101101100000000001010000010010101000110110011101010001101000001011001100010011000000000010010010111001100000000100111000110100001111111100011011011001011011110010010111010110011101111100111100101011000000011010010100001110101101110101001100011101011110001100011101110011111011111010110110010001100010110010010000001001000010110011101110100110110001010101011011101000010001010110010010100011110011011001101001001100010011101110001110111000101011000101000101111110110101000010110101011110111011100111010100111101010001101111001001101001110111111011101111101001001110001101101100001010010100101001011000010100111010001100001101000111100000111111110010101111010100000111111000100011000101110110001110110001011011100110101010010111000110000011110101110101100000101001101100100001001111111011101011010100011101111100010011111110101010010001111011111001110100000010100101101100110011110000001000110010110100101100110101010000101001110100110000001000110000110010000111000000100000011100010100101110100010111101111111000111110001101000010111100010001100001101010111010011011111001111100101000111101011100101110010111011101100010111000011101100011110101010110011101001000011010100110011000110011010101111111100111100100110011000010111000000001101001110110101001001111000011101100100010001101100111101101110101110111111001001110100011011101111001100000001001101010111010111111101100111011101100010111110100111011010110011001001101111001101100000011001001111100110100100000100001010110100111010011001110011111011010001011100001110000110101111101110001011000001111101001010001011100001101101011100100111101001110000110110110011110000001010100111011011010100011010101001111010000011110011000100001111001011100001111110110100000001010011111001111011000101100011001000001000010001101000000101010000000111001000001000111010011111110010011110000101010010100110011010010010001010010011000111110111011001110001110010001110100100110010001011011010101110011111100001000010010011000100011101110011011011000001001110100110010110111110110011100110001001101001001100101100110110000101011011110000101000100110101011011001001100000101010101110101001100110000010100001010000010101001100101000110010011010101100000111011101111001101100001100001011011110011000101110000000000100100110101100011100110011011001000010110111011100011001110011010001111010000001000111001000100110010100011111011000101011011011100010001000111000010101100000111110010001010110110001110010101000110010001110000011100100001011101001011011111101111011101101010110001000100010100111000011000000110110001100101110101101010101100000101000001100000011100111110101111000110001101101101100101000010011111000100101101101010011101100101010101011000011100100111001100101100001010010010011010100001010110100100100010001101001100100111111000011101101100011100110011101010111110110111100111011000101101111111110000011101110000100010011010111100100110000001111011011001101101101001101001001000000010010110011010111000111001001010000000101001000100100011001111101011001011110001001001001000010110010000101000111000110011011010110001000111011111111001110011101000101001010001101010000101100111001111101101001000001011011101101000010111111110011100100100011000111101110000011111110011011111010111010000100101110100111001101010011110100011100101011101101100110110000100111000001000000001000001111101000011001000100011010110010001110011110011000101000010011101010011100111100100100001100011100110000101110000001100001001111111111101100000110001100111111000110010111111110010101111111101110100111001110010001100011110001011001000100110010000001010001101100101111000010111011001011010110011110101001111111111101000001101000010100000100000100011000000111111010001101110010011011110000011110001101011010100111001001110010110111010001111110011100010010001010010010110000101000100101010100010101101111101101000011011010101010111001101001000011000111000000111111111101010010011110111110000010001100000000110111011000011100000100110000111000110010100000001100100100001110000011101001010001101101010101101010000011101001000111000001001101010000010100100111101111010000100100000001000000000101110011010001001100100101100010110100010110000000000000100010011011101100100101000101100101000111010001001110010010111101111111000111010010011111000010001101010111110100110001111010011011110000111100110011110101110101000011100110101001110111110111000011111010101011011000010110111001000001001001000100000001111001010111010010110101110011001111111000110110101011100010100110000101001000011010010001000011100101110001111000010100100000100101001110000100010110100000001101011000001101010110000111100110001111011111101000111001000100111111000100001101110001110010100111111100011111110011110110011011100011101001100101001001011110111100101100100101000110110000011101101110011110001001010110011001010010110110001111001010111110111100000011111101000100010000010001001001000001101100100000000100010000000111010100101100111001010010010111001101011100001011011101111101110011101111010001001000110100110110001010100111011100011000000100000010001010011001010100111010000101011100011011100010000010101100111000000011001101101010011101001100110001110101011110110001001011100011000001010000111011100101110000111000101001000010011011100011011010111110101111110010011110100111110111010010101101000100100000100000110110101111001111010101100010100100101010111011101110100100100011101010011110100100001101001010101111011001101101001001010100100010100111110100001100101010111001010111010000011000000011111011111011010101000111101110110011100001001001010111010111111110100011010011110010001100100000001001101111111010111101011000010000111011001001001101001010110011100010001010100011011001110111110110001100100110000000101100100111100011001111101110000110111001011110000110111001100000010010101011000111101000010011001110000110100111111110101111110110001100011111111001010110011010010011011100101001100110101111100010000001010010000011001111111001110110111011010100100011001110000001101101101111100001011001101111000101100100011011101010101101001000000110100110011010101100011111010110011101000110001010100000110000110101000110101000011011101011011111011010101001001010001011001011101001111111111011000100010010000111101000001010001011110100110010000110010011100000011101010101010101011000010001000001100000001000110000001111110010010011001110100100000101011011011111101101101000011010001100011001100111000011101110000000111011010000001011101111011001111010100001000001110000100101000001101000101001010011100111000100001001101101011000111110000000011110101110011101110000011010001100010100001111000001110010110000011011101100101100101000000111100110100100111111100100111110111011111111110011010101111110011010001000101000100110101010101000001100111010101101011010110011000101010111100100000011110101101110011001010010101001000111101011110010001000010100011010000100011000001010111011111001011001101110110111001000000011110100101111111001101001110110000011001000000110001110110011001011110001100101110000111101001001011110000111101100101001011100111011001101000011001001011101000000000101100111101001001001111010011000110111110100000100001010001110101111011111110000111010010100011010101001101100100101010000111010000001110110001111011001101101000"
   }
]