[
   {
      "weights": [
         [
            0.6912511021967046,
            -0.3541881124197503,
            -0.5125251575057533,
            1.7174173075278296,
            0.294724589243474,
            -0.06973364653874024,
            0.11437802317920251,
            0.38773902170029184,
            0.3184761492061139,
            0.23242016002763466,
            1.3556065585905406,
            -1.5387069897302983,
            0.4474078776549752
         ],
         [
            -0.36567349940963606,
            -2.0,
            1.976076816390798,
            2.0,
            0.16329553572851802,
            0.8680379803158019,
            0.7569568900988543,
            0.2892087420153932,
            2.0,
            -1.5885072672206348,
            -0.7773675659762378,
            0.8890077415740093,
            -0.053821321093747675
         ],
         [
            -0.7872069821730074,
            -0.5927906397129753,
            -0.5326873859091584,
            0.10172708276346827,
            -1.0896314014656219,
            -2.0,
            -0.3375273192572224,
            -2.0,
            1.0262678993603402,
            2.0,
            0.32605833484693914,
            0.8006778578699978,
            -1.7764364261029992
         ],
         [
            -2.0,
            -2.0,
            1.0789940586372442,
            0.7321476024919493,
            -2.0,
            -2.0,
            -2.0,
            -0.39694633331881946,
            -0.21821796517615089,
            2.0,
            -0.4631832975763294,
            -0.26307032638560623,
            -1.281752476030024
         ],
         [
            -0.4190125331825598,
            -0.6949988706433802,
            -0.8463595231281622,
            1.3112369876876175,
            2.0,
            2.0,
            -0.012962688678235494,
            0.6849547443715106,
            1.036549159555536,
            -1.3910764701630456,
            -2.0,
            -2.0,
            0.19488513163712615
         ],
         [
            0.6156942548905638,
            -0.6011697951171635,
            0.9605733367922642,
            -0.3380784748481917,
            -0.46333714426844463,
            -0.16254254258232653,
            0.403332079064342,
            -0.34714395085544014,
            0.38863729550071036,
            -0.21598384872497975,
            -2.0,
            0.2637212948194354,
            0.6277872991201939
         ],
         [
            -1.4533010101902974,
            -0.2649547169514338,
            2.0,
            -1.260611691675785,
            0.4069927906877505,
            0.31230787599231424,
            0.07223867003009714,
            -0.0973338677530795,
            0.8816422897461852,
            2.0,
            0.0519113892926178,
            -0.13952007942378267,
            -0.9276647741093
         ],
         [
            -0.4901369959685661,
            2.0,
            -0.22201524381122775,
            0.15714260767754953,
            -0.44800666459414684,
            0.2928703174822985,
            0.5214256954572393,
            -1.6326054718385994,
            -0.4135598676789799,
            -0.3802374818284261,
            -1.0232457662052241,
            -1.5101449011642012,
            -2.0
         ],
         [
            -2.0,
            2.0,
            -0.42003217141667687,
            0.6185308020322914,
            0.0993811709959494,
            -0.18782810485474566,
            0.7240679801330806,
            -1.2190887122832603,
            -2.0,
            -2.0,
            -0.4674282031066995,
            -0.4136648525105554,
            -1.9419105968417627
         ],
         [
            0.4955853612859445,
            1.550940917351799,
            0.4322836996523126,
            0.6062769808946412,
            -0.2510263993977905,
            0.28209431358251585,
            -1.986683539973045,
            -1.005256842739605,
            -0.13494229330784852,
            -1.2893058347118043,
            1.4876328874449791,
            0.10491766173624187,
            -0.364167424931032
         ],
         [
            -0.30670361995356454,
            -0.5080341753913324,
            0.8089251287269683,
            -0.7480699859294695,
            -0.49327191480341503,
            -0.1754494618737295,
            -0.39904333646903795,
            -0.8554303925569156,
            0.41303193675732675,
            -0.21817539320197982,
            -2.0,
            -0.6986105367609177,
            0.16380248168422318
         ],
         [
            -0.8513799124128589,
            1.6063891744859873,
            0.2879462789153572,
            0.02764073058233646,
            0.035776183897051034,
            0.6401173653617149,
            -0.10182522597847789,
            0.3038645920518673,
            -1.0208669067438971,
            1.0744894520457708,
            -0.28450292335484534,
            0.5436842446175015,
            -0.6475277556405201
         ],
         [
            -0.6356635643106756,
            -2.0,
            0.41710387900183776,
            1.0154072649410195,
            -1.4622091913917838,
            -2.0,
            1.1142258401893759,
            1.1538629833032517,
            1.7210218107894026,
            1.3257012856262933,
            -0.638836259044578,
            1.3679780119312088,
            1.21762623641911
         ],
         [
            -0.817010318650796,
            -0.33345730446595,
            -0.304151590542668,
            0.16923808627275175,
            -0.7231555590044048,
            -0.2320227862334003,
            -0.4868285053745302,
            -0.5517872160676067,
            -0.6656262236766939,
            0.40241515979165376,
            2.0,
            0.03625337944692723,
            -0.00595030344963644
         ],
         [
            -1.8894451443093556,
            -1.4087586206396323,
            2.0,
            -0.33524543152934283,
            0.8925353739315427,
            0.23093892945216482,
            -1.7130414477874376,
            -0.23943704141924682,
            1.46446905105692,
            0.4189776718835447,
            0.2478252212713221,
            0.38070292426946384,
            0.612142896372163
         ]
      ],
      "biases": [
         [
            -4.162548559244942,
            0.586194671058465,
            -0.2544601655736431,
            0.6577698750110837,
            0.3655752039526186,
            0.2190265361880023,
            0.5752743157956963,
            0.46894688542190077,
            -0.20761060965210437,
            -2.323628228097657,
            -0.6595397982531327,
            0.9897787143782135,
            -0.6080796145928777
         ]
      ]
   },
   {
      "weights": [
         [
            -0.925795396521242,
            0.48512723218140824,
            -0.31384256921036024,
            0.4826552393513257,
            1.0030287458581946,
            0.6379195842542459,
            -1.7047507692327188,
            0.8900036917844469,
            -0.1320115664868009,
            -0.734562566017883,
            -1.256451626744392,
            -0.7569427282163478,
            -0.4342768788895933
         ],
         [
            -1.0606193117272738,
            1.3422286556033098,
            0.30316723850131483,
            0.14281310165058425,
            1.2932059134356197,
            1.4195910576996755,
            2.0,
            -0.9845745856093647,
            -0.6946227346915583,
            -0.3460458386998914,
            -2.0,
            -1.007324598626924,
            -1.1005865980342382
         ],
         [
            2.0,
            1.5031692838366242,
            2.0,
            2.0,
            -0.029637865187793672,
            -0.29915840084315715,
            -0.9470065779501348,
            2.0,
            -1.7527641210479914,
            -0.382838994682493,
            0.5523034501953049,
            -1.1057244740435554,
            2.0
         ],
         [
            1.1498811750852522,
            -0.029790461417884155,
            0.681566499017601,
            0.8447412875025104,
            -0.6904159657667549,
            -2.0,
            -0.32031468156819526,
            0.4095612218060151,
            1.5888346091587873,
            0.10274373005485879,
            -0.9285805606477595,
            0.007969583686107985,
            2.0
         ],
         [
            0.08488403586987775,
            -2.0,
            -2.0,
            1.459577885200715,
            -2.0,
            0.7081458961282041,
            -0.33952016207214253,
            -1.7944083493906477,
            -1.7800931119534296,
            1.2714684917849688,
            -2.0,
            1.1798259138814522,
            2.0
         ],
         [
            -2.0,
            0.8319507452660138,
            -2.0,
            -0.7224183753308882,
            -0.03427597376098318,
            1.6612068499778438,
            -0.9580499147660155,
            0.639878345978203,
            -0.26431262280344586,
            -0.005258563396287165,
            -2.0,
            0.4783324165141662,
            1.8938028454853206
         ],
         [
            -0.17142148029254214,
            -2.0,
            0.5367267786849352,
            -0.7013963166931354,
            0.2801601832434625,
            -2.0,
            2.0,
            -0.650185499228235,
            -1.7827235996887008,
            0.19545531483350537,
            1.008788687229686,
            -0.345168233592878,
            2.0
         ],
         [
            -1.3544491546001332,
            1.636509629014028,
            -0.9810625328781268,
            0.17056650753124689,
            0.45982889747087485,
            0.20928001750929665,
            1.169723725157287,
            2.0,
            0.15769660735910873,
            -1.0796315051936622,
            -0.6056177314761543,
            -1.2555106512351633,
            0.6169789379032627
         ],
         [
            -0.17887283792524405,
            -0.9154612341071239,
            0.13370031366656798,
            -1.6137862259775217,
            0.3581787029723636,
            0.3990372079306566,
            0.5129065174224967,
            -1.239957949574051,
            -2.0,
            2.0,
            2.0,
            1.4821667413369888,
            -2.0
         ],
         [
            -0.7202809460253708,
            -0.389058545310708,
            0.26598774213523757,
            -0.8328529149453521,
            -1.0388484525991253,
            -0.07357823253182184,
            -1.380571632668488,
            0.10869154503272002,
            -0.5458997980910409,
            0.20681864270719066,
            0.4077975899617766,
            -0.44133709458464143,
            -0.20527868835225005
         ],
         [
            0.7345239624492699,
            0.4833831797542974,
            -0.6583519069698893,
            -0.04035897057599672,
            -0.6030175825675426,
            2.0,
            -0.4778283397512481,
            0.6991970978716752,
            0.11457109200410456,
            0.8465381601112307,
            -2.0,
            0.15109544202668584,
            -1.79238746731346
         ],
         [
            -0.6725520222167395,
            -1.8765882406084067,
            2.0,
            -0.16684310646127348,
            1.4205011203786433,
            0.2781171325447968,
            1.1663919572381427,
            -0.35067952746845565,
            1.1474244918773688,
            -0.3771858443351541,
            1.438358465006327,
            1.0812271738835348,
            0.8930113446932348
         ],
         [
            -0.06709901242166573,
            -0.4806952143606804,
            -2.0,
            -1.1160550870392623,
            -1.8913285374927125,
            0.49791824930805556,
            -0.39341878159876226,
            0.003741827802444961,
            0.23053914335769699,
            2.0,
            0.6860393885943593,
            2.0,
            -0.39335345637164104
         ]
      ],
      "biases": [
         [
            0.14796459430051417,
            -2.930628197953304,
            2.803424657383352,
            -3.0890795482752984,
            -3.0293538700998663,
            -2.3852565405995074,
            -1.3630972993560082,
            3.0368848289858734,
            -1.6360530362027823,
            0.7356282883863646,
            1.3020176425610364,
            0.8005132379496479,
            -1.1639114495780611
         ]
      ]
   },
   {
      "weights": [
         [
            0.9767130722085576,
            0.7182770079567398,
            -2.0
         ],
         [
            1.4304586546571192,
            1.566557166881977,
            -0.7186406341876382
         ],
         [
            -0.004729219228394784,
            -0.2873140797647534,
            0.6413497017824309
         ],
         [
            0.15950271419332587,
            2.0,
            -0.9467342957853753
         ],
         [
            -2.0,
            -0.002911789198431951,
            -1.0570175928253218
         ],
         [
            -2.0,
            -0.4472630437186093,
            -0.47488815159955555
         ],
         [
            0.40245542925175437,
            0.28711174770270437,
            0.913525305114179
         ],
         [
            1.2116341447218333,
            -0.0381515598873677,
            2.0
         ],
         [
            0.18312877078187814,
            0.12082015749378246,
            -0.0964409714401193
         ],
         [
            0.9284643933689254,
            -0.17282633703384753,
            0.16862093433141584
         ],
         [
            2.0,
            1.5784311591796667,
            -0.9625272926721136
         ],
         [
            -1.6752534112011348,
            0.4962643017541659,
            0.748892562314105
         ],
         [
            -1.1386066754432778,
            2.0,
            -0.5341713948319701
         ]
      ],
      "biases": [
         [
            0.19171680263507906,
            1.046291988501085,
            0.1075221195188726
         ]
      ]
   },
   {
      "genes": "011111010111001000011011110000101111000000000001001110110011011001011001110001011011001101110001011111010011010100110100001001001010001001010001101011100110101111111000010101010000011100001110010110100100000000110000011000011001001110110001010100100100010011101000111001011110001111101110100010011000111111111010101111101110011111001010010101111010011001010101001100001011110101100010101101100011100011000110001000000100001111110010011101111111111110000010000110101101101111111011111111001110000110000110101001000110001010101111100100011000101110111011110111000101110111101001010000011010001000010001010001011010010000000111001011110101111111000110011100010100100001011100001100101000101110000111010111010101110001101110011101011110011011011111001000000111100000010000100101011100110111110111101111101100011000111011000010100000101010100011001100010011110001110101101110111111001010110101001101000001101110000010000011101000010111110011111101100100011011010001110101001000010110101110001110100000010011101010000111001010011000000000010100010111000110001101011000000010010100010100110011011111110000111010100010000010010111010111110110011101001001000010100011111110100000101011011010111000001011010110001100011011010011101000111111011100000101110000111110110111000000100000011111000101100101000111100110001000000000111010110100110001100100011110010010001000010110001111001101111001001010011100100110110010010001100100100111010111110010111011000011011101101110010110101001110100001101100010110011011011110001110100101010010110011100011110110111000111010110011010001010000001001001100000110100101100101001111111111011011111010111011101100010011110001111100011100001010100000101000111110111001100001100111110010001011001101100011001101001011000101010101100111011000110111100010010110010110010101000001011111110000000101100100000100110000111011110111000110101000110111001110110010011010000111000111110101000000101101111011100111111111011110001110000010011010110010000100011101011100100011111110011001011011010100001101000001101011111000011000101100100101101101110111111100001110011000110100101011111111000010110110110110001010001111000011010110111010101100011011100111101000111100010001001101011111010010001000111100000001010011111010111011010001101011001011101100000101100111001011011111100011010001111101001011000100000111010110000010100011100100010100010110111010010110111001001101011110100000000111111001000001100100011110100011000011110110101100001111100100101110011101000011011100011001111100100101010110011000010101011101001001100000100111001111110000111001000110010011011001010011001110111010101111100000101001100110110000011011010011000001010111011001001011111001111110111101001010011011010010101110001100011010101111101110011011110100011111111111011100101010101011011100000110010010000111000111001100001100010111110000000011001001111000010101111011111001001100011010000110011011010000110110110000001100000111000001010110110001000000001010011101100011010000101110100111100100001110100001111111010110000010000100110001110101000001101110110001110000011000000000100010101011011011010100101010011000010110001010000110111010001011001110100001001110000111000001011111110101011101100000000011000000101000111110111111110110011001000101101100100010111000100001010101101011011011111011001011010111100111100011011000011101100011000111001011010010010000000011000100011011000001111110110000000001111010000001001101000001010110110001101110101111001010010111110111011111001011111100101110111101011100010110100001110011101001000100001110000111110000101011000001100111011001100000010011110101001111010010010111011011101010101110010111001111100011001001111100101000101010100010101110100011010010100010011011000011110000011100000010100111111000111101111001100001000011101110111011100010101011110101000111110100101110100100011010100001100001101001100100011001010011111010101010110011011111100110001111000111000101011101101110111100111110001110100110000000101110001100001011011001010111111111110010001000000110001001010000011001101111001101110101111111110101111000010110101100101111000110001010001110000111111110110010001000010010101000001100101000000110110101100000010101000100100110001001111101010000100011011011001010111000110001110011110111100000000010110011010010011110011100010001101011011000111000010111100101111110111100110011100111010110010111010101111100011011010101011000000110010100011100100000010010011001111001011111011000000111000111110011100001000110100100111010101110111010110001001011110101011011001011001011011111011010111100000001111101100000101011010111100111011101010011111011010011101111001000100101001110001000001011100111100001010110001010100001000001010001110001110100000110010111010110010111010110000001011110101001111010000111010110011000111110100000001011000101011000011011100100111101111111010100000111000001111000100100011001010001100111110100101001110011101000011110000111110111001010011010110101011101000010111001000000101101101110011000111011100100100000010000110100001100111001000010110100100100101011100101001111010110010101011010001000001010101100011111010101011001001110111111110100110111111111111101111100101001000111100101000000011001110110010011001000110100101100110010010100011000110101110110100101001000000101001101011101000111001010000001110011001110110110001110101110101101011100110110010110100011011000101000000100101110110001011110000101100011100010000001100110001001011101101101110011110101000100111000010110110100001111101010101011110100101111101110000111100001010111011001110101011100111100011001100011110101011010000111110001110101100010101001000010101011011101111000000010010001100110111000110001101000111100000101010001100101000010010000010011101111110110010110100111011110001000011010010001110110100100100101001111100110110110110101001111000000001101011100111111011000110011101001010101011101011010001011000110101110111001110001010101001111011100101001111010100111101100000110001000100111100101010110101110111111110000001111011001100001111001111110111011001110111111010010111111110000100011111000000011010011110010001111000001101001111001001101001111000111111110111010010000010010111101000101111100101101110111010101001000110001011101100011001110101100001100010111011010011110011011100100001010110010111010101000111110010100111111001010110110111110110010010011001101110010111111100010010000000010101010101111110100001110110101110000001011010000111100011110001110011100000101111110100001100001100000101010011001010011111010011110010001111001000100001111111110001010101010110010111101011000011100100000001100100100000010000111110110110010101101001110000110010011100111100111110011001011001011000110100001100010001101000011011011011001111011101011011001110110010101001111011100101011101011011101110100101000100001011111100011110011110111010001010001101111000101111110001000011011111110000011101101101011001010000110101011000111101001101010100000001100101010011001011101111101110000110101010110101111110010100110110000100001110011110010010110100011001101000111010010110001100011011101010000010110110101001111000110010001110010100110000010111001100000111000100000100110100100110111001011110101000111001101100011001110111010010110110101011110010010110011110010100110000110001111101000000101000000011000011100101111100011010000010100111101000100110111100011111010011010111101001011101110000000100100100110111001101101011011001101001101110010001000001010010010010101111111110111100111110101001000001111111111000001110101000100011001000110101010000000110001000000111001000010111011000001000010111101000100010000110101111110110001110001111010010010110100100011001000100001000111010100101011110110001011001101011001010110100110000100100111101000111000010000010001101001110011000001111010111111110101100001010000110101101100111110101111111110111011111100111010110111100011111100101011101011100010101110001010111111101001011111000001100010101000101010111100000011110100001100101010111101000101010000010010011101111110010110000101000011111110110001111011000010000100001011011011110101111101001000010111011101011100100001011001011110000011010010101101000001000001011001100011100000111001111011100011111101110000111001110101001000000001001101011111101101001101010101000001100110011100010111010001110111000011111101111101100100100101111110110100110001101011100001111101010101010100110010001100101101100110010100000100101000001011000000000101001111111001001001100101100001010101010011001011001100011001001100110011000000101001110000101011011001010111011110001111101010111010010010111111101111001110111100001110111101110101000110001011110110000000001010000010100010010011010111010111110011110011011101010110110100010000111101011111001001100000000001110011101001111110101010100000011011110000001010011110101011011111101111010100110111000001101000110100001110001000010111111000001101010110111101110000101111001111100100111010100000100100001100010110100001001001100010101000100110011010001011100010011011010101011100011000000100000111100111111000001010111010010001000011111011010000010010100010110010011000110101110101100101110010101111111000110000010011100000110110001000000001001110101111100110001000101100001110010011010110111100111010001011100110110110111000011010111010010010001111100001100010111101011111110110000010101110100000101000011110101001000011011000111111100000100110011110110110001010111111011110111000100010011110111111000101101100100010111110110111000101000101110101001111000100010100011011010000000011101110111011011000111011001110001101110110010011110111001000111111101000110001001001000111001001111000111110001111011100111000011110101000000001111101101011011111101001001011111110010111011000001000010001110101010101011101000011010001010010010110111011010111101000011100000011000110010011101000001110101110011100001011001111111000000001000100110000000101000000000111001110111011101111001100011010001001000111111011101100010000101001010100001000000011001011000101001001011000101000011010110111110011000111110000000110011010000010001100000010000100010110011101011100100011001111101001101100100100000111111110100100010010101101110001110011001101110010101110111100100000001000000110000111101011000111111011100010001000011001101100000000001010000010010101000110110011101010001101000001011001100010011000000000010010010111001100000000100111000110100001111111100011011011001011011111010010111010110011101111100111100101011000000011010010100001110101101110101001100011101011110001100011101110011111011111010110110010001100010110010010000001001000010110010101110100110110001010101011011101000010001010110010010100011110011011001101001001100010011101100001110111000101011000101000101111100110101000010110100011110111011100111010100111101010001101111001001101001110111101011101111101001001110001101101100001010010100101001011000010100111010001100001101000111100000111111110010101111010100000111111000100011000101110110001110110001011011100110101010011011000110000011110101110101100000101001101100000001001111111011100111010100011101111100010011111110101010010001111011111001110100000010100101101100110011110000001000110010110100101100110101010000101001110100110000001000110000110010000111000000100000011100000100101110100010111101111111000111110001101000010111100010001100001101010111010011011111001111100101000111101011100101110010111011101100010111000011101100011110101010110011101001000011010100110011000110011010101111111100111100101010011000010111000000001101001110110101001001111000011101100100010001101100111101101110101110111111001001000100011011101111001100000001001101010101010111111101100111011101100010111110100111011010110011001001101111001101100000011001001111100110100100000100001010110100111010011001110011111011010001011100001110000110101111101110001011000001111101001010001011100001101101011100100111101001110000110110110011110000001010100111011011010100011010101001111011000011110011000100001111001011100001111110110100000001010011111001111011000101100011001000001000010001101000010101010000000111001000001000111010011111110010011110000101010010100110011010010010001010010011000111110111011001110001110010001110100100110010001011011010101110011111100001000010010011000100011101110011011011000001001110100110010010111110110011100110001001101001001100101100110110000110011011110000101000100110101011011001001100000101010101110101001100111100010100001010000010101001100101000110010011010101100000111011101111001110100001100001011011110011000101110000000000100100110001100010100110101011001000010110111011100011001110011010001111010000001000111001000100110010100011111011000101011011011100010001000111000010101100000111110010001010110110001110010111000110010001110000011100100001011101001011011111101111011101101010110001000100010100111000011000000110110001100101110101101010101100000101000001100000011100111110101111000110001101101101100101000010011111000100101101101010011101100101010101011000011100100111001100101100001010010010011010100001010110100100100010001101001000100111111000011101101100011100110011101010111110110111100111011000101101111111110000011101110000100010011010111100100110000001111011011001101101101001101001001000000010010110011010111000111001001010000000101001000100100011001111101011001011110001001001001000010110010000101000111000110011011010110001010111011111111001110011101000101001010001101010000101100111001111101101001000001011011101101000010111111110011100100100011000111101110000011111110011011111010111010000100101110100111001101010011110100011100101011101101100110110000100111000001000000001000001111101000011001000100011010110010001110011110011000101000010011101010011100111100100100001100011100110000101110000001100001001111111111101100000110001100111111000110010011111110010101111111101110100110001111010001100011110001011001000100110010000001010001101100101011000010111011001011010110011110101001111111111101000001101000010100000100001100011000000111111010001101110010011011110000011110001101011010100111001001110010110111010001111110011100010010001011010010110000101000100101010100010101101111101101000011011010101010111001101001000011000111000000111111111101010010011110111110000010001110010000111111011000011100000100110000111000110010100000001100100100001110000011101001010101101101010101101010000011101001000111000001001101010000010100100111101111010000100100000001000000000101110011010001001100100101100010110100010110000000000000100010011011101100100101000101100101000111010001001110010010111101111111000111010010011111000010001101010111110100110001111010010011110000111100110011110101110101000111101110101001110111110111000011111010101011011000010110111001000001001001000100000001111001010111010010110101110011001111111000110110101011100110100110000101001000011010010001000011100101110001111000010100100000100101001110000100010110100000001101011000001101010110000111100110001111011111101000111001000100111111000100001101110001110010100111111010011111110011110110011011100011101001100101001001011110111100101100100101000110110000111101101110011110001001010110011001010010110110001111001010111110111100000011111101000100010000010001001001000001101100100000000100010000000111010100101100111001010010010111001101011100001011011101111101110011101111010001001000110100110110001010100111011100011000000100000010001010011001010100111010000101011100011011100010000010101100111000000011001101101010011101001100110001110101011110110001001011000011000001010000111011100101110000111000101001000010011011100011011010111110101111110010011110100111110111010010101101000100100000100000110110101111001111010101100010100100101010111011101110100100100111101010011110100100001101001010101111011001101101001001010100100010100111110100001100101010111001010111010000011000000011111011111011010101000111101110110011101001001001010111010111111110100011000011110010001110100000001001101111111010111001011000010110111011001001001101001010110011100010001010100011011001110111110110001100100110000000101100100111100011001111101110000110111001011110000110111001100000010010101011000111101000010011001110000110100111111110101111110110001100011111111001010110011010010011011100101001100110101111100010000001010010000011001111111001110110111011010100100011001110000001101101101111100001011001101111000101100100011011101010101101001000000110100100011010101100011111010110011101000110001010100000110000110101000110101000011011101011011111011010101001001010001011001011101001111111111011000100010010000111101000001010001011110100110010000110010011100000011101000101010101011000000001000001100000001000110000001111110010010011001110100100000101011011011111101101101000011010001100011001100111000011101110000000111011010000001011101111011001111010100001000001110000100101000001101000101001010011100111000100001001101101011000111110000000011110101110011101110000011010001100010100001111000001110010110000011011101100101100101000000111100110100100111111100100111110111011111111110011010101111010011010001000101000100110101010101000001100111010101101011010110011000101010111100100000011110101101110011001010010101001000111101011110010001000010100011010000100011000001010111011111001011001101110110111001000000011110100101111111001101001110110000011001000000110001110110011001011110001100101110000111101001001011110000111101100101001011100111011001101000011001001001101000000000101100110101001001001111010011000110111110100000100001010001110101111011111110000111010010100011010101001101100100101010000111010000001110110001111011000101101000"
   }
]