[
   {
      "weights": [
         [
            1.2822953412344498,
            -0.4866659808431364,
            0.050350940632658873,
            2.0,
            0.921768816223478,
            -0.07235311364458674,
            0.6009797753775656,
            0.9973053742280388,
            0.07775931642668146,
            0.9910838480846154,
            1.8709516857852082,
            -0.46348578248383104,
            0.8172308732730288
         ],
         [
            -0.10105404436153041,
            -2.0,
            0.8939618081561747,
            0.5446252459019674,
            0.30195039647610905,
            0.6920025746163163,
            1.4663374109352665,
            0.391359180064984,
            2.0,
            -0.5575250002147295,
            -1.114420644381113,
            0.31900777774723266,
            -0.10610450640092725
         ],
         [
            -0.3747999251485929,
            -0.5722242690986161,
            -0.28801482231182457,
            0.14388637223793027,
            -0.26085266900079607,
            -1.4554659524532798,
            -0.13481936201814385,
            -1.757660229258462,
            0.7522856142678245,
            1.5963561488212932,
            0.6522706966974057,
            1.5179963946168267,
            -0.7194010626056088
         ],
         [
            -0.27566960596182183,
            -0.7318156629045481,
            0.45377514724735524,
            1.1737759149937967,
            -1.6603801925266366,
            -1.051187931757468,
            -1.3489256905908726,
            -0.7318755279487182,
            -0.4154126422634868,
            1.4526618314025288,
            -1.7584310108664447,
            -0.2758402315410434,
            -0.4916728614371468
         ],
         [
            -0.47074703866738277,
            -1.8198041332673385,
            -0.5722267879283138,
            1.7882900781502338,
            1.11213318867126,
            0.6312827594855194,
            -0.1549095801290068,
            0.50601669831674,
            0.28187662007368514,
            -0.32473138517047395,
            -0.4723792887365314,
            -1.9436846002949777,
            0.2260798207822033
         ],
         [
            -0.04722607625672341,
            -0.4466034365605457,
            1.538148552802625,
            -0.2594767105920881,
            -0.39776192825808465,
            0.021599044042392566,
            0.12304890581490367,
            -0.17855990150682072,
            0.9841063064703545,
            -0.18109891121943789,
            -1.5256540824921472,
            0.8615265755300051,
            1.4426899394754789
         ],
         [
            -1.7147169487839364,
            -0.59107860072641,
            0.511294471670088,
            -0.6529303188556741,
            1.0539308246847798,
            0.6289007888235466,
            0.10691123362743098,
            -0.04905953387077139,
            0.40338567077136156,
            0.9423218923364837,
            0.13830076758277207,
            -0.7451198437914792,
            -1.9343325926798898
         ],
         [
            -0.252933467456359,
            1.5324355672514645,
            -0.49375860072092137,
            -0.05397241864368456,
            -1.2995906837984132,
            1.2691711574082556,
            0.8159035638806258,
            -1.8903311258985502,
            -1.1857987717463196,
            -2.0,
            -0.3992988988699352,
            -0.45101219610870547,
            -1.4529479591259078
         ],
         [
            -0.5679375717900162,
            2.0,
            -0.3283861560650867,
            0.29080514797234064,
            0.2388590454482061,
            -0.1954741202063358,
            0.6230060382455926,
            -0.6523807671019224,
            -1.2092298630093694,
            -0.8318316727961087,
            -0.2290565276662883,
            -0.8491958113965581,
            -0.9128840968269841
         ],
         [
            2.0,
            0.49933918324004745,
            1.2033013482422192,
            1.2950999704838246,
            -0.489265327580613,
            0.18824476368984774,
            -0.808002173181805,
            -0.3190975773806259,
            -0.24543786458097747,
            -1.2526244076318573,
            1.4949780387551292,
            0.06808580866444602,
            -1.6237779984099128
         ],
         [
            -0.27127884199279406,
            -1.3387067148731835,
            1.1842879467136378,
            -0.16718504842392765,
            -0.30256395756433674,
            -0.31964414498993615,
            -1.3094769357103255,
            -1.7054569106583064,
            0.15730628269737612,
            -0.18840549407541335,
            -0.7336784629796377,
            -1.8165573920384657,
            -0.8896665051699381
         ],
         [
            -0.6953268159213716,
            0.6955951041347592,
            0.2533887597258695,
            -0.06953625571299778,
            0.5119354613137721,
            0.05563065757119862,
            0.11525440670101174,
            0.32319202845453343,
            -0.5423536567365079,
            -0.02015473257923561,
            -0.06339673640074114,
            0.4188966366123215,
            -0.7504923559699049
         ],
         [
            -1.5334809765790343,
            -0.1760457770656626,
            0.21689149303588837,
            1.9219735752666727,
            0.09153414140242666,
            -1.40296229726542,
            2.0,
            -0.11771219653388476,
            0.8454908639611387,
            1.9408605931873675,
            -0.17262388513636984,
            0.2747479532598705,
            2.0
         ],
         [
            -1.1757448181067471,
            -0.8376873812239014,
            -1.636788712267292,
            0.4759548828789604,
            -0.23919982818650348,
            -0.3695183514776587,
            -0.28178425427904363,
            -0.9973181870113508,
            -0.2801041162155626,
            0.1261585408168298,
            1.0839804550756929,
            0.06989054337364596,
            0.3605629586154948
         ],
         [
            -2.0,
            -0.3503515756729595,
            1.442653957386439,
            -1.415847183727705,
            0.13823450989010255,
            0.10473539491108691,
            -0.3169530058851711,
            -0.6617998533770456,
            1.5573186310939409,
            0.23363255674661831,
            0.31375442193009184,
            0.9244462691214163,
            0.49525795886662116
         ]
      ],
      "biases": [
         [
            -0.386212373908208,
            1.5950707330236533,
            -0.09049557127312892,
            2.3233804364322217,
            0.20584954989266804,
            0.5746813909067228,
            0.3724247598741574,
            1.2125840131753953,
            -0.44791148575128553,
            -0.5252212193042088,
            -0.5932566008882117,
            0.23715043202071986,
            -0.12547786239451536
         ]
      ]
   },
   {
      "weights": [
         [
            -0.48552107469667566,
            1.2095962250644399,
            -0.29423195955825593,
            0.8854782289405091,
            0.28532965813059874,
            0.5337602827220426,
            -2.0,
            0.9512603167881415,
            -0.7963478241699856,
            -1.3201908664619888,
            -1.9578232599827088,
            -0.8034914080387052,
            -0.6949140367874411
         ],
         [
            -0.3322388089774727,
            0.49844108980022395,
            0.39404333061085595,
            0.1713794722649434,
            0.5252678734097196,
            0.32117517336587065,
            1.1496907611787432,
            -0.2040613356019758,
            -2.0,
            -0.4883024697324568,
            -0.5413949451460243,
            -0.9155546753848743,
            -2.0
         ],
         [
            1.973601540562061,
            2.0,
            1.3340748470444455,
            1.0127304893372489,
            0.09747717319118178,
            -0.01240619853746277,
            -1.1761658734534672,
            1.166156773310219,
            -2.0,
            -1.720157519371583,
            0.6549052265091498,
            -2.0,
            1.9526115599203118
         ],
         [
            0.9687484338565339,
            -0.11223293619952575,
            1.4505930110901202,
            1.063520044082819,
            -0.3707965046897779,
            -0.1276986265200804,
            -0.22039433233429676,
            0.27435768123606663,
            1.2142268376193779,
            0.0325401955137809,
            -1.5627840590156128,
            0.035792591361903076,
            0.8919168212625809
         ],
         [
            -0.028248705358840616,
            -1.4537584422817595,
            -1.363583587711086,
            1.0657903073398884,
            -1.923263998163193,
            0.9470573758506186,
            -0.381236976764963,
            -1.3478773724180313,
            -0.2985710527232637,
            1.365291499460764,
            -1.7219188950360556,
            1.245286085483966,
            1.5002669889237845
         ],
         [
            -0.9205703797525184,
            0.6190923620350864,
            -2.0,
            -0.7793298791687855,
            -0.5067803844012425,
            0.4074546778165011,
            -0.351235776601704,
            0.2895155219626626,
            -0.1318082001054455,
            -0.7267573685796095,
            -2.0,
            -0.16957020575450663,
            1.6584488548080407
         ],
         [
            -0.6910674715286497,
            -1.006114187680829,
            0.9366205495287375,
            -1.341582136326729,
            0.1721601832434625,
            -1.1907242428601421,
            1.4162102071353169,
            -1.2800438643725507,
            -0.6636882603067916,
            0.5208181328201751,
            0.5674258692430169,
            -0.10335408939969572,
            1.386768457337358
         ],
         [
            -2.0,
            0.7432441646432029,
            -1.207571455392283,
            0.2048319899886836,
            0.3442182878187705,
            0.2732180695929379,
            0.9061839269041542,
            0.9014959704302484,
            0.707032871071164,
            -1.7396668867776666,
            -0.8124849661319532,
            -1.3339472031921606,
            0.19580196366566907
         ],
         [
            -0.2940675150125798,
            -0.7650453377155793,
            0.2829303964533896,
            -1.3242287128169046,
            0.15136455275031013,
            0.5081876520091179,
            1.3370834856312188,
            -0.33209957237199417,
            -1.4536224014474524,
            1.1543678561400803,
            1.2953466360766501,
            1.5369454858595555,
            -1.0222811925207353
         ],
         [
            -1.0855464103961956,
            -0.7404302147222483,
            1.1334832832640132,
            -0.4237909851156054,
            -0.2661405074177881,
            -0.15052513001146384,
            -0.5387044281570431,
            0.04743490797128411,
            -0.18849273503775554,
            0.26665935323272866,
            0.27445246276710894,
            -1.7273281828710634,
            -0.41757071302655996
         ],
         [
            1.2220372305432712,
            0.25743628830352616,
            -1.9529978801193857,
            -0.03435897057599672,
            -0.8049290803765696,
            0.9106557813638794,
            -0.33443011606509304,
            1.384444871450498,
            0.2562082559308233,
            0.7155381661401011,
            -0.5928979101786906,
            0.022900758910479414,
            -1.0245721661114247
         ],
         [
            -1.1643042184935637,
            -2.0,
            1.2507051968746266,
            0.007165732905856639,
            1.8253683670921834,
            1.4840374456054712,
            1.0606574517533207,
            -0.484759166176816,
            0.3917608098492601,
            -0.40810618754018185,
            -0.10932290781378344,
            0.9835900099568162,
            0.8783578295605882
         ],
         [
            -0.1731875025548975,
            -0.08922620339103642,
            -0.36084051433251396,
            -0.5475683913064873,
            -0.9414967145652706,
            0.8283076155404687,
            -1.935409881942926,
            -0.1647891612279111,
            0.5974683379875965,
            2.0,
            0.6652606320140508,
            0.7166510851683368,
            -0.5011990521636719
         ]
      ],
      "biases": [
         [
            0.12808849013323179,
            -1.0199911003441633,
            1.3268937527571893,
            -0.4636194490192346,
            -0.49218581963359376,
            -0.7548318289563132,
            -0.28269025438933537,
            0.7493451030791849,
            -0.4573539665617979,
            0.23475220230569419,
            0.7039114616358029,
            3.0436901639562777,
            -2.7334246814988385
         ]
      ]
   },
   {
      "weights": [
         [
            1.0670625937205602,
            0.1688699509323253,
            -1.8773487882550637
         ],
         [
            0.8635206206600907,
            0.6951943730107895,
            -0.4001362235473793
         ],
         [
            -0.537888490616245,
            -0.09803975191131582,
            0.4075709512309933
         ],
         [
            0.18775049380101963,
            1.2578699339878832,
            -0.33554848218065175
         ],
         [
            -2.0,
            -0.0035401077291499087,
            -0.5214069831732171
         ],
         [
            -1.199394450855337,
            -0.45651968078004534,
            -1.2264898857113058
         ],
         [
            0.6647651567758066,
            0.09137724221788238,
            0.452056294144533
         ],
         [
            2.0,
            0.6314678891318669,
            0.39365278234701584
         ],
         [
            0.37798716607054733,
            0.06991750508075636,
            -0.5000161874504795
         ],
         [
            1.8972696559928834,
            0.008819690375484038,
            0.12954128959418482
         ],
         [
            0.2912981238685648,
            0.4924931673847329,
            -0.23488130143600583
         ],
         [
            -0.4793596524150738,
            2.0,
            0.030069608898145715
         ],
         [
            -1.8695608927915395,
            0.48897937229251887,
            -0.2548262796950439
         ]
      ],
      "biases": [
         [
            0.8152920065876976,
            0.17904423903774522,
            0.8246548366321091
         ]
      ]
   },
   {
      "genes": "011111100111001100011011110000101111000000000001001110110011011001011001110001011011001101111101011111010011010100110101001001001010001001010001101011100110101111111000010101010000011000001110010110100100000010110000010010010101001110110001010100010000010011101000101101011110001111101110100010010100011111111010101111101110011111001010000101111010100101010101001000001011110101100010101001100011100011000110001000000100001111010010101101111011111110000010000110101101101101001011111111000110000110000110101010000110001010101111100100011000101110111011110111001101111111101001010100011010001000100001010001011010010000000111001011110000110011000110011101010100100001011100001100101000101110000111010111010101110000101110011101011110011011011111001000000111100000010000100101011100110111110111101111101100011000111011000010100000101010100011001100010011111001110101101110111111000110110101001101000001101110000010010011101000010111110011111101100100011111010001110101001000010110101110001110100011010011011010010111001010011000010000010100010111000110001101011000000010010100010100110011011111110000111010100010000010010111010111110110011101000001000010101011001110100000101011011010111000001011010110001100011001010011100110111111011100000101110110111110110111000000100000011111000101100101000111100110001000000000111010110100110000100100011110011010001010010101001111001001111001001010011100110110110010010001100110100111010110110010000111000011111101101110010110101001110100001110100010110010011011110000110100101010110110101100011110110111100111010111011010001010000001000101100001100100101100101001111100111011111111010111010001100010011111001111100011100001010100000101000111110111001100001100111110010001011001101100011001101010111000101010101100111011000110111100010010110010110010101000001011111100000000100100101100100110000111011110111000110111000110111001110110010011010000111000111110101100000101101111011100111111111011110001111100010011010110010100100011001011100100011111111101001011011010100001101000001101011011100011000101100100101101101110100111100001110011000100100100011111111001011010110110110001110001111000011010010111010101100011011100111101000111100010001001101011011010010001001111100000001010011111010111011010001101011001010101100000101101111001011011111100011010001111101001011000100000111010110000010100010100101001100010110111100010110111101101001011000100000000111111001000001100110001110100011000011110110101100001111100100101110011101000011011100011001011100100101010110011000010101011101001001100000100111001111110000111001000110010011001111010011001010111010010111100000101001101000110000011011010011000011010001011001001011111001111110111101001010011011010010101110001100011010101111101110011011110100001111111111011100101010111011111100000110010010000011000111001101001100010111110000001011001000111001110101111011111001001100011010000110011011010000110110110010001100000011100001010110110001000000001010011100100011010000001110100111101100001110100001111001010110000010000100110001010001000001101110110001110000011000000000100010101011011011011100101010011000010110001010000110111010001011001110100001001110000111000101011111100101011101100000000011000000101000111110111111110110011001000101101100100000111000100001010101101011011011111011001011010111100111100011000001111101100011000111001011110110010000000011000011011011000001111110110110000001111010000001001101000001010110101001101110101111001100010111110111010111001011111100100110111101011100010110100001110011101001000100001100000111110000101011000001100111011001100000010011110011001111010010010111011101101010101010010111000011101010001001111100101001001011000010101110100011010010100011111011000011110000011100000010100111111000111101111001100001000011101110111011100110101011110101000111110100101110100100111010101001100001101001100100011001010011111000101010110011011111100110001111000110000101011101101110111100100110001110100110001000101110001100001011011001010111111111110010011000000110001001010000111001101111001101101101111111110101111000010110100100101110000110001010001111000111101111010010001000010010101000001100101000000110110101100000010101000011000110001001111101000000000011011011001010111000010001110011110111100000100011000011010010011111100100010001101011011000100000010111100101111110111100110010001111010110010111001101111100011011010101011000000110010100000100100110010010011000011000000111011000000111000111110001100001000110100100111010101110111010110001001011110101011011001011001011011111011010111100000001111101100000101011010111100111011101010011011001010011101111001000100101001110001000001011100111100001001110001010100001000011010101110001110100000110010111010000010111110110000001011110101001111010000111010110011000111110100000001011010111011000011011000100111101111111011100011111000001111000100100011011010001100111111100101001110011101000011110000111110111001010011010111101011011000011011001000000101101101110011000011101100100100000010001010000011101011000101010110100100100101011100101001111010110010100011010001000001010101100011111010111011010101110111110010100110111111111011101111000110001000111100111000000011101110011101011001000110100101100110010010010001000000101110110100101001000000101001101011101000111001010000001110011001110110110001110101110101101011100110110010110100011011110101001100100101110110001011110000101100001100010000001100101101001011101101101110011110101000100111110010110110100001111101010101011110100111111101110000111100001010111011001110101011100111100011001100011110101000010000111110001110100000010101001000010101011011101111000000010010001100110111000110001101000111100000101010001100101000010010000010011101111110110010111100111011110101000111010010001111110100100100101001111100110110110110101001111000000001101000100111111011000110011101001010101011101011010001011000100100110000001110001010101001111011100101001111010100111101100001110001000100111100101010110101110111111100000001111011001100001111001111110111011001110111101010010111111110000100011111000000010100011100100001111000001101001111101001101001101010111111110111010010000000010101101000101111100101100110111010101001000110001111101100111001111101101101000010111011010011110011011100100001010110011011010101000111110010100111110001010110110111110110010010011001101110010111111100010010000000010101010101111110010001110110101110000001011010000110100011010001110011100000101111110100001100001100000101010011001010011111010011110010001111000000100001111111110001010101010110010111101011000011100100000001100100100000010000111110110110010101101000110001110010011100111100111110011001011001011000110100001100011111001000011011011011001111011101010111001110000010101001111011100101011101011011101010100110000100001011111100011110011110111110001010001101111000101111110001001111011111110000011101101101011001000000110101011000111101001101010100000001100101010011001011101111101110000110101010100101111110010100110100000111001110011110010010110100011001101000111010010110001100011011100010000001100110101001111000110010001110010110100000010111001100000111000100000100110100010110111001010010101000111001101110011001110111000010010110011011111110010110011110010100110000110001111101000000101000000011000011100101111100011010000010110111101000100110111100011111010001010111101001011101110000000100000100110111001101101011011001101001101110010001000001010010010010101111110110111100111110101001000011111111111000001110101000100011001000110101010000001110001000000110001000000111001000001011010111011000100010000110101111110110001110001111010001010110100100011001000100001100101110100110011110110001010101011111011010110000110011100100111101000110000010000010001101000010001000001110010111001110101100000010000110101101100111110101111111110111011111100101010110111000011111110101011101011100010101110001010111111100001011111010011100010101000101010111100000011101000001100101010111101000101010001110010011101111110000110000101000011111110110111111011000010000100000011011011010101111100001000010111011101011100100001011001011110000011010010101101000001000001011001100011100000011001111011100011011101110000111011110111001000000001000101111111101101001100010101000001100110011100010111010001100111100011111101111101100100100101011111110100010001101011100101111101010101010010100010001000111101101110010100000100101000001011000000000101001001111001101001100101100001010101010010001011010100011001001101010111000000111011110000101011011001010111001110001111101011111010010010111111101111001110111100011110111101010101000110001011110110000000001010000010100010010011010111010111110011110011000101000110110100010000111101111111001001100000000001010011110001111110101010100000011011110000001010011110101010111111101111010100101111000001101000110100011100001010010111111000011101010110101101110000101111001111100100111010100000100100001100010110100001001000000010101000000110000010011011100010011011010101011100011000000100000111100111100000011010111010010001000011111011010000010010100100110110011000110101110101100101110010101101111010110000010011100000101110101000000001001110101111100110001000101100001110010011010110111100111011001011100110110110111000011010011010010010001111101001100011011101011111110110000010101110100000101000011110101011000011011001101111111100100110011110110110001011011101011110111000100011011100111011000101101100100000111110110111100101000101001101001111000100010100011011010000000011101110111011011000011011001110001100110110010011110111001000111111101010110001001001000111001001111000111110001111011000111000011110101000000001111101101011011110101001001011111110010111011000001000010011110101010101011101000101010001010010010110111011010111101001111100000011000110010011101000001100101110011100001010101111111000000001000100110000000101000000000111001110111011101111001100011010001001000010011010101100010000101001010100001000000011001011000101001001011000101000011011010111010111000001110000000110011010000010001011000010001100010110011101011010100011001111101001101100100100000111111110100110010010101101110001110011001101110010101110111100100000001001000110101111101011000111111011100010001000011101101100000000001010000010010101000110101011101010001101000001011001100010011000000000010010010111000100000001000111000110100111111111100011011011001011011110111010111010110011001111100111100111011001000011010010100001110101101110101001100011101101110001100101101110011111011111010110110010001100000110010010000001001000010110011100011100110110001010101011011101000010001010110010010100011110011011001101001001100010011101110001110110100101011010101000101111110110101000010110101011110111011100111010100111101010001101111001001101001110111101011101111101001001110001101101100001010010100101001011100010100111011001100101101000110100010111100110010101111010100000111111000100011000101110110001110110001011011100110101010000111000110000011110101110101100000101001101100100001001111111011100111010100101110111100010011111110101010010001111000111001110100000010100101101100110011110000001000110010110100101100110110010000101001110110010000000100110000110010000111010100100000011100010000101110100010111101111111000111110011101000010111100010001100001101010111010011011111001111100101000111101011100101110010111011101100010111000011011100010010111010110011101001000011010100110011000110011010101011111100111100101010011000010111000000001101001110010101001001011000010101100100010001101100111101101110100010111111000101110100011011101111001100000001001101000101010111111101000111011101000010111110100111001010110011001001100011001101101000011001001110100110100101000100001010110100111010011001110011111011010001010000001110000110111111011111001011000001111101101010001011100001101101011100100111101001110000110110110011110000001010100111011011010100011010101101100011000011110111000100001110001011111001111110110100000001010011110001111011000101100011001000001011010001101000110101010000000111001010001000111010011111110010011110000101010010100110011010010010001010110010000111110111011001110001110010001101100100110010001011011010101110011011100001000010010011000100011101110011111011000001001110100110010110111110100011100110001001101001001100101100110110000110011011110000001000100110101011011001001100000101110101110101001000110000010100001010000010101001100111000110110011010101100000111011101111001101100001100001011011110111000101110000000000100100110001100010100110011011001000010110111011100011001110011010101111010000001000101001000100110010100011011011000101011011011111010001000111000010101100000111110010001010110110000110010111000110010001110000011100100001011101001011011111101111010101100010110011000100010100111000011000000110110001100101110101101010101100000101000001100000011100111110101111000110001101101101100100000010011111000100101101101010011101011101010101111000011110101011001100101100001010010010111010000001010110100000101110001101001100100111111000011101101100010100110001101010111110110111100111011000101101111111110000011101110100100010011010111000100110010001111011001001101001101001101001001000000010010110001010111000111001001011000000101001100100100011001111101011001011111001001001000100010110010100101000111000111011011010110001000111011111011101110111100000101001011101011010000101100111001111101101001000111011011101101000010111011110011100100101011000111101110010010011110011011111010111010000100101110100001001101010011110100011100110011101101100110110000100011000001000000001000001111101000011001000100011010110010001110011110011000101000010011101010011101011100100101101100011100110000101110000001110001001111111111101100000110001100111111001100010111110110010101111111111110100110001111010001100011110000011001000100110010000000010001101100101011010111111011001010110110011110101001111111111101000001101000010000000100001100001000000111111010101001110010011011110000011110001101011010100111001001100010110111010101101110011100010010001011010010110000101000100101010100010101110111101101000011011010101010111001101001000011000111000000111111111101010010011110111110000010010100011000111111011000011101000100010000111000110010100000001100100110001110000011101101010101101101010101101011000011101001000111000001001101011000010100100111101111010010100100010001000000000101110011010001001100100101101010110100010110000000000000100010011011101100100101000101100101000111010001001110010010111101111110100111010010011111011010001101110111110100110001111000010011110000111101010011110101110101000111101100101001110111110111000011111010101011011000010110111001000001001001000100000001111001001111010011110101110011001111111000110110101011100010100110000101000000011010010101001001100101110001111010010100100000110101001110100100010011100000001101010000001101010110001111100110001110111111101000111001000100111111000100001101110001110010100111111010011111110011110110011011100011101001100101001001011110111100101100100101000110110000011101101110011110001011011110011001010010110110001111001010111110111100000011111101000100010000010001001001000001101000100000000100110000000111010100101100111001010000010111001111011100101011011111011011110010001111010001001000101100110110001010100111011100011000000100100010010010011001010100111010000100111010011011100010010010101100011100000011001101101010011101001100110001110101011110110001001011100011000011011000111011100101110000111000101001000010011011100011011010111110101111110010011110100111110111010010111101000100100000100001010110101111000111010101100010100100101010111011101110100100100111111010011110100101101101001010101111011001101101001001010100100011000111110100001100101010111001010111010000011000000101111011101011010101000011101110110011100111001000010111010111111110100011010011100010001100100001101001101111111000111111000000010001111011001001001101001010110010000010001010100011011001110111101110001100100110000001001100011111100011001111101110000110111001011110000110111001100000010010101011100111101000010011001011100110100111111110101111110110001100011111111001010110011010010011011100101001100110101111100100001001010010000011001111111001101110111011010100100010100110000001101011101111100001011001101111000101100100011111101010101101001000000110100101111010101100010111011110011101000110001000100000110000110101000110101000011010101011011111011010101001010010001011001011111001111111111011000100010010000111100000001010001011110100110010010110010001100000011101000101010101011000000001000001100000001000110000001111100011010011001110100100000101011011011111101101101000011010001100011001100111000011101110000000111011010000001010001111000001111010100001001001100000100101000001111000100001010011100111000011001001101101011000111110000000011110101110011101110000011010001100010100001110000001110010110000011011101100101100101000001111100110100000111111100100111110111111111111110011010101111110111010001110101000100110101010110000001100111010101101011010110011000101010001100000000010010101101110011101010010101001001111101011110010001000010100011010000100011000001010111011111001011001101110110111001000000011110100101111111001111001110110000011001000000110001110110011001011110001100101110010111101101001011111100111101100101001011100100011001101000011001001011101000000000101100111101001001001111010011000110101110110000100001010001110101111011011110000111010010100011010101111101100100101010000111010000001110110001111011001101101000"
   }
]