[
   {
      "weights": [
         [
            0.4627289766489613,
            -2.0,
            -0.7512773598114458,
            2.0,
            1.912255487840773,
            -0.0703619650694582,
            0.07483820081058701,
            2.0,
            0.8737681557938115,
            1.6563846819817003,
            2.0,
            -0.6594769190012183,
            1.7971688891834456
         ],
         [
            0.009684892864597956,
            -2.0,
            2.0,
            0.4387668325266861,
            0.41735747158713593,
            0.3675070154009285,
            2.0,
            0.25204944651206046,
            2.0,
            -2.0,
            -2.0,
            1.1966183512261133,
            -0.051706276685901546
         ],
         [
            -2.0,
            -0.8252684960786202,
            -0.2633245558647478,
            0.10172708276346827,
            -0.9865163269134223,
            -1.6026252238411287,
            -0.1501379349381972,
            -2.0,
            1.8276129783240436,
            2.0,
            0.4440937164309423,
            0.5539787399980494,
            -0.212511699387631
         ],
         [
            -2.0,
            -1.9101087552386713,
            2.0,
            0.7275015931692297,
            -2.0,
            -1.227506498648651,
            -1.4579610782037462,
            -0.22464544516189672,
            -0.8814922689141075,
            0.6479627617615464,
            -1.7069708513216728,
            -0.9303269272738206,
            -2.0
         ],
         [
            0.14757011840190373,
            -2.0,
            -1.1656957868402191,
            2.0,
            0.49779691893033373,
            2.0,
            -0.2837591360505456,
            0.07541493406063635,
            0.4856819128419961,
            -0.32525351071821745,
            -0.9359633441140212,
            -2.0,
            -0.045530788869901084
         ],
         [
            0.2633402822998944,
            -2.0,
            2.0,
            -1.1902155995872512,
            -0.7156557232173687,
            -0.39494961166448356,
            0.2529604036239306,
            -1.4127545122765812,
            0.4461948086613274,
            -0.37432011846590546,
            -0.5900921617057069,
            0.515296498772054,
            0.8353979087722987
         ],
         [
            -2.0,
            -1.9189369296975052,
            2.0,
            -1.1671426927638822,
            2.0,
            2.0,
            0.9086280121470274,
            -0.5218028726938544,
            0.37330602000525986,
            1.1796581560485389,
            0.11669014587292632,
            -0.6240067751565577,
            -1.8895142878287439
         ],
         [
            -2.0,
            2.0,
            -0.18442232495112487,
            0.2576735725924229,
            -2.0,
            2.0,
            0.35729296025739166,
            -2.0,
            -2.0,
            -2.0,
            -1.7244492464864651,
            -1.3641979976556882,
            -1.9333982357438964
         ],
         [
            -2.0,
            2.0,
            -2.0,
            0.4195927559775211,
            0.015274978012974717,
            -0.18119093489915628,
            1.7586696841004767,
            -0.8552745620612071,
            -2.0,
            -2.0,
            -0.8767025189023958,
            -1.5633993097644112,
            -0.43134244102788916
         ],
         [
            0.8223109972592828,
            2.0,
            2.0,
            1.859232669510448,
            -1.2280175178285666,
            0.9227491502146258,
            -1.2818162932595039,
            -1.1964692106189425,
            -0.5737033349806729,
            -2.0,
            1.999739056312472,
            1.3195636348857396,
            -2.0
         ],
         [
            -0.06628769944653608,
            -0.7090961052210791,
            0.9807038672206648,
            -0.42168061969705656,
            -1.4585462064836294,
            -0.14145831329860095,
            -0.4392557224349873,
            -0.7949525000180468,
            1.5044301122125165,
            -0.8182461563699867,
            -0.6952836185010839,
            -1.50115916835231,
            0.06962992110132467
         ],
         [
            -0.8771321086896825,
            0.7776304977765041,
            1.7541497290522445,
            0.02764073058233646,
            0.12918325900807748,
            1.3753651148250536,
            -0.27938273913909495,
            1.3361565684952135,
            -1.3975040646417454,
            0.3991532003914557,
            -0.602423260531004,
            2.0,
            -1.024740123519857
         ],
         [
            -2.0,
            -1.1190014777392112,
            0.1830507825103504,
            2.0,
            -1.2089259759402504,
            -0.968183552742853,
            0.7331196532352717,
            2.0,
            2.0,
            1.0636924583169047,
            -0.6521636833895026,
            2.0,
            0.7603253542910581
         ],
         [
            -2.0,
            -0.9945015314459548,
            -0.36609848199343936,
            0.6141141723534229,
            -1.1441024323685631,
            -0.2771909211038631,
            -1.5427222521028487,
            -2.0,
            -1.6395288338876277,
            0.5369770926358359,
            2.0,
            0.055217979776312105,
            0.063005445454877
         ],
         [
            -2.0,
            -0.8944046480489647,
            1.6504568104903499,
            -1.983192226518183,
            0.2475619342350273,
            0.09918672111759996,
            -0.5706344028207646,
            -2.0,
            0.6131416387697356,
            0.5397741192558548,
            1.1506924318116385,
            0.9764551084885463,
            1.1468065844291424
         ]
      ],
      "biases": [
         [
            -0.9730618815987812,
            2.001769802664637,
            -1.598265410110993,
            1.8855397500221673,
            0.5244690049407733,
            1.4581592171280167,
            0.7526548245743674,
            0.30063714584010676,
            -0.7121858075758523,
            -0.7291946409141119,
            -0.46385837720205675,
            1.0797610115284708,
            -1.7446061176220906
         ]
      ]
   },
   {
      "weights": [
         [
            -0.19937948807195607,
            2.0,
            -0.3766744222821561,
            2.0,
            1.5233473006916345,
            2.0,
            -2.0,
            0.6114550119620893,
            -1.8162592858057915,
            -2.0,
            -0.6033277248828041,
            -2.0,
            -1.9618874161952486
         ],
         [
            -2.0,
            2.0,
            0.5038043963991629,
            0.7636360791820274,
            0.7733475000603384,
            2.0,
            0.6174341542616606,
            -2.0,
            -2.0,
            -0.7794794439700498,
            -2.0,
            -0.6196785832753334,
            -2.0
         ],
         [
            2.0,
            2.0,
            1.1315969665633168,
            0.2646508626866294,
            0.03166301694025813,
            -0.27673361685351705,
            -0.45952872761336044,
            2.0,
            -2.0,
            -0.6203433992938813,
            0.8112414962500754,
            -2.0,
            1.09500981375082
         ],
         [
            1.5938988417617719,
            -0.0017816099930126929,
            2.0,
            1.9816704339014453,
            -0.14698236049659547,
            -2.0,
            -0.43469520843347825,
            0.9430390600850487,
            2.0,
            0.11787647128357712,
            -2.0,
            -0.0047737792524561,
            2.0
         ],
         [
            0.5001052551740865,
            -0.554479545883229,
            -2.0,
            2.0,
            -1.0024321571491377,
            0.7157918994220529,
            -1.212475862745692,
            -2.0,
            -0.5771197084301386,
            2.0,
            -2.0,
            1.0290914023677595,
            0.525470565666957
         ],
         [
            -1.0317827596895972,
            0.9368622249884284,
            -0.6917832455938261,
            -0.5344095239060169,
            -0.10537331531908642,
            2.0,
            -2.0,
            1.942258812554776,
            -0.1927639490099589,
            -0.11952404585372385,
            -2.0,
            0.6354120491936561,
            0.8725816382388538
         ],
         [
            -0.7957046294264977,
            -2.0,
            1.5348506142289482,
            -0.965290099594678,
            1.791098156951785,
            -2.0,
            2.0,
            -0.6212828468152088,
            -1.1523873299477743,
            0.4333933548594059,
            2.0,
            -1.2562389666165306,
            1.4725295050390528
         ],
         [
            -2.0,
            0.6588990314196647,
            -1.4868943437478275,
            0.650212498767355,
            0.49752800931395236,
            0.43131539909330024,
            1.2768387514785213,
            2.0,
            0.5847408343391132,
            -2.0,
            -0.567706221609386,
            -0.7865371994809072,
            0.2353329346094131
         ],
         [
            -0.2537754903382701,
            -0.510178054828815,
            0.5375321486517518,
            -2.0,
            0.368072509989389,
            1.8760636838299545,
            2.0,
            -1.6110906546295451,
            -2.0,
            1.8210869585321476,
            2.0,
            1.6001490023140224,
            -0.7351307484422738
         ],
         [
            -1.6465552196189734,
            -2.0,
            2.0,
            -1.6792245421547993,
            -1.5328661192756443,
            -0.13956052968207897,
            -1.043306144182181,
            0.25837295402605465,
            -0.7180502240828901,
            1.0139425083955558,
            1.8063107917382026,
            -2.0,
            -0.497791950417381
         ],
         [
            0.7905549303785787,
            2.0,
            -1.1952368565331728,
            -0.04035897057599672,
            -2.0,
            1.0782309612010148,
            -2.0,
            1.8876483758472227,
            0.6092259406939542,
            1.1292814989343125,
            -2.0,
            0.2756883548579181,
            -0.3504759936199134
         ],
         [
            -0.5093838873462767,
            -2.0,
            1.1863335093764735,
            -0.3814802643591216,
            2.0,
            1.1676392038327046,
            0.6445335679783444,
            -0.4647193407937653,
            2.0,
            -0.67538051539362,
            1.9235973509870548,
            0.8562006376955326,
            2.0
         ],
         [
            -0.07463883479028123,
            -0.7106597966034531,
            -1.209955516538266,
            -2.0,
            -0.4286737249760878,
            0.43658196148051787,
            -2.0,
            -2.0,
            0.8098311499453961,
            0.5000109616850147,
            1.9144994938792956,
            1.677058118077268,
            -0.49799061426948904
         ]
      ],
      "biases": [
         [
            0.49415926535897925,
            -7.154097040114583,
            2.7753272796520236,
            -0.8038141200776997,
            -8.051327122901366,
            -2.2042476710880243,
            -0.12534954687823271,
            2.2815574166986883,
            -0.8251503958474955,
            1.4012565647149926,
            0.850814114048829,
            10.199707529189237,
            -1.936707860777147
         ]
      ]
   },
   {
      "weights": [
         [
            2.0,
            0.15027260635978673,
            -2.0
         ],
         [
            1.9155382511633843,
            1.6912474212713127,
            -1.0163574368227173
         ],
         [
            -0.27193274774060217,
            -0.9611547541170693,
            0.3003320170193
         ],
         [
            0.19351156561819732,
            2.0,
            -0.7542387124545047
         ],
         [
            -2.0,
            0.0013713961087476341,
            -0.15955743328054853
         ],
         [
            -2.0,
            -0.4419710009576876,
            -2.0
         ],
         [
            2.0,
            1.4141559505672276,
            0.368958946557559
         ],
         [
            2.0,
            0.2548041890171449,
            0.5338120597637365
         ],
         [
            0.19009337111126307,
            0.12024493545455184,
            -0.027600266943451995
         ],
         [
            1.43999090242701,
            -0.1587555376926173,
            0.061974925008696335
         ],
         [
            2.0,
            2.0,
            -0.8477662268838064
         ],
         [
            -2.0,
            0.6282111932049375,
            2.0
         ],
         [
            -1.666394241246363,
            2.0,
            -1.3008616251058236
         ]
      ],
      "biases": [
         [
            0.07518583772020568,
            2.260946801017709,
            0.6390442149222633
         ]
      ]
   },
   {
      "genes": "011111010111001000011011110000101111000000000001001110110011011001011001110001011011001101110001011111010011010100110100001001001010001001010001101011100110101111111000010101010000011100001110010110100100000000110000011000011001001110110001010100100100010011101000111001011110001111101110100000011000011111111010101111101110011111001010010101111010011001010101001100001011110101100010101101100011100011000110001000000100001111110010011101111111111110000010000110101101101111111011111111000110000110000110101001000110001010101111100100011000101110111011110111000101110111101001010000011010001000010001010001011010010000000111001011110101111111000110011100010100100001011100001100101000101110000111010111010101110001101110011101011110011011011111001000000111100000010000100101011100110111110111101111101100011000111011000010100000101010100011001100010011110001110101101110111111001010110101001101000001101110000010000011101000010111110011111101100100011011010001110101001000010110101110001110100000010011101010000111001010011000000000010100010111000110001101011000000010010100010100110011011111110000111010100010000010010111010111110110011101001001000010100011111110100000101011011010111000001011010110001100011011010011100100111111011100000101110000111110110111000000100000011111000101100101000111100110001000000000111010110100110001100100011110010010001000010110001111001101111001001010011100100110110010010001100100100111010111110010110111000011011101101110010110101001110100001101100010110011011011110000110100101010010110011100011110110111000111010110011010001010000001001001100000110100101100100001111111111011011111010111010001100010011110001111100011100001010100000101000111110111001100001100111110010001011001101100011001101001011000101010101100111011000110111100010010110010110010101000001011111110000000101100100000100110000111011110111000110101000110111001110110010011010000111000111110101000000101101111011100111111111011110001110000010011010110010000100011001011100100011111110011001011011010100001101000001101011111000011000101100100101101101110111111100001110011000110100101011111111000010110110110110001110001111000011010110111010101100011011100111101000111100010001001101011111010010010000111100000001010011111010111011010001101011001011101100000101100111001011011111100011010001111101001011000100000111010110000010100011100100010100010110111010010110111001001101011110100000000111111001100001100100011110100011000011110110101100001111100100101110011101000011011100011001111100100101010110011000010101011101001001100000100111001111110000111001000110010011011001010011001110111010101111100000101001100110110000011011010011000001010111011001001011111001111110111101001010011011010010101110001100011010101111101110011011110100011111111111011100101010101011011100000110010010000111000111001100001100010111110000000011001001111000010101111010111001001100011010000110011011010000110110110000001100000111000001010110110001000000001010011101100011010000101110100111100100001110100001111111010110000010000100110001110101000001101110110001010000011000000000100010101011011011011100101010011000010110001010000110111010001011001110100001001110000111000001011111100101011101100000000011000000101000111110111111110110011001000101101100100010111000100001010101101011011011111011001011010111100111100011011000011101100011000111001011010010010000000011000100011011000001111110110000000001111010000001001101000001010110110001101100101111001010010111110111011111001011111100101110111101011100010110100001110011101001000100001110000111110000101011000001100111011001100000010011110101001111010010010111011011101010101110010111001111100011001001111100101000101010100010101110100011010010100010011011000011110000011100000010100111111000111101111001100001000011101110111011100010101011110011000111110100101110100100011010100001100001101001110100011001010011111000101010110011011111100110001111000111100101011101101110111100111110001110100110000000101110001100001011011001010111111111110010001000000110001001010000111001101111001101110101111111110101111000010110101100101111000110001010001110000111111110110010001000010010101000001100101000000110110101100000010101000100100110001001111101010000100011001011001010111000110001110011110111100000000011010011010010011110011100010001101011011000111000010111100101111110111100110011100111010110010111010101111100011011010101011000000110010100011100100000010010011001111001011111011000000111000111110011100001000010100100111010101110111010110001001011110101011011001011001011011111011010111100000001111101100000101011010111100111011101010011111011010011101111001000100101001110001000001011100111100001010110001010100001000001010001110001110100000110010111010110010111010110000001011110101001111010000111010110011000111110100000001011000101011000011011100100111101111111010100000111000001111000100100011001010001100111110100101001110011101000011110000111110111001010011010110101011101000010111001000000101101101110011000111011100100100000010000110100001100111001000010110100100100101011100100101111010110010100011010001000001010101100011111010101011001001110111111110100110111111111111101111100101001000111100101000000011001110010010011001000110100101100110010010100011000110101110110100101001000000101001101011101000111001010000001110011001110110110001110101110101101011100110110010110100011011000101000000100101110110001011110000101100011100010000001100110001001011101101101110011110101000100111000010110110100001111101010101011110100101111101110000111100001010111011001110101011100111100011001100011110101011010000111110001110101100010101001000010101011011101111000000010010001100110111000110001101000111100000101010001100101000010010010010011101111110110010110100111011110001000011010010001110110100100100101001111100110110110110101001111000000001101011100111111011000110011101001010101011101011010001011000110001110111001110001010101001111011100101001111010100111101100000110001000100111100101010110101110111111100000001111011001100001111001111110111011001110111111010010111111110000100011111000000011010011110010001111000001101001111001001101001111000111111110111010010000010010111101000101111100101101110111010101001000110001011101100011001110101100001100010111011010011110011011100100001010110010111010101000111110010100111111001010110110111110110011010011001101110010111111100010010000000010101010101111110100001110110101110000001011010000111100011110001110011100000101111110100001100001100000101010011001010011111010011110010001111001000100001111111110001010101010110000111101011000011100100000001100100100000010000111110110110010101101001110000110010011100111100111110011001011010011000110100001100010001101000011011011011001111011101011011001110110010101001111011100101011101011011101110100101000100001011111100011110011110111010001010001101111000101111110001000011011111110000011101101101011001010000110101011000111101001001010100000001100101010011001011101111101110000110101010110101111110010100110110001100001110011110010010110100011001101000111010010110001100011011101010000010110110101001111000110010001110010100100000010111001100000111000100000100110100100110111001011110101000111001101110011001110111010010110110101011110010010110011110010100110000110001111101000000101000000011000011100111111100011010000010100111101000100110111100011111010011010111101001011101110000000100100100110111001101101011011001101001101110010001000001010010010010101111111110111100111110101001000001111111111000001110101000100011001000110101010000000110001000000111001000010111011000001000010111101000100010000110101111110110001110001111010010010110100100011001000100001000111010100101011110110001011001101111001010110100110000100100111101000111000010000010001101001110011000001111010111111110101100001010000110101101100111110101111111110111011111100111010110111100011111100101011101011100010101110001010111111101001011111000001100010101000101010111100000011110100001100101010111101000101010001110010011101111110010110000101000011111110110001111011000010000100001011011011110101111101001000010111011101011100100001011001011110000011010010101101000001000001011001100011100000111001111011100011111101110000111001110101001000000001000101011111101101001100010101000001100110011100010111010001100111000011111101111101100100100101111110110100110001101011100001111101010101010100110010001000101101100110010100000100101000001011000000000101001111111001101001100101100001010101010011001011001100011001001100110111000000101001110000101011011001010111011110001111101010111011010010111111101111001110111100001110111101110101000110001011110110000000001010000010100010010011010111010111110011110011011101010110110100010000111101011111001001100000000001110011101001111110101010110000011011110000001010011110101011011111101111010110110111000001101000110100001110001000010111111000011101010110111101110000101111001111100100111010100000100100001100010110100001001001100010101000100110011010001011100010011011010101011100011000000100000111100111111001001010111010010001000011111011010000010010100010110010011000110101110101100101110010101111111000110000010011100000110110001000000001001110101111100110001000101100001110010011010110111100111010001011100110110110111000011010011010010010001111101001100010111101011111110110000010101110100000101000011110101001000011011000111111100000100110011110110110001011011111011110111000100010011100111111000101101100100010111110110111000101000101110101001111000100010100011011010000000011101110111011011000111011001110001101110110010011110111001000111111101000110001001001000111001001111000111110001111011100111000011110101000000001111101101011011111101001001011111110010111011000001000010001110101010101011101000011010001010010010110111011010111101000011100000011000110010011101000001110101110011100001011001111111000000001000100110000000101000000000111001110111011101111001100011010001001000111111011101100010000101001010100001000000011001011000101001001011000101000011010110111110011000111110000000110011010000010001100000010000100010110011101011100100011001111101001101110100100000111111110100100010010101101110001110011001101110010101110111100100000001000000110000111101011000111111011100010001000011101101100000000001010000010010101000110110011101010001101000001011001100010011000000000010010010111001100000000100111000110100001111111100011001011001011011110010010111010110011101111100111100101011000000011010010100001110101101110101001100011101011110001100011101110011111011111010110110010001100010110010010000001001000010110011101110100110110001010101011011101000010001010110010010100011110011011001101001001100010011101110001110111000101011000101000101111110110101000010110101011110111011100111010100111101010001101111001001101001110111101011101111101001001110001101101100001010010100101001011000010100111010001100001101000111100000111111110010101111010100000111111000100011000101110110001110110001011011100110101010010111000110000011110101110101100000101001101100100001001111111011101011010100011101111100010011111110101010010001111011111001110100000010100101101100110011110000001000110010110100101100110101010000101001110100110000001000110000110010000111000000100000011100010100101110100010111101111111000111110001101000010111100010001100001101010111010011011111001111100101000111101011100101110010111011101100010111000011101100011110101010110011101001000011010100110011000110011010101111111100111100100110011000010111000000001101001110110101001001111000011101100100010001101100111101101110101110111111001001110100011011101111001100000001001101010111010111111101100111011101100010111110100111011010110011001001101111001101100000011011001111100110100100000100001010110100111010011001110011111011010001011100101110000110101111101110001011000001111101001010001011100001101101011100100111101001110000110111110011110000001010100111011011010100011010101001111011000011110011000100001111001011100001111110110100000001010011111001111011000101100011001000001000010001101000010101010000000111001000001000111010011111110010011110000101010010100110011010010010001010010011000111110111011001110001110010001110100100110010001011011010101110011111100001000010010011000100011101110011011011000001001110100110010110111110110011100110001001101001001100101100110110000101011011110000101000100110101011011001001100000101010101110101001100110000010100001010000010101001100101000110010011010101100000111011101110001101100001100001011011111011000101110000000100100100110001100010100110011011001000010110111011100011001110011010001111010000001000111001000100110010100011111011000101011011011100010001000111000010101100000111110010001010110110001110010111000110010001110000011100100001001101001011011111101111011101101010110001000100010100111000011000000110110001100101110101101010101100001101000001100000011100111110101111000110001101101101100101000010011111000100101101101010011101100101010111011000011100100111001100101100001010010010011010100001010110100100100010001101001100100111111000011101101100011110110011101010111110110111100111011000101101111111110000011101110000100010011010111100100110000001111011011001101101101001101001001000000010010110011010111000111001001010000000101101000100100011001111101011001011110001001001001000010110010000101010111000110011011010110001000111011111111001110011101000101001010001101010000101100111001111101101001000001011011101101000010111111110011100100100011000111101110000011111110011011111010111010000100101110100111001101010011110100011100101011101101100110110000100111000001000000001000001111101000011001000100011010110010001110011110011000101000010011101010011100111100100100001100011100110000101110000001100001001111111111101100000110001100111111000110010111111110010101111111101110100110001110010001100011110001011001000100110010000001010001101100101011000010111011001011010110011110101001111111111101100101101000010100000100001100011000000111111010001101110010011011110000011110001101011010100111001001110010110111010001111110011100010010001011010010110000101000100101010100010101101111101101000011011010101011111001101001000011000111000000111111111101010010011110111110000010001100000100110111011000011100000100110000111000110010100000001100100100001110000011101001010101101101010101101010000011101001000111000001001101010000010100100111101111010000100100000001000000000101110011110001001100100101100010110100010110000000000000100010011011101100100101000101100101000111010001001110010010111101111111000111010010011111000010001101010111110100110001111010011011110000111100110011110101110101000011101110101001110111110111000011111010101011011000010110111001000001001001000100000001111001010111010010110101110011001111111000110110101011100010100110000101001000011010010001000011100101110001111000010100100000100101001110000100010110100000001101011000001101010110000111100110001111011111101000111001000100011111000100001101110001110010100111111100011111110011110110011011110011101001100101001001011110111100101100100101000110110000011101101110011110001001000110011001010010110110001111001010111110111100000011111101000100010000010001001001000001101100100000000100010000000111010100101100111001010010010111001101011100001011011101111101110011101111010001001000110100110110001010100111011100011000000100000010001010011001010100111010000101011100011011100010000010101100111000000011001101101010011101001100110001110101011110110001001011100011000001010000111011100101110000111000101001000010011011100011011010111110101111110010011110100111110111010010101101000100100000100000110110101111000111010101100010100100101010111011101110100100100111101010011110100100001101001010101111011001101101001001010100100010100111110100001100101010111001010111010000011000000011111011111011010101000111101110110011100001001001010111010111111110100011010011110010001110100000001001101111111010111001011000010000111011001001001101001010110011100010001010100011011001110111110110001100100110000000101100100111100011001111101110000110111001011110000110110001100000010010101011000111101000010011001110000110100111111110101111010110001100011111111001010110011010010011011100101001100110101111100010000001010010000011001111111001110110111011010100100011001110000001101101101111100001011000101111000101100100011011101010101101001000000110100100011010101100011111010110011101000110001010100000110000110101000110101000011011101011011111011010101001001010001011001011101001111111111011000100010010000111101000001010001011110100110010000110010011100000011101000101010101011000000001000001100000001000110000001111110010010011001110100100000101011011011110101101101000011010001100011001100111000011101110000000111011010000001011101111011001111000100001000001110000100101000001111000101001010011110111000100001001101101011000111110000000011110101110011101110000011010001100010100001111001001110010110000011011101100101100101000000111100110100100111111100100111110111011111111110011010101111110011010001000101000100110101010101000001100111010101101011010110011000101010111100100000011110101101110011001010010101001000111101011110010001001010100011010000100011000001010111011111001011001101110110111001000000011110100101111111001101001110110000011001000000110001110110011001011110001100101110000111101001001011110000111101000101001011100111011001101000011001001011101000000000101100111101001001001111010011000110111110100000100001010001110101111011111110000111010010100011010101001101100100101010000111010000001110110001111011001101101000"
   }
]