[
   {
      "weights": [
         [
            2.0,
            -0.6213031387409844,
            -0.5531446246115995,
            2.0,
            0.632397134754196,
            -0.0723619650694582,
            0.11871430497786944,
            1.7630133013227636,
            1.0589451541468868,
            0.6132342981919464,
            2.0,
            -1.9520697956592257,
            0.9078414829251329
         ],
         [
            -0.4727973892134834,
            -2.0,
            2.0,
            2.0,
            0.12633093539913318,
            0.3768521425955963,
            2.0,
            0.7044034191027297,
            2.0,
            -2.0,
            -1.6411551317793232,
            0.17739715603738693,
            -0.06010450640092726
         ],
         [
            -1.621799870888756,
            -1.0895074242614426,
            -0.9275723234147014,
            0.10172708276346827,
            -1.398587138312394,
            -0.31969608949993755,
            -0.5540051876806089,
            -0.7116779682814272,
            2.0,
            0.41843583576061755,
            0.35056275754493965,
            1.178438893513951,
            -2.0
         ],
         [
            -2.0,
            -2.0,
            0.3252772680599057,
            1.64188209591903,
            -2.0,
            -2.0,
            -1.1848902848913867,
            -0.617167558651899,
            -0.39874893009102425,
            2.0,
            -1.20336025372731,
            -0.4498844766076593,
            -1.612823257284642
         ],
         [
            0.21562321489339112,
            -1.0674059276677947,
            -0.9366250055855994,
            2.0,
            2.0,
            2.0,
            0.044170052550482855,
            0.7736273079688445,
            1.4952394018871313,
            -0.3101738659809864,
            -0.6593704312827892,
            -2.0,
            0.16746035367635675
         ],
         [
            1.1964730114708715,
            -1.1595680007167062,
            1.3847237627841136,
            -0.8198129682752721,
            -1.3261778125918873,
            -0.24224165442540407,
            0.5116506580132661,
            -0.5686837611663145,
            0.7560709007708685,
            -0.5399041859011371,
            -2.0,
            0.23080093955666642,
            1.148300537069842
         ],
         [
            -1.7988762020851754,
            -0.5880697432726678,
            2.0,
            -2.0,
            0.9896476152621172,
            0.2662901852003127,
            0.7598315647747174,
            -0.29786483266795316,
            0.15398744708520623,
            2.0,
            0.08276094521415656,
            -0.06913955255849988,
            -1.6449656200641274
         ],
         [
            -1.9434112394178154,
            2.0,
            -0.21212143679420237,
            0.4020983445243216,
            -0.9007146097754839,
            0.7784897665015335,
            0.8244168259457565,
            -2.0,
            -1.0902766522274472,
            -1.1857949708735607,
            -1.8254581039402074,
            -1.2086935809865587,
            -2.0
         ],
         [
            -2.0,
            2.0,
            -0.7454480858948335,
            0.7177077883276253,
            0.05548736397892407,
            -0.0724121783188477,
            1.823085640780728,
            -0.08252238989986517,
            -0.6966811831870116,
            -1.052619256685806,
            -1.035782163639627,
            -0.34769140678516974,
            -2.0
         ],
         [
            0.4155853612859445,
            0.76309136745913,
            0.8182128882533406,
            0.7020291892292061,
            -0.414698956966254,
            1.1797403048186244,
            -2.0,
            -1.3629913361666866,
            -0.2891900729155423,
            -2.0,
            2.0,
            0.6890061398117333,
            -0.9770169687948296
         ],
         [
            -0.00698681731848426,
            -0.9947598113646707,
            0.5859870706144567,
            -0.9117425434979324,
            -0.34997988410023473,
            -0.2146530024436781,
            -0.875715875950889,
            -1.2883418602215893,
            0.6717221911466622,
            -0.570210774785983,
            -1.3700092665321633,
            -1.359955639840103,
            0.2472803561364799
         ],
         [
            -1.309663073604557,
            0.4864800657557834,
            0.9051232350663384,
            0.02764073058233646,
            0.0006434426683326966,
            0.8676129306059726,
            -0.17106416019017093,
            0.7539176644278726,
            -2.0,
            1.2462062546808506,
            -0.38105159111946213,
            0.9164718405649406,
            -1.1955896734125258
         ],
         [
            -0.7883980758243684,
            -2.0,
            0.6154755544422492,
            1.8778674063991805,
            -0.437589736343679,
            -2.0,
            2.0,
            0.8708895315489947,
            0.2392607992609291,
            2.0,
            -0.9276858029083754,
            2.0,
            2.0
         ],
         [
            -1.061966055497568,
            -0.5488201224526194,
            -1.2200365220193392,
            0.5179371860580885,
            -1.3304475776498432,
            -0.11574845235109214,
            -0.5634833661221211,
            -0.471362444135708,
            -0.28462624176330587,
            1.0630168999322749,
            2.0,
            0.1327931957866721,
            0.012616067164722728
         ],
         [
            -2.0,
            -0.6530329786374238,
            0.3006604173778767,
            -0.9641126541274009,
            1.2014911107783148,
            0.2902398115802169,
            -2.0,
            -1.404631682333362,
            2.0,
            0.8894201225497044,
            2.0,
            0.8444551084885462,
            1.8158950564757612
         ]
      ],
      "biases": [
         [
            -5.721433460577262,
            1.2716813487046281,
            -0.10911503837897543,
            1.5727963750258616,
            0.7820442088933917,
            0.521362805928928,
            0.5213451091080559,
            0.628513250007389,
            -0.7437344813693392,
            -1.790035321295297,
            -1.201345078963703,
            0.6802566069170827,
            -0.467362805928928
         ]
      ]
   },
   {
      "weights": [
         [
            -0.20064497655826344,
            2.0,
            -0.9057009464124169,
            2.0,
            0.4537190243630116,
            1.5788575941357916,
            -2.0,
            0.3106408737977777,
            -0.2599761607873151,
            -1.2830138681089123,
            -2.0,
            -1.208137399274813,
            -0.7495777489599038
         ],
         [
            -0.855460028281682,
            0.5351136533975578,
            0.7647601332459348,
            0.25694583685043193,
            1.9363209397568542,
            1.8369715664783473,
            2.0,
            -1.2157692626967003,
            -2.0,
            -0.782585642981895,
            -2.0,
            -0.3386166534455867,
            -1.7183033886115768
         ],
         [
            2.0,
            2.0,
            2.0,
            2.0,
            -0.004044946327690837,
            -0.08513185862628395,
            -1.8747410593194738,
            2.0,
            -2.0,
            -0.9155115341643442,
            0.9167636037112066,
            -1.540662520098327,
            2.0
         ],
         [
            1.7904032704886426,
            -0.10748957326096166,
            1.1290089315971474,
            0.3974227266401979,
            -0.806964633531372,
            -0.5425127887998746,
            -0.1437306201618344,
            0.7463753599703273,
            2.0,
            0.10902691536203837,
            -1.8070052964064336,
            -0.014428646028917726,
            2.0
         ],
         [
            0.09472474639541573,
            -1.5094352646433886,
            -1.136946405697755,
            2.0,
            -0.36425521305589764,
            1.3174379027159013,
            -0.46948475637265674,
            -2.0,
            -2.0,
            2.0,
            -1.9120777426432118,
            0.7566666304358607,
            2.0
         ],
         [
            -1.5754553172580612,
            1.5143400994406866,
            -2.0,
            -1.1523298610821735,
            -0.060585707313906445,
            0.6644635232125021,
            -1.7252003226712544,
            0.330851797732459,
            -0.39261349890262737,
            0.010741436603712835,
            -2.0,
            0.8495978929427327,
            0.9743692402151634
         ],
         [
            -0.3057931557329535,
            -2.0,
            0.8337710056649399,
            -1.9799803298685321,
            0.7312752095646966,
            -2.0,
            2.0,
            -1.1468226330106004,
            -1.0798386742408992,
            0.07187124739827395,
            1.3337444240764584,
            -1.3618230702249858,
            2.0
         ],
         [
            -2.0,
            2.0,
            -1.3404253388070542,
            0.7357169274942262,
            0.8625722362939566,
            0.4016339900999655,
            1.7007413978626775,
            2.0,
            1.4507762038653762,
            -0.4891093917036607,
            -1.0145203718314395,
            -2.0,
            0.7840762734324959
         ],
         [
            -0.470545383435966,
            -1.6861160707392315,
            0.23728438110179936,
            -2.0,
            0.4221610001226211,
            1.2154619436893315,
            0.24749060294434014,
            -1.5983296008989798,
            -2.0,
            2.0,
            2.0,
            1.7208569716108422,
            -1.423626307657662
         ],
         [
            -0.467811916969115,
            -0.6210496938858365,
            1.1038195650626794,
            -2.0,
            -0.7917688078618941,
            -0.0857463734311553,
            -0.5421468727943313,
            0.14731101213856654,
            -0.0856785727579612,
            0.20877439764057476,
            1.0176913608055789,
            -1.3584874904321373,
            -0.3969512459207135
         ],
         [
            0.9517805874529647,
            1.9609318053168214,
            -1.5596616043495892,
            -0.03093419261522734,
            -2.0,
            2.0,
            -1.2223592805506391,
            1.497073177923475,
            0.3836684275333371,
            1.0761841634050797,
            -2.0,
            -0.03144437431305898,
            -0.16537865809068084
         ],
         [
            -0.8165166165172537,
            -2.0,
            2.0,
            -0.24093159659450525,
            2.0,
            0.79857729811844,
            1.6289406129450188,
            -1.6932812434935935,
            2.0,
            -0.6008318476290031,
            1.7046593290477667,
            1.8878023597495432,
            0.37232110236164095
         ],
         [
            -0.12525830189612774,
            -0.18372177466416534,
            -2.0,
            -1.0584621681791593,
            -1.9108329541618418,
            0.1748120623539514,
            -1.3805160930125127,
            -1.267939520902183,
            0.3008046258151337,
            2.0,
            1.4621101517623656,
            2.0,
            -0.19363665373656194
         ]
      ],
      "biases": [
         [
            0.3233628179866692,
            -4.22949540849362,
            1.312681354733499,
            -3.8119202045409986,
            -4.6639378953329995,
            -1.271468962738679,
            -0.1715044166691297,
            0.46938050877867077,
            -1.8265662982679136,
            0.9145663344411352,
            2.0590264638415547,
            6.732097088345525,
            -1.2907964111990857
         ]
      ]
   },
   {
      "weights": [
         [
            2.0,
            0.390754894466738,
            -0.8094373266192602
         ],
         [
            2.0,
            1.0434067469189976,
            -1.0101450387990263
         ],
         [
            -0.019295589842753952,
            -0.4634468149646015,
            0.7257213772228418
         ],
         [
            0.28426376792389146,
            2.0,
            -1.6110882563183033
         ],
         [
            -2.0,
            0.01062803317018355,
            -1.211530860919322
         ],
         [
            -2.0,
            -0.7757763057837396,
            -0.26711825247298904
         ],
         [
            0.8692164709245787,
            0.5280851873992198,
            1.04446335116895
         ],
         [
            0.4064129374753655,
            -0.07619580495398359,
            1.0059536584461972
         ],
         [
            0.05504028064864637,
            0.1691564392924494,
            0.0008510592630610512
         ],
         [
            1.4143050677212397,
            -0.18183518242984828,
            0.05043510264008083
         ],
         [
            2.0,
            0.3846789870183266,
            -0.28380165669877483
         ],
         [
            -2.0,
            0.3608660780680109,
            1.5049721889647232
         ],
         [
            -1.835597793874053,
            2.0,
            -0.4487023718045849
         ]
      ],
      "biases": [
         [
            0.04569911184307751,
            1.3914866655884206,
            1.5319468432198058
         ]
      ]
   },
   {
      "genes": "011111010111001000011011110000101111000000000001001110110011011001011001110001011011001101110001011111010011010100110100001001011010001001010001101011100110101111111000010101010000011100001110010110100100000000110000010000011001001110110001010100100100010011101000111001011110001111101110100010011000011111111010101111101110011111001010010101111010011001010101001100001011110101100010101101100011100011000110001000000100001111110010011101111111111110000010000110101101101111111011111111000110000110000110101011000110001010101111100100011000101110111011110111000101110111101001010000011010001000010001010001011010010000000111001011110101111111000110011100010100100001011100001100101000101110000111010111010101110000101110011101011110011011011111001000000111100000010000100101011100110111110111101111101100011000111011000010100000101010100011001100010011110001110101101110111111001010110101001101000001101110000010000011101000010111110011111101100100011011010001110101001000010110101110001110100000010011001010000111001010011000000000010100010111000110001101011000000010010100010100110011011111110000111010100010000010010111010111110110011101001001000010100011111110100000101011011010111000001011010110001100011011010011100100111111011100000101110000111110110111000000100000011111000101100101000111100110001000000000111010110100110001100100011110010010001000010110001111001101111001001010011100100110110010010001100100100111010111110010110111000011011101101110010110101001110100001101100010110011011011110000110100101010010110011100011110110111000111010110011010001010000001001001100000110100101100101001111111111011011111010111010001100010011110001111100011100001010100000101001111110111001100001100111110010001011001101100011001101001011000101010101100111011000110111100010010110010110010101000001011111110000000101100100000100110000111011110111000110101000110111001110110010011010000111000111110101000000101101111011100111111111011110001110000010011010110010000100011001011100100011111110011001011011010100001101000001101011111000011000101100100101101101110111111100001110011000110100101011111110000010110110110110001110001111000011010110111010101100011011100111101000111100010001001101011111010010010000111100000001010011111010111011010001101011011011101100000101100111001011011111100011010001111101001011000100000111010110000010100011100100010100010110111010010110111001001101011110100000000111111001000001100100011110100011000011110110101100001111100100101110011101000011011100011001111100100101010110011000010101000101001001100000100111001111110000111001000110010011001001010011001110111010101111100000101001100110110000001011010011000001010111011001001011111001111110111101001010011011010010101110001100011010101111101110011011110100011111111111011100101010101011011100000110010010000111000111001100011100010111110000000011001001111000010101111011111001001100011010000110011011010000110110110000001100000111000001010110110001000000001010011101100011010000101110100111100100001110100001111111010110000010000100110001110101000001101110110001110000011000000000100010101011011011011100101010011000010110001010000110111010001011001110100001001110000111000001011111100101011101100000000011000000101000111110111111110110011001000101101100100010111000100001010101101011011011111011001011010101100111100011011000011101100011000111001011010010010000000011000100011011000001111111010000000001111010000001001101000001010110110001101110101111001010010111110111011111001011111100101110111101011100010110100001110011101001000100001110000111110000101011000001100111011001100000010011110101001111010010010111011011101010101110010111001111100011001001111100101000101010100010101110100011010010100010011011000011110000011100000010100111111000111101111001100001000011101110111011100010101011110011000111110100101110100100011010100001100001101001110100011001010011111000101010110011011111100110001111000111000101011101101110111100111110001110100110100000101110001100001011011001010111111111110010001000000110001001010000011001101111001101110101111111110101111000010110101100101111000110001010001110000111111110110010001000010010101000001100101000000110110101100000010101000100100110001001111101010000100011011011001010111000110001110011110111100000000011010011010010011110011100010001101011011000111000010111100101111110111100110011100111010110010111010101111100011011010101011000000110010100011100100000010010011001111001011111011000000111000111110011100001000110100100111010101110111010101001001011110101011011001011001011011111011010111100000001111101100000101011010111100111011101010011111011010011101111001000100101001110001000001011100111100001010110001010100001000001010001110001110100000110010111010110010111010110000001011110101001011010000111010110011000111110100000001011000101011000011011100100111101111111010100000111000001111000100100011001010001100111110100101001110011101000011110000111110111001010011010110101011101000010111001000000101101101110011000111011100100100000010000110100001100111001000010110100100100101011100100101111010110010100011010001000001010101100011111010101011001001110111111110100110111111111111101111100101001000111100111000000011001110010010011001000110100101100110010010100011000110101110110100101001000000101001101011101000111001010000001110011001110110110001110101110101101011100110110010110100011011000101000000100101110110001011110000101100011100010000001100110001001011101101101110011110101000100111000010110110100001111101010101011110100101111101110000111100001010111011001110101011100111100011001100011110101011010000111110001110101100010101001000010101011011101111000000010000001100110111000110001101000111100000101010001100101000010010000010011101111110110010110100111011110001000011010010001110110100100100101001111100110110110110101001111000000001101011100111111011000110011101001010101011101011010001011000110001110111001110001010101001111011100101001111010100111101100000110001000100111100101010110101110111111100000001111011001100001111001111110111011001110111111010010111111110000100011111000000011010011110010001111000001101001111001001101001111000111111110111010010000010010111101000101111100101101110111010101001000110001011101100011001110101100001100010111011010011110011011100100001010110010111010101000111110010100111111001010110110111110110010010011001101110010111111100010010000000010101010101111110100001110110101110000001011010000111100011110001110010100000101111110100001100001100000101010011001010011111010011110010001111001000100001111111110001010101010110000111101011000011101100000001100100100000010000111110110110010101101001110000110010011100111100111110011001011010011000110100001100010001101000011011011011001111011101011011001110110010101001111011100101011101011010101110100101000100001011111100011110011110111010001010001101111000101111100001000011011111110000011101101101011001010000110101011000111101001101010100000001100101010011001011101111101110000110101010110101111110010100110110000100001110011110010010110100011001101000111010010110001100011011101010000010110110101001111000110010001110010100100000010111001100000111000100000100110100100110111001011110101000111001101110011001110111010010110110101011110010010110011110010100110000010001111101000000101000000011000011100111111100011010000010100111101000100110111100011111010011010111101001011101110000000100100100110111001101101011011001101001101110010001000001010010010010101111111110111100111110101001000001111111111000001110101000100011001000110101010000000110001000000111001000010111011000001000010111101010100010000110101111110110001110001111010010010110100100011001000100001000111010100101011110110001011001101111001010110100110000100100111101000111000010000010001100001110011000001111010111111110101100001010000110101101100111110101111111110111011111100111010110111100011111100101011101011000010101110001010111111101001011111000001100010101000101010111100000011110100001100101010111101000101010001110010011101111110010110000101000011111110110001111011000010000100001011011011110101111101001000000111011101011100100001011001011110000011010010101101000001000001011001100011100000111001111011100011111101110000111001110101001000000001000101011111101101001100010101000001100110011100010111010001100111000011111101111101100100100101111110110100110001101011100001111101010100010100110010001000101101100110010100000100101000001011000000000101001111111001101001100101100001010101010011001011001100011001001100110111000000101001110000101011011001010111011110001111101010111010010010111111101111001110111100001010111101110101000110001011110110000000001010000010100010010011010111010111110011110011011101010110110100010000111101011111101001100000000001110011101001111110101010100000011011110000001010011110101011011111101111010110110111000001101000110100001110001000010111111000011101010110111101110000101111001111100100111010100000100100001100010110100001001001100010101000100110011010001011100010011011010101011100011000000100000111100111111001001010111010010001000011111011010000010010100010110010011000110101110101100101110010101111111000110000010011100000110110001100000001001110101111100110001000101100101110010011010110111100111010001011100110110110111000011010011010010010001111101001100010111101011111101110000010101110100000101000011110101001000011011000111111100000100110011110110110001011011111011110111001000010011100111111000101101100100010111110110111000101000101110101001111000100010100011011010000000011101110111011011000111011001110001101110110010011110111001000111111101000110001001001000111001001111000111110001111011100111000011110101000000001111101101011011111101001001011111110010111011000001000010001110101010101011101000011010001010010010110111011010111101000011100000011000110010011101000001110101110011100001011001111111000000001000100110000000101000000000111001110111011101111001100011010001001000111111011101100010000101001010100001000000011001011000101001001011000101000011010110111110011000111110000000110011010000010001100000010000100010110011101011100100011001111100001101100100100000111111110100100010010101101110001110011001101110010101110111100101000001000000110000111101011000111111011100010001000011001101100000000001010000010010101000110110011101010001101000001011001100010011000000000010010010111001100000000100111000110100001111111100011011011001011011110010110111010110011101111100111100101011001000011010010100001110101101110101001100011101011110001100011101110011111011111010110110010001100010110010010000001001000010110011101110100110110001010101011011101000010001010110010010100011110011011001101001001100010011101110001110111000101011000101000101111110110101000010110101011110111011100111010100111101010001101111001001101001110111101011101111101001001110001101101100001010010100101001011000010100111010001100001101000111100000111111110010101111010100000111111000100011000101110110001110110001011011100110101010011011000110000011110101110101100000101001101100000001001111111011101011010100011101111100010011111110101010010001111011111001110100000010100101101100110011110000011000110010110100101100110101010000101001110100110000001000110000110010000111000000100000011100010100101110100010111101111111000111110001101000010111100010101100001101010111010011011111001111100101000111101011100101110010111011101100010111000011101100011110101010110011101001000011010100110011000110011010101111111100111100100110011000010111000010001101001110110101001001111000011101100100010001101100111101101110101110111111001001110100011011101111001100000001001101010111010111111101100111011101100010111110100111011010110011001001101111001101100000011001001111100110100100000100001010110100111010011001110011111011010001011100001110000110101111101110001011000001111101001010001011100001101101011100100111101001110000110110110011110000001010100111011011010100011010101001111011000011110011000100001111001011100001111110110100000001010011111001111011000101100011001000001000010101101000010101010000000111001000001000111010011111110010011110000101010010100110011010010010001010010011000111110111011001110001110010001110100100110010001011011010101110011111100011000010010011000100011101110011011011000001001110100110010110111110110011100110001001101001001111101100110110000101011011110000101000100110101011011001001100000101010101110101001100110000010100001010000010101001100101000110010011010101100000111011101111001101100001100001011011110011000101110000000000100100110001100010100110011011001000010110111011100011001110011010001111010000001000111001000100110010100011111011000101011011011100010001000111000010101100000111110010001010110110001110010111000110010001110000011100100001011101001011011111101111011101101010110001000100010100111000011000000110110001100101110101101010101100000101000001100000011100111110101111000110001101111101100101000010011111000100101101101010011101100001010101011000011100100111001100101100001010010010011010100001010110100100100010001101001100100111111000011101101100011100110011101010111110110111100111011000101101111111110000011101110000100010011010111100100110000001111011011001101101101001101001001000000010010110011010111000111001001010000000101001000100100011001111101011001011110001001001001000010110010000101000111000110011011010110001000111011111111001110011101000101001010001101010000101100111001111101101001000001011011101101000010111111110011100100100011000111101110000011111110011011111010111010000100101110100111001101010011110100011100101011101101100110110000100111000001000000001000001111101000011001000100011010110010001110011110011000101000010011101010011100111100100100001100011100110000101110000001100001001111111111101100000110001100111111010110010110111110010101111111101110100110001110010001100011110001011001000100110010000001010001101100101011000010111011001011010110011110101001111110011101000001101000010000000100001100011000000111111010001101110010011011110000011110001101011010100111101001110010110111010001111110011100010010001011010010110000101000100101010100010101101111101101000011011010101010111001101001000011000111000000111111111111010010011110111110000010001100000000110111011000011100000100110000111000110010100000001100100100001110000011101001010101101101110101101010000011101001000111000001001101010000010100100111101111010000100100000001000000000101110011010001001100100101100010110100010110000000000000100010011011101100100101000101100101000111010001001110010010111101111111000111010010011111000010001101010111110100110001111010011011110000111100110011110101110101000111101110101001110111110111000011111010101011011000010110111001000001001001000100000001111001010101010010110101110011001111111000110110101011100010100110000101001000011010010001000011100101110001111000010100100000100101001110000100010110100000001101011000101101010110000111100110001111011111101000111001000100111111000100001101110001110010100111111100011111110011110110011011100011101001100101001001011110111100101100100101000110110000011101101110011110001101010110011001010010110110001111001010111110111100000011111101000100010000010001001001000001101100100000000100010001000111010100101100111001010010010111001101011100001011011101111101110011101111000001001000110100110110001010100111011100011000000100000010001010011001010100111010000101011100011011100010000010101100111000000011001101101010011101001100110001110101011110110001001011100011000001010000111011100101110000111000101001000010011011100011011010111110101111110010011110100111110111010010101101000100100000100000110110101111001111010101100010100100101010111011101110100100100111101010011110100100001101001010101111011001101101001001001100100010100111110100001100101010111001010111010000011000000011111011111011010101000111101110110011000001001001010111010111111110100011010011110010001110100000001001101111111010111001011000010000111011001001001101001010110011100010001010100011011001110111110110001100100110000000101100100011100011001111101110000110111001011110000110111001100000010010101011000111101000010011001110000110100111111110101111110110001100011111111001010110011010010011011100101001100110101111100010000001010000000011001111111001110110111011010100100011001110000001101101101111100001011001101111000101101100011011101010101101001000000110100100011010101100011111010110011101000110001010100000110000110101000110101000011011101011011111011010101001001010001011001011101001111111111011000100010010000111101000001010001011110100110010000110010011100000011101000101010101011000000001000001100000001000110000001111110010010011001110100100000101011011011111101101101000011010001100011001100111000011101110000000111011010000001011101111011001111010100001000001110000100101000001111000101001010011100111000100001001101101011000111110000000011110101110011101110000011010001100010100001111001001110110110000011011101100101100101000000111100110100100111111100100111110111011111111110011010101111010011010001000101000100110101010101000001100111010101101011010110011000101010111100100000011110101101110011001010010101001000111101011110010001000010100011010000100011000001010111011111001011001101110110111001000000011110100101111111001101001110110000011001000000110001110110011001011110001100101110001111101001001011110000111101100101001011100111011001101000011001001011101000000000101100111101001001001111010011000110111110100000100001010001110101111011111110000111010010100011010101001101100100101010000111010000001110110001111011001101101000"
   }
]