[
   {
      "weights": [
         [
            1.98460619599741,
            -1.9921460183660256,
            -1.9937168146928204,
            -1.985234514528128,
            -1.985234514528128,
            1.9934026554274615,
            1.9934026554274615,
            -1.581678561633951,
            1.428523423473765,
            -1.9924601776313844,
            -1.9930884961621025,
            -0.13131133478418713,
            1.983663718201333
         ],
         [
            1.2161482266590546,
            1.9927743368967434,
            1.9968584073464102,
            1.3001040777612718,
            0.41736678903423624,
            -1.984920355262769,
            1.9874336293856407,
            0.9615993923869062,
            -1.9908893813045896,
            -0.21385069594708492,
            -1.9855486737934869,
            -0.012531964590261714,
            -1.984920355262769
         ],
         [
            1.9842920367320511,
            0.011293056120224201,
            1.0396614895570777,
            1.9868053108549228,
            1.9808362848131023,
            -1.985234514528128,
            -1.9833495589359742,
            -0.5557591545282707,
            1.9959159295503333,
            -1.9899469035085127,
            -1.9814646033438201,
            1.4029751421791983,
            0.8806457911360625
         ],
         [
            -0.9915943364556545,
            1.9908893813045896,
            0.8477805573297453,
            1.982407081139897,
            -1.01734060606803,
            1.9962300888156923,
            0.6957041269568769,
            1.9949734517542563,
            1.9817787626091792,
            -1.9855486737934869,
            -1.9949734517542563,
            1.985234514528128,
            -1.9855486737934869
         ],
         [
            1.134372869231301,
            -1.9874336293856407,
            0.8913406189953511,
            -1.9905752220392305,
            0.38659140575786777,
            -1.9880619479163588,
            -1.7914378391916952,
            -1.5223423411613946,
            1.0076162063029195,
            -1.9940309739581794,
            -1.986176992324205,
            -1.9934026554274615,
            -1.985234514528128
         ],
         [
            1.9915176998353075,
            1.9808362848131023,
            1.9968584073464102,
            1.9855486737934869,
            -0.29484223674728927,
            -1.984920355262769,
            1.0732616483548107,
            1.982407081139897,
            1.9880619479163588,
            -1.985234514528128,
            1.9833495589359742,
            -1.9868053108549228,
            1.9805221255477432
         ],
         [
            -0.2304532011099435,
            -1.9811504440784613,
            1.9959159295503333,
            -1.9908893813045896,
            -0.3003407154567694,
            -1.9902610627738717,
            -1.984920355262769,
            0.1932381855768259,
            -1.983663718201333,
            1.9805221255477432,
            -1.7906841522447206,
            -1.9811504440784613,
            1.986176992324205
         ],
         [
            -1.9812876307844354,
            -1.9817787626091792,
            -1.985234514528128,
            -0.5691736143078129,
            1.9946592924888973,
            1.8944459364321942,
            1.986176992324205,
            1.9814646033438201,
            -0.9538291540941741,
            0.43768377915963946,
            -0.4300105997558179,
            1.9830353996706152,
            -0.9493468120442378
         ],
         [
            1.9150686875953344,
            -1.9924601776313844,
            1.851417745627845,
            1.9855486737934869,
            0.7375537211892064,
            -1.987119470120282,
            -1.9830353996706152,
            -0.928930165370236,
            -0.6014000127471038,
            -1.9883761071817179,
            -1.9833495589359742,
            -1.9934026554274615,
            1.9918318591006665
         ],
         [
            -1.9902610627738717,
            -0.6267853962344612,
            -1.9811504440784613,
            1.9946592924888973,
            1.9864911515895638,
            -1.9902610627738717,
            -1.9946592924888973,
            -1.9962300888156923,
            -1.985862833058846,
            -1.9205195178192123,
            1.439065778360991,
            -1.9927743368967434,
            1.9927743368967434
         ],
         [
            1.8219530747293673,
            1.9930884961621025,
            0.46666664145556086,
            -1.983977877466692,
            -1.9962300888156923,
            1.9855486737934869,
            -1.9924601776313844,
            0.6031363941860259,
            -1.98460619599741,
            1.982721240405256,
            -0.9433636188460853,
            -1.9877477886509998,
            0.5027691033556974
         ],
         [
            -1.986176992324205,
            1.9811504440784613,
            1.9811504440784613,
            1.9817787626091792,
            -1.477077866264625,
            -1.9971725666117692,
            -1.985234514528128,
            -1.9956017702849742,
            1.9908893813045896,
            -1.9566166429354657,
            1.9833495589359742,
            0.06156042738158839,
            -1.300846289003662
         ],
         [
            1.982407081139897,
            1.9940309739581794,
            -0.007434147305837796,
            1.9883761071817179,
            1.987119470120282,
            0.7439821873233455,
            1.9912035405699486,
            -1.983544590540246,
            -1.0116807266691559,
            -1.9811504440784613,
            1.983663718201333,
            -1.9802079662823844,
            1.9952876110196154
         ],
         [
            1.9934026554274615,
            1.9820929218745382,
            1.9890044257124357,
            -0.4036873928716133,
            1.9868053108549228,
            1.3203539431801763,
            1.9805221255477432,
            -0.5741901755077067,
            1.9820929218745382,
            -1.9855486737934869,
            -1.88204796370022,
            -1.9943451332235385,
            -0.36882554341538865
         ],
         [
            1.9855486737934869,
            1.9908893813045896,
            -1.2493112122590289,
            -1.9805221255477432,
            1.9927743368967434,
            1.9912035405699486,
            1.982407081139897,
            0.9438858185935277,
            1.9817787626091792,
            -1.985862833058846,
            0.5438642408003193,
            -1.7279742513959917,
            -1.98460619599741
         ]
      ],
      "biases": [
         [
            5.2393094079939075,
            12.983663718201333,
            -1.0684601052849363,
            2.398827276637595,
            -4.473517446622743,
            8.535610205717795,
            -0.8288937527571912,
            2.328955616269361,
            2.2893804002590112,
            -12.263503855984103,
            -2.7460573533955492,
            -3.389893620122037,
            -5.742490801915076
         ]
      ]
   },
   {
      "weights": [
         [
            1.9930884961621025,
            1.9820929218745382,
            -1.987119470120282,
            -1.982407081139897,
            1.9877477886509998,
            1.9886902664470767,
            -1.9934026554274615,
            -0.06331123708112776,
            -0.36518513459844476,
            1.9808362848131023,
            -1.8980102510720507,
            1.983663718201333,
            -0.22702821155113473
         ],
         [
            -1.9883761071817179,
            -1.9811504440784613,
            -0.2975870116267996,
            1.9802079662823844,
            1.9902610627738717,
            1.9940309739581794,
            -1.9805221255477432,
            -0.7548420807845511,
            -0.7524228129743424,
            -0.8712279566834031,
            -1.9886902664470767,
            -0.016896530539961072,
            1.9880619479163588
         ],
         [
            0.217574252876052,
            1.9886902664470767,
            0.30854441670265165,
            1.985234514528128,
            -1.434804518077648,
            0.19725694891241674,
            1.9811504440784613,
            -1.983977877466692,
            -1.9811504440784613,
            0.24030685170682173,
            1.9934026554274615,
            1.4626897663503158,
            -1.9833495589359742
         ],
         [
            -1.985234514528128,
            1.9896327442431536,
            -1.985862833058846,
            -1.581518009156988,
            -1.9883761071817179,
            -1.9956017702849742,
            -0.7184178605983825,
            1.9940309739581794,
            -0.9344045196348363,
            -1.9952876110196154,
            1.9880619479163588,
            -1.9874336293856407,
            1.985234514528128
         ],
         [
            -1.9811504440784613,
            -0.3674380388020353,
            -1.9940309739581794,
            -1.9890044257124357,
            -1.9949734517542563,
            0.3297271255156642,
            -1.9805221255477432,
            -0.7907283727251287,
            0.0016001886716088716,
            1.982721240405256,
            1.9893185849777948,
            1.9814646033438201,
            -0.6503304171013108
         ],
         [
            -1.5886539661454575,
            -1.1535378962848826,
            1.9937168146928204,
            -1.9943451332235385,
            -1.9965442480810511,
            -1.9833495589359742,
            -1.9968584073464102,
            1.986176992324205,
            -0.3002138817315588,
            1.9930884961621025,
            -1.9817787626091792,
            1.9886902664470767,
            1.9874336293856407
         ],
         [
            1.98460619599741,
            1.982407081139897,
            -1.9720920159513424,
            1.9833495589359742,
            1.4804303256925941,
            -1.9842920367320511,
            1.5312919190673193,
            0.5958627099579447,
            1.0389934853870062,
            0.4356144086194688,
            -1.9817787626091792,
            1.982721240405256,
            -1.9940309739581794
         ],
         [
            1.9905752220392305,
            1.9864911515895638,
            -1.9946592924888973,
            -1.9912035405699486,
            0.7131226346319878,
            1.984920355262769,
            -1.9952876110196154,
            -0.07664516315384984,
            -0.8927467410674769,
            -1.6167728848263623,
            1.98460619599741,
            1.9896327442431536,
            -1.4612221708310253
         ],
         [
            1.9833495589359742,
            -1.9952876110196154,
            1.9820929218745382,
            -0.37752065866081713,
            1.9811504440784613,
            1.9880619479163588,
            1.98460619599741,
            -0.2369109798908912,
            1.9890044257124357,
            1.9965442480810511,
            1.9915176998353075,
            1.9886902664470767,
            -1.98460619599741
         ],
         [
            0.46149982430926956,
            1.9905752220392305,
            -1.9817787626091792,
            0.22007378059924232,
            0.5976496698923419,
            -1.9893185849777948,
            1.9833495589359742,
            0.04889094198594826,
            -1.9924601776313844,
            -1.9943451332235385,
            1.9896327442431536,
            -1.9855486737934869,
            -1.9802079662823844
         ],
         [
            1.9880619479163588,
            -1.9918318591006665,
            1.984920355262769,
            -1.9808362848131023,
            1.9908893813045896,
            -1.9956017702849742,
            1.9896327442431536,
            -0.07664979205498718,
            1.9956017702849742,
            1.9927743368967434,
            -0.3161683259290137,
            -1.9817787626091792,
            -1.987119470120282
         ],
         [
            -1.9802079662823844,
            1.025352369001098,
            -1.9927743368967434,
            1.986176992324205,
            -1.428180888788062,
            -0.18675896744922746,
            1.9868053108549228,
            -1.0932297512784879,
            1.9915176998353075,
            1.7523729893328572,
            1.9893185849777948,
            1.0692531199202266,
            -0.043306533940174335
         ],
         [
            1.9927743368967434,
            -1.9820929218745382,
            -1.045298782329633,
            -1.9943451332235385,
            -1.9937168146928204,
            -1.9937168146928204,
            -1.9912035405699486,
            1.9814646033438201,
            -1.9874336293856407,
            -0.05982725581980619,
            -1.9886902664470767,
            -1.9805221255477432,
            -1.982407081139897
         ]
      ],
      "biases": [
         [
            -6.7651457169224685,
            -1.0196902001295,
            -12.98177876260918,
            4.721017455666018,
            -8.413703043188118,
            -0.058787608005179966,
            -2.630229956180538,
            -1.8506724671354025,
            -1.9201591930125326,
            -0.29985838925979813,
            -0.09311946409141117,
            -6.757203094433511,
            -1.0868849013323187
         ]
      ]
   },
   {
      "weights": [
         [
            1.9814646033438201,
            -1.9820929218745382,
            1.986176992324205
         ],
         [
            1.997486725877128,
            1.985234514528128,
            0.5884822250693308
         ],
         [
            1.9899469035085127,
            0.9010743189402132,
            -1.985234514528128
         ],
         [
            1.9883761071817179,
            -0.48914035890833857,
            1.9880619479163588
         ],
         [
            1.9930884961621025,
            -1.9893185849777948,
            1.9959159295503333
         ],
         [
            0.7861499008518875,
            1.9934026554274615,
            -0.27645484578541885
         ],
         [
            1.983663718201333,
            1.9814646033438201,
            0.6185817230817393
         ],
         [
            -1.9971725666117692,
            -0.23563337822870528,
            -0.26765163755366744
         ],
         [
            -1.9927743368967434,
            1.985862833058846,
            -1.9877477886509998
         ],
         [
            -1.9868053108549228,
            -0.43726237746536994,
            -1.6844195929125612
         ],
         [
            1.983663718201333,
            -1.6550123999044402,
            1.985862833058846
         ],
         [
            1.426098146082554,
            1.982407081139897,
            1.9830353996706152
         ],
         [
            0.50689497643484,
            1.9902610627738717,
            1.9896327442431536
         ]
      ],
      "biases": [
         [
            0.19079644737231005,
            -1.0475707300092179,
            0.7320353574685203
         ]
      ]
   },
   {
      "genes": "011000110110011010100110111111011110010101001010110010000001010101100010101101001001011010001100100010111000101000110110000010111000001010000000100101110110000101101110000000011100000110010100000100010010101010011110111011111110101100111000011011100000111101100011000000101101010000111010011110011100010011110001100001101000100000111010110111010100000101111110111000001011101000000010010111100100000110011010101101011100001010010100111101100101010111011110011011011110100010100101110100001011100000000100011100001001101101111011010111010100111110100001011111000001101101110111001001011111111000000000011110100011111010111001111100010110010110001111010110111110101010010001001011001011000111011110000100000111111010011011011111100001110101100000010000101110000100111010011110110110001010100111100101111010110101010011010101111111000001111100001000101010111011111101000110011001101101100100100010011010111001011101010110010110000010111100111001100010111010110000000111111000101101111011110110011100100001101100011110001111000111010100011110010011101111100111000111011110100011010100001101100001011100000100110000010010010101010010001000001110010111011001000111110001101001111111000111100101010111001010001110000110101010000111001111101000111011100111011101101011101001010001010101110001110111010001111110001011100111000111000001001001110101101101010000010010001110001010001001101001111000011011110101110100001100101000111000001010111010110101111100111110011100101100111001110100111110000100111010010010101011000010110001001111011111010011010010001111100101111110010000100111111001111100100111111110110000010011111010001110010010000100100110000000101001000001101010111111000010000010011110011100111111100000000100101010000111111010111011110100001110110110011001100101100111010001000010011101011010011110100110110100001011111111100101001110100111100011101000000110111111110100100010000000110111010001001110111001010100101110001100010100101001010010111110101100101001011001011001001011011110100100100010100001100010111000101011101101010100111111001000010010001110001111100100011111010011011110100110011110010101110100011011100011011001100001001111100000010101011000110011000101000011110011011010110011110111001100010101111000100110011000110000101100011000101100110110100100111000100000110011110111101000010000000011110001001101010000000101100010100100100001110111011111110100110101101001100001111101001110110011100100001101011000011100010111100010111110101101001111111100100101010111010110010111011001110010101010100000011011010100001000100101100000000000101111111001100010010100101010100101010010111000111011110100010000011100100111111011110001011001101100111110100010010110110110001111010000111111011110101010010100010111110001100010011101111110010101100000100001011110000010010000000011011101111010010110000110100110001011011000100001101010010100101011000010011010001110110010100100100110001111000010101011101011011100111110101010110111100000011010010101010101101001000001110000110110000100100111110100001000010011101010000100010111110110011110101011011100110110011110101010000011010101101101100001110001110010101100101011110111000101110101010011100111011010100100110001010101111000111010110100111010011111111110000100110011100101101011011111110010000001100001001110100101111101000100010100111110000101101101101000011101000010110000111110110010111110011110111011001101101110010000110101110110110100001001100110001010001100011011000001110001100001111011100100010010000111110001110001001000100010011101000110001110011011101000011100001111011100100010110001111101110000110110111110000100011111010111110011100100010010001011110110100001110100101111110010101011111011101010001011100010100000110100011110010110010100100010010010101111010111111101110111111110101000010001001011010110111001100100011100001011001100110010000000010111000010000010110000001100010011001110101110110100111001010101101101010011111011111100011001000000010000001111100111001101001101001011110100000011001100111110101110110000001010001110101110100110100110010101000000000000011010011101010010100000010100011100101001010100100011011110100101001001010000101111011100001110110000100101010111000010010110000110000000001010101011100000001101000111101101100101101011010010010111110000101100110111001000101111110110011001110101100001011100000111010010011111000101111111101000101100100011001111110001110011111100101011010100111110001010100100000000011100110000110100101101011100000010111011010000011010111100111100111010100010010100100010101100101010110000101011000111000001001111000000011001010010110111111011001111101101011010000011010110111100001000000100100100000111111010010100100101100010001010010101001110011001000110010001101001101001011010011101011110000010101111000101110001001111101011000111000000100110000001100010010111110100011000011011101100111110101011100011001001010000110111111000011110010000001101110001111000010100011001100100011011001100010110010110011000011000101011111110110010011010010100101000011110000000000010001110110100101001101010001101100011001011000010000101111001100100000110011100001101010010101101001111011111101111000001110110000100101001100101000100101000101101101100010101101111100100011101010011100101100101011001010001111000111101100011100110010011111010001001010000100001101100101000110001111101010110111000101000110101111011100101011100001100000101111101110101111111100111111111110100000000100111001100011011000111000011000000100111000011111110110110110001000011101000010011000000001100101011111111011101011010100101110111101110111101111010001101011001100110101101010111011011000001010101011001010010000110011001110111011001101110010101000011111001000101010100111101010111001000111100000110010101110010110101111011001010100111011000110100010100000100001000010111110110010100110001001011000000000101010111000010111101010001101011111000000000100001101000000011011011001001000110010011111010101001110100010000101101110001000110011101001000110001110111110010101111000100001110110101101100100011001001100111111101000011000001000110011011010111111100001100010000010001001100101000000110001000011100110100000101001011001100000010000011000010111011011010010110010010010001111010011010011010111110001010101000111100010101101011001111001001111000000001111000100000011001000101111111000110001010011010010100000000011010011110101110100000001111001110101101011001000000000001001011001100010111110110000011011100110110111010010110011101000111100100101100100100110001010111100000100101100110001110001110010010001011111101100000001000111100111011010010011000000101000011111000100001010010011000010100111010001100100100101000010110111010000100110001001101110111011100000010011111001100001111110011010011010101100010010111010001001011110000111000111010111110011000011100010010101010110111100100110000000000011010000101110001100101110000010000010010001111100101111101100000001101100000110011010011010110110010010110111101101011111001000011111011101011010100101000001110110010111111111111100101001011100101001001000011100100010111000001111000110100110111001010110110111010101011110010101111101010001001110000000110110010011110111000110011010100010110011100111101101111111000100010010100110100110111011000000010000010111011010101010011110010001111110100010101101001000101100110100000111000010010000000010100001010110100010110101001010110110100110010001111010001110100011111101100010001100110011011010110011011010100011111000110101011010101011000010110111111110111011111001110000111111000110110100001110110111101001101010011111011100010101101001001001110001111000111111010100110000111000111110101011101110100011101101111000100101100000001011010101110111111001101011000101100110010001011011110000010010100010011100100011100001101011011110111101000101100111101111111111011010010000000100101110001100010100111000101010100101010010001110111001110011001110001101111000111100101011111011000000101110111010001101100001110010000110010100100010110111010011100001011101001010111100010011001111000100011101110010000111101011110110101110000001000111000101011110010110010111010001000001111110011111110100110001010000111101110000111100000011111101110110000011011101000100100011101000010000010011100001111111101011010110101010010001010100100010101010110011011000000000000111110010110111110011001001100101100101111111011011110111111111100101110110110111110010001111011001010001001000110111111001111100001101110100001101001101110010110111001000011000000001100000001011010110011101100010111011011100110101110010101111011010100101010111101111110110001010010110001011000001101011001011111000000111010100101111110000001011011000110100111010101000001111110111101001110010011101000111001011101100001010000101111110001011100011111100100010101100111110110010100101010011111110110100000000000011110110111010111011111111011111111011100110101110001011111110101110111000000101110111001110111101100100110100000010100111010010001100110110100000000010110000101100111010010110101000100100101001111001100000100101100000010111101001111000000100101111010000001100010000011101111011000011001011111000111101011111000011001111001011101100000100111000001000001111101111101000101101111101000010010001001001001001111001100011100001011101100101000010011010100010111011010000100101000110000110010101101110111100110001010101010011011110101110111001011100010011100100001110100101110011001110010100110101100010111000011100111111111000110100011110001111001011110011101101000110100110111001011000011100111110011111010110011001110000001000101101100110011101100101111010010010011110100101100111101101100100100001111111111101101100111000001111110110000001101000010100100010101101101111011101001010011001110000001001101001000101000110100100000110000010110010100111000001011101010101100101001010001000110110100000111001001011101110110100001001100000000001100100110011110010011000001101110000101100011111101010100101110101111110001100011000111010110100000001100100110010110101111110010100011101001110001100001100111101111000010110011110011110101101111111011000010010010011111010101010000111111111011010100011000011111001100000010001011000001111111001000010000101100001010101101001100110101110000001101000001011011100011101011010001111100010001110111100011010001110001000001011000011110001110000111110000010111011111010000101110110001111000111000000110011001010001011101011100111111101110011100001011001011111011010110011101100010001000101011000001001001101110000110000001111101000101011100000101011111011010101110011000110101001110111000000010010011100000010101100011011101110010111110010010100010010100111011110110111001001100000101000000000011101110001111000100010101111001010110011101010101111100000001101100010111110110101011000110000100100001101001011000000010100111100110001001101010111011111100010111000000100111110001110101011011010111000011011010100001001110101011100111100000100100101110000001000101000100000011010100100100111111010011110011010010011010110010010110010010111100111100111011000000111010111010011110101001001111011110011100110101110101110011011010000000011000010011001010001001001011000010001111010111110011101110100000110010010010011110100110001111010001100111000010111011001011010100110110110101011000101111001111111111110001001000010111011001000010101101111111110011010110110010011101011111011111101101001000011100101010010101000010000011110010101101110000100110010010011110110010110111110011110010011000000111000000100110001000110011110011000110011000111000000001110100111000101001010011100010100001000011011101001010010100001101110010101001011011100001110001000110011111101011000111000001110001101100101101010010011011111000011100101011000000100001010101101001110101011011010001111000011011111010101010000111101111000111010100010111101010111110011110101010010001101101100000101100111011111101010010010110111101110000110010111011100000011110000101010100010111010110110101100010000010111001111001101000110011001111111011111101101001001000010101111011110001011101001010011011010110101110010110000101011100011100000110001111100001000100100001101101111101101100001101101011011110000000000100000011110010100001100010011000100100011110011111100110011101010011010010111001001010101011101110000001101001010111001100100011010000111101000011100011001011011010101111101110110111110000100100101000010101100110101001100101101001011101010001001100100111000000010110101111001101110000000101111110011001111011111011101111011010010000011000110110011001110110110010010011011110010111110110111110110111110010000010010010011010001001101110111000001001010100110111000111000001110010001111010110001000100000110010100111100101101001001100010001011001101001110111001011111001100111001011000010010010001001000010010110110000000000001010101110111011100011011101011100111100000100100111010000110110010000111010000000111100110011100110001101100100100110000011011001000111110111100101111111001001101111011101101000011010011010101101011011011100110011101111111111000001001000110100111110010100000110011010110011010111101000010001111011000000111011011100000100110011000101001110110010100111000101000011101110000010010101111001010001001010101110000011011001111010110101101101100010000111101001101100111111110110100001110001001001111100111110101110111110101010000110000000001101100110110111001101110101111110011110010001010111101110000101100000001101111011110001000001000011101100110011111101000001100111101110111111010001001110101011001001111011101100100111110001010010010001010101010110101110111001100101110100101011001101011011111011111100000101000001110100110011110111111110110111011001101111000111010011001111111100010101010011101101100110110100110100000010101011001010100001000000001001011110100000101011100110111011000111101011100100001101100000011010100111001011110111101100010001011110010100010100110100110100101110010101011100001101011011001000011100010000010110010010000101100011100111011110111111011000010110010001000100000011000101100100011100011000001010111101100111100110000110101011101011011010111110101111101100111000010101000111101011111010100111111010011101001010110111111000000010101100000110110100100110101001100010111000010110111101010001111111000101111101011111100010101111000001110111101101100110010110111001101010011101110110111110110001000101011110011010000000011010101010101011110111011011001000010101110101101110110000000010101101100100010001011110101101000010011000010100010010101000101010111011001100101001010111010000100011010010001100111100111110001110110101101101101011110010100000011100000110111111100101111110010001010011011111110010110101100111100011010010100110011101100110100000001111001001111001111110101000111010000000000111101001010111101111110010000011011001011100011101000000010110011001101010001000000011001101000011011110100011111101110000111011010111111100111100010010011101100011000100010001010100101000100010111110101101100000111100001110101101110111111101100011011111010101110011110000110001001010000011110111010001011001101111101101100111010001000110111001101111101010100111011101111101001001111100010111011000001110001011110010100110011011110111101100001010110000100100000001100010010000010000100011010000010010000111110111000111101110101111100111001001110110110011000000111000111100101000100111000001000100011000100101100111110101100101010001101101011001011001110100000010100010010001011110001110111100011000110100010000010101101100101010111001100111110111110101101010100010100101011000111010011101000100111010101100100000110000010100000110010101001111100001101110111111100010000100010101001000101001101000101000100010011100110111011011101110111110010000000101000011011100110101000010011110001001010111001011100001011110011011111001001001111000001101001011110001110001110110011010011010001110011001110000100001000110011111101111101001011010000111010101100100101010011001001110111001101001101100101101101011101110011010100010100011011001001001010110001101110110111110000001001101100000000000001101011111111011001010010111000010010010011111001000010011001110000111000011001001111011010010100011001111111010101010001001010110000101101100000101110111000011000000101011101011100100001110101001100110000111000010010011000000101111111100001111100010110001101101100100100100111000000111010100111100001100111111011000111000000110001010001101101011000111011010110000010100110001010110001011001001111100000100110011000000111110011000001001000010101011111000000001110101011110100001001100110101110001011110010111000011101111011001110100101110010011111111010001101101101000100100010011001010110001111100000101100111111110011110000111100111101110111000101111011101101110000010100001001000011101101111010111001111100100101110010100111001111110101011010100111101101100110010011000110111101010100111100000100000101110100111101111000101100100001011001001001011100110011101111101010011001100000111101100010000001001110001110010011001001110001010110111101111101110011010001110001001100010011000111000101101011101000100111011000011010101110110011100110011110111100111110011011011001110011101010110101010001100000110001011100110110111101001001001010010010110011110011000100110011010100000010100011010100001101101110110100100000100110000101100010010011011100010101100110011001110010101011111101101011000110101000111101100000101100011010101010001011111010100001101000110110100101011101010010010000011001000011010011010111110001101111111010111100110011110000010101010111000010110001011111110101100111000100101111000110100110111101010011110"
   }
]