[
   {
      "weights": [
         [
            1.3411537124076354,
            -1.370736731953402,
            -0.058069411615674776,
            0.6497890191414644,
            0.1836936213141653,
            -0.06847700947730433,
            0.1642452759216135,
            2.0,
            0.9269318589229679,
            2.0,
            2.0,
            -2.0,
            1.3428281877012136
         ],
         [
            -0.2508239434880968,
            -2.0,
            2.0,
            0.6519438188220207,
            0.456662773398753,
            1.3581264342758113,
            2.0,
            0.18411582616972566,
            2.0,
            -0.2307241331588543,
            -2.0,
            1.490432471303814,
            -0.08549831040351726
         ],
         [
            -2.0,
            -0.3866711756215641,
            -0.35228915619413265,
            0.10172708276346827,
            -0.2910119584752581,
            -1.2927535514151534,
            -0.2804786364204293,
            -1.93452745185652,
            2.0,
            2.0,
            2.0,
            0.37747874904135537,
            -1.0558612161215097
         ],
         [
            -2.0,
            -2.0,
            1.6944010975750479,
            2.0,
            -2.0,
            -1.908891409024276,
            -0.48550536848689274,
            -0.6826763950045938,
            -0.1750763725225611,
            2.0,
            -1.6846566799985723,
            -1.4028047836394675,
            -2.0
         ],
         [
            0.2043798489403917,
            -0.6056493117074061,
            -0.11693918896643918,
            2.0,
            2.0,
            2.0,
            -0.5365024869313684,
            0.2144768759481245,
            2.0,
            -0.24477121055352474,
            -2.0,
            -2.0,
            -0.012482118090849467
         ],
         [
            0.5546853974368213,
            -2.0,
            1.2197547307134224,
            -1.3979766412600756,
            -1.4853459233468678,
            -0.27001599735101833,
            0.5230665845491641,
            -2.0,
            0.8945487691942546,
            -0.9735634482456818,
            -2.0,
            0.8570841007483635,
            2.0
         ],
         [
            -1.3542523273535045,
            -2.0,
            1.998586430026819,
            -2.0,
            1.719736069222125,
            2.0,
            0.5891235954778977,
            -0.7817586155694982,
            0.9621467003864433,
            2.0,
            0.2766857141316202,
            -1.1097589593756387,
            -2.0
         ],
         [
            -2.0,
            2.0,
            -0.40778514293779505,
            0.3047532173296539,
            -2.0,
            0.18789244604447716,
            0.7321956006126766,
            -2.0,
            -2.0,
            -2.0,
            -2.0,
            -0.8106404844950701,
            -2.0
         ],
         [
            -2.0,
            2.0,
            -1.044209103452175,
            0.6787166337236263,
            0.015274978012974717,
            -0.1748458016756179,
            2.0,
            -1.7465223115245492,
            -1.5511368929038654,
            -1.9695351319763044,
            -1.0350387886433214,
            -1.1294612697385118,
            -1.7825636121011326
         ],
         [
            0.5743464029587687,
            1.0669010799110066,
            2.0,
            2.0,
            -2.0,
            1.6649969057068343,
            -2.0,
            -2.0,
            -1.1278626003396552,
            -2.0,
            2.0,
            0.31769198657524406,
            -2.0
         ],
         [
            -0.030066462055715268,
            -2.0,
            1.6411994023205705,
            -0.7284505127947528,
            -2.0,
            -0.36940520474937233,
            -2.0,
            -1.0569038232101247,
            2.0,
            -2.0,
            -2.0,
            -2.0,
            0.9660856308181809
         ],
         [
            -2.0,
            1.522232225859382,
            1.1990170119390093,
            0.02764073058233646,
            0.40369652107320886,
            2.0,
            -0.6471880319074071,
            0.3447052965485346,
            -2.0,
            0.756445206979154,
            -0.1846577931457421,
            2.0,
            -0.21092157170085135
         ],
         [
            -0.897619283070836,
            -2.0,
            1.1958648965591796,
            2.0,
            -0.36509858475411505,
            -0.6183517056999278,
            1.453756774959896,
            2.0,
            1.1412961446717091,
            2.0,
            -0.19375662636508817,
            2.0,
            2.0
         ],
         [
            -2.0,
            -0.8273422359426217,
            -0.8550143934571606,
            0.3426672839170863,
            -2.0,
            -0.6720758586094061,
            -0.5826470813090189,
            -2.0,
            -2.0,
            2.0,
            2.0,
            0.10749231365862026,
            0.11442137199077494
         ],
         [
            -2.0,
            -2.0,
            2.0,
            -2.0,
            0.5144645745903121,
            0.2560097227645245,
            -1.0099529757408188,
            -0.03838395095663021,
            1.3587168306646136,
            1.0059687903143202,
            2.0,
            2.0,
            1.462833114588274
         ]
      ],
      "biases": [
         [
            -3.7031413997297262,
            5.676052819163446,
            -0.7252123558215968,
            0.532420328132851,
            1.4645707179514753,
            0.5151504079052371,
            1.7524335389525787,
            0.8113672135547517,
            -1.064986662573986,
            -2.5238582807401246,
            -1.4123892938859663,
            1.0280309136694725,
            -3.3823184342560344
         ]
      ]
   },
   {
      "weights": [
         [
            -0.7869546799668333,
            2.0,
            -2.0,
            2.0,
            1.4856747431231723,
            2.0,
            -2.0,
            1.2018974264550244,
            -0.12342749302269881,
            -0.6424165476518572,
            -2.0,
            -1.5641550719802029,
            -2.0
         ],
         [
            -2.0,
            2.0,
            1.9103530038750725,
            0.2806007036268936,
            2.0,
            0.5280689622962839,
            0.37738106982791464,
            -0.4434108824802086,
            -1.5593793325653353,
            -0.5612095418290478,
            -2.0,
            -2.0,
            -1.3607015942111194
         ],
         [
            2.0,
            2.0,
            2.0,
            2.0,
            -0.02900954665707571,
            -0.04790619552302742,
            -0.4542366848524387,
            2.0,
            -2.0,
            -2.0,
            0.37260435040996875,
            -0.4583793589066292,
            2.0
         ],
         [
            0.4133369511196838,
            -0.4205426516658381,
            2.0,
            0.8711748988015393,
            -0.16068147233967298,
            -2.0,
            -0.3099474258113489,
            2.0,
            1.7727018257279745,
            0.3538543366925284,
            -2.0,
            -0.0024596199870971225,
            2.0
         ],
         [
            0.6897689613176783,
            -2.0,
            -2.0,
            2.0,
            -1.9466887640662214,
            0.8653671033746716,
            -0.7357944718389688,
            -2.0,
            -1.5677391273050199,
            1.052672020297176,
            -2.0,
            0.827038305876272,
            0.42651039707887856
         ],
         [
            -2.0,
            2.0,
            -2.0,
            -2.0,
            -0.15439101213995865,
            0.8381803137898399,
            -2.0,
            2.0,
            -0.6417683506069123,
            -0.16794881778562254,
            -2.0,
            1.5744606717417415,
            2.0
         ],
         [
            -1.5172444156218894,
            -2.0,
            0.6949126103762706,
            -2.0,
            0.6455760977216191,
            -2.0,
            2.0,
            -0.45173417302172175,
            -2.0,
            -0.006708394324521702,
            2.0,
            -2.0,
            2.0
         ],
         [
            -1.737387176539421,
            2.0,
            -1.6257173453947513,
            0.43661074054012144,
            0.9910677955093442,
            0.3225410742542978,
            2.0,
            2.0,
            1.0919708930104532,
            -2.0,
            -1.4350070675642128,
            -2.0,
            0.6363506073148041
         ],
         [
            -1.5197931268704372,
            -2.0,
            1.5421338767346318,
            -2.0,
            0.5637362161329819,
            2.0,
            2.0,
            -2.0,
            -0.5203894412122878,
            2.0,
            2.0,
            0.9679897490127827,
            -1.5377855730166416
         ],
         [
            -2.0,
            -2.0,
            0.4789302078735733,
            -2.0,
            -2.0,
            -0.18132158944151527,
            -2.0,
            0.3399481700364146,
            -1.2496254159777689,
            1.0629115163507643,
            0.4145674951172137,
            -2.0,
            -1.0586945787149236
         ],
         [
            2.0,
            2.0,
            -1.5694137765109304,
            -0.02025277759302204,
            -2.0,
            2.0,
            -1.682288445036186,
            0.6452457746795974,
            1.1761993683327285,
            2.0,
            -2.0,
            0.21309101028537944,
            -2.0
         ],
         [
            -1.9890475332011655,
            -1.9163934851457525,
            0.27709019165444,
            -0.6052855571274336,
            2.0,
            2.0,
            2.0,
            -1.01520603652654,
            2.0,
            -0.17305310913530644,
            2.0,
            2.0,
            0.9637900892158021
         ],
         [
            -0.10797069087651244,
            -0.40789875493062894,
            -2.0,
            -2.0,
            -0.2533861260142138,
            2.0,
            -2.0,
            -2.0,
            0.5039550578358536,
            2.0,
            2.0,
            2.0,
            -1.1972826208571876
         ]
      ],
      "biases": [
         [
            0.7338495257771862,
            -10.15898186910047,
            2.3494998884658918,
            -0.532420328132851,
            -0.5697831581772616,
            -3.535079451813375,
            -1.6455176094022463,
            4.9878581601627205,
            -2.1233273158252564,
            0.3358937829015426,
            3.3033538098111546,
            13.0,
            -1.6512831069318608
         ]
      ]
   },
   {
      "weights": [
         [
            2.0,
            0.4193433876144052,
            -2.0
         ],
         [
            1.4747374202807342,
            2.0,
            -2.0
         ],
         [
            -0.9019858201166081,
            -0.28110168174106265,
            0.7458541244804309
         ],
         [
            0.10951156561819732,
            2.0,
            -2.0
         ],
         [
            -2.0,
            0.05481829660282496,
            -0.02773885734605988
         ],
         [
            -2.0,
            -2.0,
            -2.0
         ],
         [
            2.0,
            0.3813595273103983,
            0.6443748610357171
         ],
         [
            2.0,
            -0.1760320837382152,
            2.0
         ],
         [
            0.1648677080080065,
            0.25272280387793794,
            -0.08741442319437565
         ],
         [
            2.0,
            -0.044153773436513666,
            0.10876253301387631
         ],
         [
            1.7272228204395812,
            0.8310993030934363,
            -0.5063149067061639
         ],
         [
            -2.0,
            2.0,
            2.0
         ],
         [
            -1.130252666679385,
            2.0,
            -1.8010208784070603
         ]
      ],
      "biases": [
         [
            0.226814150222053,
            0.37285396354736255,
            0.36709732347149115
         ]
      ]
   },
   {
      "genes": "011111010111001000011011110000101111000000000001001110110011011001011001110001011011001101110001011111010011010100110100001001001010001001010001101011100110101111111000010101010000011100001110010110100100000000110000011000011001001110110001010100100100010011101000111001011110001111101110100010011000011111111010101111101110011111001010010101111010011001010101001100001011110101100010101101100011100011000110001000000100001111110010011101111111111110000010000110101101101111111011111111000100000110000110101001000110001010101111100100011000101110111011110111000101110111101001010000011010001000010001010001011010010000000111001011110101111111000110011100010100100001011100001100101000101110000111010111010101110001101110011101011110011011011111001000000111100000010000100101011100110111110111101111101100011000111011000010100000101010100011001100010011110001110101101110111111001010110101001101000001101110000010000011101000010111110011111101100100011011010001110101001000010110101110001110100000010011101010000111001010011000000000010100010111000110001101011000000010010100010100110011011111110000111010100010000010010111010111110110011101001001000010100011111110100000101011011010111000001011010110001100011011010011100100111111011100000101110000111110110111000000100000011111000101100101000111100110001000000000111010110100110001100100011110010010001000010110001111001101111001001010011100100110110010010001100100100111010111110010110111000011011101101110010110101001110100001101100010110011011011100000110100101010010110011100011110110111000111010110011010001010000001001001100000110100101100101001111111111011011111010111010001100010011110001111100011100001010100000101000111110111001100001100111110010001011001101100011001101001011000101010101100111011000110111100010010110010110010101000001011111110000000101100100000100110000111011110111000110101000110111001110110010011010000111000111110101000000101101111011100111111111011110001110000010011010110010000100011001011100100011111110011001011011010100001101000001101011111000011000101100100101101101110111111100001110011000110100101011111111000010110110110110001110001111000011010110111010101100011011100111101000111100010001001101011111010010010000111100000001010011111010111011010001101011001011101100000101100111001011011111100011010001111101001011000100000111010110000010100011100100010100010110111010010110111001001101111110100000000111111001000001100100011110100011000011110110101100001111100100101110011101000011011100011001111100100101010110011000010101011101001001100000100111001111110000111001000110010011011001010011001110111010101111100000101101100110110000011011010011000001010111011001001011111001111110111101001010011011010010101110001100011010101111101110011011110100011111111111011100101010101011011110000110010010000111000111001100001100010111110000000011101001111000010101111011111001001100011010000110011011010000110110110000000100000111000001010110110001000000001010011101100011010000101110100111100100001110100001111111010110000010000100110001110101000001101110110001110000011000000000100010101011011011011100101010011000010110001010000110111010001011001110100001001110000111000001011111100101011101100000000011000000101000111110111111110110011001000101101100100010111000100001010101101011011011111011001011010111100111100011011000011101100011000111001011010010010000000011000100011011000001111110110000000001111010000001001101000001010110110001101110101111001010010111110111011111001011111100101110111101011100110110100001110011101001000100001110000111110000101011000001100111011001100000010011110101001111010010010111011011101010101110010111001111100011001001111100101000101010100010101110100011010010100010011011000011110000011100000010100111111000111101111001100001000011101110111011100010101011110011000111110100101110100100011010100001100001101001110100011001010011111000101010110011011111100110001111000111000101011101101110111100111110001110100110000000101110001100001011011001010111111111110010001000000110001001010000111001101111001101110101111111110101111000010110101100101111000110001010001110000111111110110010001000010010101000001100101000000110110101100000010101000100100110001001111101010000100011011011001010111000110001110011110111100000000011010011010010011110011100010001101011011000111000010111100101111110111100110011100111010110010111010101111100011011010101011000000110010100011100100000010010011001101001011111011000000111000111110011100001000110100100111010101110111010110001001011110101011011001011001011011111011010111100000001111101100000101011010111100111011101010011111011010011101111001000100101001110001000001011100111100001010110001010100001000001010001110001110100000110010111010110010111010110000001011110101001111010000111010110011000111110100000001011000101011000011011100100111101111111010100000111000001111000100100011001010001100111110100101001110011101000011110000111110111001010011010110101011101000010111001000000101101101110011000111011100100100000010000110100001100111001000010110100100100101011100100101111010110010100011010001000001010101100011111010101011001001110111111110100110111111111111101111100101001000111100101000000011001110010010011001000110100101100110010010100011000110101110110100101001000000101001101011101000111001010000001110011001110110110001110101110101101011100110110010110100011011000101000000100101110110001011110000101100011100010000001100110001001011101101101110011110101000100111000010110110100001111101010101011110100101111101110000111100001010111011001110101011100111100011001100011110101011010000111110001110101100010101001000010101011011101111000000010010001100110111000110001101000111100000101010001100101000010010000010011101111110110010110100111011110001000011010010001110110100100100101001111100110110110110101001111000000001101011100111111011000110011101001010101011101011010001011000110001110111001110001010101001111011100101001111010100111101100000110001000100111100101010110101110111111100000001111011001100001111001111110111011001110111111010010111111110000100011111000000011010011110010001111000001101001111101001101001111000111111110111010010000010010111101000101111100101101110111010101001000110001011101100011001110101100001100010111011010011110011011100100001010110010111010101000111110010100101111001010110110111110110010010011001101110010111111100010010000000010101010101111110100001110110101110000001011010000111100011110001110011100000101111110100001100001100000101010011001010011111010011110010001111001000100001111111110001010101010110000111101011000011100100000001100100100000010000111110110110010101101011110000110010011100111100111110011001011010011000110100001100010001101000011011011011001111011101011011001110110010101001111011100101011101011011101110100101000100001011111100011110011110111010001010001101111000101111110001000011011111110000011101101101011001010000110101011000111101011101010100000001100101010011001011101111101110000110101010110101111110010100110110000100001110011110010010110100011001101000111010010110001100011011101010000010110110101001111000110010001110010100100000010111001100000111000100000100110100100110111001011110101000111001101110011001110111010010110110101011110010010110011110010100110000110001111101000000101000000011000011100111111100011010000010100111101000100110111100011111010011010111101001011101110000000100100100110111001101101011011001101001101110010001000001010010010010101111111110111100111110101001000001111111111000001110101000100011001000110101010000000110001000000111001000010111011000001000010111101000100010000110101111110110001110001111010010010110100100011001000100001000111010100101011110110001011001101111001010110100110000100100111101000111000010000010001101001110011000001111010111111110101100001010000110101101100111110101111111110111011111100111010110111100011111100101011101011100010101110001010111111101001011111000001100010101000101010111100000011110100001100101010111101000101010001110010011101111110010110100101000011111110110001111011000010000110001011011011110101111101001000010111011101011100100001011001011110000011010010101101000001000001011001100011100000111001111011100011111101110000111001110101001000000001000101011111101101001100010101000001100110011100010111010001100111000011111101111101100100100101111110110100110001101011100001111101010101010100110010001000101101100110010100000100101000001011000000000101001111111001101001100101100001010101010011001011001100011001001100110111000000101001110000101011011001010111011110001111101010111010010010111111101011001110111100001010111101110101000110001011110110000000001010000010100010010011010111010111110011110011011101010110110100010000111101011111001001100000000001110011101001111110101010100000011011110000001010011110101011011111101111010110110111000001101000110100001110001000010111111000011101000110111101110000101111001111100100111010100000100100001100010110100001001001100010101000100110011010001011100010011111010101011100011000000100000111100111111001001010111010010001000011111011010000010010100010110010011000110101110101100101110010101111111000110000010011100000110110001000000001001110101111100110001000101100001110010011010110111100111010001011100110110110111000011010011010010010001111101001100010111101011111110110000010101110100000101000011110101001000011011000111111100000100110011110110110001011011111011110111000100010011100111111000101101100100010111110110111000101000101110101001111000100010100011011010000000011101110111011011000111011001110001101110110010011110111001000111111101000110001001001000111001001111000111110001111011100111000011110101000000001111101101011011111101001001011111110010111011000001000010001110101010101011101000011010001010010010110111011010111101000011100000011000110010011101000001110101110011100001011001111111000000001000100110000000101000000000111001110111011101111001100011010001001000111111011101100010000101001010100001000000011001011000101001001011000101000011010110111110011000111110000000110011010000010001100000010000100010110011101011100100011001111101001101100100100000111111110100100010010101101110001110011001101110010101110111100100000001000000110000111101011000111111011100010001000011101101100000000001010000010010101000110110011101010001101000001011001100010011000000000010010010111001100000000100111000110100001111111100011011011001011011110010010111010110011101111100111100101011000000011010010100001110101101110101001100011101011110001100011101110011111011111010110110010001100010110010010000001001000010110011101110100110110001010101011011101000010001010110010010100011110011011001101001001100010011101110001110111000101011000101000101111110110101000010110101011110111011100111010100111101010001101111001001101001110111101011101111101001001110001101101100001010010100101001011000010100111010001100001101000111100000111111110011101111010100000111111000100011000101110110001110110001011011100110101010010111000110000011110101110101100000101001101100100001001111111011101011010100011101111100010011111110101010010001111011111001110100000010100101101100110011110000001000110010110100101100110101010000101001110100110000001000110000110010000111000000100000011100010100101110100010111101111111000111110001101000010111100010001100001101010111010011011111001111100101000111101011100101110010111011101100010111000011101100011110101010110011101001000011010100110011000110011010101111111100111100100110011000010111000000001101001110110101001001111000011101100100010101101100111101101110101110111111001001110100011011101111001100000001001101010111010111111101100111011101100010111110100111011010110011001001101111001101100000011001001111100110100100000100001010110100111010011001110001111011010001011100001110000110101111101110001011000001111101001010001011100001101101011100100111101001110000110110110011110000001010100111011011010100011010101001111010000011110011000100001111001011100001111110110100000001010011111001111011000101100011001000001000010001101000010101010000000111001000001000111010011111110010011110000101010010100110011010010010001010010011000111110111011000110001110010001110100100110010001011011010101110011111100001000010010011000100011101110011011011000001001110100110010110111110110011100110001001101001001100101100110110000101011011111000101000100110101011011001001100000101010101110101001110110000010100001010000010101001100101000110010011010101100000111011101111001101100001100001011011110011000101110000000000100100110001100010100110011011001000010110111011100011001110011010001111010000001000111001000100110010100011111011000101011011011100010001000111000010101100000111110010001010110110001110010111000110010001110000011100100001011101001011011111101111011101101010110001000100010100111000011000000110110001100101110101101010101100000101000001100000011100111110101111000110001101101101100101000010011111000100101101101010011101100101010101011000011100100111001100101100001010010010011010100001010110100100100010001101001100100111111000011101101100011100110011101010111110110111100111011000101101111111110000011101110000100010011010111100100110000000111011011001101101101001101001001000000010010110011010111000111001001010000000101001000100100011001111101011001011110001001001001000010110010000101000111000110011011010110001000111011111111001110011101000101001010001101010000101100111001111101101001000001011011101101000011111111110011100100100011000111101110000011111110011011111010111010000100101110100111001101010011110100011100101011101101110110110000100111000001000000001000001111101000011001000100011010110010001110011110011000101000010011101010011100111100100100001100011100110000101110000001100001001111111111101100000110001100111111000110010111111110010101111110101110100110001110010001101011110001011001000100110010000001010001101100101011000010111011001011010110011110101001111111111101000001101000010100000100001100011000000111111010001101110010011011110000011110001101011010100111001001110010110111010001111110011100010010001011010010110000101000100101000100010101101111101101000011011010101010111001101001000011000111000000111111111101010010011110111110000010001100000000110111011000011100000100110000111000110010100000001100100100001110000011101001010101101101010101101010000011101001000111000001001101010000010100100111101111010000100100000001000000000101110011010001001100100101100010110100010110000000000000100010011011101100100101000101100101000111010001011110010010111101111111000111010010011111000010001101010111110100110001111010011011110000111100110011110101110101000011100110101001110111110111000011111010101011011000010110111001000001001001000100000001111001010111010010110101110011001111111000110110101011100010100110000101001000011010010001000011100101110001111000010100100000100101001110000100010110100000001101011000001101010110000111100110001111011111101000111001000100111111000100001101110001110010100111111100011111110011110110011011100011101001100101001001011110111100101100100101000110110000011101101110011110001001010110011001010010110110001111001010111110111100000011111101000100010000010001001001000001101100100000000100010000000111010100101100111001010010010111001101011100001011011101111101110010101111010001001000110100110110001010100111011100011000001100000010001010011001010100111010000101011100011011100010000010101100111000000011001101101010010101001100110001110101011110110001001011100011000001010000111011100101110000111000101001000010011011100011011010111110101111110010011110100111110111010010101101000100100010100000110110101111001111010101100010100100100010111011101110100100100111101010011110100100001101001010101111011001101101001001010100100010100111110100001100101010111001010111010000011000000011111011111011010101000111101110110011100001001001010111010111111110100011010011110010001110100000001001101111111010111001011000010000111011001001001101001010110011100010001010100011011001110111110110001100100110000000101100100111100011001111101110000110111001011110000110111001100000010010101011000111101000010011001110000110100111111110101111110110001100011111111001010110011010010011011100101001100110101111100010000001010010000011001111101001110110111011010100100011001110000001101101101111100001011001101111000101100100011011101010101101001000000110100100011010101100011111010110011101000110001010100001110000110101000010101000011011101011011111011010101001001010001011001011101001111111111011000100010010000111101000001010001011110100110010000110010011100000011101000101010101011000000001000001100000001000110000001111110010010011001110100100000101011011011111101101101000011010001100011001100111000011101110000000111011010000001011101111011001011010100001000001110000100101000001111000101001010011110111000100001001101101011010111110000000011110101110010101110000011010001100010100001111000001110010110000011011101100101100101000000111100110100100111111100100111110111011111111110011010101111010011010000000101000100110101010100000001100111010101101011010110011000101010111100100000011110101101110011001010010101001000111101011110010001000010100011010000100011000001010111011111001011001101110110111001000000011110100101111111001101001110110000011001000000110001110110011001011110001100101110000111101001001011110000111101100101001011100111011001100000011001001011101000000000101100111101001001001111010011000110111110100000100001010001110101111011111110000111010010100011010101001101100100101010000111010000001110110001111011001101101000"
   }
]