[
   {
      "weights": [
         [
            2.0,
            -1.406789840502631,
            -0.025082688752981953,
            2.0,
            1.0069103968193263,
            -0.0703619650694582,
            0.15928067559222864,
            1.00802219494973,
            1.4414849584288902,
            0.8998183595983077,
            2.0,
            -0.6009371147192148,
            1.300416686877752
         ],
         [
            -0.5440584459584848,
            -2.0,
            2.0,
            2.0,
            0.5093574715871362,
            1.030905214971601,
            2.0,
            0.5692264328073953,
            2.0,
            -2.0,
            -2.0,
            0.8036803172290837,
            -0.07890096583097869
         ],
         [
            -0.5766052299746451,
            -0.5377817822592332,
            -1.1867404582851646,
            0.10172708276346827,
            -0.8221269847964923,
            -0.3899881141742472,
            -0.30130606980866,
            -1.36272218320369,
            0.5103741164587974,
            1.6187278242617047,
            0.9856069845249433,
            2.0,
            -0.3935249704960677
         ],
         [
            -2.0,
            -2.0,
            0.8789055685040121,
            1.9916431195052422,
            -1.0196632130955292,
            -0.2616923785709504,
            -2.0,
            -0.7525657823380537,
            -0.5404303390843589,
            2.0,
            -1.6717761501188542,
            -0.6001499590650963,
            -0.30889410485683805
         ],
         [
            0.08055242158103151,
            -1.6729191595885724,
            -1.0137488953894467,
            1.0737325830762292,
            2.0,
            2.0,
            -0.1427679935042877,
            0.812246775074691,
            2.0,
            -0.17157210172488263,
            -1.459618198832742,
            -2.0,
            0.09234531529738133
         ],
         [
            1.2365615016041023,
            -0.4422759941290088,
            2.0,
            -0.9172023405365557,
            -1.0907441952639887,
            -0.29674607712340473,
            0.6364294145935755,
            -0.18969263067779776,
            1.1441062823548716,
            -0.8491785137545746,
            -0.7219992398311686,
            0.4172788079800525,
            1.6929553737019496
         ],
         [
            -2.0,
            -1.0439989318736964,
            0.5703475741904459,
            -1.3857975414537325,
            0.9896476152621172,
            1.142697230166987,
            1.0000970472321542,
            -0.10990023836743867,
            0.360748500815772,
            0.776649346825762,
            0.18507952416308063,
            -0.14896256023429494,
            -2.0
         ],
         [
            -0.49013699596856614,
            2.0,
            -0.2746878074085616,
            0.628788598913657,
            -1.2817145916888726,
            1.2484012522528192,
            1.7607707864786846,
            -2.0,
            -0.661427120421391,
            -1.784432116713668,
            -2.0,
            -2.0,
            -1.157257710765443
         ],
         [
            -0.6261587971230957,
            2.0,
            -1.1273595837038604,
            0.14405294566664628,
            0.015274978012974717,
            -0.10772191187177098,
            1.0192980508621607,
            -0.384053348785868,
            -1.465247529685888,
            -1.3479289661232468,
            -0.2871096241577756,
            -0.7776028925364553,
            -0.5223158927821455
         ],
         [
            2.0,
            0.320100236970613,
            0.7383014025020556,
            0.5844362703691033,
            -0.6083715145347172,
            0.35407661073277297,
            -2.0,
            -1.8057700806892543,
            -0.08237592269348935,
            -2.0,
            2.0,
            0.31360791612557726,
            -1.8000434808673498
         ],
         [
            -0.02041159527925364,
            -2.0,
            2.0,
            -0.30513195193244036,
            -0.7195019915613659,
            -0.1546530024436781,
            -0.9146539461211421,
            -0.7738463251216842,
            0.8883593490445103,
            -0.5761930839939814,
            -1.266372090547704,
            -0.7241680499215346,
            0.15576708804247874
         ],
         [
            -1.819167478215946,
            0.3633296337350636,
            0.925078996028593,
            0.02764073058233646,
            0.07263459124346124,
            0.11345366524699368,
            -0.07474558124124688,
            0.47620087385053417,
            -2.0,
            0.45259566914422666,
            -0.45875070296254,
            1.339259436512379,
            -0.34466050892697975
         ],
         [
            -1.4577431909612946,
            -0.4759926685164339,
            0.2772100719848124,
            0.787186051665681,
            -0.7226074331645511,
            -2.0,
            2.0,
            1.4303231368191538,
            1.5852784418219679,
            2.0,
            -1.218376057297711,
            2.0,
            0.7786174151385917
         ],
         [
            -1.8078775291911124,
            -0.9721829404392894,
            -0.5280896305685681,
            0.7377867359507569,
            -1.6137661505698964,
            -0.26396083831704154,
            -1.1281382268697122,
            -0.5189376722038093,
            -0.7581483492244373,
            0.5264151597916538,
            2.0,
            0.010085238547593757,
            -0.016233488756816024
         ],
         [
            -2.0,
            -0.8658648317092199,
            0.9405719031291624,
            -1.6067497999675073,
            1.514128268676163,
            0.32520441190960203,
            -2.0,
            -1.550649373125365,
            1.8157964633441037,
            1.2767652376866307,
            2.0,
            0.8558445048653125,
            2.0
         ]
      ],
      "biases": [
         [
            -5.65418562670973,
            2.2040706908215593,
            -1.076185795518113,
            0.9932123437638547,
            1.380584013175395,
            0.9070088092227778,
            0.8919822670059043,
            0.937893770843801,
            -0.27986724068466956,
            -0.5094867138193868,
            -1.5244601052849385,
            0.9547964111990859,
            -0.40261060362323364
         ]
      ]
   },
   {
      "weights": [
         [
            -0.3564945264509317,
            2.0,
            -1.2462319113272906,
            0.8405844400100956,
            0.6762500013356265,
            2.0,
            -2.0,
            -0.2687219441888915,
            -0.7364363143032169,
            -1.5900935007884016,
            -2.0,
            -2.0,
            -1.1500732961175495
         ],
         [
            -1.1583980743364528,
            1.5452021073575661,
            1.315556580618245,
            0.3677157420058694,
            0.4800378026806393,
            2.0,
            2.0,
            -0.2637515960201819,
            -1.2948350965420246,
            -0.9861608469345134,
            -2.0,
            -1.1453422894189251,
            -0.7945865980342375
         ],
         [
            2.0,
            2.0,
            2.0,
            0.42187210610632087,
            0.034804609593847916,
            -0.17614070402228474,
            -2.0,
            2.0,
            -2.0,
            -0.6256000604708001,
            1.8368697725787002,
            -2.0,
            2.0
         ],
         [
            2.0,
            -0.18262231448968003,
            0.6715134025261138,
            1.8009093922286208,
            -0.920433656558758,
            -2.0,
            -0.15881911632393686,
            1.1460744597556642,
            2.0,
            0.1630092125122955,
            -1.2473593051703262,
            -0.005287053375327935,
            2.0
         ],
         [
            0.3095211937677258,
            -1.7573733106981593,
            -0.5650437834290823,
            2.0,
            -0.9905383742475946,
            0.5461458961282043,
            -0.6310422695332741,
            -2.0,
            -2.0,
            2.0,
            -1.903325552395259,
            2.0,
            0.9189218979023406
         ],
         [
            -2.0,
            1.9730303417722819,
            -2.0,
            -2.0,
            -0.0355326108224191,
            0.4371360868098357,
            -0.5627225024788323,
            0.5649402878656911,
            -0.6037639309233473,
            -0.09255059409946752,
            -2.0,
            0.6668279757295541,
            2.0
         ],
         [
            -0.5425365066137763,
            -2.0,
            0.3613993422822691,
            -1.1059980930069804,
            1.0288327227253138,
            -2.0,
            2.0,
            -1.803849157140861,
            -1.8860156183341394,
            0.10067655825319682,
            1.6285408714487686,
            -0.4786903531117506,
            2.0
         ],
         [
            -0.7599005230087409,
            2.0,
            -0.6539563338662818,
            0.9355753288117663,
            1.2722182395878057,
            0.6118198217913009,
            0.8275910020151809,
            2.0,
            0.6397319889431125,
            -2.0,
            -1.210697352097902,
            -2.0,
            0.8640408737618809
         ],
         [
            -0.24461620689267882,
            -2.0,
            0.4859215389996474,
            -2.0,
            0.49415214869774987,
            0.7603380780009672,
            0.8414197794876271,
            -2.0,
            -1.5582876196819122,
            0.7216356745277273,
            2.0,
            0.4689986185242663,
            -2.0
         ],
         [
            -2.0,
            -1.5607841511396923,
            1.3317841593631943,
            -2.0,
            -0.6457157113704068,
            -0.10054283286120673,
            -1.544465415570031,
            0.16913401981436163,
            -0.282669715304219,
            0.25541156759616424,
            1.6393196612496856,
            -1.4952662711279292,
            -0.5458892919754844
         ],
         [
            1.8445239262760451,
            2.0,
            -2.0,
            -0.03093419261522734,
            -0.843884829281083,
            2.0,
            -1.8092973024899281,
            2.0,
            0.13674808432830945,
            1.4481310548558508,
            -2.0,
            0.01935208511699244,
            -0.5129538620432994
         ],
         [
            -1.2724458051182825,
            -0.7445528590244022,
            2.0,
            -0.3341705308061983,
            2.0,
            1.2339666583219826,
            2.0,
            -2.0,
            2.0,
            -0.7725486502640828,
            2.0,
            2.0,
            0.8758432098227722
         ],
         [
            -0.09109901242166575,
            -0.3642527395790387,
            -0.6279024441622607,
            -0.6535064313323871,
            -0.34729320413967557,
            0.5459093858254428,
            -1.980409875914056,
            -2.0,
            0.42991966419410915,
            0.7069445940850909,
            1.0836322833389793,
            2.0,
            -0.39795523268548605
         ]
      ],
      "biases": [
         [
            0.5090442269800038,
            -5.04092901376378,
            0.7229734276387735,
            -1.2373539062730914,
            -5.740884768697154,
            -2.1122122895040207,
            -0.7337698750110837,
            1.2387963991413447,
            -0.4414778503367741,
            1.0619645581272903,
            0.89630970340857,
            7.734521824104195,
            -0.8566194309326225
         ]
      ]
   },
   {
      "weights": [
         [
            2.0,
            0.27671066145786327,
            -1.8748620684068054
         ],
         [
            0.7336710948829053,
            2.0,
            -1.5176494434104146
         ],
         [
            -0.030322138088497624,
            -0.5853052162821414,
            0.15196919300375983
         ],
         [
            0.33468855191353164,
            2.0,
            -2.0
         ],
         [
            -2.0,
            0.0005749366786962154,
            -1.3986989957897837
         ],
         [
            -2.0,
            -1.4354488512944625,
            -1.2328792640014599
         ],
         [
            0.838782835510067,
            0.7999347372918884,
            1.1099323741963347
         ],
         [
            1.1777049440630636,
            -0.07534624903244484,
            0.7961660564698876
         ],
         [
            0.07869514742510801,
            0.19343962459962902,
            -0.12837902352376052
         ],
         [
            1.19328739501585,
            -0.249941375412823,
            0.06797492500869634
         ],
         [
            2.0,
            0.8018294190390464,
            -0.23169546371580016
         ],
         [
            -2.0,
            0.4808660780680109,
            0.4209368435539446
         ],
         [
            -0.8173323596475816,
            2.0,
            -0.3657643257498143
         ]
      ],
      "biases": [
         [
            0.3450619298297468,
            0.2355663645854885,
            1.7231149780902681
         ]
      ]
   },
   {
      "genes": "011111010111001000011011110000101111000000000001001110110011011001011001110001011011001101110001011111010011010100110100001001001010001001010001101011100110101111111000010101010000011100001110010110100100000000110000010000011001001110110001010100100100010011101000111001011110001111101110100010011000011111111010101111101110011111001010010101111010011001010101001100001011110101100010101101100011100011000110001000000100001111110010011101111111111110000010000110101101101111111011111111000110000110000110101001000110001010101111100100011000101110111011110111000101110111101001010000011010001000010001010001011010010000000111001011110101111111000110011100010100100001011100001100101000101110000111010111010101110001101110011101011110011011011111001000000111100000010000100101011100110111110111101111101100011000111011000010100000101010100011001100010011110001110101101110111111001010110101001101000001101110000010000011101000010111110011111101100100011011010001110101001000010110101110001110100000010011101010000111001010011000000000010100010111000110001101011000000010010100010100110011011111110000111010100010000010010111010111110110011101001001000010100011111110100000101011011010111000001011010110001100011011010011100100111111011100000101110000111110110111000000100000011111000101100101000111100110001000000000111010110100110001100100011110010010001000010110001111001101111001011010011100100110110010010001100100100111010111110010110111000011011101101110010110101001110100001101100010110011011011110001110100101010010110011100011110110111000111010110011010001010000001001001100000110100101100101001111111111011011111010111010001100010011110001111100011100001010100000101000111110111001100001100111110010001011001101100011001101001011000101010101100111011000110111100010010110010110010101000001011111110000000101100100000100110000111011110111000110101000110111001110110010011010000111000111110101000000101101111011100111111111011110001110000010011010110010000100011001011100100011111110011001011011010100001101000001101011111000011000101100100101101101110111111100001110011000110100101011111111000010110110110110001010001111000011010110111010101100011011100111101000111100010001001101011111010010010000111100000001010011111010111011010001101011011011101100000101100111001011011111100011010001111101001011000100000111010110000010100111100100010100010110111010010110111001001101011110100000000111111001000001100110011110100011000011110110101100001111100100101110011101000011011100011001111100100101010110011000010101011101001001100000100111001111110000111001000110010011001001010011001110111010101111100000101001100110110000011011010011000001010111011001001011111001111110111101001010011011010010101110001100011010101111101110011011110100011111111111011100101010101011011100000110010010000111000111001100011100010111110000000011001001111000010101111011111001001100011010000110011011010000110110110000001100000111000001010110110001000000001010011101100011010000101110100111100100001110100001111111010110000010000100110001110001000001101110110001010000011000000000100010101011011011011100101010011000010110001010000110111010001011001110100001001110000111000001011111100101011101100000000011000000101000111110111111110110011001000101101100100010111000100001010101101011011011111011001011010111100111100011011000011101100011000111101011010010010000000011000100011011000001111110110000000001111010000001001101000001010110110001101110101111001010010111110111011111001011111100101110111101011100010110100001110011101001000100001110000111110010101011000001100111011001100000010011110101001111010010010111011011101010101110010111001111100011001001111100101000101010100010101110100011010010100010011011000011110000011100000010100111111100111101111001100001000011101110111011100010101011110011000111110100101110100100011010100001100001101001110100011001010011111000101010110011011111100110001111000111000101011101101110111100111110001110100110000000101110001100001011011001010111111111110010001000000110001001010000111001101111001101110101111111110101111000010110101100101111000110001010001110000111111110110010001000010010101000001100101000000110110101100000010101000100100110001001111101010000100011011011001010111000110001110011110111100000000011010011010010001110011100010001101011011000111000010111100101111110111100110011100011010110010111010101111100011011010101011000000110010100011100100000010010011001111001010111011000000111000111110011100001000110100100111010101110111010110001001011110101011011001011001011011111011010111100000001111101100000101011010111100111011101010011111011010011101111001000100101001110001000001011100111100001010110001010100001000001010001110011110100000110010111010110010111010110000001011110101001111010000111010110011000111110100000001011000101011000011011100100111101111111010100000111000001111000100100011001010001100111110100101001110011101000011110000111110111001010011010110101011101000010111001000000101101101110011000111011100100100000010000110100001100111001000010110100100100101011100100101111010110010100011010001000001010101100011111010101011001001110111111110100110111111111111101111100101000000111100111000000011001110010010011001000110100101100110010010100011000110101110110100101001000000101001101011101000111001010000001110011001110110110001110101110101101011100110110010110100011011000101000000100101110110001011110000101100011100010000001100110001001011101101101110011110101000100111000010110110100001111101010101011110100101111101110000111100001010111011001110101011100111100011001100011110101011010000111110001110101100010101001000010101011011101111000000010010001100110111000110001101000111100000101010001100101000010010000010011101111110110010110100111011110001000011010010001110110100100100101001111100110110110110101001111000000001101011100111111011000110011101001010101011101011010001010000110001110111001110001010101001111011100101001111010100111101100000110001000100111100101010110101110111111100000001111011001100001111001111110111011001110111111010010111111110000100011111000000011010011110010001111000001101001111001001101001111000111111110111010010000010010111101000101111100101101110111010101001000110001011101100011001110101100001100010111011010011110011011100100001010110010111010101000111110010100111111001010110110111110110010010011001101110010111111100010010000001010101010101111110100001110110101110000001011010000111100011110001110011100000101111110100001100001100000101010011001010011111010011110010001111001000100001111111110001010101010110000111101011000011100100000001100100100000010000111110110110010101101001110000110010011100111100111110011001011010011000110100001100010001101000011011011011001111011101011011001110110010101001111011100101011101011011101110100101000100001011111100011110011110111010001010001101111000101111110001000011011111110000011101101101011001010000110101011000111101001101010100000001100101010011001011101111101110000110101010110101111110010100110110000100001110011110010010110100011001101000111010010110001100011011101010000010110110101001111000110010001110010100100000110111001100000111000100000100110100100110111001011110101000111001101100011001110111010010110110101011110010010110011110010100110000110001111101000000101000000011000011100111111100011010000010100111101010100110111100011111010011010111101001011101110000000100100100110111001101101011011001101001101110010001000001010010010010101111111110111100111110101001000001111111111000001110101000100011001000110101010000000110001000000111001000010111011000001000010111101000100010000110101111110110001110001111010010010110100100011001000100001000111010100101011110110001011001101011001010110100110000100100111101000111000010000010001101001110010000001111010111111110101100001010000110101101100111110101111111110111011111100111010110111100011111100101011110011100010101110001010111111101001011111000001100010101000101010111100000011110100001100101010111101000101010001110010011101111110010110000101000011111110110001111011000010000100001011011011110101111101001000010111011101011100100001011001011110000011010010101101000001000001011001100011100000111001111011100011111101110000111001110101001000000001000101011111101101001100010101000001100110011100010111010001100111000011111101111101100100100101111110110100110001101011100001111101010101010100110010001000101101100110010100000100001000001011000000000101001111111001101001100101100001010101010011001011001100011001001100110110100000101001110000101011011001010111011110001111101010111010010010111111101111001110111100001110111101110101000110001011110110000000001010000010100010010011010111010111110011110011011101010110110100010000111101011111101001100000000001110011101001111110101010100000011011110000001010011110101011011111101111010110110111000001101000110100001110001000010111111000011101010110111101110000101111001111100100111010100000100100001100010110100001001001100010101000100110011010001011100010011011010101011100011000000100000111100111111001001010111010010001000011111011010000010010100010111010011000110101110101100101110010101111111000110000010011100000110110001000000001001110101111100110001000101100001110010011010110111100111010001011100110110110111000011010011010010010001111101001101010111101011111101110000010101110100000101000011110101001000011011000111111100000100110011110110110001011011111011110111000100010011100111111000101101100100010111110110111000101000101110101001111000100010100011011010000000111101110111011011000111011001110001101110110010011110111001000111111101000110001001001000111001001111000111110001111011100111000011110101000000001111101101011011111101001001011111110010111011000001000010001110101010101011101000011010001010010010110111011010111101000011100000011000110010011101000001110101110011100001011001111111000000001000100110000000101000000000111001110111011101111001100011010001001000111111011101100010000101001010100001000000011001011000101001001011000101000011010110111110011000111110100000110011010000010001100000010000100010110011101011100100011001111100001101100100100000111111110100100010010101101110001110011001101110010101110111100100000001000000110000111101011000111111011100010001000011001101100000000001010000010010101000110110011101010001101000001011001100010011000000000010010010111001100000000100111000110100001111111100011011011001011011110010010111010110011101111100110100101011010000011010010100001110101101110101001100011101011110001100011101110011111011111010110110010001100010110010010000001001000010110011101110100110110001010101011011101000010001010100010010100011110011011001101001001100010011101110001110111000101011000101000101111110110101000010111101011110111011100111010100111101010001101111001001101001110111101011101111101001001110001101101100001010010100101001011000010100111010001100001101000111100000111111110010101111010100000111111010100011000101110110001110110001011011100110101010011011000110000011110101110101100000101001101100000001001111111011101011010100011101111100010011111110101010010001111011111001110100000010100101101100110011110000001000110010110100101100110101010000101001110100110000001000110000110010000111000000100000011100010100101110100010111101111111000111110001101000010111100010101100001101010111010011011111001111100101000111101011100101110010111011101100010111000011101100011110101010110011101001000011010100110011000110011010101111111100111100100110011000010111000000001101001110110101001001111000011101100100010001101100111101101110101110111111001001110100011011101111101100000001001101010111010111111101100111011101100010111110100111011010110011001001101111001101100000011001001111100110100100000100001010110100111010011001110111111011010001011100001110000110101111101110001011000001111101001010001011100001101101011100100111101001110000110111110011110000001010100111011011010100011010101001111011000011110011000100001111001011100001111110110100000001010011111001111011000101100011001000001000010001101000010101010000000111001000001000111010011111110010011110000101010010100110011010010010001010010111000111110111011001110000110010001110100100110010001011011010101110011111100001000010010011000100011101110011011011000001001110100110010110111110110011100110001001101001001100101100110110000101011011110000101000100110100011011001001100000101010101110101001100110000010100001010000010101001100101000110010011010101100000111011101111001101100001100001011011110011000101110000000000100101110001100010100110011011001000010110111011100011001110011010001111010000001000111001000100110010100011111011000101011011011100010001000111000010101100000111110010001010110110001110010111000110010001110000011100100011011101001011011111101111011101101010110001000100010100111000011000000110110001100101110101101010101100000101000001100000011100111110101111000110001101101101100101000110011111000100101101101010011101100101010101011000011100100111001100101100001010010010011010100001010010100100100010001101001100100111111000011101101100011100110011101010111110110111100111011000101101111111110000011101110000100010011010111100100110000001111011011001101101100101101001001000000010010110001010111000111001001010000000101001000100100011001111101011001011110001001001001000010110010000101000111000110011011010110001000111011111111001110011101000101001010001101010000101100111111111101101001000001011011101101000010111111110011100100100011000111101110000011111110011011111010111010000100101110100111001101010011110100011100101011101101100110110000100111000001000000001000001111101000011001000100011010110010001110011110011000101000010011101010011100111100100100001100011100110000101110000001100001001111111111101100000110001100111111010110010111111110010101111111101110100110001110010001100011110001011001000100110010000001010001101100101011000010111011001011010110011110101001111111111101000001101000010100000100001100011000000111111010001101110010011011110000011110001101011010100111001001110010110111010001111110011100010010001011010010110000101000101101010100010101101111101101000011011010101010111001101001000011000111000000111111111101010010011110111110000010001100000000110111011000011100000100110100111000110010100000001100100100001110000011101001010101101101010101101010000011101001000111000001001101010000010100100111101111010000100100000001000000000101110011010001001100100101100010110100010110000000000000100010011011101100100101000101100101000111010001001110010010111101111111000111010010011111000010001101010111110100110001111010010011110000111100110011110101110101000111101110101001110111110111000011111010101011011000010110111001000001001001000100000001111001010111010010110101110011001111111000110100101011100010100110000101001000011010010001000011100101110001111000010100100000100101001110000100010110100000001101011000001101010110000111100110001111011111101000111001000100111111000100001101110001110010100111111100011111110011110110011011100011101001100101001001011110111100101100100101000110110000011101101110011110001001010110011001010010110110001111001010111110111100000011111101000100010000010001001001100001111100100000000100010000000111010100101100111001010010010111001101011100001011011101111101110011101111010001001000110100110110001010100111011100011000000100000010001010011001010100111010000101011100011011100010000010101100111000000011001101101010011101001100110001110101011110110001001011100011000001010000111011100101110000111000101001000010011011100011011010111110101111110010011110100111110111010010101101000100100000100000110110101111001111010101100010100100101010111011101110100100100111101010011110100100001101001010101111011001101101001001010100100010100111110100001100101010111001010111010000011000000011111011111011010101000111101110110011101001001001010111010111111110100011000011110010001110100000001001101111111010111001011000010000111011001001001101001010110011100010001010100011011001110111110110001100100110000000101100100111100111001111101110000110111001011110000110111001100000010010111011000111001000010011001110000110100111111110101111110110001100011111111001010110011010010011011100101001100110101111100010000001010010000011001111111001110110111011010100100011001110000011101101101111100001011001101111000101100100011011101010101101001000000110100100011010101100011111010110011101000110001010100000110000110101000110101000011011101011011111011010101001001010001011001011101001111111111011000100010010000111101000001010001011110100110010000110010011100000011101000101010101011000000001000001100000001000110000001111110010010011001110100100000101011011011111101101101000011010001100011001100111000011101110000000111011010000001011101111011001111010100001000001110000100101000001101000101001010011000111000100001001101101011000111110000000011110101110011101110000011010001100010100001111000001110110110000011011101100101100101000000111100110100100111111100100111110111011111111110011010101111010011010001000101000100110101010101000001100111010101101011010110011000101010111100100000011110101101110011001010010101001000111101011110010001000010100011010000100011000001010111011111001011001111110110111001000000011110100101111111001101001110110000011001000001110001110110011001011110001100101110000111101001001011110000111101100101001011100111011001101000011001001011101000000000101100111101001001001111010011000110111110100000100001010001110101111011111110000111010010100011010101001101100100101010000111010010001110110001111011001101101000"
   }
]