[
   {
      "weights": [
         [
            -0.038374017263684466,
            0.05181476839900746,
            0.009821904970644195,
            0.07054083651114874,
            0.11617278078883127,
            -0.06879687657955338,
            -0.034336719576852213,
            0.03779037698924494,
            0.02347925678246212,
            0.023612467437266728,
            0.008485196973104164,
            0.05685236834496919,
            -0.06907359883965657
         ],
         [
            0.006413769405197688,
            -0.004972331070185085,
            -0.04832178063918584,
            -0.014771942001820297,
            -0.02937654978884517,
            0.006743049071395595,
            -0.031881322316001576,
            -0.031055420129719114,
            0.002700226642171028,
            0.05150327061471286,
            -0.0034933361520632176,
            -0.012531964590261714,
            0.06397752615957603
         ],
         [
            -0.021338444682222714,
            0.054279778982917026,
            -0.07036499237109045,
            -0.06024757090103772,
            -0.07717263015176974,
            0.09407870450743064,
            0.010067558888936262,
            0.07882487070486613,
            -0.0006289745299740603,
            0.033005809254607645,
            0.04181464171327909,
            -0.008130972428461272,
            0.004473278784125224
         ],
         [
            0.04946754514312651,
            0.03667340725491548,
            0.049992991526659314,
            -0.0486458068417189,
            -0.006234479402632883,
            0.04064116928708244,
            0.016137786486870954,
            -0.005154209952727121,
            0.004524500660787037,
            0.04021020292309008,
            -0.007694867475131897,
            -0.04274550581045961,
            0.03914825740176081
         ],
         [
            0.08835522667025919,
            -0.03512069477498117,
            -0.024323050975016622,
            0.039540860877383614,
            0.017317089962171732,
            0.06479590846793835,
            0.08236734505694285,
            0.10351595163647537,
            -0.08742796038837748,
            -0.03245727386866129,
            0.017602211861513978,
            -0.1119423977267004,
            0.05211668818861677
         ],
         [
            -0.10166274628959386,
            0.07236828786884464,
            0.018536560755278972,
            -0.11902818196683211,
            0.07751172378563784,
            -0.004933122864771983,
            -0.02486218718920229,
            0.04015330427093623,
            0.053142876725199545,
            0.03264263455163594,
            -0.01123499419736472,
            0.03307208272359147,
            0.00725407874636106
         ],
         [
            -0.06307268027353134,
            0.051400396206341625,
            -0.07087339386549438,
            -0.01485684036598519,
            0.052331824025081686,
            0.03570260873642478,
            -0.005458584549338711,
            0.0584505836005166,
            -0.00926044884411907,
            -0.05169806359989644,
            0.05434227542361286,
            0.060104582149447486,
            -0.06868353764473341
         ],
         [
            -0.10780102548472101,
            0.06973526760310639,
            0.04794128482283131,
            -0.02809841939850018,
            0.006117328133897423,
            0.055207122797916564,
            0.02875616378722478,
            -0.1386154329888606,
            0.049166377991295876,
            -0.022550705224137584,
            0.08685662284223958,
            -0.037136757863664986,
            0.06185666823700429
         ],
         [
            -0.11716128064294189,
            -0.021055349876773558,
            0.018408996693774465,
            -0.10720352428713033,
            0.019783846178121275,
            -0.034870107262487134,
            -0.027332519063598716,
            -0.00145233914894383,
            -0.0483823460705845,
            0.048365250981465394,
            0.021838002007344183,
            0.019305355717013157,
            -0.040062122497714125
         ],
         [
            -0.0219656364209385,
            0.0185951125442096,
            0.0316906872045689,
            -0.1013474080444309,
            0.019690433144471768,
            0.01067383046184293,
            0.019646938801889172,
            0.014536514933315325,
            0.056448785918351174,
            -0.014550594268199324,
            -0.02559342369484345,
            0.06752528190088823,
            -0.0033499369943466115
         ],
         [
            -0.024002553597731943,
            -0.08138367759552033,
            0.08536135773055457,
            0.06789011204678351,
            0.023008245528690928,
            -0.07197729005097243,
            -0.026314071337839976,
            0.058654118136815675,
            0.06748827826894635,
            0.022084939133959307,
            -0.01615127508222964,
            0.05653219742091199,
            0.046202756856820876
         ],
         [
            0.08902659136617663,
            -0.01587051752556353,
            -0.10368875454108634,
            -0.09086958418586816,
            -0.0002637883890142219,
            0.06038634767913372,
            0.02208935604857902,
            -0.07109078518529878,
            0.10889388303206712,
            0.07092308297122109,
            -0.005084960632708524,
            -0.02790859564579687,
            0.09128635576312516
         ],
         [
            -0.017136208842457985,
            0.009459396787576475,
            -0.09408900805342872,
            -0.012857505518272163,
            -0.10533618890551646,
            -0.03704431269143271,
            0.003002386914607108,
            -0.024633225366372104,
            -0.02477813454483671,
            0.0805748158725548,
            0.049135661073409824,
            0.05971720222395955,
            -0.03346664265760692
         ],
         [
            -0.05631315923876063,
            -0.04981547678322292,
            -0.05216415028723083,
            0.0032860347671618316,
            -0.1139159603053863,
            -0.007035356734660486,
            -0.00972834114228343,
            -0.04175658229528922,
            -0.035242214540968285,
            0.07441636199404199,
            0.06455808760429252,
            0.08332337459018582,
            -0.043206094396153534
         ],
         [
            -0.12411744763919444,
            -0.019334581216093952,
            0.03387457723021112,
            0.02181434317572279,
            -0.1132768678202198,
            0.027418869504153533,
            -0.013470734583150991,
            -0.011388461028945774,
            -0.040996009859859496,
            0.0810414095935497,
            -0.016418908333636177,
            -0.02075310443823128,
            0.059645331339108
         ]
      ],
      "biases": [
         [
            -0.021362830044410593,
            -0.03267256359733385,
            0.035185837720205684,
            -0.034557519189487726,
            0.014451326206513048,
            -0.020734511513692634,
            0.006283185307179586,
            -0.017592918860102842,
            -0.006283185307179586,
            0.03330088212805181,
            0.014451326206513048,
            0.024504422698000385,
            0.024504422698000385
         ]
      ]
   },
   {
      "weights": [
         [
            0.03329521660397347,
            0.02158808949329171,
            0.09134222949486555,
            -0.011805727937833584,
            0.014390650122447605,
            -0.11337950844401501,
            -0.008313811945468767,
            0.04248521632005296,
            -0.03691966419874951,
            -0.17918454282429086,
            -0.014293532841159785,
            0.01754002085977608,
            0.010321335327098006
         ],
         [
            -0.03884032935943525,
            0.0019146909044923041,
            -0.0044719853055655515,
            -0.00712928770653995,
            0.0023064162556302413,
            -0.10296656733838555,
            -0.0011673740762457377,
            0.009334875366429587,
            0.01363908671105047,
            0.05083392491537933,
            -0.02506699332950039,
            0.07827160433050169,
            -0.08212134855110335
         ],
         [
            -0.010593875965540104,
            -0.01024289006797965,
            -0.06465910578068498,
            0.012870851447842927,
            0.06202282487752207,
            -0.0273005582193296,
            -0.06491480908334857,
            0.00568922730931095,
            0.05512187042322399,
            -0.013688710523001205,
            -0.050650681051176066,
            -0.05241191651603867,
            0.09690649651797212
         ],
         [
            0.04016642188831636,
            -0.0064441126742583975,
            0.029011218304319845,
            0.033915523766728316,
            -0.08204427088884307,
            0.011287323163263877,
            -0.0438692290069904,
            0.049871752403725905,
            0.04339187347763883,
            0.018778585608253566,
            0.025645292422782583,
            0.09576840633341746,
            0.04744565922576689
         ],
         [
            0.028265551998480444,
            0.03795131537263634,
            -0.015035609485258157,
            -0.017109792271046746,
            0.08119031538517747,
            -0.02736577827226203,
            -0.10081849448116278,
            0.06066980273006082,
            0.004113462794480706,
            -0.05856277572389816,
            0.02466460066604356,
            0.11417024515976934,
            0.007819984775056077
         ],
         [
            -0.08145936743344297,
            -0.08548486008209784,
            -0.077746704177536,
            0.003668583863745866,
            -0.013188522317770566,
            0.020714824778713573,
            0.02542741422177746,
            0.010900700042829304,
            0.051113530555624745,
            0.017483354940620262,
            0.02833007885369325,
            -0.03220739102158621,
            -0.0400587721447156
         ],
         [
            -0.0028811220013426515,
            -0.026969396047623682,
            0.046469808373171245,
            -0.04195477311206747,
            -0.05903417516042507,
            -0.006552045188881209,
            0.02303536641007524,
            0.007986629906144588,
            -0.08276748393936964,
            -0.15585016457999823,
            0.003274420881341819,
            -0.022785049871405776,
            0.0788571974651864
         ],
         [
            0.03968273818754184,
            0.024577193569785626,
            -0.03319127715051512,
            0.07687210607569842,
            -0.0010631729438648138,
            -0.06429305723284383,
            0.039124581289473395,
            -0.07664516315384984,
            -0.006481318898746012,
            0.006094289540727293,
            0.017892513761105518,
            -0.017846091371165607,
            0.024773343167831814
         ],
         [
            0.006468663489878727,
            -0.03684482468957215,
            0.005347410564613811,
            0.0477669222144456,
            -0.07272363264598178,
            0.041403617754756455,
            0.023160959379334718,
            -0.11677824469104352,
            0.07424224790646032,
            0.04384559438084353,
            -0.05393194374002512,
            -0.06129135606225859,
            0.021215864532733615
         ],
         [
            -0.07852669379212343,
            -0.11711898668838636,
            -0.004393501864913316,
            0.10010918629872811,
            0.032415185508566056,
            -0.05258437454535256,
            -0.011737689917431807,
            0.04889094198594826,
            -0.005144670098781519,
            0.02401901981787432,
            0.0670048248831666,
            0.050812145377448395,
            0.036647657293022703
         ],
         [
            0.016809129013337358,
            -0.01205974038431246,
            -0.03722804254984716,
            0.028363534500891963,
            -0.1101187438331191,
            -0.04830473080920608,
            0.06409249636800744,
            0.1859873537851195,
            -0.025098332700176883,
            -0.11012981901917923,
            -0.008845339354265614,
            0.008885266408038578,
            0.03953627748543964
         ],
         [
            0.050809917121199685,
            -0.0630900454918386,
            0.05894793016856659,
            -0.05872972829770268,
            0.1092039733565975,
            -0.0040156165684047725,
            -0.039198173230007786,
            0.071655125938347,
            0.07147662862539071,
            0.011134151583095213,
            0.006951178345019227,
            -0.011667187111576997,
            -0.043306533940174335
         ],
         [
            -0.01870797860846235,
            0.028153938259554714,
            0.027249837204018464,
            -0.0236283736459805,
            0.12088465987584006,
            0.009255832667727573,
            0.11707225422546458,
            -0.018320779208302176,
            0.03533585141912036,
            0.020947075048066602,
            0.12483291958216611,
            0.03408803517155594,
            0.017075587828245913
         ]
      ],
      "biases": [
         [
            0.015707963267948967,
            0.015707963267948967,
            0.0364424747816416,
            -0.011309733552923255,
            0.02827433388230814,
            0.0043982297150257105,
            0.010053096491487338,
            0.038955748904513435,
            0.0364424747816416,
            0.011309733552923255,
            0.003141592653589793,
            0.035185837720205684,
            0.021362830044410593
         ]
      ]
   },
   {
      "weights": [
         [
            -0.020467754976585525,
            0.019517320537892326,
            -0.03247076460373042
         ],
         [
            -0.025620325212492773,
            0.03804425335625021,
            0.040216766727373385
         ],
         [
            -0.11123733417030784,
            0.02926907440286622,
            -0.049678106077313315
         ],
         [
            -0.05812133626090901,
            0.08277111478520813,
            -0.1318970417681052
         ],
         [
            0.032936806209694365,
            -0.01903949694670245,
            0.01152042120762042
         ],
         [
            -0.02866863288050665,
            0.04424107586281262,
            -0.014189375385723527
         ],
         [
            -0.00954981686732427,
            -0.026262540639720694,
            -0.008143912891599152
         ],
         [
            0.06440967385683469,
            -0.003301534200215496,
            0.008436840521822945
         ],
         [
            -0.036835736331088956,
            0.04147245155568813,
            0.06906014227325286
         ],
         [
            0.009098379275204623,
            -0.017616386229262336,
            0.08874843343822927
         ],
         [
            -0.10372713415160661,
            0.036779513235764026,
            -0.09750894347044915
         ],
         [
            -0.04229114780341095,
            -0.10029647080844578,
            -0.05605279060892576
         ],
         [
            -0.08845896601147583,
            -0.02854973936837672,
            -0.05894000545060274
         ]
      ],
      "biases": [
         [
            -0.0025132741228718345,
            0.03330088212805181,
            -0.0025132741228718345
         ]
      ]
   },
   {
      "genes": "0110001101100110101001101111110111100101010010101100100000010101011000101011010010010110100011001000101110001010001101100000101110000010100000001001011101100001011011100000000111000001100101000001000100101010100111101110111111101011001110000110111000001111011000110000001011010100001110100111100111000100111100011000011010001000001110101101110101000001011111101110000010111010000000100101111001000001100110101011010111000010100101001111011001010101110111100110110111101000101001011101000010111000000001000111000010011011011110110101110101001111101000010111110000011011011101110010010111111110000000000111101000111110101110011111000101100101100011110101101111101010100100010010110010110001110111100001000001111110100110110111111000011101011000000100001011100001001110100111101101100010101001111001011110101101010100110101011111110000011111000010001010101110111111010001100110011011011001001000100110101110010111010101100101100000101111001110011000101110101100000001111110001011011110111101100111001000011011000111100011110001110101000111100100111011111001110001110111101000110101000011011000010111000001001100000100100101010100100010000011100101110110010001111100011010011111110001111001010101110010100011100001101010100001110011111010001110111001110111011010111010010100010101011100011101110100011111100010111001110001110000010010011101011011010100000100100011100010100010011010011110000110111101011101000011001010001110000010101110101101011111001111100111001011001110011101001111100001001110100100101010110000101100010011110111110100110100100011111001011111100100001001111110011111001001111111101100000100111110100011100100100001001001100000001010010000011010101111110000100000100111100111001111111000000001001010100001111110101110111101000011101101100110011001011001110100010000100111010110100111101001101101000010111111111001010011101001111000111010000001101111111101001000100000001101110100010011101110010101001011100011000101001010010100101111101011001010010110010110010010110111101001001000101000011000101110001010111011010101001111110010000100100011100011111001000111110100110111101001100111100101011101000110111000110110011000010011111000000101010110001100110001010000111100110110101100111101110011000101011110001001100110001100001001000110001011001101101001001110001000001100111101111010000100000000111100010011010100000001011000101001001000011101110111111101001101011010011000011111010011101100111001000011010110000111000101111000101111101011010011111111001001010101110101100101110110011100101010101000000110110101000010001001011000000000001011111110011000100101001010101001010100101110001110111101000100000111001001111110111100010110011011001111101000100101101101100011110100001111110111101010100101000101111100011000100111011111100101011000001000010111100000100100000000110111011110100101100001101001100010110110001000011010100101001010110000100110100011101100101001001001100011110000101011111010110111001111101010101101111000000110100101010101011010010000011100001101110001001001111101000010000100111010100001000101111101100111101010110111001101100111111010100000110101011011011000011100011100101011001010111101110001011101010100111001110110101001001100010101011110001110101101001110100111111111100001001100111001011010110111111100100000011000010011101001011111010001000101001111100001011011011010000111010000101100001111101100101111100111101110110011011011100100001101011101101101000010011001100010100011000110110000011100011000011110111001000100100001111100011100010010001000100111010001100011100110111010000111000011110111001000101100011111011100001101101111100001000111110101111100111001000100100010111101101000011101001011111100101010111110111010100010111000101000001101000111100101100101001000100100101011110101111111011101111111101010000100010010110101101110011001000111000010110011001100100000000101110000100000101100000011000100110011101011101101001110010101011011010100111110111111000110010100000100000011111001110011010011010010111101000000110011001111101011101100000010100011101011101001101001100101010000000000000110100111010100101000000101000111001010010101001000110111101001010010010100001011110111000011101100001001010101110000100101100001100000000010101010111000000011010001111011011001011010110100100101111100001011001101110010001011111101100110011101011000010111000001110100100111110001011111111010001011001000110011111100011100111111001010110101001111100010101001000000000111001100001101001011010111000000101110110100000110101111001111001110101000100101001000101011001010101100001010110001110000010011110000000110010100101101111110110011111011010110100000110101101111000010000001001001000001111110100101001001011000100010100101010011100110010001100100011010011010010110100111010111100000101011110001011100010011111010110001110000001001100000011000100101111101000110000110111011001111101010111000110010010100001101111110000111100100000011011100011110000101000110011001000110110011000101100101100110000110001010111111101100100110100101001010000111110000000000100011101101001010011010100011011000110010110000100001011110011001000001100111000011010100101011010011110111111011110000011101100001001010011001010001001010001011011011000101011011111001000111010100111001011001010110010100011110001111011000111001100100111110100010010100001000011011001010001100011111010101101110001010001101011110111001010111000011000001011111011101011111111001111111111101000000001001110011000110110001110000110000001001110000111111101101101100010000111010000100110000000011001010111111110111010110101001011101111011101111011110100011010110011001101011010101110110110000010101010110010100100001100110011101110110011011100101010000111110010001010101001111010101110010001111000001100101011100101101011110110010101001110110001101000101000001000010000101111101100111001100010010110000000001010101110000101111010100011010111110000000001000011010000000110110110010010001100100111110101010011101000100001011011100010001100111010010001100011101111100101011110001000011101101011011001000110010011001111111010000110000010001100110110101111111000011000100000100010011001010000001100010000111001101000001010010110011000000100000110000101110110110100101100100100100011110100110100110101111100010101010001111000101011010110011110010011110000000011110001000000110010001011111110001100010100110100101000000000110100111101011101000000011110011101011010110010000000000010010110011000101111101100000110111001101101110100101100111010001111001001011001001001100010101111000001001011001100011100011100100100010111111011000000010001111001110110100100110000001010000111110001000010100100110000101001110100011001001001010000101101110100001001100010011011101110111000000100111110011000011111100110100110101011000100101110100010010111100001110001110101111100110000111000100101010101101111001001100000000000110100001011100011001011100000100000100100011111001011111011000000011011000001100110100110101101100100101101111011010111110000000111110111010110101001010000011101100101111111111111001010010111001010010010000111001000101110000011110001101001101110010101101101110101010111100101011111010100010011100000001101100100111101110001100110101000101100111001111011011111110001000100101001101001101110110000000100000101110110101010100111100100011111101000101011010010001011001101000001110000100100000000101000010101101000101101010010101101101001100100011110100011101000111111011000100011001100110110101100110110101000111110001101010110101010110000101101111111101110111110011100001111110001101101000011101101111010011010100111110111000101011010010010011100011110001111110101001100001110001111101010111011101000111011111110001001011000000010110101010101111110011010110101011001100100010110111100000100101000100111001000111000011010110111101111010001011001111011111111110110100100000001001011100011000101001110001010101001010100100011101110011100110011100001011110001111001010111110110000001011101100100011011000011100100001100101001000101101110100111000010111010010101111000100110011110001000111011100100001111010111101101011100000010001110001010111100101100101110100010000011111100111111101001100010100001111011100001111000000111111011101100000110111010001001000111010000100000100111000011111111010110101101010100100010101001000101010101000110110000000000001111100101101111100110010011001011001011111110110111101111111111001011101101101111100100011110110010100010010001101111110011111000011011101000011010011011100101101110010000110000000011000000010110101100111011000101110110111001101011100101011110110101001010101111011111101100010100101100010110000011010110010111110000001110101001011111100000010110110001101001111101010000011111101111010011100100111010001110010111011000010100001011111100010111000111111001000101011001111101100101001010100111111101101000000000000111101101110101110110111110111111110111001101011100010111111101011101110000001011101110011101111011001001101000000101001110100100011001101101000000000101100001011001110100101101010001001001010011110011000001001011000000101111010011110000001001011110100000011000100000111011110110000110010111110001111010111110000110011110010111011000001001110000010000011111011111110001011011111010000100100010010010010011110011000111010010111011001010000100110101000101110110100001001010001100001100101011011101111001100010101010100110111101111101110010111000100111001000011101001011100110011100101001101011000101110000111001111111110001101000111100011110010111100111011010001101001101110010110000111001111100111110101100110011100000010001011011001100111011001011110100100100111101001011001111011011001000000011111111111011011001110000011111101100000011010000101001000101011011011110111010010100110011100000010011010010001010001101001000001100000101100101001110000010111010101011001010010100010001101101000001110010010111011101101000010011000000000011001001100111100100110000011011100001011000111111010101001011101011111100011000110001110101101000000011001001100101101011111100101000111010011100011000011001111011110000101100111100111101011011111110110000100100100111110101010100001111111100110101000110000111110011000000100011110000011111110010000100001011000010101011010011001101011100000011010000010110111000111010110100011111000100011101111000110100011100010000010110000111100011100001111100000101110111110100001011101100011110001110000001100110010100010111010111001111111011100111000010110010111110110101100111011000100010001010110000010010011011100001100000011111010001010111000001010111110110101011100110001101010011101110001000100100111000000101011000110111011100101111100100101000100101001110111101101110010011000001010000000000111011100011110001000101011110010101100111010101011111000000011011000101111101101010110001100001001000011010010110000000101001111001100010011010101110111111000101110000001001111100011101010110110001110000110110101000010011101010111001111000001001001011100000010001010001000000110101001001001111110100111100110100100110101100100101100100101111001011001110110000001110101110100111101010010011110111100111001101011101011100110110100000000110000100110010100010010010110000100011110101111100111011101000001100100100100111101001100011110100011001110000101110110010110101001101101101010110001011110011111111111100010010000101110110010000101011011111111100110101101100100111010111110111111011010010000111001010100101010000100000111100101011011100001001100100100111101100101101111100111100100110000001110000001001100010001100111100110001100110001110000000011101001110001010010100111000101000010000110111010010100101000011011100101010010110111000011100010001100111111010110001110000011100011011001011010100100110111110000111001010110000001000010101011010011101010110110100011110000110111110101010100001111011110001110101000111111010101111100111101010100100011011011000001011001110111111010100110101101111011100001100101110011000000111100001010101000101110101101101011000100000101110011110011010001100110011111110111111011010010010000101011110111100010111010010100110110101101011100101100001010111000111000001100011111000010001001000011011011111011011000011011010110111100000000001000000111100101000011000100110001001001111100111111001100111010100110100101110010010101010111011100000011010010101110011001000110100001111010000111000110010110110101011111011101101111100001001001010001101011001101010011001011010010111010100010011001001110000100101101011110011011100000001011111100110011110111110111111110110100100000110001101100110011101101100100100110111100101111101101111101101111100100000100100100110100010011011101110000010010101001101110001110000011100100011110101100010001000001100101001111001011010010011000100010110011010011101110010111110011001110010110000100100100010010000100101101100000000000010101011101110111000110111010111001111000001001001110100001101100100001110100000001111001100101001100011011001001001100000110110010001111101101001011111110010011011110111011010000110100110101011010110110111001100111011111111110000010010101101001111100101000001100110101100110101111010000100011110110000001110110111000001001100110001010011101100101001110001010000111011100000100101011110010100010010101011100000110110011110101101011011011000100001111010011011001111111101101000011100010010011111001111101011101111101010100001100000000011011001101101110011011101011111100111100100010101111011100001011000000011011110111100010000010000111011001100111111010000011001111011101111110100010011101010110010011110111011001001111100010100100100010101010101101011101110011001011101001010110011010110111110111111000001010000011101001100111101111111101101110110011011110001110100110011111111000101010100111011011001101101001101000000101010110010101000010000000010010111101000001010111001101110110001111010111001000011011000000110101001110010111101111011000100010111100101000101001101001101001011100101010111000011010110110010000111000100000101100100100001011000111001110111101111110110000101100100010001000000110001011001001111000110000010101111011001111001100001101010111000110110101111101011111011001110000101010001111010111110101001111110100111010010101101111110000000101011000001101101001001101010011000101110000101101111010100111111110001011111010111111000101011110000011101111011011001100101101110011010100111011101101111101110010001010111100110100000000110101010101010111101110110110010000101011101011011101100000000101011011001000100010111101011010000100110000101000100101010001010101110110011001010010101110000001000110100100011001111001111100011101101011011011010111100101000000111000001101111111001011111100100010100110111111100101101011001111000110100101001100111011001101000000011110010011110011111101010001110100000000001111110010101111011111100100000110110010111000111000000000101100110011000100010000000110011010000110111101000111111011100001110110101111111001111000100100111011000110001000100010101001010001000101111101011011000001111000011101011011101111111011000110111110101011100111100001100010010100000111101110100010110011011111011011001110100010001101110011011111010101001110111011111010010011111000101110110000011100010111100101001100110111101111011000010101100001001000000011000100100000000001000110100000100100001111101110001111011101011111001110010011101101100110000001110001111001010001001110000010001000110001001011001111101011001010100011011010110010110011101000000101000100100010111100011101111000110001101000100000101111011001010101110011001111101111101011010101000101001010110001110100111010001001110101011001000001100000101000001000101010011111000011011101111111000100001000101010010001010011010001010001000100111001101110110111011101111100100000001010000111111001101010000100111100010010101110010111000010111100110111110010010011110000011010010111100011100011101100110100110100011100110011100001000010001100111111011111010010110100001110101011001001010100110010011101110011010011011001011011010111011100110101000101000110110010010010101100011011101101111100000010011011000000000000011010111111110110010100101110000100100100111110010000100110011100001110000110010011110110100101000110011111110101010100010010101100001011011000001011101110000110000001010111010111001000011101010011001100001110000100100110000001011111111000011111000101100011011011001001001001110000001110101001111000011001111110110001110000001100010100011011010110001111110101100000101001100010101100010110010011111000001001100110000001111100110000010010000101010111110000000011101010111101000010011001101011100010111100101110000111011110110011101001011100100111111110100011011011010001001000100110011101100011111000001011001111111100111100001111001111011101110001011110111011011100000101001010010000111011011110101110011111001001011100101001110011111101010110101001111011011001100100110001101111010101001111000001000001011101001111011110001011001000010110010010010011001100111011111010100110011000001111011001100000010011100011100100110010011100010101101111011111011100110100011100010011000100110001110001011010111010001001110110000110101011101100111001100111101111001111100110110110011100111011101111010100011000001100011111001101101111010010010010100100101100111100110001001100110101000000101000110101000011011011101101001000001001100001011000100100110111000101011001100110011100101010111111011010110001101010001111011000001011000110101010100010111110101000011010001101101001010111010100100100000110010000110100110101011100011011111110101111001100111100000101010101110000101100010111111101011001110001001011110001101001101111010100111100"
   }
]