[
   {
      "weights": [
         [
            0.4750740978147583,
            -0.6893208415907272,
            -0.8201711607995997,
            1.9729748086307064,
            2.0,
            -0.0703619650694582,
            0.12059926057002332,
            2.0,
            0.3577814510177309,
            2.0,
            0.5040667603374076,
            -1.4044857282239942,
            0.5916069804547468
         ],
         [
            -0.11542571980194175,
            -2.0,
            2.0,
            1.2141650320973598,
            0.23970703655198022,
            0.7662680570737527,
            2.0,
            0.5015804053980638,
            2.0,
            -2.0,
            -0.7069958905358265,
            0.5259192574696475,
            -0.055790347135568276
         ],
         [
            -2.0,
            -0.6191490319872089,
            -0.39752809040582565,
            0.10172708276346827,
            -1.83295876552184,
            -0.40292174054545277,
            -0.3275096043497381,
            -0.8913770680667632,
            2.0,
            2.0,
            1.5485803880482354,
            0.6853548290931548,
            -0.8227196355256617
         ],
         [
            -0.2676164974125931,
            -2.0,
            0.8844188365980135,
            2.0,
            -2.0,
            -1.4506082478325784,
            -1.4091425082981281,
            -0.3364817239461285,
            -1.1574214575151374,
            1.8245644536712013,
            -2.0,
            -1.2034242628030543,
            -2.0
         ],
         [
            0.0815479958685958,
            -2.0,
            -1.3448108252191953,
            1.2880599893345415,
            1.2032482149924946,
            1.1127119330143709,
            -0.41561753736808515,
            0.09518484524494411,
            1.8140181464096996,
            -0.16174024262421605,
            -1.3936933937420546,
            -0.7900032033593831,
            -0.018880347805875174
         ],
         [
            0.3815880619075882,
            -0.39675829429370135,
            2.0,
            -0.7055519055014006,
            -0.3544433312225486,
            -0.20831688550794072,
            0.4222878279688554,
            -2.0,
            2.0,
            -0.4361121521835213,
            -2.0,
            0.5321283639015914,
            1.6210615666849244
         ],
         [
            -2.0,
            -2.0,
            0.787117467288142,
            -1.3311338292812698,
            0.6457538323605748,
            2.0,
            0.1540085691566635,
            -0.6489267624977018,
            0.7208281274663905,
            1.9879058994830114,
            0.18790695755131143,
            -0.9602368519145081,
            -2.0
         ],
         [
            -2.0,
            2.0,
            -0.26667895598369024,
            0.6827355024221697,
            -0.2975995834542497,
            2.0,
            1.3663105967895586,
            -2.0,
            -2.0,
            -2.0,
            -2.0,
            -2.0,
            -1.1223152088538833
         ],
         [
            -2.0,
            2.0,
            -2.0,
            0.5127608908479843,
            0.015274978012974717,
            -0.1311997863240277,
            2.0,
            -1.2496462254438778,
            -2.0,
            -0.785384742157678,
            -0.43036624916147015,
            -2.0,
            -1.2012539147214334
         ],
         [
            2.0,
            0.5138391621390004,
            2.0,
            2.0,
            -1.5842298857079058,
            1.2874925010954474,
            -1.955860502152895,
            -1.355858582880227,
            -0.8696325235817032,
            -2.0,
            1.4753673929298015,
            1.6199441436644113,
            -2.0
         ],
         [
            -0.021982391606048535,
            -2.0,
            2.0,
            -0.4640921205205192,
            -2.0,
            -0.2302370698789095,
            -1.25394595270884,
            -2.0,
            2.0,
            -1.7273257649339953,
            -1.2145535025554732,
            -1.1023981266794856,
            0.7120944943007929
         ],
         [
            -2.0,
            1.1831349023878923,
            0.278512637471975,
            0.02764073058233646,
            0.2777230753478226,
            1.6663297030966966,
            -0.4922499858526353,
            1.9585459226698863,
            -2.0,
            0.15949833361499405,
            -0.7122462621779292,
            2.0,
            -1.7827312359217633
         ],
         [
            -2.0,
            -2.0,
            0.722378194797534,
            1.6326196207626156,
            -2.0,
            -2.0,
            1.32133202714348,
            2.0,
            0.5517386556265738,
            2.0,
            -1.063491095676686,
            2.0,
            2.0
         ],
         [
            -2.0,
            -0.6386696723452877,
            -0.28510290770587504,
            0.3775256792057553,
            -1.5750493177904634,
            -0.4767041891978648,
            -2.0,
            -0.45394650554206867,
            -0.6628739972555169,
            1.1586230838719438,
            2.0,
            0.015310901650850278,
            0.09197004578426189
         ],
         [
            -2.0,
            -1.4499355828194826,
            2.0,
            -2.0,
            0.8691548289796476,
            0.17854069973713912,
            -0.46696184525230117,
            -2.0,
            1.5430088673966647,
            1.3744643495297073,
            2.0,
            1.11400375816655,
            2.0
         ]
      ],
      "biases": [
         [
            -2.3920352730643306,
            4.370442269800042,
            -0.411902634326414,
            1.0761902031439345,
            1.1614778141635496,
            0.2565398042820034,
            1.2568583470577033,
            0.532420328132851,
            -0.5236061658530569,
            -1.3274158541894503,
            -1.017097287298267,
            0.43880970642300543,
            -2.665026427668334
         ]
      ]
   },
   {
      "weights": [
         [
            -0.5198750472873442,
            1.5649147859267507,
            -2.0,
            2.0,
            1.0005066203104516,
            1.1361053918300983,
            -0.6468038898396888,
            -0.017872412382835434,
            -2.0,
            -2.0,
            -1.8980179250123026,
            -2.0,
            -2.0
         ],
         [
            -0.23829190546895992,
            2.0,
            0.6922999556145504,
            0.21349893635635456,
            1.4767811053304967,
            2.0,
            1.111363330804948,
            -2.0,
            -0.9834589953891775,
            -2.0,
            -0.4232002379143351,
            -1.7325988903071368,
            -0.5332680130564426
         ],
         [
            2.0,
            2.0,
            2.0,
            1.3360224959249474,
            0.03720283930887363,
            -0.43777785589126283,
            -2.0,
            2.0,
            -2.0,
            -0.3786973960000325,
            0.9305866113870016,
            -2.0,
            2.0
         ],
         [
            0.8678148074853287,
            -0.32456920594045185,
            2.0,
            0.6831881940254583,
            -1.3325752311257346,
            -2.0,
            -0.6829252851914287,
            1.7977292903588997,
            0.5513567467642709,
            0.2234295647606291,
            -0.9604035562658133,
            0.038757191691287954,
            2.0
         ],
         [
            0.6079636564916261,
            -1.365169776157081,
            -2.0,
            2.0,
            -1.945387857822687,
            1.0581901050215956,
            -0.31430777007732247,
            -0.919098615837722,
            -0.5348188202732161,
            2.0,
            -0.8838698245917932,
            2.0,
            2.0
         ],
         [
            -2.0,
            1.8808533373903353,
            -2.0,
            -2.0,
            -0.13342641181057377,
            2.0,
            -1.3560321757430496,
            2.0,
            -0.4249807546594738,
            -0.10603731997659568,
            -2.0,
            0.8660536267750695,
            2.0
         ],
         [
            -1.0964479803073206,
            -2.0,
            2.0,
            -1.5326352147316051,
            2.0,
            -2.0,
            2.0,
            -1.0456633495650092,
            -2.0,
            0.6465526383049969,
            2.0,
            -1.9800885044514553,
            2.0
         ],
         [
            -0.46722793529592427,
            2.0,
            -0.9793899391364389,
            1.0013275250885905,
            0.27982889747087486,
            0.842023344274638,
            2.0,
            2.0,
            0.7741036523257829,
            -2.0,
            -0.9493787671201085,
            -2.0,
            0.4600143375738778
         ],
         [
            -0.9916073192945828,
            -1.5654611858761571,
            0.9644347890070367,
            -2.0,
            0.48404595571477527,
            2.0,
            2.0,
            -2.0,
            -1.1615841062418817,
            2.0,
            2.0,
            2.0,
            -0.37805111576278394
         ],
         [
            -2.0,
            -2.0,
            2.0,
            -2.0,
            -2.0,
            -0.11305610698407857,
            -2.0,
            0.2940189693776448,
            -1.0158555168512005,
            0.6511504807068106,
            2.0,
            -2.0,
            -0.03306630238630076
         ],
         [
            1.0558823366368915,
            2.0,
            -2.0,
            -0.04035897057599672,
            -0.5108405781855963,
            0.20580623750008173,
            -0.7300407016017146,
            1.4188120910341206,
            0.46421709529795335,
            1.226980610777389,
            -2.0,
            0.05153349712476239,
            -1.411679473901157
         ],
         [
            -1.1891891559991061,
            -1.0876147767964077,
            1.772448517611095,
            -0.4794979551511231,
            1.6029347437354133,
            2.0,
            2.0,
            -2.0,
            0.6037298117755979,
            -1.2054689934691114,
            1.3317389737849976,
            1.9033333186355463,
            2.0
         ],
         [
            -0.2998512147273606,
            -0.9499164216071477,
            -2.0,
            -2.0,
            -0.2311073603905992,
            1.153882795377605,
            -1.9815868380939081,
            -2.0,
            0.23881347724000512,
            1.5809401080839478,
            2.0,
            2.0,
            -0.7612472392731836
         ]
      ],
      "biases": [
         [
            0.38305307840487524,
            -8.588681053289983,
            1.463791961371168,
            -2.2837963388526368,
            -9.10020316075108,
            -2.1982653618800256,
            -0.9117477343911634,
            3.8590440702293716,
            -1.488690182042889,
            0.09801769079200152,
            2.425336167250123,
            11.892911009470478,
            -3.1719909677090063
         ]
      ]
   },
   {
      "weights": [
         [
            2.0,
            1.5064627974459825,
            -2.0
         ],
         [
            2.0,
            2.0,
            -0.2558176325407138
         ],
         [
            -0.14109647498524108,
            -0.3361370814116781,
            0.5335001518897631
         ],
         [
            0.31666199763891717,
            0.31615315546828665,
            -0.683380317165836
         ],
         [
            -2.0,
            0.027225377742722115,
            -0.43051317012732127
         ],
         [
            -2.0,
            -2.0,
            -2.0
         ],
         [
            2.0,
            1.6815187685538975,
            0.49389699261232956
         ],
         [
            2.0,
            -0.08159846038144501,
            1.7122544742566708
         ],
         [
            0.0924871811427237,
            0.16959891407409097,
            -0.06107814139570872
         ],
         [
            2.0,
            -0.09533961115671934,
            0.08631120680736326
         ],
         [
            0.9006299437815717,
            2.0,
            -0.13704059091046783
         ],
         [
            -2.0,
            2.0,
            2.0
         ],
         [
            -0.8755624364055324,
            1.0925412689634768,
            -1.064507640457414
         ]
      ],
      "biases": [
         [
            0.1221415866247191,
            0.32073006771464496,
            0.99895570067355
         ]
      ]
   },
   {
      "genes": "011111010111001000011011110000101111000000000001001110110011011001011001110001011011001101110001011111010011010100110100001001001010001001010001101011100110101111111000010101010000011100001110010110100100000000110000011000011001001110110001010100100100010011101000111001011110001111101110100010011000011111111010101111101110011111001010010101111010011001010101001100001011110101100010101101100011100011000110001000000100001111110010011101111111111110000010000110101101101111111011111111000110000110000110101001000110001010101111100100011000101110111011110111000101110111101001010000011010001000010001010001011010010000000111001011110101111111000110011100010100100001011100001100101000101110000111010111010101110001101110011101011110011011011111001000000111100000010000100101011100110111110111101111101100011000111011000010100000101010100011001100010011110001110101101110111111001010110101001101000001101110000010000011101000010111110011111101100100011011010001110101001000010110101110001110100000010011101010000111001010011000000000010100010111000110001101011000000010010100010100110011011111110000111010100010000010010111010111110110011101001001000010100011111110100000101011011010111000001011010110001100011011010011100100111111011100000101110000111110110111000000100000011111000101100101000111100110001000000000111010110100110001100100011110010010001000010110001111001101111001001010011100100110110010010001100100100111010111110010110111000011011101101110010110101001110100001101100010110011011011110000110100101010010110011100011110110111000111010110011010001010000001001001100000110100101100101001111111111011011111010111010001100010011110001111100011100001010100000101000111110111001100001100111110010001011001101100011001101001011000101010101100111011000110111100010010110010110010101000001011111110000000101100100000100110000111011110111000110101000110111001110110010011010000111000111110101000000101101111011100111111111011110001110000010011010110010000100011001011100100011111110011001011011010100001101000001101011111000011000101100100101101101110111111100001110011000110100101011111111000010110110110110001110001111000011010110111010101100011011100111101000111100010001001101011111010010010000111100000001010011111010111011010001101011001011101100000101100111001011011111100011010001111101001011000100000111010110000010100011100100010100010110111010010110111001001101011110100000000111111001000001100100011110100011000011110110101100001111100100101110011101000011011100011001111100100101010110011000010101011101001001100000100111001111110000111001000110010011011001010011001110111010101111100000101001100110110000011011010011000001010111011001001011111001111110111101001010011011010010101110001100011010101111101110011011110100011111111111011100101010101011011100000110010010000111000111001100001100010111110000000011001001111000010101111011111001001100011010000110011011010000110110110000001100000111000001010110110001000000001010011101100011010000101110100111100100001110100001111111010110000010000100110001110101000001101110110001110000011000000000100010101011011011011100101010011000010110001010000110111010001011001110100001001110000111000001011111100101011101100000000011000000101000111110111111110110011001000101101100100010111000100001010101101011011011111011001011010111100111100011011000011101100011000111001011010010010000000011000100011011000001111110110000000001111010000001001101000001010110110001101110101111001010010111110111011111001011111100101110111101011100010110100001110011101001000100001110000111110000101011000001100111011001100000010011110101001111010010010111011011101010101110010111001111100011001001111100101000101010100010101110100011010010100010011011010011110000011100000010100111111000111101111001100001000011101110111011100010101011110011000111110100101110100100011010100001100001101001110100011001010011111000101010110011011111100110001111000111100101011101101110111100111110001110100110000000101110001100001011011001010111111111110010001000000110001001010000111001101111001101110101111111110101111000010110101100101111000110001010001110000111111110110010001000010010101000001100101000000110110101100000010101000100100110001001111101010000100011011011001010111000110001110011110111100000000011010011010010011110011100010001101011011000111000010111100101111110111100110011100111010110010111010101111100011011010101011000000110010100011100100000010010011001111001011111011000000111000111110011100001000110100100111010101110111010110001001011110101011011001011001011011111011010111100000001111101100000101011010111100111011101010011111011010011101111001000100101001110001000001011100111100001010110001010100001000001010001110001110100000110010111010110010111010110000001011110101001111010000111010110011000111110100000001011000101011000011011100100111101111111010100000111000001111000100100011001010001100111110100101001110011101000011110000111110111001010011010110101011101000010111001000000101101101110011000111011100100100000010000110100001100111001000010110100100100101011100100101111010110010100011010001000001010101100011111010101011001001110111111111100110111111111111101111100101001000111100101000000011001110010010011001000110100101100110010010100011000110101110110100101001000000101001101011101000111001010000001110011001110110110001110101110101101011100110110010110100011011000101000000100101110110001011110000101100011100010000001100110001001011101101101110011110101000100111000010110110100001111101010101011110100101111101110000111100001010111011001110101011100111100011001100011110101011010000111110001110101100010101001000010101011011101111000000010010001100110111000110001101000111100000101010001100101000010010000010011101111110110010110100111011110001000011010010001110110100100100101001111100110110110110101001111000000001101011100111111011000110011101001010101011101011010001011000110001110111001110001010101001111011100101001111010100111101100000110001000100111100101010110101110111111100000001111011001100001111001111110111011001110111111010010111111110000100011111000000011010011110010001111000001101001111101001101001111000111111110111010010000010010111101000101111100101101110111010101001000110001001101100011001110101100001100010111011010011110011011100100001010110010111010101000111110010100111111001010110110111110110010010011001101110010111111100010010000000010101010101111110100001110110101110000001011010000111100011110001110011100000101111110100001100001100000101010011001010011111010011110010001111001000100001111111110001010101010110000111101011000011100100000001100100100000010000111110110110010101101001110000110010011100111100111110011001011010011000110100001100010001101000011011011011001111011101011011001110110010101001111011100101011101011011101110100101000100001011111100011110011110111010001010001101111000101111110001000011011111110000011101101101011001010000110101011000111101001101010100000001100101010011001011101111101110000110101010110101111110010100110110000100001110011110010010110100011001101000111010010110001100011011101010000010110110101001111000110010001110010100100000010111001100000111000100000100110100100110111001011110101000111001101110011001110111010010110110101011110010010110011110010100110000110001111101000000101000000011000011100111111100011010000010100111101000100110111100011111010011010111101001011101110000000100100100110111001101101011011001101001101110010001000001010010010010101111111110111100111110101001000001111111111000001110101000100011001000110101010000000110001000000111001000010111011000001000010111101000100010000110101111110110001110001111010010010110100100011001000100001000111010100101011110110001011001101111001010110100110000100100111101000111000010000010001101001110011000001111010111111110101100001010000110101101100111110101111111110111011111100111010110111100011111100101011101011100010101110001010111111101001011111000001100010101000101010111100000011110100001100101010111101000101010001110010011101111110010110000101000011111110110001111011000010000100001011011011110101111101001000010111011101011100100001011001011110000011010010101101000001000001011001100011100000111001111011100001111101110000111001111101001000000001000101011111101101001100010101000001100110011100010111010001100111000011111101111101100100100101111110110100110001101011100001111101010101010100110010001000101101100110010100000100101000001011000000000101001111111001101001100101100001010101010011001011001100011001001100110111000000101001110000101011011001010111011110001111101010111010010010111111101111001110111100001010111101110101000110001011110110000000001010000010100010010011010111010111110011100011011101010110110100010000111101011111001001100000000001110011101001111010101010100000011011110000001010011110101011011111101111010110110111000001101000110100001110001000010111111000011101010110111101110000101111001111100100111010100000100100001100010110100001001001100010101000100110011010001011100010011011010101011100011000000100000111100111111001001010111010010001000011111011010000010010100010110010011000110101110101100101110010101111111000110000010011100000110110001000000001001110101111100110001000101100001110010011010110111100111010001011100110110110111000011010011010010010001111101001100010111101011111110110000010101110100000101000011110101001000011011000111111100000100110011110110110001011011111011110111000100010011100111111000101101100100010111110110111000101000101110101001111000100010100011011010000000011101110111011011000111011001110001101110110010011110111001000111111101000110001001001000111001001111000111110001111011100111000011110101000000001111101101011011111101001001011111110010111011000001000010001110101010101011101000011010001010010010010111011010111101000011100000011000110010011101000001110101110011100001011001111111000000001000100110000000101000000000111001110111011101111001100011010001001000111111011101100010000101001010100001000000011001011000101001001011000101000011010110111110011000111110000000110011010000010001100000010000100010110011101011100100011001111101001101100100100000111111110100100010010101101110001110011001101110010101110111100100000001000000110000111101011000111111011100010001000011101101100000000001010000010010101000110110011101010001101000001011001100010011000000000010010010111001100000000100111000110100001111111100011011011001011011110010010111010110011101111100111100101011000000011010010100001110101101110101001100011101011110001100011101110011111011111010110110010001100010110010010000001001000010110011101110100110110001010101011011101000010001010110010010100011110011011001101001001100010011101110001110111000101011000101000101111110110101000010110101011110111011100111010100111101010001101111001001101001110111101011101111101001001110001101101100001010010100101001011000010100111010001100001101000111100000111111110010101111010100000111111000100011000101110110001110110001011011100110101010010111000110000011110101110101100000101001101100100001001111111011101011010100011101111100010011111110101010010001111011111001110100000010100101101100111011110000001000110010110100101100110101010000101001110100110000001000110000110010000111000000100000011100010100101110100010111101111111000111110001101000010111100010001100001101010111010011011111001111100101000111101011100101110010111011101100010111000011101100011110101010110011101001000011010100110011000110011010101111111100111100100110011000010111000000001101001110110101001001111000011101100100010001101100111101101110101110111111001001110100011011101111001100000001001101010111010111111101100111011101100010111110100111011010110011001001101111001101100000011001001111100110100100000100001010110100111010011001110011111011010001011100001110000110101111101110001011000001111101001010001011100001101101011100100111101001110000110110110011110000001010100111011011010100011010101001111010000111110011000100001111001011100001111110110100000001010011111001111011000101100011001000001000010001101000010101010000000111001000001001111010011111110010011110000101010010100110011010010010101010010011000111110111011000110001110010001110100100110010001011011010101110011111100001000010010011000100011101110011011011000001001110100110010110111110110011100110001001101001001100101100110110000101011011111000101000100110101011011001001100000101010101110101001100110000010100001010000010101001100101000110010011010101100000111011101110001101100001100001011011110011000101110000000000100100110001100010100110011011001000010110111011100011001110011010001111010000001000111001000100110010100011111011000101011011011100010001000111000010101100000111110010001010110110001110010111000110010001110000011100100001011101001011011111101111011101101010110001000100010100111000011000000110110001100101110101101010101100000101000001100000011100111110101111000110001101101101100101000010011111000100101101101010011101100101010101111000011100100111001100101100001010010010011010100001010110100100100010001101001100100111111000011101101100011100110011101010111110110111100111011000101101111111110000011101110000100010011010111100100110000001111011011001101101101001101001001000000010010110011010111000111001001010000000101001000100100011001111101011001011110001001001001000010110010000101000111000110011011010110001000111001111111001110011101000101001010001101010000101100111001111101101001000001011011101101000010111111010011100100100011000111101110000011111110011011111010111010000100101110100111001101010011110100011100101011101101100110110000100111000001000000001000001111101000011001000100011010110010001110011110011000101000010011101010011100111100100100001100011100110000101110000001100001001111111111101100000110001100111111000110010111111110010101111111101110100110001110010001100011110001011001000100110010000001010001101100101011000010111011001011010110011110101001111111111101000001101000010100000100001100011000000111111010001101110010011011110000011110001101011010100111001001110010110111010001111110011100010010001011010010110000101000100101010100010101101111101101000011011010101010111001101001000011000111000000111111111101010010011110111110000010001100000000110111011000011100000100110000111000110010100000001100100100001110000011101001010101101101010101101010000011101001000111000001001101010000010100100111101111010000100100000001000000000101110011010001001100100111100010110100010110000000000000100010011011101100100101000101100101000111010001001110010010111101111111000111010010011111000010001101010111110100110001111010011011110000111100110011110101110101000011100110101001110111110111000011111010101011011000010110111001000001001001000100000001111001010111010010110101110011001111111000110110101011100010100110000101001000011010010001000011100101110001111000010100100000100101001110000100010110100000001101011000001101010110000111100110001111011111101000111001000100111111000100001101110001110010100111111100011111110011110110011011100011101001100101000001011110111100101100100101000110110000011101101110011110001001010110011001010010110110001111001010111110111100000011111101000100010000010001001001000001101100100000000100010000000111010100101100111001010010010111001101011100001011011101111101110011101111010001001000110100110110001010100111011100011000000100000010001010011001010100111010000101011100011011100010000010101100111000000011001101101010011101001101110001110101011110110001001011100011000001010000111011100001110000111000101001000010011011100011011010111110101111110010011110100111110111010011101101000100100000100000110110101111001111010101100010100100101010111011101110100100100111101010011110100100001101001010101111011001101101001001010100100010100111110100001100101010111001010111010000011000000011111011111011010101000111101110110011100001001001010111010111111110100011010011110010001110100000001001101111111010111001011000010000111011001001001101001010110011100010001010100011011001110111110110001100100110000000101100100111100011001111101110000110111001011110000110111001100000010010101011000111101000010011001110000110100111111110101111110110001100011111111001010110011010010011011100101001100110101111100010000001010010000011001111111001110110111011010100100011001110000001101101101111100001011001101111000101100100011011101010101101001000000110100100011010101100011111010110011101000110001010100000110000110101000110101000011011101011011111011010101001001010001011001011101001111111111011000100010010000111101000001010001011110100110010000110010011110000011101000101010101011000000001000001100000001000110000001111110010010011001110100100000101011011011111101101101000011010001100011001100111000011101110000000111011010000001011101111011001111010100001000001110000100101000001101000101001010011110111000100001001101101011000111110000000011110101110011101110000011010001100010100001111000001110010110000011011101100101100101000000111100110100100111111100100111110111011111111110011010101111010011010001000101000100110101010101000001100111010101101011010110011000101010111100100000011110101101110011001010010101001000111101011110010001000010100011010000100011000001010111011111001011001101110110111001000000011110100101111111001101001110110000011001000000110001110110011001011110001100101110000111101001001011110000111101100101001011100111011001101000011001001011101000000000101100111101101001001111010011000110111110100000100001010001110101111011111111000111010010100011010101001101100100101010000111010000001110110001111011001101101000"
   }
]