[
   {
      "weights": [
         [
            0.6522953532921913,
            -0.19263059925913323,
            -0.5346402019135995,
            2.0,
            0.44452989406952625,
            -0.0723619650694582,
            0.08237802317920251,
            0.9270929882620895,
            0.3423699501942686,
            0.3178891830550199,
            1.4611640717511576,
            -1.626636190389068,
            0.6333016786431298
         ],
         [
            0.06081320838088057,
            -2.0,
            2.0,
            2.0,
            0.16895040250497967,
            0.9457370921588795,
            0.9007002470085477,
            0.27620874201539325,
            2.0,
            -1.6333479717173023,
            -0.9597392414166491,
            0.9554679192053939,
            -0.04456468403231175
         ],
         [
            -0.9618441521285969,
            -0.40255171153015296,
            -0.5146873859091585,
            0.10172708276346827,
            -0.5295960198816188,
            -2.0,
            -0.3724919195866074,
            -2.0,
            1.0946572776504946,
            2.0,
            2.0,
            0.9812619192763583,
            -1.9115249102073602
         ],
         [
            -2.0,
            -0.2605955836065997,
            1.3470825487704763,
            1.0229706041388735,
            -2.0,
            -2.0,
            -0.42989917851835335,
            -0.4252206672011277,
            -0.24450115048333046,
            2.0,
            -0.6224664768546384,
            -0.3270526235358634,
            -1.3935666322809477
         ],
         [
            -0.40958775522179036,
            -0.3830962242592248,
            -0.8626427084353419,
            1.567378586370078,
            0.5329827566505394,
            2.0,
            -0.02552905929259466,
            0.7135211149858698,
            1.1605491595555364,
            -1.6074923906700729,
            -2.0,
            -2.0,
            0.11906212396133106
         ],
         [
            0.6390039884434873,
            -0.7161343954465482,
            0.4861308861261055,
            -0.5205120982049619,
            -1.9921512462595314,
            -0.1787549406060173,
            0.43110199024864976,
            -0.3584536844083634,
            0.5120355191868654,
            -0.3659572944503655,
            -2.0,
            0.3028009395566664,
            0.9326899515332202
         ],
         [
            -0.6112656647795177,
            -0.29295471695143377,
            0.9908608362555766,
            -2.0,
            0.3772582731451872,
            0.465316721388315,
            0.6195483915252791,
            -0.1054754604066693,
            0.0050494010304357306,
            2.0,
            0.0836724490520541,
            -0.13260857558588512,
            -0.33938162497534496
         ],
         [
            -1.251021897300884,
            2.0,
            -0.16557276902958612,
            0.17724880066052418,
            -0.6303783400345583,
            0.3678703174822986,
            0.5894256954572394,
            -2.0,
            -0.6093032245886734,
            -0.5697949949890433,
            -0.3655466905353703,
            -1.56292365774451,
            -2.0
         ],
         [
            -2.0,
            2.0,
            -0.6239259784337022,
            0.6633184100374712,
            0.13959355696189873,
            -0.19536792722336116,
            0.8911210705956971,
            -1.2532568531825938,
            -2.0,
            -2.0,
            -0.48866713731839256,
            -0.45764714966081255,
            -2.0
         ],
         [
            0.8612490674295361,
            0.4235604085731269,
            0.42825714537769827,
            0.3087371705837671,
            -0.4687255112408682,
            0.3644836918726701,
            -2.0,
            -1.2036019639054023,
            -0.20007503453656683,
            -1.4836952130019587,
            0.5589249663791239,
            0.566484026321731,
            -0.4872293668185201
         ],
         [
            -0.3048186643614106,
            -0.5731669166200508,
            1.1150490125019448,
            -0.8157690977725469,
            -0.4136258994518249,
            -0.22458220310244786,
            -0.41412298120626895,
            -0.8357312746849674,
            0.4751912262317888,
            -0.3518568021953144,
            -1.9253720845188316,
            -0.9867875170273811,
            0.12542195481894036
         ],
         [
            -0.8903356613173725,
            0.3073296337350635,
            0.32894627891535727,
            -0.10369554518745978,
            0.05520096185782041,
            0.6828518768754075,
            -0.1333650483470934,
            0.47320971924653493,
            -1.4935040646417455,
            1.155728386257464,
            -0.005697624557663614,
            0.5936842446175016,
            -0.1815012254813884
         ],
         [
            -0.6856016103654463,
            -2.0,
            0.5213162649677872,
            1.2288939787604063,
            -1.4168905822985058,
            -2.0,
            2.0,
            1.2937213846207916,
            0.9259864352342676,
            1.4678694204967564,
            -0.699154837993502,
            1.3839603151103366,
            1.2509271185471618
         ],
         [
            -0.9011165116337707,
            -0.2941121772712823,
            -0.5801250362680537,
            0.35491949526608657,
            -0.9993767963952255,
            -0.9018900148603298,
            -0.6018107964959167,
            -0.5115748301016574,
            -0.7184049802570024,
            0.3988487831484239,
            2.0,
            0.025394972100517013,
            0.4140408330677524
         ],
         [
            -1.9533743329103839,
            -1.505882510443479,
            0.25667812022761954,
            -0.45397109161816396,
            1.0158274046347233,
            0.25418671508872936,
            -0.16217424930486266,
            -1.2812334586472058,
            0.46181422648255216,
            0.2981812245112346,
            2.0,
            0.4674374357831565,
            1.0600809363980628
         ]
      ],
      "biases": [
         [
            -4.099814029644637,
            0.586194671058465,
            -0.6152477615210826,
            0.4998849375055419,
            0.4195752039526186,
            0.26633626974092556,
            0.5396371458401069,
            0.4950088333382595,
            -0.2509645882716435,
            -0.31073449945595133,
            -0.7093096973796993,
            0.8580353574685202,
            -0.30082300164692444
         ]
      ]
   },
   {
      "weights": [
         [
            -0.964441411872832,
            0.8599325309785897,
            -0.46924079289651527,
            2.0,
            0.13072789387449515,
            0.9896363868893251,
            -0.687334878870045,
            1.0266762553817808,
            -0.2097106783298784,
            -1.0916421986973723,
            -1.3224250724697775,
            -0.7903940604517314,
            -0.5702503246149788
         ],
         [
            -1.0687963040514783,
            1.5452021073575664,
            0.35300794902685284,
            0.20143256875643076,
            1.3864448476473128,
            1.5641308860971614,
            2.0,
            -1.0106365335257237,
            -0.9393749369972524,
            -0.37304583869989144,
            -2.0,
            -0.9844396370058991,
            -1.2326750881674702
         ],
         [
            2.0,
            1.7440365305501644,
            0.9588890213819797,
            2.0,
            -0.020611316942050005,
            -0.32635308998823437,
            -1.125714535189213,
            2.0,
            -1.8262773891419928,
            -0.4096000604708,
            0.843949465546895,
            -1.4148925968562776,
            0.9785673630846613
         ],
         [
            1.291111257872074,
            -0.016073646725063732,
            0.6975488021967289,
            1.0767412875025106,
            -0.15948678319459586,
            -0.4369552756392576,
            -0.2844916738924001,
            0.27756122180601517,
            1.7568346091587874,
            0.07575258147973024,
            -1.208403556265813,
            0.013111176339697777,
            2.0
         ],
         [
            0.1680698735900834,
            -0.7778866149653851,
            -0.47645087059785024,
            1.4243920474805094,
            -2.0,
            0.8626768610430775,
            -0.36392724321203973,
            -1.7717888822848011,
            -2.0,
            1.321238390911535,
            -2.0,
            1.2840382998474016,
            2.0
         ],
         [
            -2.0,
            1.0384286197182708,
            -2.0,
            -0.7444095239060169,
            -0.04216092935313706,
            1.7458794135751778,
            -1.3550056516127882,
            0.637922591044819,
            -0.35595863815503614,
            -0.052338208133518166,
            -2.0,
            0.47968640719144673,
            1.9817320461440904
         ],
         [
            -0.5255276612177756,
            -2.0,
            0.5530630604836023,
            -0.8521927640654454,
            0.3041601832434625,
            -2.0,
            2.0,
            -0.8288934564673133,
            -2.0,
            0.25065000397858256,
            1.0060276214413792,
            -0.45292929335231435,
            2.0
         ],
         [
            -1.5303783432011615,
            1.9013326306609526,
            -1.1229917335368966,
            0.49061959196499294,
            0.6175280093139525,
            0.2531118766099632,
            1.6033962827257506,
            2.0,
            0.2535284664597753,
            -0.313091700911659,
            -0.761024806587181,
            -0.9649354352248036,
            0.16747453329187362
         ],
         [
            -0.19067814275129624,
            -0.9927444133854328,
            0.15091270566138804,
            -1.578600388257316,
            0.39132029562595344,
            0.5043823290964536,
            0.37368529811828793,
            -1.239957949574051,
            -2.0,
            2.0,
            2.0,
            1.5425207259853986,
            -0.903714821906376
         ],
         [
            -0.655811916969115,
            -0.5250319910360937,
            0.3009877421352376,
            -0.8001803513480182,
            -0.3781051017183023,
            -0.07094991400110388,
            -1.4346070263102324,
            0.12320481915559187,
            -0.5538909466661693,
            0.27286288777380663,
            0.5398860800950085,
            -0.5793370945846416,
            -0.24801319986594267
         ],
         [
            0.9408867864648098,
            0.5793654769045546,
            -2.0,
            -0.04035897057599672,
            -2.0,
            2.0,
            -0.5978106369015052,
            0.5150997683713132,
            0.15811091437272004,
            1.1207859397189244,
            -2.0,
            0.192290131171763,
            -1.8870069344193068
         ],
         [
            -0.8165166165172537,
            -1.8765882406084067,
            2.0,
            -0.17376346172404247,
            1.6685011203786433,
            0.6915595892398265,
            1.0960202817977314,
            -0.3921485504958409,
            0.4010970856190563,
            -0.4424955778880774,
            0.623907138799814,
            1.1012448646755364,
            1.0869670935977485
         ],
         [
            -0.08629370156674286,
            -0.5437748590979115,
            -1.9094245154501703,
            -0.41244450150264034,
            -1.7295763291581476,
            0.5708031988713389,
            -0.8334010666912781,
            -0.48634662615756263,
            0.24310551397205615,
            0.30481185888524326,
            0.9986765464922073,
            2.0,
            -0.23409683136794643
         ]
      ],
      "biases": [
         [
            0.15424777960769376,
            -3.038628197953304,
            0.3614867138193869,
            -3.3039644857808397,
            -3.212353870099866,
            -1.3220884539600082,
            -0.34082298958918306,
            0.43670794518133693,
            -0.2825132620651305,
            0.7400884660177491,
            1.6472211710732438,
            5.853672352586855,
            -0.7866636759992384
         ]
      ]
   },
   {
      "weights": [
         [
            0.9993856418347621,
            0.7210823188116627,
            -0.7843488545726405
         ],
         [
            0.5772994073847526,
            1.9505040583327489,
            -0.732499035505178
         ],
         [
            -0.008614174820548659,
            -0.3222786800941384,
            0.6501461612124823
         ],
         [
            0.21389209248348012,
            2.0,
            -0.938008635696554
         ],
         [
            -2.0,
            -0.008053381852021743,
            -1.1809467934840912
         ],
         [
            -2.0,
            -0.297457738892557,
            -2.0
         ],
         [
            0.47626958550267806,
            0.08132414572639504,
            0.9368350386671024
         ],
         [
            0.6023421381341354,
            -0.04192147107167545,
            2.0
         ],
         [
            0.1686774445753651,
            0.14035997986239795,
            -0.11221088262442705
         ],
         [
            1.10328739501585,
            -0.18836615940246304,
            0.17013420845428767
         ],
         [
            2.0,
            1.9340063751900267,
            -0.3541733321391862
         ],
         [
            -1.7514746485919557,
            0.40201652214647215,
            0.8148925623141049
         ],
         [
            -1.159137640358151,
            2.0,
            -0.5976404178593555
         ]
      ],
      "biases": [
         [
            0.20725662500369457,
            1.1201061447520086,
            1.3766548125166262
         ]
      ]
   },
   {
      "genes": "011111010111001000011011110000101111000000000001001110110011011001011001110001011011001101110001011111010011010100110100001001001010001001010001101011100110101111111000010101010010011100001110010110100100000000110000011000011001001110110001010100100111010011101000111001011110001111101110100010011000111111111010101111101110011111001010010101111010011001010101001100001011110101000010101101100011100011000110001000000100001111110010011101111111111110000010000110101101101111111011111111000110000110000110101001000110001010101111100100011000101110111011110111000101110111101001010000011010001000010001010001011010010000000111001011110101111111000110011100010100100001011100001100101000101110000100010111010101110000101110011101011110011011011110001000000111100000010000100101011100110111110111101111101100011000111011000010100000101110100011001100010011110001110101101110111111001010110101001101000001101110000010000011101000010111110011111101100100011011010001110101001000010110101110001110100000010011101010000111001010011000000000010100010111000110001101011000000010010100010100110011011100110000111010100010000010010111010111110110011101001001000010100011111110100000101011011010111000001011010110001100011011010011100100101111011100000101110000111110110111000000100000011111000101100101000111100110001001000000111010110100110001100100011110010010001000010110001111001101111001001010011100100110110010010001100100100111010111110010111011000011011101101110010110101001110100001101100010110011011011110001110100101010010110011100011110110111000111010110011010001010000001001001100000110100101100101001111111111011011111010111010001100010011110001111100011100001010100000101000111110111001100001100111110010001011001101100011001101001011000101010101100111011000110111100010010110010110010101000001011111110000000101100100000100110000111011110111000110101000110111001110110010011010000111000111110101000000101101111011100111111111011110001110000010011010110010000100011001011100100011111110011001011011010100101101000001101011111000011000101100100101101101110111111100001110011000110100101011111111000010110110110110001110001111000011010110111010101100011011100111101000101100010001001101011111010010010000111100000001010011111010111011010001101011001111101100000101100111001011011111100011010001111101001011000100000111010110000010100011100100010100010110111010010110100001001101011110100000000111111001000001100100011110100011000011110110101100001111100100101110011101000011011100011001111100101101010110011000010101011101001001100000100111001111110010111001000110010011011001010011001110111010101111100000101001100110110000001011010011000001010111011001001011111001111110111101001010011011010010101110001100011010101111101110011011110100011111111111011100101010101011011100000110010010000111000111001100011100010111110000000011001001100000010101111011111001001100011010000110011011010000110110110000001100000111000001010110110001000000001010011101100011010000101110100111100100001110100001111111010110000010000100110001110101000001101110110001110000011000000000100010111011011011011100101010011000010110001010000110111010001011001110100001001110000111000001011111100101011101100000000011000000101000111110111111110110011001000101101100100010111000100001010101101011011011111011001011010101100111100011011000011101100011000111011011010010010000000011000100011011000001111110110000000001111010000001001101000001010110110001101110101111001010010111110111011111001011111100101110111101011100010110100001110011101001000100001110000111110000101011000001100111011001100000010011110101001111010010010111011011100010101110010111001111100011001001111100101000101010100010101010100011010010100011111011000011110000011100000010100111111000111101111001100001000011101110111011100010101011110011000111110100101110100100011010100001100001101001110100011001010011111000101010110011011111100111101111000111000101011101101110111100111110001110100110000000101110001100001011011001010111111111110010001000000110001001010000111001101111001101110101111111110101111000010110101100101111000110001010001110000111111110110010001000010010101000001100101000000110110101100000010101010100100110001001111101010000100011011011001010111000110001110011110111100000000011010011010010001110011100010001101011011000111000010111100101111110111100110011100011010110010111010101111100011011010101011000000110010100011100100000110010011001111001011111011000000111000111110011100001000110100100111010101110111010110001001011110101011011001011001011011111011010111100000001111101100000101011010111100111011101010011111011010011101111001000100101001110001000001011100111100001010110001010100001000001010001110001110100000110010111010110010111010110000001011110101001111010000111010110011110111110100000001011000101011000011011100100111101111111010100010111000001111000100100011001010001100111110100101001110011101000011110000111110111001010011010110101011101000010111001000000101101101110011000101011100100100000010000110100001100111001000010110100100100101011100100101111010110010100011010001000001010101100011111010101011001001110111111101100110111111111111101111100101001000111100101000000011001110010010011001000110100101100110010010100011000110101110110100101001001000101001101011101000111001010000001110011001110110110001110101110101101011100110110010110100011011000101000000100101110110001011110000101100011100010000001100110001001011101101101110011110101000100111000010110110100001111101010101011110100101111101110000111100001010111011001110101011100111100011001100011110101011010000111110001110100000010101001000010101011011101111000000010010001100110111000110001101000111100000101010001100101000010010000010011101111110110010110100111011110001000011010010001110110100100100101001111100110110110110101001111000000001101011100111111011000110011101001010101011101011010001011000100001110111001110001010101001111011100101001111010100111101100000110001000100111100101010110101110111111100000001111011001100001111001111110111011001110111111010010111111110000100011111000000011010011110010001111000001101001111001001101001111000111111110111010010000010010111101000101111100101101110111010101001000110001011101100011001110101100001000010111011010011110011011100100001010110010111010101000111110010100111111001010110110111110110010010011001101110010111111100010010000000010101010101111110100001110110101110000101011010000111100011110001110010101000101111110100001100001100000101110011001010011111010011110010001111001000100001111111110001100101010110000111101011000011101100000001100100100000010010111110110110010101101011110000110010011100111100111110011001011001011000110100001100010001101000011011011011001111011101011011001010110010101001111011100101011101011011101110100101000100001011111100011110011110111010001010001101111000101111110001000011011111110000011111101101011001010000110101011000111101001101010100000001100101010011001011101111101110000110101010110101111110010100110110000100001110011110010010110100011001101000111010010110001100011011101010000010110110101001111000110010001110010100100000010111001100100111000100000100110100100110111001011110101000111001101110011001110111010010110110101011110010010110011110010100110000110001111101000000101000000011000011100111111100011010000010100111101000100110111100011111010011010111101001011101110000001000100100110111001101101011011001101001101110010001000001010010010010101111111110111100111110101001000001111111111000001110101000100011001000110101010000000110001000000111001000010111011000001000010111101010100010000110101111110110001110001111010010010110100100011001000100001000111010100101011110110001011001101011001010110100110000100100111101000111000010000010001101001110011000001111010101111110101101001010110110101101100111110101111111110111011111100111010110111100011111100101011110011000010101110001010111111101001010111000001100010101000101010111100000011110100001100101010111101000101010001110010011101111110010110000101000011111110110001111011000010000100001011011011110101111101001000010111011101011100100001011001011110000011010010101101000001000001011001100011100000111001111011100011111101110000111001110101001000000001000101011111101101001100010101000001100110011100010111010001100011000011111101111101100100100101111110110100110001101011100001111101010100010100110010001000101101100110010010000100101000001011000000000101001111111001101001100101100001010101010011001011001100011001001100110111000000101001110000101011011001010111011110011101101010111010010010111111101111001110111100001110111101110101000110001011110110000000001010000010100010010011010111010111110011110011011100010110110100010000111101011111101001100000000001110011101001111110101010100000011011110000001010011110101011011111101111010110110111000001101000110100001110001000010111111000011101010110111101110000101111001111100100111010000000100100001100010110100001001001100010101000100110011010001011100010011011010101011100011000000100000111100111111000001010111010010001000011111011010000010010100010110010011000110101110101100101110010101111111000110000010011100000110110001100000001001110101111100110001000101100001110010011010110111100111010001011100110110110111000011010011010010010001111101001100010111101011111110110000010101110100000101000011110101001000011011000111111100000100110011110110110001011011111011110111000100010011100111111000101101100100010111110110111100101000101110101001111000100010100011011010000000011101110111011011000111011001110101101110110010011110111001000111111101000110001001001000111001001111000111110001111011100111000011110101000000001111101101011011111101001001011111110010111011000001000010001110101010101011101000011010001010010010110111011010111101000011100000011000110010011101000001110101110011100001011001111111000000001000100110000000101000000000111001110111011101111001100011010001001000111100011101100010000101001010100001000000011001011000101001001011000101000011010110111110011000111110000000110011010000010001100000010000100010110011101011100100011001111101001101100100100000111111110100100010010101101110001110011001101110010101110111100100000001000000110000111101011000111111011100010001000011001101100000000001010000010010101000110110011101010001101000001011001100010011000000000010010010111001100000000100111000110100001111111100011011011001011011110010010111010110011101111100111100101011000000011010010100001110101101110101001100011101011110001100011101110011111011111010110110010001100010110010010000001001000010110011101110100110110001010101011011101000010001010110010010100011110011011001101001001100010011101110001110111000101011000101000101111110110101000010110101011110111011100111010100111101010001101111001001101001110111101011101111101001001110001101101100001010010100101001011000010100111010001100001101000111100000111111110010101111010100000111111000100011000101110110001110110001011011100110101010010111000110000011110101110101100000101001101100100001001111111011100111010100011101111100010011111110101010010001111011111001110100000010100101101100110011110000001000110010110100101100110101010000101001110100110000001000110000110010000111000000100000011100010100101110100010111101111111000111110001101000010111100010001100001101010111010011011111001111100101000111101011100101110010111011101100010111000011101100011110101010110011101001000011010100110011000110011010011111111100111100100110011000010111000000001101001110110101001001111000011101100100010001101100111101101110101110111111001001000100011011101111001100000001001101010111010111111101100111011101100010111110100111011010110011001001101111001101100000011001001111100110100100000100001010110100111010011001110011111011010001011100001110000110101111101110001011000001111101001010001011100001101101011110100111101001110000110110110011110000001010100111011011010100011010101001111011000011110011000100001111001011100001111110110100000001010011111001111011000101100011001000001000010001101000010101010000000111000000001000111010011111110010011110000101010010100110011010010010001010010011000111110111011001110001110010001110100100110010001011011010101110011111100001000010010011000100011101110011011011000001001110100110010110111110110011100110001001101001001100101100110110000101011011110000101000100110101011011001001100000101010110110101001100110000010100001010000010101001100101000110010011010101100000111011101110001110100001100001011011110011000101110000000000100100110001100010100110101011001000010110111011100011001110011010001111010000001000101001000100110010100011111011000101011011011100010001001011000010101100000111110010001010110110001110010111000110010001110000011100100001011101001011011111101111011101101010110001000100010100111000011000000110110001100101110101101010101100000101000001100000011100111110101111000110001101101101100101000010011111000100101101101010011101100101010101011000011100100111001100101100001010010010011010000001010110100100100010001101001100100111111000011100101100011100110011101010111110110111100011011000101101111111110000011101110000100010011010111100100110000001111011011001101101100101101001001000000010010110011010111000111001001010000000101001000100100011001111101011001011110001001001001000010110010000101000111000110011011010110001000111011111111001111011101000101001010001101010000101100111001111101101001000001011011101101000010111111110011100100100011000111101110000011111110011011111010111010000100101110100111001101010011110100011100101011101101100110110000100111000001000000001000001111101000011001000100011010110010001110011110011000101000010011101010011100111100100100001100011100110000101110000001100001001111111111101100000110001100111111000110010111111110010101111111101110100110001110011001100011110001011001000100110010000001010001101100101011000010111011001011000110011110101001111111111101000001101000010100000100001100011000000111111010001101110010011011110000011110001101011010100111001001110010110111010001111110011100010000001011011010110000101000100101010100010101101111101101000011011010101010111001101001000011000111000000111111111101010010011110111110000010001100010000110111111000011100000100110000111000110010100000001100100100011110000011101001010101101101010101101010000011101001000111000001001101010000010100100111101111010000100100000001000000000101110011010001001100100101100010110100010110000000000000100010011011101100100101000101100101000111010001001110010010111101111111000111010010011111000010001101010111110100110001111010010011110000111100110011010101110101000111101110101001110111110111000011111010101011011000010110111001000001001001000100000001111001010111010010110101110011001111111000110110101011100010100110000101001000011010010001000011100101110001111000010100100000100101001110000100010110100000001101011000001101010110000111100110001111011111101000111001000100111111000100001101110001110010100111111100011111110011111110011011100011101001100101001001011110111100101100100101000110110000011101101110011110001101010110011001010010110110001111001010111110111100000011111101000101010000010001001001000001101100100000000100010000000111010100101100111001010010010111001101011100001011011101111101110011101111010001001000110100110110001010100111011100011000000100000010001010011001010100111010000101011100011011100010000010101100111000000011001101101010011101001100110001110101011110110001001011100011000101010000111011100101110000111000101001000011011011100011011010111110101111110010011110100111110111010010101101000000100000100000110110101111001111011101100010100100101010111011101110100100100111101010011110100100001101001010101111011001101101001001010100100010100111110100001100101010111001010111010000011000000011111011111011010101000111101110110011000001001001010111010111111110100011000111110010001110100000001001101111111010111001011000010110111011001001001101001010110011100010001010100011011001110111110110001100100110000000101100100111100011001111101110000110111001011110000110111001100000010010101011000111101000010011001110000110100111111110101111110110001100011111111001010110011010010011011101101001100110101111100010000001010010000011001111111001110110111011010100100011001110000001101101101111100001011001101111000101100100011011101010101101001000000110100100011010101100011111010110011101000110001010100000110000110101000110101000011011101011011111011010101001001010001011010011101001111111111011000100010010000111101000001010001011110100110010000110010011100000011101000101010101011000000001000001100000001000110000001111110010010011001110100100000101011011011111101101101000011010001100011001100111000011101110000000111011010000001011101111011001111010100001000001110000100101000001111000101001010011100111000100001001101101011000111110000000011110101110011101110000011010001100010100001111000001110010110000011011101100101100101000000111100111100100111111100100111110111011111111110011010101111010011010001000101000100110101010101000001100111010101101011010110011000101010111100100000011110101101110011001010010101001000111101011110010001000010100011010000100011000001010111011111001011001101110110111001000000011110100101111111001101001110110000101001000000110001110110011001011110001100101110000111101001001011110000111101100101001011100111011001101000011001001011101000000000111100111101001001001111010011000110111110100000100001010001110101111011111110000111010010100011010101001101100100101010000111010000001110110001111011001101101000"
   }
]