[
   {
      "weights": [
         [
            0.05328654406941449,
            -0.6071350219571336,
            -0.2165251575057529,
            0.4192314999519767,
            0.2800520256461402,
            0.019930071662592835,
            0.49884704017771714,
            0.31771249154116016,
            0.2809805719041143,
            0.08967679708907055,
            0.2232461847058097,
            -0.05964746595699162,
            0.4878769067112311
         ],
         [
            0.06053002307370099,
            -0.14670467233948575,
            0.3604043311687817,
            0.3327314388849417,
            0.2543928712577506,
            0.33990524511595427,
            0.5664701823083379,
            0.12570432534626347,
            1.2344609885910927,
            -0.15394607953643336,
            -0.5529074124603361,
            0.31309627993820577,
            -0.10840302378145192
         ],
         [
            0.220667778423198,
            -0.5649044809169275,
            0.03576227697469828,
            0.14903681631639154,
            -0.04945504721210272,
            0.027905668727295455,
            -0.0586866147605548,
            -0.09833286520224231,
            0.8056307414624918,
            0.1980199152535903,
            0.1807132076522715,
            0.19904954536815012,
            -0.11921526708749765
         ],
         [
            0.08399410018176992,
            -0.27692302603813646,
            0.30526842869277565,
            0.39713412142307386,
            -0.32905260947229575,
            -0.27034725137628274,
            -0.6997575798358929,
            -0.11770739910712619,
            -0.08104773498188296,
            0.6595114355550336,
            -0.2400328414401267,
            -0.387999508957764,
            -0.20122153523063352
         ],
         [
            -0.10524404387789058,
            -0.6077807561079311,
            -0.22141360329607568,
            0.631511369800891,
            0.22038985587704868,
            1.0452385144189034,
            -0.06566179449244233,
            0.03577777013391763,
            -0.20897292379011218,
            -0.40206767299801155,
            -0.6982553929038138,
            -0.7348262291217905,
            0.07767985474448552
         ],
         [
            0.39058805587871753,
            -0.19059458513567418,
            0.4633750841057004,
            -0.7368926250702449,
            -0.24507167386874926,
            -0.18400272624258174,
            0.10610199627752034,
            -0.20975456653641522,
            0.19500013157399165,
            0.1686533091728683,
            -0.4781408385136291,
            0.3652257114885652,
            0.6192209405635763
         ],
         [
            -0.5102922130252616,
            0.2550082082282993,
            0.41139183734367396,
            -0.5098064290518272,
            0.18474502313779811,
            0.03005125701749042,
            0.0975041585164045,
            -0.4436435832193909,
            0.032810448732130765,
            0.4440047150632675,
            -0.04555763373476746,
            -0.25293599390193927,
            -0.5861692209227835
         ],
         [
            -0.198172401668052,
            1.0667984033247457,
            -0.4692099088408222,
            0.37765588180042137,
            0.02207296205647205,
            0.24122430213070833,
            0.332735441067904,
            -0.5818179241221263,
            -0.5075864098958529,
            -0.2397596134050401,
            0.02007275848386407,
            -0.31826883317014143,
            -0.17654093827471695
         ],
         [
            -0.8969641200357596,
            0.3117033727825873,
            -0.2707755464129823,
            -0.06357437261561835,
            0.048369530005393346,
            -0.19235880392827467,
            0.1548467608288719,
            -0.0828055631493034,
            -0.3598316634386969,
            -0.4370263739989275,
            -0.2559768829290573,
            -0.10625778945727027,
            -0.27373368892174693
         ],
         [
            0.7704437565746133,
            0.016489639376250018,
            0.3421244101778505,
            0.2715167985022472,
            -0.47596234067276316,
            0.26050139472241296,
            -0.3037897872158557,
            -0.42996906306804195,
            -0.12237592269348936,
            -0.7481907963328279,
            0.3567990680731412,
            -0.0009761332230420906,
            -0.38439750168898285
         ],
         [
            -0.03284523069376514,
            -0.4017244478672799,
            0.5977127608476314,
            -0.16122929349054355,
            -0.1921163111942527,
            -0.08769725353916466,
            -0.49258317089539483,
            -0.2622003218278353,
            0.4679611434449672,
            0.442868833778024,
            -0.09684721698459864,
            -0.6304424079193256,
            -0.6363656350996275
         ],
         [
            -0.18858347709829004,
            -0.018519916157604552,
            0.5074487732483619,
            0.08866727882808015,
            -0.15808221742048845,
            0.015869585754020952,
            0.15922321364715353,
            0.3389442367890984,
            -0.24810588918655552,
            0.04139215268976076,
            0.08420503388423316,
            -0.10555466547870897,
            -0.11352777975600277
         ],
         [
            -0.3545071526162602,
            -0.4523643439568453,
            0.10415205672685247,
            0.40378782797952606,
            -0.4698640702259871,
            -0.4807093025976682,
            0.5952878061923462,
            0.25657097671555346,
            0.318234238957444,
            0.2682375927960011,
            -0.21398671518078044,
            0.4728541462428452,
            0.3849714118447428
         ],
         [
            -0.03750592609714884,
            -0.06021838231199839,
            -0.7467533427410301,
            0.361990288578446,
            -0.34633256941522184,
            -0.37675728568935163,
            -0.3006072679837094,
            -0.11057484818826946,
            -0.18651118529771837,
            0.26703463895524154,
            0.22593625824004238,
            -0.09120679215558661,
            0.12386148767734648
         ],
         [
            -0.6450292599755524,
            -0.6622011255656277,
            0.44183741573095225,
            0.007108541061325649,
            0.11445574728092334,
            0.1651601668429856,
            0.2401772194544155,
            0.13723551012034563,
            0.03783195344777775,
            0.12404267218669973,
            0.17814381227798748,
            0.1612869977335658,
            0.5447800783854937
         ]
      ],
      "biases": [
         [
            -0.9279645701850312,
            0.5073097214951818,
            0.07935399067728054,
            0.28784956195040945,
            0.5021681167838511,
            -0.19352211951887263,
            0.1533451271946677,
            0.7480265181013905,
            -0.39006191174313476,
            -0.6586194429903639,
            0.00912390186158827,
            0.07056638267210051,
            -0.25046901699851476
         ]
      ]
   },
   {
      "weights": [
         [
            -0.09808745736877572,
            0.5631006899645352,
            -0.36439485517417486,
            0.7176906269641996,
            -0.24037828102186748,
            -0.17324852650073413,
            -0.573780561505466,
            0.6975346386127083,
            -0.2713743844734702,
            -0.5071289486899829,
            -0.23781446884654428,
            -0.0726684305072635,
            -0.00856008831225552
         ],
         [
            -0.21808837092788208,
            0.47468886940791777,
            -0.11832831468520198,
            0.09714053202437972,
            0.5318696497235645,
            -0.013718627622284027,
            0.06859346182273468,
            0.16630147635582274,
            -0.6586227588070409,
            -0.025895412708042215,
            -0.667876622429172,
            -0.5589529231865122,
            -0.5438874922200306
         ],
         [
            0.7129201737708206,
            1.0719569038995462,
            0.23488904549746237,
            0.27917298823437264,
            0.15583999720672168,
            0.06338140343884648,
            -0.542440231451258,
            0.7523691954493922,
            -0.4680030914329077,
            -0.7114850040052125,
            0.2214362275972474,
            -0.540034237740832,
            0.2181691574851186
         ],
         [
            0.32712899689504077,
            0.1821033455991412,
            0.10524794418415977,
            0.15653778913465602,
            -0.08556643396069755,
            -0.3911942158798213,
            -0.20955362783762957,
            0.2250479476831433,
            0.5537992336036538,
            -0.0901957458255595,
            -0.2635097914508823,
            -0.04117200896748187,
            0.7802619544861189
         ],
         [
            -0.120337183434331,
            -0.2036522854720095,
            -0.1340083958162087,
            0.912215079271787,
            -0.5482817552727707,
            0.5585484411401163,
            -0.09434318783454967,
            -0.2922933532137647,
            0.04335813587776467,
            0.3400525893645536,
            -0.3453260304357889,
            0.4319915397119205,
            0.1532758946084918
         ],
         [
            -0.2839509367621548,
            0.31128704515129296,
            -0.4807921271630509,
            -0.43356883146709085,
            -0.352054724312421,
            0.672941391635888,
            -0.26148356826713914,
            0.43879870124097164,
            0.0926165718264532,
            -0.170509601029657,
            -0.9687029733962487,
            0.008509432953853693,
            0.019041852043462197
         ],
         [
            -0.3927135109957225,
            -0.25804712192122553,
            0.1618860862460093,
            -0.578723467081451,
            0.14772655988669237,
            -0.3091579144478775,
            0.4167208469446241,
            -0.30340674264792633,
            -0.544776756468894,
            0.17480929345304455,
            0.29565597011645056,
            -0.6952390329341084,
            0.20456497102724508
         ],
         [
            -0.15190453399140594,
            0.02868172280018466,
            -0.17489440403653475,
            0.15756650150237625,
            0.10891739363297734,
            -0.005197850914089364,
            0.3750600491580489,
            0.8622304698861998,
            0.5816169445352659,
            -0.6747642464223809,
            -0.3485911952881514,
            -0.684431030613415,
            0.16256301739623474
         ],
         [
            -0.05358080722206371,
            0.15577766393134526,
            0.2759062408390448,
            -0.44604290524105217,
            0.35009021283913155,
            0.5680194990520431,
            0.25355255086069894,
            -0.5019225679900479,
            0.030457176972201336,
            0.6128038214559314,
            0.24718739483315347,
            0.44776089621228266,
            -0.2966971492009862
         ],
         [
            -0.5505021834161917,
            -0.38056177703441296,
            0.14920196680291214,
            -0.512525496629298,
            -0.10475997452363466,
            -0.16934814371612963,
            -0.39255397804971115,
            0.059195131742167645,
            0.0008081470902962622,
            0.2065177545502682,
            -0.031061232717460335,
            -0.7528592020457727,
            -0.28262381554691784
         ],
         [
            0.5923469821828062,
            0.13349823621988494,
            -0.30106872769158044,
            -0.046004985927586894,
            -0.7140441428710276,
            0.5299389847576708,
            -0.6858902756098655,
            0.48769268120254533,
            -0.04699527258138391,
            0.3603196217526549,
            -0.7721279929655119,
            -0.2443381753012136,
            0.25242663467763
         ],
         [
            -0.5992688429384307,
            -0.24819005912434508,
            0.5075990460937467,
            -0.20535638058414526,
            0.3604392206932502,
            0.3061967833108985,
            0.20135592999516386,
            -0.21777687505542953,
            0.40650417278782414,
            0.3128849308905933,
            -0.19152896727385246,
            0.6323068547939902,
            0.030037941169943988
         ],
         [
            -0.14440874597458903,
            -0.38169522038955106,
            -0.6496900581963113,
            -0.6457719137898239,
            -0.1497268395541871,
            0.22344923230954078,
            -0.5027462180014284,
            -0.30151479720124963,
            0.3359727848010793,
            0.6819888210650947,
            0.2653316849129742,
            0.27930597003141033,
            -0.07063269360705399
         ]
      ],
      "biases": [
         [
            0.2952477735788231,
            -0.3355752160103599,
            0.3796460032938488,
            -0.5030088333382594,
            -0.17803538158400312,
            -0.10809734155810322,
            -0.37028317324943816,
            0.26074336293856415,
            -0.2128937889304133,
            0.06576991118430775,
            0.5725929007734909,
            0.4959822730347743,
            -0.18546902302738527
         ]
      ]
   },
   {
      "weights": [
         [
            0.22102549123324233,
            0.31635667680945345,
            -0.6543842602721264
         ],
         [
            0.22990119575633883,
            1.0335837392432023,
            -0.007976946130658594
         ],
         [
            -0.1559681534400878,
            -0.17149992351382964,
            0.15049131855150313
         ],
         [
            0.06746732055158143,
            0.3344983128073078,
            -0.17453078535977956
         ],
         [
            -0.7006392451676432,
            0.19264572396218513,
            -0.10358398755516292
         ],
         [
            -0.523067032539283,
            -0.5540860453655336,
            -0.4625695605928901
         ],
         [
            0.612650112367961,
            -0.03520683124621968,
            0.1624899295590444
         ],
         [
            0.6131916819979328,
            0.05302350733274468,
            0.11452891665865168
         ],
         [
            0.2526862839424952,
            0.3046962616610649,
            0.038576725380752956
         ],
         [
            0.37504849094851,
            -0.08877324054236019,
            0.16264748860603015
         ],
         [
            -0.0686487675822065,
            0.642705541292941,
            -0.11693439792749322
         ],
         [
            -0.47050124506866364,
            0.6350342069096032,
            -0.2569126822232407
         ],
         [
            -0.3046155509836319,
            0.630687335560468,
            -0.254808576845301
         ]
      ],
      "biases": [
         [
            0.15395575493338412,
            0.6174070630532853,
            0.23919467708733574
         ]
      ]
   },
   {
      "genes": "011111100110001000011011110000100100000000010000001110110011111010010111110000010110011101100001001011010011010100110100001001000110001001110001101011101010011111111000010111011000100100000110010110101010000010000000101100100101001110110001011000010000010011001000110001000011001110100010101000010000010011110010101111101110011111111010010001111010101001011001001111111111110101110011101111100011100011111101001000000100001111111001101111111111111110000010000110010010101100111111111101101110000110001010101001100110000101101110010100000100101110011011110000000001110100101000101100001110001000010001010010011010010000000111000011110101101000000110111100010100101011110100001100101100101111000110010111110110110000101110011101011111011011001111001011000111000000011000100000011100110100110111001111101011101000001101001010100000101010100011001100011101110011110100111110111111011000111101001110000000101110000010011010011000001111110010110000010100010011100011111001001000100110011010000010100010010011011010000100001010011011011110010100010110000110001101101000000010100010010100110011011110111000110101010010000111010011011011110101011001111010110010100011001110000000011111011110111000001011010110011100010111010011101000111111111100001001110100111110100101110000100000001111000111100101100110100110110000000000111010111101111001101000001010010001001000000110001100001101111010111010011100100010011010011001100101001000110111010010110111000111010001011010010110101011110100001101100011111110010011110010001000100111010010101100011100110111000110010110011010001010010001101001110011010111101111101101111111111011001111010111010000110001011101001111101011100001010100000001110111110011001100001100001110000001001001101000001001111010110000101011100000010111001110111100011110110000110101011011001011001110000100001100100000100110000111011110110100101110000110110000100110010011010010100000001000101011001001111111011101111111111011000001011100010010011111010000100010001001100100011111110001001000011010100001101011001111011111101011010101100100101101101110010111100001110111110110100101011111011100010110110010110001010110111011100010110101011101100000010011111101010011100010001001101011000101010010000111000000001010101111011111011010001101100011110100100000000000011010011011111100101010001111001110011000100001111010110100100000111100100010101110110111010011110101101001111010100100000000111111001011001100100001111100011010011110110101110101100000100101110011101000100010100111001110100101101110111000000010101111100001001100000110111001101110001011001100111110011010011010011001101011010101111111010101001100000110100011101010110001001010000111101011001100110011110111010011010111010000010001100001110111011001001101110011011010101010111101111011100101010110011011111100011000010000111100111001100011100001111110011100011001001100001110111111101101001001010111000000111011011010000101100110000001100000111000011010100010001000001101100011101100101000000101111100001101100011111100001111111010000011001101100100001101101000111110111010001010000011100000001101110101011011010110101010110010001010110001010100110111000000011000110101001001110111111111101011111100101111001100011010011000000110000111111011111110110011001000101101100100010111000100100110101101011111010011111001010111111100001100011011001111101100101000111011011111000010000000011000100000011100000100110110101000001111010001001011101000000110100100101101111101000101011100111110110011001001011100100101100011100011101010010100001110111101101000010000110110111111000011011000011100110111101100000100001110011010111010111010111000001101010101110010111110111100101000001111110001000100101101011110100000101010010111010001011100101110000001100010010101111110000111011111011100001010011100110111011100100000100010101000111010100101111011101111000101000100001101001101001111100110001111010101010100011000111101010001001001111010101011101111110101101111100001010100111100100101110001101001011001001001111111101110010011000000110001111010000111111001111001101110101111110101100111000110110101000001110000110001100101010000011101110111010001001110110011001101100101000000110110101011000010101010101001110010001111111010000100011011001111010100000110000010011110010000000100111010101010010011110000100010001001011011000011000010101100100010110100100110011100110111110010011001011111011011101010011000000000110001100011101000100001011011001011000011111011000001111000111110011110001000001000100111010101110111111111001001011110101011011011011010010011111111010111110011001110100000000010011010001110000001101001000011011000011110111001111000001101110011100001111011011100011010111101010100001011001010101000001101000000111010110010100001101000010110110011111011101111010000101000110011000100110100000001011000101001100011011100110111001111110010100000011110001111100100100011001010001111111111101110001100101111001111011110111110111001110001100110101000101111010011111000000101101101010110110011101100101100110010000100100010101001000100011110100100110000111100100101110011110010101011000001000010110101100001111011101000001001110111101110000101011111101000000000010110000100111101101100110011011110010010111001000101000100100100010001000011000101101010111000001001000000101001101011101001111001010000100011010001110101110001000101111001101011000100111110010101011011000101000000100111100110001001010000101000001100011100101100111001001011001001101100001110101101101110000101100110001100110101010101011101100101111101110000111101001000101011001110100111000011100011001111010110101000010000011101001110100000010101111010010110011001111100000000010010101100110101001010001101000011100010100110001100101000110111010011010000011110000010000100111011110101001011101110101110110100100100101010001101110110111100111001001010111001111001000111111011000111011101011001101011101001010001111101100010110011001001001110000001011011100101000111010100101100000000100001000101100010101011111101110011101100100011101011001100101101001010100011011001110110011010101111111010000100011111001100011010011110011011100000111101001111011001100101101000111111111110000010000010010111101001101110100101101100111010101101000110001011101100011001110101001101110010000011100010010011011100100001010110011111010111100100111011000100111111010110000101110110110010101000100010000111110000010011001000110000010101100010011110101010101110000101011010000111101111010010110011100000010000111100001100001100000101111010001001011111010011110010001011000101100101111111110101100101010110000111101011010011101000001100100100100000010000111101110110000001101000100100110010011100111100111110011001011010111000001001011111010001100100011011101010001111000101111001101110110001001001111011110101011101001011001110101111001001111011001110011110010111111010001010001100000011100111010001000011010111110000011111111101011000110100110101011000011101001111111000000000100101110011000010100011110110000110100110110101111110010100010110001001001110011111010101110100011001101000001010000101001100001011101010100011110110100100111011110000111110011001000010010110001100000011000100001100110101101110111001100010101001110100101110001101110111010010110100001011100010010110011110100100110000111101010101001001111011000011000011100111001100101010000010000110011000100110111100011011010011100110100101010101111100110110100110110101100000011011011001100001011110010010010011010010011011101110111110111100111110011011000001111100110011001110011000100011001001010111011011110110011010000111001000010011011000011000010111101001100010010111101111110110001101010100010001100010011010011110000100001000100110100101010010110001000101001111001010000100110010100100001101000110010110000001001001001110001001001110111111001110100000000110000110100110100011110000011111111101011111100000010110111000011101100101100011011100011001100001010111111101000011111000001100110110010101011010100011011001011001001110100110101000101110001110010011101101110010010010101010101101010110001111100000010000100001010110011110101110101011000010111111101011100111011011000011110000011010010110101011001101000100001100010001111000111111010100011111011111000111001110111101011100001000111011111101101001011110101000101100110011000010101010011110111100101111101111101100010000101011010110110111001110011101001111100011001010101110010001000101010100110010110000011011001001010011110010101011101111001101001100101100010010100010011001000101100011011001000110111010000110011110000101011011001010001011110000110110010011100010010100111001111001000110100001110110101100100100100000010010110000000001010000110111110110010110111010101010010010011011100110110100101010010101101111111001001100111000001110001110001100111110110011001011110110000101010010110101111011111111000010110101111000011101000111100001110101111110011100000011101010010111101110000110111110110010101111010100000110101001100000110000001010000000010101000101110011100001011100010000010100101011110010100000101100111100001110000010011011010010001000011111011010001010010100010110100000000110010010101100100110010111111010000110010001001100000110000011000000001010110111001000110111001101000101010000010110110011010111011101011100110010100111011111010011010010010000001110111110110111100111111110000000010101110100001101001011110101011000011011110011010110000100010001110110010001110001101000110000010100110011000111111110101100100100010111110110111000101000101100101000100011100011100011001010000000011101111011011011000111011001100001010110001010011100011000000101011111000110101101000100000101001111001000110001000011100111000011111001000000000011100001011011110001000101001111110001101101010000001110011111101000100111100100111001101010010010110111101010010001001001100000011001101010001111000101101001110001000001110101111011000011000100110110000000101000001000101001000111111000001001010011010001111011001111011101100010000110001010100001000001011000101000110001101011000101100011011110111110111000111110000000110011000000000011100000100001100010110000001110010000011001010001000111100011100000111111111000010010010101100101000110011001111101110101110111101011110001000000110001110001111011111110011000100001000011000001100000100001010010011111001011010101011001010001101011000011001000010011001111000010010010111001011010101111110100110111001110110000010100101000011010110010010110100101010010111000110000111011000001010001010000010110001100000101000110011101111101001010101101110011111001011010111010010001111100010011110000110101100010110011111100100010110011111001101111100000010001100100010010101111110011010101011001001000010011011010001110111000011011000100100100111010011001000011110101011110100010101000100111111101011101101111001000101001111011100011101111111101101100001101111111101110011111111100011000011001111010001100001101100111100011111111000011101110000110100111111110100011000101110101101101110001011111000100111010000101000010000000110001111011000000110110100000001111111111111111101011100111010001111110010001111100100100010001110011011001110110000010100101101001110011100111011000001111111000101100110001010111101010000100100000011000111010110000000011011100100000011100100101010010100000111100111011011011110001101010011000010001000000001101110111010011011101101001100100000100001001101101111010111011101100010011001101011110011111100110100000100101000001011011110011000110001000011111110010001000001110010010010111000000001101101110110001001001111001011101101000010000000101110110100010100101110011111000010100111011101101001110000001011101010111010111001001100101111101100010111111101000011010110011000101101110000101101000010101000101100110101000101100001010110100001010011001110001111010010001011100001110000111101110101010001011000010000101101010111010110011100110011100100111101001110111010110110111000110000010100111010111101010011010101011011011000000101001000100001111001011101101110111110110100011011111101001111110000110100011001010011001011001011111010001010000000101001001000000111001001110010010011111000001111111100110011010100010000110010011001101110101101100110001101010110000010100110010001011011010011010011111100001000010011011100111011101111011111011000001001000011001010001001110000011100110010001101001001100101111110110010111011011111000011011010110101011011001001001000101010101110101010000000110010100001010000010101001101101001011011011110011101100111010101001001101010010100001111011110011001101000000000000101000110101100010100110111000001001011001111010100011000110011011000100010110001100111000000100101010110011111011100001011011111110010001100011000010101100000101110110001010110010001101110110001110101101111111011100000001011111001011011111101011011101101011110001000100110101111000010100000110010001100101110110101010001100101001010001100000011000110100001011000010111001100101100101000010011111000100000001101011011101110100010101001000011010010111001111101110111000000010011001100001010110100001001001001001101100100111111000011100101000011100000011101010111100110111100111011100100001111111111111010001000000101111001010111100000110000001111011011001001010111001101101001010000001011111001010101001110101101010001100101011110000000001001110101011101010111001101010001001010010010000100100111000111011011000111101001111011011001001110011101000101101111110011000000001110111001011100101000010001010010101100100000111001010011100000100111000111101110000010111011101010011010111010000010100001100001001101010010010100011100001011110011100111110010100001010001000000001001111111101000011001000100111010110010001100011111111000111000010011101010111010111100100010001100011010110000101000100011100101100111101111101101001110000100111001000110010101111110010111111111101110100111001111010001100101110010001010100100110010000001010001101100101010011010101010101011010110111000101001111110111100000001011010010011001101101100011000001110101010101001110111001011101110011110011101011010100111011000110010110110110001111010011001010010001011001100001000100000100001110100100001101011101101000001011010110010011001001001000101010101001001011111111100110111100101111110100010010100000001110110100111011010000100110001111010110101100000001100101001101110001011101101010101101101100100001110000101101011010101000000101011011101110100100010101111010010100100011001000001000101011010010000110100100101101000111100010111110000000110111110011011101100100111010101100101001111010000101010000110101101111001000111001010111111000010001100110111100101010111010110010111011000111000110011101011110101000111101111101001110110100111000011110010101011111010110010111110000000001011001110000111111001001111010010110111110010001111111010101010101011100100111001100101011001111010001001011001100011101101111000010101100000100101001001100100001100100000001111110010001101000000001111110110000110011110011000111001000100111011101100010100000111110011000101111001101111000001100111001011101011101011110111011001011110111100001000100100100010101110011101101110011110001011010000110001010110010110001000001011010111101100100011111101000100010000001001011101100000111100100000000110010000000111000010101101011110110111010111010101011010011010111111011101000101101110000001010010110100110110011101000111011010000010001100000010001000011101011110111010000100011100011001111100000000001011111000000011001101101010011001010100010001111101111110010111001011110011011001011000011010000101110000111000101110100011011101011111011110100010011111110110000100100111110110010010111101000100100000101000100110111110101111000101111010010010100010111001101010000101000111111010100110100100111110101000101001011111101111001101010000000010101111110100001100101000111111010111011000011000000011110011110011010101100111001110110011101001001001010111010111100100100111010111110011101110000110001001101100101011111001011110010000111011001001101100110011010011100000010010100011011001101111101110101100100111000011010100100111100011001111001110101110111101001111111110111101110100010010101000000101101000000011001110000110000110111110101111110010001100101111111001001000011011101011000100101001000001101100000010000001101010100011001101101001110110111101010101000010101111100101101101101111101001011001110110000101100100011111101010101101001101000110100101110001100100011111010110001101010110001010100000110000110100001110101101111111110011011111111100001001001010010011010010001001011111100000000100010011000101101001001010001011110100010100110110010011000000011101011101110111001000011000100001100000001101010000101001110010010011111110100010100100111011011011110111001110011011001100011010101111000101101110000110111011010000010010011111011001101010100001001011100001011101000000101000110001001111100011001110100001111101000000111110000001110110101110111100010000000110000000010100010111000001111010100010011011101100000100101010000010000000111100111111100100111110111010111111111011110001111100000010001110101011000111101010101000011100011000001101011010010011011100010011110000000011110101100110011001100010111001010111001010110110101000100000011000001111011000001110111011101011011000101000110111001000100011110000110111011001111001110110111011001001000010001110110011001010010001100101110000011101001001100111000111101100101110111010110010011111001111000001011101001110000111100001101001001101111010001000100111110010100010001011001110101111001111110110111010010100001010101111101000010111010000011010000000011110111111000000010101011"
   }
]