[
   {
      "weights": [
         [
            0.9568085912418393,
            -0.13824122096897898,
            -0.7783570045486766,
            1.9368685915322486,
            2.0,
            -0.0703619650694582,
            0.0744399710955613,
            1.1192345748868084,
            0.8838035554644267,
            1.8738537050090855,
            2.0,
            -1.2611229222950668,
            1.93599189083037
         ],
         [
            -0.016310681422966326,
            -2.0,
            2.0,
            2.0,
            0.4129769386929825,
            0.39263975662964684,
            2.0,
            0.4113857283107276,
            2.0,
            -2.0,
            -2.0,
            1.734069647288274,
            -0.0483655691747989
         ],
         [
            -2.0,
            -1.4320029955345717,
            -0.38056349007644086,
            0.10172708276346827,
            -1.2790472918282958,
            -2.0,
            -0.20875740204404367,
            -2.0,
            0.9950466559406487,
            2.0,
            0.8251202526189444,
            0.7419875914229208,
            -0.5770205357403263
         ],
         [
            -0.16370058594887185,
            -2.0,
            2.0,
            0.5314662115852268,
            -2.0,
            -1.4482852552289598,
            -1.9451026648284657,
            -0.04471183084843261,
            -0.945474566064365,
            0.9820689426867795,
            -1.4867319110811088,
            -0.9977605566594614,
            -2.0
         ],
         [
            0.16013648901626293,
            -2.0,
            -1.2114037501081683,
            2.0,
            2.0,
            2.0,
            -0.3167856842962893,
            0.018972459278994755,
            1.13393853181682,
            -0.3545632442711408,
            -1.2246181988327418,
            -2.0,
            -0.0543891962163113
         ],
         [
            0.3137296605900487,
            -2.0,
            2.0,
            -0.19995016536077978,
            -2.0,
            -0.4148345672566375,
            0.2920400483611616,
            -1.790878396051558,
            0.4983364073437878,
            -2.0,
            -2.0,
            0.5948363211406695,
            2.0
         ],
         [
            -2.0,
            -2.0,
            2.0,
            -2.0,
            2.0,
            2.0,
            0.33914131038538187,
            -0.552378094733085,
            0.4738635391947478,
            0.1431449422143735,
            0.1367476680768494,
            -0.7314757981839428,
            -2.0
         ],
         [
            -0.2604909926747173,
            2.0,
            -0.19698869556548404,
            0.4839390550498597,
            -2.0,
            2.0,
            0.8069655057681138,
            -2.0,
            -1.3343916785486816,
            -2.0,
            -2.0,
            -1.7153130239769236,
            -2.0
         ],
         [
            -2.0,
            1.4145794226900337,
            -2.0,
            0.4133980668324439,
            0.015274978012974717,
            -0.08629713391100159,
            2.0,
            -1.0521152665578746,
            -2.0,
            -0.8956060036639816,
            -0.4585078478439306,
            -1.8703462012151826,
            -0.6384220857651203
         ],
         [
            2.0,
            2.0,
            0.7962217396782125,
            1.9867724918790637,
            -1.3107166296716446,
            1.078731447364883,
            -1.5587454939182739,
            -0.698823219382835,
            -0.6262697055950323,
            -2.0,
            2.0,
            1.3652361984830736,
            -2.0
         ],
         [
            -0.07891601797725405,
            -0.27953861617594494,
            1.4573587219393858,
            -0.20829567314820874,
            -0.47944890712762,
            -0.47445829521198896,
            -0.9615566105919096,
            -1.5594657319388245,
            0.16942132710522229,
            -1.0002461563699867,
            -1.2817658945502934,
            -1.6268228744959017,
            0.44910335778340477
         ],
         [
            -1.2083002435601455,
            0.8652234166366071,
            2.0,
            0.02764073058233646,
            0.1623248516616673,
            1.5513651148250538,
            -0.393542028613557,
            1.5084928502938806,
            -1.357291678675796,
            0.8608611395439227,
            -0.6237064458381837,
            2.0,
            -1.2036073702333976
         ],
         [
            -2.0,
            -2.0,
            1.2955463176102557,
            2.0,
            -2.0,
            -2.0,
            1.2997745019251215,
            2.0,
            0.16271213149631286,
            1.4506127954930614,
            -0.7344291658469393,
            1.0472213959708208,
            1.1782280006752137
         ],
         [
            -2.0,
            -1.3265192222379567,
            -1.8478683449467812,
            0.5947867359507568,
            -1.189164380284922,
            -0.31088118755093985,
            -1.9400319735980305,
            -0.2044598037804233,
            -0.7549271058047458,
            0.722977092635836,
            2.0,
            0.06473125389918394,
            0.0782886307620566
         ],
         [
            -2.0,
            -0.9043603909246076,
            1.8023948625739912,
            -2.0,
            0.38972122370948936,
            0.11238141026267709,
            -0.5731653797933793,
            -2.0,
            1.2144690510569196,
            0.7797741192558549,
            1.6546924318116396,
            0.6087825509200828,
            1.6003818004395025
         ]
      ],
      "biases": [
         [
            -1.2032388618652448,
            2.4748671381938685,
            -0.13969026041820606,
            1.392212343763855,
            2.5714512237157123,
            1.4000176184455564,
            0.8654866776461634,
            0.5427610416728242,
            -0.11957964172279564,
            -0.9046990696409829,
            -0.614265458341954,
            1.2324424144929345,
            -2.166840620092478
         ]
      ]
   },
   {
      "weights": [
         [
            -0.2779370072614439,
            0.8504988895352076,
            -0.9057009464124168,
            2.0,
            1.6829933160432247,
            1.834999192818253,
            -2.0,
            0.2809594648044431,
            -1.8763654787887667,
            -2.0,
            -0.12153573336728316,
            -1.2017657298632722,
            -2.0
         ],
         [
            -2.0,
            2.0,
            2.0,
            0.11067593470943018,
            0.9816837818590055,
            2.0,
            1.0862482924259722,
            -0.10527815330923158,
            -2.0,
            -0.9484086446288196,
            -1.1530055306826459,
            -0.8094131008178966,
            -0.2254627323458731
         ],
         [
            2.0,
            2.0,
            1.3563403174441409,
            1.1146862261840216,
            0.04445947637030956,
            -0.3235212248586971,
            -2.0,
            2.0,
            -2.0,
            -0.8322018006114209,
            1.003595480898485,
            -2.0,
            1.7652310390838997
         ],
         [
            1.7101377699445943,
            -0.2460293896007065,
            2.0,
            2.0,
            -0.18675227168090325,
            -2.0,
            -0.21192088359447578,
            1.1328620677608436,
            2.0,
            0.20044284189793635,
            -2.0,
            -0.010857849702122831,
            2.0
         ],
         [
            0.0663707617470059,
            -1.4142317301023113,
            -2.0,
            2.0,
            -1.321706509118058,
            0.6209334981045137,
            -1.1772900250254872,
            -2.0,
            -2.0,
            2.0,
            -2.0,
            1.1259409462315568,
            1.850780244960045
         ],
         [
            -2.0,
            1.2273843505361721,
            -1.3794203854050622,
            -0.18053786956665283,
            -0.1152582709112403,
            2.0,
            -0.8526339761723762,
            2.0,
            -0.31405597971313937,
            0.02536090370955934,
            -2.0,
            0.9418279757295543,
            2.0
         ],
         [
            -0.3208728004701845,
            -2.0,
            1.7888683050209502,
            -1.2583874351239106,
            2.0,
            -2.0,
            2.0,
            -1.0023093709454698,
            -1.3179713973830058,
            0.5814818449926377,
            0.18333739116752648,
            -1.4155221458948393,
            1.6551224178702852
         ],
         [
            -2.0,
            2.0,
            -0.46423953123120243,
            0.6974160393373036,
            0.6852271211570302,
            0.4981561035899677,
            1.1386086747205706,
            2.0,
            0.6255815388357806,
            -2.0,
            -0.5269363164539488,
            -1.6936876315016265,
            1.3458196122555752
         ],
         [
            -0.39177549033827014,
            -0.6847001743476875,
            0.821850727600676,
            -2.0,
            0.4093556952965687,
            2.0,
            2.0,
            -1.2238340537413332,
            -2.0,
            1.8148922633582003,
            2.0,
            0.8611047873917581,
            -0.8037148219063758
         ],
         [
            -1.95267910339395,
            -2.0,
            2.0,
            -1.879330711022292,
            -1.5931846982245683,
            -0.08674637343115531,
            -1.4683592346447978,
            0.2621428652103624,
            -0.6577139422842232,
            1.0313938285731983,
            1.1885940011608638,
            -1.4675848380191119,
            -0.5609689367127154
         ],
         [
            1.0119973991313496,
            0.29284336341455264,
            -1.3012279930505601,
            -0.04035897057599672,
            -2.0,
            1.307753092777629,
            -2.0,
            1.7203032365948139,
            0.13310206897671928,
            0.5063169347781508,
            -2.0,
            -0.0020505703104689924,
            -1.0714317304666858
         ],
         [
            -0.5221449410768423,
            -2.0,
            1.054439708388319,
            -0.3552501755434293,
            2.0,
            1.6263737032886563,
            1.8786750822566176,
            -0.7249228753348433,
            2.0,
            -0.8687610482877736,
            2.0,
            1.2907227511855348,
            2.0
         ],
         [
            -0.08783352393535837,
            -0.17366867817267806,
            -1.5081501875967314,
            -2.0,
            -0.17469586559600772,
            1.7064225936307384,
            -2.0,
            -2.0,
            0.19797277274333783,
            1.3275197799510972,
            2.0,
            2.0,
            -0.6241499037439512
         ]
      ],
      "biases": [
         [
            0.5890265241302612,
            -7.249672244067204,
            3.2398139934714085,
            -1.3460707450813945,
            -8.005981983648956,
            -1.3487787083493437,
            -0.43094688542190057,
            2.1835397259066864,
            -0.9946990696409826,
            1.4972565647149927,
            1.202114996176881,
            10.88170752918924,
            -2.161017576243458
         ]
      ]
   },
   {
      "weights": [
         [
            2.0,
            1.3102681263875156,
            -2.0
         ],
         [
            2.0,
            1.9120261778516214,
            -1.3071450387990267
         ],
         [
            -0.4272955777850128,
            -0.9778804202347611,
            0.3003320170192999
         ],
         [
            0.228697403338403,
            2.0,
            -1.1670528626765584
         ],
         [
            -2.0,
            0.001601484924439883,
            -0.24852203360993347
         ],
         [
            -2.0,
            -2.0,
            -2.0
         ],
         [
            2.0,
            1.471332936862562,
            0.19843683306755705
         ],
         [
            1.5232093486744516,
            0.22995463309560596,
            0.9935288623988159
         ],
         [
            0.21340310466418633,
            0.08125821259185902,
            -0.032741859597041796
         ],
         [
            1.2343050677212397,
            -0.23440155304420748,
            0.07351474737731184
         ],
         [
            2.0,
            2.0,
            -0.0045096259955944955
         ],
         [
            -2.0,
            0.9436094168910929,
            1.6238306083688756
         ],
         [
            -2.0,
            2.0,
            -0.6523483871561753
         ]
      ],
      "biases": [
         [
            0.11883185307179589,
            0.31534954687823274,
            0.7846194309326237
         ]
      ]
   },
   {
      "genes": "011111010111001000011011110000101111000000000001001110110011011001011001110001011011001101110001011111010011010100110100001001001010001001010001101011100110101111111000010101010000011100001110010110100100000000110000011000011001001110110001010100100100010011101000111001011110001111101110100000011000011111111010101111101110011111001010010101111010011001010101001100001011110101100010101101100011100011000110001000000100001111110010011101111111111110000010000110101101101111111011111111000110000110000110101001000110001010101111100100011000101110111011110111000101110111101001010000011010001000010001010001011010010000000111001011110101111111000110011100010100100001011100001100101000101110000111010111010101110000101110011101011110011011011111001000000111100000010000100101011100110111110111101111101100011000111011000010100000101010100011001100010011110001110101101110111111001010110101001101000001101110000010000011101000010111110011111101100100011011010001110101001000010110101110001110100000010011101010000111001010011000000000010100010111000110001101011000000010010100010100110011011111110000111010100010000010010111010111110110011101001001000010100011111110100000101011011010111000001011010110001100011011010011100100111111011100000101110000111110110111000000100000011111000101100101000111100110001000000000111010110100110001100100011110010010001000010110001111001101111001001010011100100110110010010001100100100111010111110010110111000011011101101110010110101001110100001101100010110011011011110000110100101010010110011100011110110111000111010110011010001010000001001001100000110100101100101001111111111011011111010111010001100010011110001111100011100001010100000101000111110111001100001100111110010001011001101100011001101001011000101010101100111011000110111100010010110010110010101000001011111110000000101100100000100110000111011110111000110101000110111001110110010011010000111000111110101000000101101111011100111111111011110001110000010011010110010000100011001011100100011111110011001011011010100001101000001101011111000011000101100100101101101110111111100001110011000110100101011111111000010110110110110001110001111000011010110111010101100011011100111101000111100010001001101011111010010010000111100000001010011111010111011010001101011001011101100000101100111001011011111100011010001111101001011000100000111010110000010100011100100010100010110111010010110111001001101011110100000000111111001000001100100011110100011000011110110101100001111100100101110011101000011011100011001111100100101010110011000010101011101001001100000100111001111110000111001000110010011011001010011001110111010101111100000101001100110110000011011010011000001010111011001001011111001111110111101001010011011010010101110001100011010101111101110011011110100011111111111011100101010101011011100000110010010000111000111001100011100010111110000000011001001111000010101111011111001001100011010000110011011010000110110110000001100000111000001010110110001000000001010011101100011010000101110100111100100001110100001111111010110000010000100110001110101000001101110110001110000011000000000100010101011011011011100101010011000010110001010000110111010001011001110100001001110000111000001011111100101011101100000000011000000101000111110111111110110011001000101101100100010111000100001010101101011011011111011001011010111100111100011011000011101100011000111001011010010010000000011000100011011000001111110110000000001111010000001001101000001010110110001101110101111001010010111110111011111001011111100101110111101011100010110100001110011101001000100001110000111110000101011000001100111011001100000010011110101001111010010010111011011101010101110010111001111100011001001111100101000101010100010101110100011010010100010011001000011110000011100000010100111111000111101111001100001000011101110111011100010101011110011000111110100101111100100011010100001100001101001110100011001010011111000101010110011011111100110001111000111100101011101101110111100111110001110100110000000101110001100001011011001010111111111110010001000000110001001010000111001101111001101110101111111110101111000010110101100101111000110001010001110000111111110110010001000010010101000001100101000000110110101100000010101000100100110001001111101010000100011011011001010111000110001110011110111100000000011010011010010011110011100010001101011011000111000010111100101111110111100110011100111010110010111010101111100011011010101011000000110010100011100100000010010011001111001011111011000000111000111110011100001000110100100111010101110111010110001001011110101011011001011001011011111011010111100000001111101100000101011010111100111011101010011111011010011101111001000100101001100001000001011100111100001010110001010100001000001010001110001110100000110010111010110010111010110000001011110101001111010000111010110011000111110100000001011000101011000011011100100111101111111010100000111000001111000100100011001010001100111110100101001110011101000011110000111110111001010011010110101011101000010111001000000101101101110011000111011100100100000010000110100001100111001000010110100100100101011100100101111010110010100011010001000001010101100011111010101011001001110111111110100110111111110111101111100101001000111100101000000011001110010010011001000110100101100110010010100011000110101110110100101001000000101001101011101000111001010000001110011001110110110001110101110101101011100110110010110100011011000101000000100101110110001011110000101100011100010000001100110001001011101101101110011110101000100111000010110110100001111101010101011110100101111101110000111100001110111011001110101011100111100011001100011010101011010000111110001110101100010101001000010101011011101111000000010010001100110111000110001101000111100000101010001100101000010010000010011101111110110010110100111011110001000011010010001110110100100100101001111100110110110110101001111000000001101011100111111011000110011101001010101011101011010001011000110001110111001110001010101001111011100101001111010100111101100000110001000100111100101010110101110111111100000001111011001100001111001111110111011001110111111010010111111110000100011111000000011010011110010001111000001101001111101001101001111000111111110111010010000010010111101000101111100101101110111010101001000110001011111100011001110101100001100010111011010011110011011100100001010110010111010101000111110010100111111001010110110111110110010010011001101110010111111100010010000000010101010101111110100001110110101110000001011010000111100011110001110011100000101111110100001100001100000101010011001010011111010011110010001111001000100001111111110001010101010110000111101011000011100100000001100100100000010000111110110110010101101001110000110010011100111100111110011001011010011000110100001100010001101000011011011011001111011101011011001110110010101001111011100101011101011011101110100101000100001011111100011110011110111010001010001101111000101111110001000011011111110000011101101101011001010000110101011000111101001101010100000001100101010011001011101111101110000110101010110101111110010100110110000100001110011110010010110100011001101000111010010110001100011011101010000010110110101001111000110010001110010100110000010111001100000111010100000100110100100110111001011110101000111001101110011001110111010010110110101011110010010110011110010100110000110001111101000000101000000011000011100111111100011010000010100111101000100110111100011111010011010111101001011101110000000100100100110111001101101011011001101001101110010001000001010010010010101111111110111100111110101001000001111111111000001110101000100011001000110101010000000110001000000111001000010111011000001000010111101000100010000110101111110110001110001111010010010110100100011001000100001000111010100101011110110001011001101011001010110100110000100100111101000111000010000010001101001110011000001111010111111110101100001010000110101101100111110101111111110111011111100111010110111100011111100101011101011100010101110001010111111101001011111000001100010101000101010111100000011110100001100101010111101000101010001110010011101111110010110000101000011111110110001111011000011000100001011011011110101111101001000010111011101011100100001011001011110000011010010101101000001000001011001100011100000111001111011100011111101110000111001110101001000000001000101011111101101001100010101000001100110011100010111010001100111000011111101111101100100100100111110110100110001101011100000111101010101010100110010001000001101100110010100000100101000001011000000000101001111111001101001100101100001010101010011001011001100011001001100110111000000101001110000101011011001010111011110001111101010111010010010111111101111001110111100001010111101110101000110001011110110000000001010000010100010010011010111010111110011110011011101010110110100010000111101011111001001100000000001110011101001111110101010110000011011110000001010011110101011011111101111010110110111000001101000110100001110001000010111111000011101010110111101110000101111001111100100111010100000100100001100010110100001001001100010101000100110011010001011100010011011010101011100011000000100000111100111111001001010111010010001000011111011010000010010100010110010011000110101110101100101110010101111111000110000010011100000110110001000000001001110101111100110001000101100001110010011010110111100111010001011100110110110111000011010011010010010001111101001100010111101011111110110000010101110100000101000011110101001000011011000111111100000100110011110110110001011011111011110111000100010011100111111000101101100100010111110110111000101000101110101001111000100010100011011010000000011101110111011011000111011001110001101110110010011110111001000111111101000110001001001000111001001111000111110001111011100111000011110101000000001111101101011011111101001001011111110010111011000001000010001110101010101011101000011010001010010010110111011010111101000011100000011000110010011101000001110101110011100001011001111111000000001000100110000000101000000000111001110111011101111001100011010001001000111111011101100010000101001010100001000000011001011000101001001011000101000011010110111110011000111110000000110011010000010001100000010000100010110011101011100100011001111101001101100100100000111111110100100010010101101110001110011001101110010101110111100100000001010000110000111101011000111111011100010001000011101101100000000001010000010010101000110110011101010001101000001011001100010011000000000010010010111001100000000100111000110100001111111100011011011001011011110010010111010110011101111100111100101011000000011010010100001110101101110101001100011101011110001100011101110011111011111010110110010001100010110010010000001001000010110011101110100110110001010101011011101000010001010110010010100011110011011001101001001100010011101110001110111000101011000101000101111110110101000010110101011110111011100111010100111101010001101110001001101001110111101011101111101001001110001101101100001010010100101001011000010100111010001100001101000111100000111111110010101111010100000111111000100011000101110110001110110001011011100110101010010111000110000011110101110101100000101001101100100001001111111011101011010100011101111100010011111110101010010001111011111001110100000010100101101100111011110000001000110010110100101100110101010000101001110100110000001000110000110010000111000000100000011100010100101110100010111101111111000111110001101000010111100010001100001101010111010011011111001111100101000111101011100101110010111011101100010111000011101100011110101010110011101001000011010100110011000110011010101111111100111100100110011000010111000000001101001110110101001001111000011101100100010001101100111101101110101110111111001001110100011011101111001100000001001101010111010111111101100111011101100010111110100111011010110011001001101111001101100000011001001111100110100100000100001010110100111010011001110011111011010001011100001110000110101111101110001011000001111101001010001011100001101100011100100111101001110000110110110011110000001010100101011011010100011010101001111011000011110011000100001111001011100001111110110100000001010011111001111011000101100011001000001000010001101000010101010000000111001000001000111010011111110010011110000101010010100110011010010010001010010011000111110111011001110001110010001110110100110010001011011010101110011111100001000010010011000100011101110011011011000001001110100110010110111110110011100110001001101001001100101100110110000101011011110000101000100110101011011001001110000101010101110101001100110000010100001010000010101001100101000110010011010101100000111011101111001101100001100001011011111011000101110000000000100100110101100010100110011011001000010110111011100011001110011010001111010000001000111001000100110010100011111011000101011011011000010001000111000010101100000111110010001010110110001110010111000110010001110000011100100001011101001011011111101111011101101010110001000100010100111000011000000110110001100101110101101010101100000101000001100000011100111110101111000110001101101101100101000010011111000100101101101010011101100101010111011000011100100111001100101100001010010010011010100001010110100100100010001101001100100111111000011101101100011100110011101010111110110111100101011000101101111111110000011101110000100010011010111100100110000001111011011001101101100101101001001000000010010110011010111000111001001010000000101001000100100011001111101011001011110001001001001000010110010000101010111000110011011010110001000111011111111001110011101000101001010001101010000101100111001111101101001000001011011101101000010111111110011100100100011000111101110000011111110011011111010111010000100101110100111001101010011110100011100101011101101100110110000100111000001000000001000001111101000011001000100011010110010001110011110011000101000010011101010011100111100100100001100011100110000101110000001100001001111111111101100000110001100111111000110010111111110010101111111101110100110001110010001101011110001011001000100110010000001010001101100101011000010111011001011010110011110101001111111111101100001101000010100000100001100011000000111111000001101110010011011110000011110001101011010100111001001110010110111010001111110011100011010001011010010110000101000100101010100010101101111101101000011011000101010111001101001000011000111000000111111111101010010011110111110000010001100000000110111011000011100000100110000111000110010100000001100100100001110000011101001010101101101010101101010000011101001000111000001001101010000010100100111101111010000100100000001000000000101110011010001001100100101100010110100010110000000000000100010011011101100100101000101100101000111010001001110010010111101111111000111010010011111000010001101010111110100110001111010011011110000111100110011110101110101000011101110101001110111110111000011111010101011011000010110111001000001001001000100000001111001010111010010110101110011001111111000110110101011100010100110000101001000011010010001000011100101110001111000010100100000100101001110000100010110100000001101011000001101010110000111100110001111011111101000111001000100111111000100001101110001110010100111111100011111110011110110011011100011101001100101001001011110111100101100100101000110110000011101101110011110001001010110011001010010110110001111001010111110111100000011111101000100010000010001001001000001101100100000000100010000000111010100101100111001010010010111001101011100001011011101111101110011101111010001001000110100110110001010100111011100011000000100000010001010011001010100111010000101011100011011100011000010101100111000000011001101101010011101001100110001110101011110110001001011100011000001010000111011100101110000111000101001000010011011100011011010111110101111110010011110100111110111010010101101000100100000100000110110101111001111010101100010100100101010111011101110100100100111101010011110100100001101001010101111011001101101001001010100100010100111110100001100101010111001010111010000011000000011111011111011010101000111101110110011100001001001010111010111111110100011010011110010001100100000001001101111111010111001011000010100111011001001001101001010110011100010001010100011011001110111110110001100100110000000101100100111100011001111101110000110111001011110000110111001100000010010101011000111101000010011001110000110100111111110101111110110001100011111111001010110011010011011011100101001100110101111100010000001010010000111001111111001110110111011010100100011001110000001101101101111000001011001101111000101100100011011101010101101001000000110100100011010101100011111010110011101000110001010100000110000110101000110101000011011101011011111011010101001001010001011001011101001111111111011000000010010000111101000001010001011110100110010100110010011100000011101000101010101011000000001000001100000001000110000001111100010010011001110100100000101011011011111101101101000011010001100011001100111000011101110000000111011010000001011101111011001111010100001000001110000100101000001101000101001010011100111000100001001101101011000111110000000011110101110011101110000011010001100010100001111001001110010110000011011101100101100101000000111100110100100111111100100111110111011111011110011010101111110011010001000101000100110101010101000001100111010101101011010110011000101010111100100000011110101101110011001010010101001000111101011110010001001010100011010000100011000001010111011111001011001101110110111001000000011110100101111111001101001110110000011001000000110001110110011001011110001100101110000111101001001011110000111101100101001011100111011001101000011001001011101000000000101100111101001001001111010011000110111110100000100001010001110101011011111110000111010010100011010101001101100100101010000111011000001110110001111011001101100000"
   }
]