[
   {
      "weights": [
         [
            2.0,
            -1.835462379984484,
            -0.6599233811919073,
            2.0,
            0.2920785678630132,
            -0.0703619650694582,
            0.0592983784419715,
            1.607942508010404,
            1.7731309617227387,
            1.2177475361415946,
            2.0,
            -0.351007914060445,
            0.9718768825957481
         ],
         [
            0.06138843042011119,
            -2.0,
            2.0,
            2.0,
            0.14329553572851805,
            0.2898079035578511,
            2.0,
            0.631580405398064,
            0.9087795675400168,
            -2.0,
            -2.0,
            0.21760954200333626,
            -0.09569742526103012
         ],
         [
            -1.264012256854706,
            -1.159250781171136,
            -1.4150059286848609,
            0.10172708276346827,
            -0.37780840584756814,
            -0.839111991920353,
            -0.4504034053378931,
            -2.0,
            0.6326572776504944,
            2.0,
            2.0,
            2.0,
            -0.23514444363078468
         ],
         [
            -0.2276607545369503,
            -0.5652858138804524,
            1.1352595290369398,
            0.5656608826436917,
            -2.0,
            -0.46444458087664475,
            -2.0,
            -1.0799108974749803,
            -0.6621117480776942,
            1.321122033149396,
            -0.36013905853858413,
            -0.708114553365611,
            -2.0
         ],
         [
            0.16196834811692945,
            -1.6185121025641578,
            -1.060872785193294,
            1.4746705929577748,
            2.0,
            2.0,
            -0.1864140088558779,
            0.8675388057778713,
            2.0,
            -0.08050130841252304,
            -1.9212995595951121,
            -1.7835076079707726,
            -0.016052914417644365
         ],
         [
            0.060402236245123864,
            -1.5798954069750182,
            2.0,
            -0.25660060039593496,
            -1.1215318032691681,
            -0.16452485179032503,
            0.07917280164762125,
            -0.9916571888050895,
            1.4869027297271817,
            -1.1706829183659635,
            -0.5363709273293213,
            0.19034076192528193,
            2.0
         ],
         [
            -2.0,
            -1.3078927147752402,
            0.8410555314295246,
            -2.0,
            1.6661077687780192,
            1.3580600481536569,
            1.332840398112977,
            -0.40012146370051904,
            0.08925293557151362,
            0.20893254419068277,
            0.22912376922969652,
            -0.32048466769542644,
            -0.8036293804675558
         ],
         [
            -2.0,
            2.0,
            -0.3155285119052293,
            0.8454257568115051,
            -1.7741659058376458,
            1.4840207012720523,
            0.6282398456792926,
            -2.0,
            -2.0,
            -2.0,
            -0.5754227705871701,
            -0.45556086387332173,
            -1.908169178430117
         ],
         [
            -2.0,
            1.4364820570164483,
            -0.7458728578267322,
            0.2248317022469548,
            0.015274978012974717,
            -0.13582810485474564,
            0.8792626572204162,
            -0.5095666168798694,
            -0.4303980099375735,
            -0.38671663441713355,
            -0.1609503346833136,
            -0.2776914067851697,
            -0.21746634891834815
         ],
         [
            0.33558536128594446,
            2.0,
            1.1341420768543689,
            1.3848610181855194,
            -0.679521958613178,
            0.5524305833234417,
            -0.5877012850248825,
            -0.29856660040801114,
            -0.26919007291554226,
            -1.1060314827428837,
            0.6955975299764577,
            1.0180326759997362,
            -2.0
         ],
         [
            -0.03532309911715119,
            -0.6336978815349241,
            1.0156419253331768,
            -1.3462115484387072,
            -0.2619798841002347,
            -0.29690078205137194,
            -1.421910547009354,
            -0.5163507357619432,
            1.093102699925333,
            -0.7885647473766519,
            -1.241221658526983,
            -0.41337160254922467,
            0.10638655514832523
         ],
         [
            -2.0,
            0.3793119308853206,
            1.5552913458213171,
            0.02764073058233646,
            -0.009356557331667306,
            1.1296660150397182,
            -0.16729424900586315,
            0.7702539462265394,
            -2.0,
            0.15025939940330105,
            -0.5095914074592076,
            1.4963390691918679,
            -0.14274901111795288
         ],
         [
            -1.6084334212351463,
            -0.90305458628844,
            0.6419534228656353,
            1.3451329069432287,
            -0.8968905822985063,
            -2.0,
            2.0,
            1.94037620919516,
            1.7714731128804349,
            1.6791968629282938,
            -0.1567300781193445,
            2.0,
            1.4446350576996283
         ],
         [
            -2.0,
            -0.31412986806328386,
            -0.5060984819934394,
            0.23607879076941904,
            -0.5959608698593275,
            -0.4027838399639664,
            -2.0,
            -1.230017268710075,
            -0.9724846189653628,
            0.4147602809574509,
            1.4992990279957472,
            0.03476665356979906,
            0.03706739337123578
         ],
         [
            -0.4304717407860646,
            -0.23312149288613787,
            0.6306692567450067,
            -0.7957763723287339,
            1.5211725077139082,
            0.3594787457919106,
            -0.13199725698065776,
            -1.7117467086545992,
            1.0388053449133277,
            0.2158803363543121,
            0.22106415548301508,
            0.8973135278926978,
            1.1983287039480148
         ]
      ],
      "biases": [
         [
            -0.524442450666159,
            0.7746902302738525,
            -1.2350441908067826,
            0.40051325000738924,
            1.5502300164692435,
            0.8874158783049337,
            0.1756637061435917,
            1.2070884479311363,
            -0.16161060965210436,
            -0.9597079270947251,
            -0.1967433508808227,
            0.37943360527015824,
            -1.2279026102109314
         ]
      ]
   },
   {
      "weights": [
         [
            -0.45014054180252216,
            2.0,
            -0.8349044990401069,
            0.4425136406688652,
            0.9715951164725537,
            2.0,
            -2.0,
            0.3106408737977777,
            -1.1649318735186056,
            -1.9442970232717371,
            -0.3834162391315187,
            -2.0,
            -1.1321087018170355
         ],
         [
            -1.4650352201765589,
            2.0,
            2.0,
            0.5672290100998709,
            2.0,
            2.0,
            0.27555806215211953,
            -1.835185165117115,
            -2.0,
            -1.3486298518752862,
            -2.0,
            -0.5899440657327701,
            -1.4938431989224508
         ],
         [
            2.0,
            2.0,
            0.48214567050115686,
            0.36184555183170664,
            0.01532673514159121,
            -0.03170708066551457,
            -2.0,
            0.7101921790097047,
            -2.0,
            -0.8619894025877302,
            2.0,
            -0.3565563512308341,
            2.0
         ],
         [
            0.32771305830140157,
            -0.06806479530019229,
            2.0,
            1.123475786958462,
            -0.12486731608874933,
            -2.0,
            -0.17702265086501476,
            0.4459682908881709,
            2.0,
            0.09274373005485878,
            -2.0,
            -0.00854369043676385,
            2.0
         ],
         [
            0.3712203056108033,
            -0.2566034537736878,
            -0.3179818415415943,
            2.0,
            -1.6863259400506811,
            0.5908272990926682,
            -0.8085820798441492,
            -2.0,
            -1.0387126031747587,
            2.0,
            -0.9867061094048954,
            0.23928612165718996,
            0.32755022849079996
         ],
         [
            -0.8808977980685726,
            0.2090481169684706,
            -2.0,
            -0.49042722675575984,
            -0.0830370335204195,
            2.0,
            -1.0871118445957628,
            1.4411349468664143,
            -0.7376134808160151,
            -0.19492226953987885,
            -2.0,
            0.1869607471026254,
            2.0
         ],
         [
            -0.32405863819039016,
            -0.9470699245276011,
            0.7951161328596076,
            -1.753785658810067,
            1.3125849069443958,
            -2.0,
            2.0,
            -2.0,
            -0.5117944532897662,
            0.25703053084386535,
            2.0,
            -0.39197353239005966,
            0.4468481442766834
         ],
         [
            -2.0,
            0.6588990314196645,
            -0.786566937489515,
            0.23762844941873498,
            1.836112022489347,
            0.16694373571062973,
            2.0,
            2.0,
            0.22453731185577602,
            -2.0,
            -0.22875933618748487,
            -2.0,
            1.0028638754088057
         ],
         [
            -0.10132416413175713,
            -0.2783285169938881,
            0.18199235039861902,
            -0.5339278487754647,
            0.18838224957118235,
            1.0985946969757912,
            1.4152427630479394,
            -0.5027721239115867,
            -1.5263230133236565,
            1.0071577819888582,
            2.0,
            0.2980605724694958,
            -0.9550422341935598
         ],
         [
            -0.4678119169691151,
            -2.0,
            1.8196159822906361,
            -0.5218086759076069,
            -0.6580342903193307,
            -0.11196761082197611,
            -1.1293061441821808,
            0.1897003904287208,
            0.0011090352472187537,
            0.551632792929244,
            0.3397975899617766,
            -1.3426113621493716,
            -0.18453532541368597
         ],
         [
            0.6460106762686568,
            2.0,
            -2.0,
            -0.03093419261522734,
            -2.0,
            0.3602841059234677,
            -2.0,
            2.0,
            0.29934984858441305,
            0.2414939331312263,
            -2.0,
            0.07652907141232666,
            -1.9300157436420833
         ],
         [
            -0.4198086713359167,
            -1.377296185789743,
            0.20455479499826018,
            -0.18746257356711998,
            0.8147666269515632,
            0.4767719932923879,
            0.5980025910057297,
            -0.4260246426053821,
            2.0,
            -0.2373274430176146,
            0.45011069745637455,
            2.0,
            1.1680113266066232
         ],
         [
            -0.12125830189612775,
            -0.6608898974768868,
            -0.2988051086330281,
            -2.0,
            -0.20941709997239316,
            0.3603607240896971,
            -2.0,
            -0.37763868097622577,
            0.5767338144161624,
            1.263431289817865,
            1.7883402044048338,
            2.0,
            -0.2614950550541015
         ]
      ],
      "biases": [
         [
            0.23823007675795083,
            -5.543654625621643,
            2.111619352557304,
            -5.428344904126447,
            -6.430778515425465,
            -1.134796399141345,
            -0.13350441666912968,
            0.5673981995706723,
            -0.7699911124019042,
            1.173681360762371,
            1.3958229353293474,
            8.612946559862866,
            -0.8507521661324701
         ]
      ]
   },
   {
      "weights": [
         [
            2.0,
            0.7823477892113578,
            -2.0
         ],
         [
            2.0,
            0.46990234230760897,
            -1.6872954467042631
         ],
         [
            -0.002614174820548659,
            -0.7421282179290662,
            0.09677450385868269
         ],
         [
            0.07872395761301736,
            2.0,
            -0.8863272025877369
         ],
         [
            -2.0,
            0.03456608525382476,
            0.013194769025145615
         ],
         [
            -2.0,
            -1.531316091979133,
            -1.0640651137794073
         ],
         [
            1.5556677730156085,
            0.9841205689832238,
            0.19517134458124968
         ],
         [
            0.4064129374753655,
            0.36192807882099254,
            0.5863784544935785
         ],
         [
            0.10885443689957001,
            0.2194838696662449,
            0.007992651916650844
         ],
         [
            0.3757210545458439,
            -0.05295023286656508,
            0.06848819913156817
         ],
         [
            2.0,
            0.9865550670701264,
            -0.4364388145966229
         ],
         [
            -2.0,
            1.6429014234787895,
            0.29273330901286676
         ],
         [
            -0.5475978421050184,
            2.0,
            -0.6334634255351508
         ]
      ],
      "biases": [
         [
            0.09483185307179584,
            1.791999915595809,
            0.09837167544041135
         ]
      ]
   },
   {
      "genes": "011111010111001000011011110000101111000000000001001110110011011001011001110001011011001101110001011111010011010100110100001001001010001001010001101011100110101111111000010101010000011100001110010110100100000000110000011000011001001110110001010100100100010011101000111001011110001111101110100010011000011111111010101111101110011111001010010101111010011001010101001100001011110101100010101101100011100011000110001000000100001111110010011101111111111110000010000110101101101111111011111111000110000110000110101001000110001010101111100100011000101110111011110111000101110111101001010000011010001000010001010001011010010000000111001011110101111111000110011100010100100001011100001100101000101110000111010111010101110001101110011101011110011011011111001000000111100000010000100101011100110111110111101111101100011000111011000010100000101010100011001100010011110001110101101110111111001010110101001101000001101110000010000011101000010111110011111101100100011011010001110101001000010110101110001110100000010011101010000111001010011000000000010100010111000110001101011000000010010100010100110011011111110000111010100010000010010111010111110110011101001001000010100011111110100000101011011010111000001011010110001100011011010011100100111111011100000101110000111110110111000000100000011111000101100101000111100110001000000000111010110100110001100100011110010010001000010100001111001101111001001010011100100110110010010001100100100111010111110010110111000011011101101110010110101001110100001101100010110011011011110001110100101010010110011100011110110111000111010110011010001010000001001001100000110100101100101001111111111011011111010111010001100010011110001111100011100001010100000101000111110111001100001100111110010001011001101100011001101001011000101010101100111011000110111100010010110010110010101000001011111110000000101100100000100110000111011110111000110101000110111001110110010011010000111000111110101000000101101111011100111111111011110001110000010011010110010000100011001011100100011111110011001011011010100001101000001101011111000011000101100100101101101110111111100001110011000110100101011111110000010110110110110001110001111000011010110111010101100011011100111101000111100010001001101011111010010010000111100000001010011111010011011010001101011001011101100000101100111001011011111100011010001111101001011000100000111010110000010100011100100010100010110111010010110111001001101011110100000000111111001000001100110011110100011000011110110101100001111100100101110011101000011011100011001111100111101010110011000010101011101001001100000100111001111110000111001000110010011011001010011001110111010101111100000101001100110110000011011010011000001010111011001001011111001111110111101001010011011010010101110001100011010101111101110011011110100011111111111011100101010101011011100000110010010000111000111001100001100010111110000000011001001111000010101111011111001001100011010000110011011010000110110110000001100000111000001010110110001000000001010011101100011010000101110100111100100001110100001111111010110000010000100110001110101000001101110110001110000011000000000100010101011011011011100101010011000010110001010000110111010001011001110100001001110000111000001011111100101011101100000000011000000101000111110111111110110011001000101101100100010111000100001010101101011011011111011001011010111100111100011011000011101100011000111101011010010010000000011000100011011000001111110110000000001111010000001001101000001010110110001101110101111001010010111110111011111001011111100101110111101011100010110100001110011101001000100001110000111110000101011000001100111011001100000010011110101001111010010010111011011101010101110010111001111100011001001111100101000101010100010101110100011010010100010011011000011110000011100000010100111111000111101111001100001000011101110111011100010101011110011000111110100101110100100011010100001100001101001110100011001010011111000101010110011011111100110001111000111000101011101101110111100111110001110100110000000101110001100001011011001010111111111110010001000000110001001010000111001101111001101110101111111110101111000010110101100101111000110001010001110000111111110110010001000010010101000001100101000000110110101100000010101000100100110001001111101010000100011011011001010111000110001110011110111100000000011010011010010011110011100010001101011011000111000010111100101111110111100110011100111010110010111010101111100011011010101011000000010010100011100100000010010011001111001011111011000000111000111110011100001000110100100111010101110111010110001001011110101011011001011001011011111011010111100000001111101100000101011010111100111011101010011111011010011101111001000100101001110001000001011100111100001010110001010100001000001010001110001110100000110010111010110010111010110000001011110101001011010000111010110011000111110100000001011000101011000011011100100111101111111010100000111000001111000100100011001010001100111110100101001110011101000011110000111110111001010011010110101011101000010111001000000101101101110011000111011100100100000010000110100001100111001000010110100100100101011100100101111010110010100011010001000001010101100011111010101011001001110111111110100110111111111111101111100101001000111100101000000011001110010010011001000110100101100110010010100011000110101110110100101001000000101001101011101000111001010000001110011001110110110001110101110101101011100110110010110100011011000101000000100101110110001011110000101100011100010000001100110001001011101101101110011110101000100111000010110110100001111101010101011110100101111101110000111100001010111011001110101011100111100011001100011110101011010000111110001110101100010101001000010101011011101111000000010010001100110111000110001101000111100000101010001100101000010010000010011101111110110010110100111011110001000011010010001110110100100100101001111100110110110110101001111000000001101011100111111011000110011101001010101011101011010001011000110001110111001110001010101001111011100100001111010100111101100000110001000100111100101010110101110111111100000001111011001100001111001111110111011001110111111010010111111110000100011111000000011010011110010001111000001101001111001001101001111000111111110111010010000010010111101000101111100101101110110010101001000110001011101100011001110101100001100010111011010011110011011100100001010110010111010101000111111010100111111001010110110111110110000010011001101110010111111100010010001000010101010101111110100001110110101110000001011010000111100011110001110011100000101111110100001100001100000101010011001010011111010011110010001111001000100001111111110001010101010110000111101011000011100100000001100100100000010000111110110110010101101001110000110010011100111100111110011001011010011000110100001100010001101000011011011011001111011101011011001110110010101001111011100101011101011011101110100101000100001011111100011110011110111010001010001101111000101111110001000011011111110000011101101101011001010000110101011000111101001101010100000001100101010011001011101111101110000110101010110101111110010100110110000100001110011110010010110100011001101000111010010110001100011011101010000010110110100001111000110010001110010100100000010111001100000111000100000100110100100110111001011110101000111001101110011001110111010010110110101011110010010110011110010100110000110001111101000000101000000011000011100111111100011010000010100111101000100110111100011111010011010111101001011101110000000100100100110111001101101011011001101001101110010001000001010010010010101111111110111100111110101001000001111111111000001110101000100011001000110101010000000110001000000111001000010111011000001000010111101000100010000110101111110110001110001111010010010110100100011001000100001000111010100101011110110001011001101011001010110100110000100100111101000111000010000010001101001110011000001111010111111110101100001010001110101101100111110101111111110111011111100111010110111100011111100101011101011100010101110001010111111101001011111000001100010101000101010111100000011110100001100101010111101000101010001110010011101111110010110000101000011111110110001111011000010001100001011011011110101111101001000010111011101011100100001011001011110000011010010101101000001000001011001100011100000111001111011100011111101110000111001110101001000000001000101111111101101001100010101000001100110011100010111010001100111000011111101111101100100100101111110110100110001101011100001111101010101010100110010001000101101100110010100000100101000001011000000000101001111111001101001100101100001010101010011001011001100011001001100110111000000101001110000101011011001010111011110001111101010111010010010111111101111001110111100001010111101110101000110001011110110000000001010000010100010010011010111010111110011110011011101010110110100010000111101011111001001100000000001110011101001111110101010100000011011110000001010011110101011011111101111010110110111000001101000110100001110001000010111111000011101010110111101110000101111001111100100111010100000100100001100010110100001001001100010101000100110011010001011100010011011010101011100011000000100000111100111111001001010111010010001000011111011010000010010100010110010011000110101110101100101110010101111111000110000010011100000110110001000000001001110101111100110001000101100001110010011010110111100111010001011100110110110111000011010011010010010001111101001100010111101011111110110000010101110100000101000011110101001000011011000111111100000100110011110110110001011011111011110111000100010011100111111000101101100100010111110110111000101000101110101001111000100010100011011010000000011101110111011011000111011001110001101110110010011110111001000111111101000110001001001000111001001111000111110001111011100111000011111101000000001111101101011011111101001001011111110010111011000001000010001110101010101011101000011010001010010010110111011010111101000011100000011000110010011101000001110101110011100001011001111111000000001000100110000000101000000000111001110111011101111001100011010001001000111111011101100010000101001010100001000000011001011000101001001011000101000011010110111110011000111110000000110011010000010001100000010000100010110011101011100100011001111100001101100100100000111111110100100010010101101110001110011001101110010101110111100100000001000000110000111101011000111011011100010001000011101101100000000001010000010010101000110110011101010001101000001011001100010011000000000010010010111001100000000100111000110100001111111100011011011001011011110010010111010110011101111100111100101011000000011010010100001110101101110101001100011101011110001100011101110011111011111010110110010001100010110010010000001001000010110011101110100110110001010101011011101000010001010110010010100011110011011001101001001100010011101110001110111000101011000101000101111110110101000010110101011110111011100111010100111101010001101111001001101001110111101011101111101001001110001101101100001010010100101001011000010100111010001100001101000111100000111111110010101111010100000111111000100011000101110110001110110001011011100110101010010111000110000011110101110101100000101001101100100001001111111011101011010100011101111100010011111110101010010001111011111001110100000010100101101100110011110000001000110010110100101100110101010000101001110100110000001000110000110010000111000000100000011100010100101110100010111101111111000111110001101000010111100010001100001101010111010011011111001111100101000111101011100101110010111011101100010111000011101100011110101010110011101001000011010100110011000110011010101111111100111100100110011000010111000000001101001110110101001001111000011101100100010001101100111101101110101110111111001001110100011011101111001100000001001101010111010111111101100111011101100010111110000111011010110011001001101111001101100000011001001111100110100100000100001010110100111010011001110011111011010001011100001110000110101111101110001011000001111101001010001011100001101101011100100111101011110000110111110011110000001010100111011011010100011010101001111011000011110011000100001111001011100001111110110100000001010011111001111011000101100011001000001000010001101000010101010000000111001000001000111010011111110010011110000101010010100110011010010010001010010011000111110111011001110001110010001110100100110010001011011010101110011111100001000010010011000100011101110011011011000001001110100110010110111110110011100110001001101001001100101100110110000101011011110000101000100110101011011001001100000101010101110101001100110000010100001010000010101001100101000110010011010101100000111011101111001101100001100001011011110011000101110000000000100100110001100010100110011011001000010110111011100011001110011010001111010000001000111001000100110010100011111011000101011011011100010001000111000010101100000111110010001010110110001110010111000110010001110000011100100001011101001011011111101111011101101010110001000100010100111000011000000110110001100101110101101010101100000101000001100000011100111110101111000110001101101101100101000010011111000100101101101010011101100101010101011000011100100111001100101100001010010010011010100001010110100100100010001101001100100111111000011101101100011100110011101010111110110111100111011000101101011111110000011001110000100010011010111100100110000001111011011001101101101001101001001000000010010110001010111000111001001010000000101001000110100011001111101011001011110001001001001000010110010000101000111000110011011010110001000111011111111001110011101000101001010001101010000101100111001111101101001000001011011101101000010111111110011100100100011000111101110000011111110011011111010111010000100101110100111001111010011110100011100101011101101100110110000100111000001000000001000001111101000011001000100011010110010001110011110011000101000010011101010011100111100100100001100011100110000101110000001100001001111111111101100000110001100111111000111010111111110010101111111101110100110001110010001100011110001011001000100110010000001010001101100101011000010111011001011010110011110101001111111111101000001101000010100000100001100011000000111111010001101110010011011110000011110001101011010100111001001110010110111010001111110011100010010001011010010110000101000100101010100010101101111101101000011011010101010111001101001000011000111000000111111111101010010011110111110000010001100000000110111011000011100000100110000111000110010100000001100100100001110000011101001010101101101010101101010000011101001000111000001001101010000010100100111101111010000100100000001000000000101110001010001001100100101100010110100010110000000000000100010011011101100100101000101100101000111010001001110010010111101111111000111010010011111000010001101010111110100110001111010010011110000111100110011110101110101000111101110101001110111110111000011111010101011011000010110111001000001001001000100000001111001010111010010110101110011001111111000110110101011100010100110000101001000011010010001000011100101110001111000010100100000100101001110000100010110100000001101011000001101010110000111100110001111011111111000111001000100111111000100001101110001110010100111111100011111110011110110011011100011101001100101001001011110111100101100100101000110110000011101101110011110001001010110011001010010110010001111001010111110111100000011111101000100010000010001001001000001101100100000000100010000000111010100101100111001010010010111001101011100001011011101111101110011101111010001001000110100110110001010100111011100011000000100000010001010011001010100111010000101011100011011100010000010101100111000000011001101101010011101001100110001110101011110110001001011100011000001010000111011100101110000111000100001000010011011100011011010111110101111110010011110100111110111010010101101000100100000100000110110101111001111010101100010100110101010111011101110100100100111101010011110100100001101001010101111011001101101001001010100100010100111110100001100101010111001010111010000011000000011111011111011010101000111101110110011100001001001010111010111111110100011000011110010001110100000001001101111111010111001011000010000111011001001001101001010110011100010001010100011011001110111110110001100100110000000101100100111100011001111101110000110111001011110000110111001100000010010101011000111101000010011001110000110100111111110101111110110001100011111111001010110011010010011011100101001100110101111100010000001010010000011001111111001110110111011010100100011001110000001101101101111100001011001101111000101100100011011101010101101001000000110100100011010101100011111010110011101000110001010100000110000110101000110101000011011101010011111011010101001001010001011001011101001111011111011000100010010000111101000001010001011110100110010000110010011100000011101000101010101011000000001000001100000001000110000001111110010010011001110100100000101011011011111101101101000011010001100011001100111000011101110000000111011010000001011101111011001111010100001000001110000100101000001101000101001010011100111000100001001101101011000111110000000011110001110011101110000011010001100010100001111001001110010110000011011101100101100101000000111100100100100111111100100111110111011111111110011010101111010011010001000101000100110101010101000001100111010101101011010110011000101010111100100000011110101101110011001010010101001000111101011110010001000010100011010000100011000001010111011111001011001101110110111001000000011110100101111111001101001110110000011001000000110001110110011001011110001100101110000111101001001011110000111101100101001011100111011001101000011001001011101000000000101100111101001001001111010011000110111110100000100001010001110101111011111110000111010010100011010101001101100100101010000111010000001110110001111011001101101000"
   }
]