[
   {
      "weights": [
         [
            -0.17576454126683866,
            -0.10158519620376297,
            -0.07284374851241826,
            0.30914302187648635,
            0.11132636555731902,
            -0.291689389414383,
            -0.021546016622387497,
            -0.07109239641242526,
            -0.056718527881221864,
            -0.2562435400870864,
            0.13874900629300493,
            -0.15560085100715979,
            -0.1412584243216037
         ],
         [
            -0.07490359425419851,
            -0.08264675527201712,
            -0.010754952276809629,
            0.12982879852965704,
            0.2363928712577506,
            0.023427388750309613,
            0.2527649824086001,
            0.004376901001338689,
            0.6257176497680113,
            -0.012432799384690843,
            0.038667791492282444,
            -0.010779824229076647,
            0.15719116407453249
         ],
         [
            -0.22071142295761964,
            -0.40465790451312766,
            -0.03254581134218064,
            0.01980201511513939,
            -0.10419841015066678,
            -0.09408547984783312,
            -0.32166005445706985,
            0.025993639247363785,
            0.07245147876244101,
            0.12284488218504683,
            -0.021437230397319047,
            0.18787334167695782,
            -0.16655977506799652
         ],
         [
            -0.06254571615797491,
            -0.18493186540526654,
            0.10764905457374734,
            0.0404261762417369,
            0.0592303930099854,
            -0.060793629631635454,
            -0.06566911381814375,
            0.13734409364473915,
            -0.22552769872907416,
            0.046015882368516586,
            0.16797597381152074,
            -0.05348381248518589,
            0.039348773588344675
         ],
         [
            0.05121755563313088,
            -0.19984440820932414,
            0.2039657345234856,
            -0.2830822267861968,
            -0.14444165906659379,
            0.0167804133169159,
            -0.10292321235100702,
            -0.019549654211007173,
            -0.11043309539262607,
            -0.21234201893806112,
            -0.4068837114345318,
            -0.0864457263719904,
            -0.19026530038359374
         ],
         [
            0.06138453942425166,
            -0.18508131704167297,
            -0.16893988307077135,
            -0.17092345675990578,
            0.002406200583507453,
            -0.14941793654211408,
            0.0815656637631288,
            -0.07950679898646276,
            0.10864157222084678,
            -0.09107757882769332,
            -0.013096191471377545,
            0.06958842451300756,
            0.27440679034152327
         ],
         [
            -0.23409752990905514,
            0.15681352511209296,
            0.027316994551216715,
            -0.20959405514361906,
            0.010833513271029922,
            0.04280747841972714,
            -0.02642504214236526,
            -0.08213032718313094,
            -0.10915413351064218,
            -0.09475632660955682,
            0.055867144226001905,
            -0.12730571165603807,
            0.12111137919277588
         ],
         [
            0.07126747123126842,
            0.0683507055806903,
            0.0055832168663741966,
            0.014089517214932885,
            -0.10920136579696538,
            -0.15971373186632082,
            0.07068235663415798,
            -0.16989534491237404,
            0.09143127486727806,
            -0.3536445689971939,
            0.04690462361340134,
            0.05247687029830893,
            -0.01416039935169278
         ],
         [
            0.0029956993653450954,
            0.04247884281422494,
            -0.24847465825605983,
            -0.0835134189188422,
            -0.001099493021991943,
            -0.08750923594899455,
            0.5094042679606182,
            0.10996432994839235,
            -0.20780510916408254,
            -0.050506001301789366,
            -0.121109636215517,
            0.09041477414006363,
            0.004841521059742356
         ],
         [
            0.2376827149017891,
            0.022448798359934838,
            0.11194114593647742,
            -0.0020150317219270464,
            -0.12288481277307133,
            0.02819509161635555,
            0.08199918533203732,
            0.048933577287242874,
            -0.1142962719273877,
            -0.31442090926400296,
            0.14946279230334497,
            0.08829819463039537,
            0.06442547584245881
         ],
         [
            0.04930521941356679,
            -0.034740234425706444,
            0.17513753880840066,
            0.09831542234832945,
            -0.17394079038412857,
            -0.102670705293421,
            -0.10512299929288105,
            -0.2294392560395283,
            -0.07185646731247144,
            -0.009969068889018058,
            -0.09688245603884554,
            -0.08139662011524461,
            -0.2388877727051122
         ],
         [
            0.06795727124115772,
            -0.04364719303242419,
            0.24611250953630692,
            0.015815894631138035,
            0.1576876817060779,
            -0.05090031940141611,
            0.24736480027187263,
            0.3940061907343279,
            0.0015047204655488622,
            0.2745624243015847,
            0.35211653169326,
            0.11228603298908771,
            -0.01635092714709939
         ],
         [
            0.11124504366056329,
            0.08337504030828324,
            0.08077646068578365,
            0.48972586800542595,
            0.0453642060029621,
            -0.16197120295012762,
            0.12940598201175663,
            -0.017396458086611402,
            0.09088641567738179,
            0.14896683440130754,
            -0.1927477809690874,
            0.26573342644505793,
            -0.12289316067733426
         ],
         [
            -0.16824043761084148,
            -0.04254581268579387,
            -0.04701000994681957,
            0.02004932477808507,
            -0.031080269357115428,
            -0.02216438491586075,
            0.017051092833159684,
            -0.018021897126519526,
            0.0649666650390556,
            0.08337835426268302,
            -0.03415318726530826,
            0.017952491290004736,
            0.05810279304185089
         ],
         [
            -0.3615071404566798,
            0.142926817693657,
            0.09542149522392498,
            -0.19058173141462176,
            -0.30138495118687336,
            0.00274424633595835,
            0.19096483951733687,
            0.04648330781465142,
            0.3721505203389604,
            -0.02151787527410155,
            0.02429250361347933,
            -0.3020138602790032,
            0.0913615111840067
         ]
      ],
      "biases": [
         [
            0.12277875658030854,
            -0.02723009484456293,
            0.0688761101961531,
            0.13612388377497622,
            0.08836282401553992,
            -0.04813274725758903,
            0.08203539364174445,
            0.055831859100666535,
            0.013946903508512657,
            -0.28582299561805374,
            0.18554867379348694,
            0.12644247478164158,
            -0.34381414419318235
         ]
      ]
   },
   {
      "weights": [
         [
            -0.06112060833575107,
            0.06519805563812105,
            -0.08876293653087063,
            -0.10359746470192634,
            -0.1523694416547374,
            -0.21867330446150346,
            -0.3235649797434786,
            0.052534692872544406,
            -0.02004697218628671,
            -0.15912896074772442,
            0.017707626556845595,
            0.012747316512086451,
            -0.17570166890810396
         ],
         [
            0.015345246400017415,
            0.01335260569586291,
            -0.22754858667852926,
            -0.006072106728894914,
            0.06717940739197051,
            0.24214393117654376,
            0.011614167305719611,
            0.02278820826182158,
            0.0841876304828734,
            -0.17506354757850498,
            -0.036341854683407455,
            0.0731601207179688,
            -0.22735653936289846
         ],
         [
            0.010269450793010896,
            0.18647020213790053,
            0.009481365164018764,
            -0.0038623993785010663,
            -0.07576311928468642,
            0.07742566056320377,
            -0.024183600418692778,
            0.05652849698159576,
            -0.1346933699377257,
            -0.3464496163923388,
            -0.04184696373880286,
            -0.1609863554620105,
            0.19043465200029663
         ],
         [
            0.0695306996248507,
            0.03920069318611508,
            0.17790280493175073,
            0.033431590122810675,
            -0.07746024097772289,
            -0.16216767969181906,
            0.09666141137563672,
            -0.006148425832670321,
            0.22330651852983263,
            0.01897381887055105,
            -0.2346956291710879,
            0.00607692078369463,
            0.1426867625912417
         ],
         [
            0.03983635143487954,
            -0.017015127574161484,
            0.03604911433400095,
            -0.1013960034330286,
            0.005089154113265427,
            0.05415023554057315,
            -0.004632896851022163,
            -0.12504004946858327,
            -0.050048927175520445,
            0.05907781844165864,
            -0.05336986980832309,
            -0.014729283247826738,
            0.09079713548061327
         ],
         [
            -0.05909715774591276,
            0.24954370029934092,
            0.05419442590173422,
            -0.16380829062181568,
            -0.044868898649956704,
            0.2154989349408584,
            -0.03505879633524045,
            0.260152691918252,
            0.08855462391009439,
            0.0686086893461238,
            -0.024273023786387876,
            0.26918198449344616,
            0.3138825444823881
         ],
         [
            -0.1058285614324393,
            -0.02104712795009616,
            -0.1406341206485619,
            -0.25208659519795357,
            0.007394755140685414,
            -0.13949905423662873,
            0.01804829540503159,
            0.22539854409151378,
            -0.001327548670506315,
            -0.05856237595849616,
            0.12428428864716849,
            -0.028898201826773575,
            0.13354701789228057
         ],
         [
            -0.06606529919500811,
            0.03798260492823646,
            -0.048416535613148695,
            -0.013432273020145772,
            0.09314362266121115,
            0.05707731204492418,
            -0.016141704947076008,
            0.13963758117045022,
            0.04718992299635097,
            -0.13797666253268354,
            -0.10587863216443813,
            0.09979610548656699,
            0.04111169721859234
         ],
         [
            0.08922078695363471,
            0.03947855976112968,
            0.2088637557555571,
            -0.09604291729879362,
            0.26210791568887426,
            -0.08243447996674466,
            -0.138075749583407,
            0.07853805973291327,
            0.03594391490707083,
            -0.033952788906668904,
            0.08806350502930659,
            0.15140691156387287,
            -0.24990954119580622
         ],
         [
            -0.10711282321264953,
            0.13388834011119272,
            0.12280190441503187,
            -0.046870653968319194,
            -0.3787953802231204,
            0.15163742310516065,
            -0.041430100303605596,
            -0.07453045344259177,
            0.029117886672090212,
            -0.20416192603828476,
            -0.18335326944951139,
            -0.06213681635285996,
            -0.0869016258746825
         ],
         [
            0.17346204467726442,
            0.12296769670004426,
            -0.06198025564496066,
            -0.04459012137067131,
            0.10270804737692515,
            0.007608695439680995,
            0.02367322924922628,
            -0.04086510667600229,
            -0.04659034262935082,
            -0.15083105036302652,
            -0.3112695976768433,
            -0.1006768484797271,
            0.1296217018195536
         ],
         [
            -0.14923346135442753,
            -0.18795111888378138,
            0.25505922975400186,
            -0.08352329345583082,
            -0.14762870060424768,
            -0.09703183598413188,
            0.007276291286803518,
            -0.12471493316794144,
            0.09767897422364522,
            -0.2501931543400092,
            -0.07276537656655441,
            0.04589978571183444,
            0.10808353185150436
         ],
         [
            -0.1277797148102137,
            -0.15721941167181008,
            -0.2561148542436928,
            0.18201829587332843,
            -0.052511703410438745,
            0.1991671278771797,
            -0.17078670059418513,
            0.009477508264666298,
            -0.01767425588944648,
            0.21852763106700954,
            0.2469963474516831,
            -0.02085330738531035,
            0.10453544126340882
         ]
      ],
      "biases": [
         [
            0.16123893421169302,
            -0.10961060965210438,
            0.11466371217246239,
            0.08657522203923063,
            0.06246902905625592,
            -0.03663716995558941,
            -0.11485840734641024,
            0.008938046054770547,
            -0.19805308443374597,
            0.01678760800517992,
            -0.008070799341230235,
            -0.16052211349000195,
            -0.02589380701702533
         ]
      ]
   },
   {
      "weights": [
         [
            0.4290670930301913,
            0.03299385882278423,
            -0.3804816018302296
         ],
         [
            0.11655110906783202,
            0.396504118621454,
            0.15546112679101648
         ],
         [
            -0.028189390830908604,
            0.0825393009379442,
            -0.02239701499969061
         ],
         [
            0.06271510618814591,
            0.17710892848828283,
            0.026725839643915016
         ],
         [
            -0.3250551777324118,
            0.1261131341524803,
            0.09065599079746253
         ],
         [
            -0.045532396038319344,
            -0.003917928581682807,
            0.12439462664946159
         ],
         [
            0.14375738837296193,
            -0.04847230767478569,
            -0.08832521227154617
         ],
         [
            0.21732985111256017,
            0.1331385517405908,
            0.3065112138089088
         ],
         [
            0.0393942652970562,
            -0.0029200898245905094,
            0.042559022531010016
         ],
         [
            -0.13779952441239057,
            0.06233651384646947,
            0.1553997029694657
         ],
         [
            0.14411228614835916,
            0.16184713394653066,
            -0.03277726454119412
         ],
         [
            0.1791239261312678,
            0.22012272718718823,
            0.013867375013755468
         ],
         [
            -0.02535744265465058,
            0.1154218711896433,
            -0.05924221225981249
         ]
      ],
      "biases": [
         [
            0.04773451754256332,
            -0.004070787283488881,
            -0.07823894024056371
         ]
      ]
   },
   {
      "genes": "111001110001011100111000010011111011001011010000110001101111011010011000111010100011001010111001110010011000111100110100000001101110001100111100001011010001101100010000010011000100101000010110011001010101100000110100000001101101111001111000111011100101100010001000101010111111111000110110111011110101110110101101101011101110101100001010100110110110101010110110001000100011111011010010110000011111000101001010100101000000111000110000010010000010101100001111010000111001111101111001110000000100110000001111011010000111011001110111000011010010101110011100000010000111111110001010010010010100001110110011000011000110001101101001111010111001101111100001011011001000101101110111000001011000110100001101010101010110111001010101000110011011110001111101010111000101001000011010010111011100101000111010001101011101011010010010100000010010101110000010011101110001010100110000001110011110010011010001011000000111000110010000000011100011001110001010110110101111101111101001111001001100000111101100010011100010111001010101010111001010000100011111011111100010000000001001100001101010010011010100000011001000101101100110101100010011010001111101010100011111011011100100110011001011001100101001111100110101100001010101111101101110110110101011111100101101101010110011110111110011010001000001101101100101110010101010110011111000001011101000110101010000101111000100011001001001110110010100111110111111000010010100001011101110101100010100010111001010101110100111000001011100101011101001110110011100101100100010001110010011111100000100001000111000010010010011100011100110110110010000111010010000001000000001011101011100000101110110010001011001110110001110111010010111001011100100101011010100000000100001001000001001110100011001101010110001111101110101010100011001010010001100000010001101010100001010110111100100111010001100001001010010010011010001001111010010101110000110010110011011001010010111111111011011100101111001011001000110101101010110011100110010110011001101011100010110111111100011000001000001110101101011001011011000001100111011111100111111100011110001101101101101100010011111010000100001100111100001101110011000011011111101100101001010001001111111111110011001010000110110101001100111010010000100111110001110010110011011011000110100011001101000101000111110011011110110000000111000111101000001111011101111011101001000000110011001100010111111000111011011101100000001010111010101001100110011110001001101010100100010011011110101101010100011110111100111111001100110110100111010110000011100010011100101010000100111011000110001001010010010000100111110101000110000001111010100110100101010101011011111111001000111011111111110100001100000111000100000101100010100101010111000001100011101000010100011001001111110000101011101010000011001001111111001001010100010000011101010111111100011010101101100111100111101000001011100111101000010010010000111110011010000000100001101001111101011110010011000001000001100111110010100110110100010100110000011101111010101000011011001000100101011011001110001110110101101001010010101111110001011111011000110100001011100100000101101111010001010100101111001001011111110010100001001011111011100010011100101000011101011110010011101100110001101101000111010011100000010111001101000110010110010010011011000100110110010011111101100111010101000111010111000001110001011111111110011011111110001110100111011010110111100110000110010010011011011011110100100011101010001110110010001110111110000110011100001100010101101001011001001001111110110110001001101000011000110000100010011100101001111110011111111111000110101011011100100101100110100011010100001011001001010001001110101011100100111100000111101011100000100010110000100001110011010110001000000101011010010100001111110000110010110010000001000001000001011100101010100010111010000100111001101010001000000001010011000001100000101101111111001100100111001010001100101111010001111000011011001110011101000000000010010101101111111011011011010110001100111111101101000111001000110101000111010001110111111000101001111001001100001100101110110101100101101000000101101010000111100000001111110111111101100111101111100110001101110110010011010111001100001011110101111011110101001101001100110011111100001111111111010101011101100101100010100011110110011011010101001101000101000011001000110110001111011111111001101111110100001001011101011101110010011100100111000011110110010001101100010101100110100111111010001111111011100101000101000111011011000011110110000100101000001000001111110000110101110001101011011011110000000110010011000101000101011110111010001100101011011001011111110010011110101111001011111010110111100010011011001011010000100101011111110111011010100001010011101100110110000110010001010001110101100001010100101110011010011101010100011001101100110010000010110101101100100111010111111011000110011101011000001100011110100111100101110101010100001001100000100001011000111101010001100101011111011111000011101001100000110011110100000011100101011001011011101110000111001010110001011011011010001010010011110100101000110111000110011101101101011001100000101101001111111111010100101101100001001011110001101101110100111001011100010101001100100001101011111101101000011111000111100100011011100111000101111000001111011000110111101101111101001001000100001000101011100001011001110111111101011101100010111110101010000100010001000101011111111001110110111111000101011101001110111100111100000101011110000001110101000101001000100110001101010100111110011001110001100110100000101100000001010110000011101111100000010110111110110110110110101100001110001111111100101101110111001101111010110100111110010110011000101000001111100110100000011011111101000110011111110110001000100100010011101011100100000011100100100001110011001101101100111010110110010011010000001011011110010001101010011110110000101101001100000001111100010111111000110110111100100110111000010010010111001101100000001100110101110000011000111101111001010010111100010010000010111111111010000011111000110010110110101101110010011000111011000101111100100100100110000100000110000000001101100011001010111110010011110100111000111011110000000010110000101001101001000011101111110011111101110001011000000101010010110111001101000101101010101010011011001010110010111100010011010101100011100111100101001110101110000001110101001000001000011100011111110011110000010000000100010100100100111011101100111011011100001110010111010110110111100011101011000100101111010100111010000000000110111010111111111101001110000110001111101000110001111100001111110000010011101101110111100001000111111010011110111000010011010101110110001110100010001100001010100000111000111010110000100001010111000110100000011110110010001010100001001101111100001101011110100111110011111111000100111110101011011100101111111011011110001011011001000010011001111001110000000111111110101001010110000100101010111000111001010001010111100011100001001110110010011010000000111100001100000001110110000011111111000011011001001101000011110000011100100011001111001110011000110010111011001101111000110111100001101100001010011011001110110001000000000000000101010111011010010010110101010000011001001011110001111011011010110010010000100101100000010010101010101111111011101000101000101110010100101011010010001101110011001010010011011101001011110110100111001001010001100100110111100010100011101111110110010111101011000110010001101101001000011010110101101000000110001111111001000000000010111001111010001110111001010100110001101000111001100101101101100011010101010101010101101001100110011011000010010001110100101001110010100001101000001101011111001001101101001110111000101111001100100000001110110000000111010000101010001111010111001110110101111010011110100010001010100111110011110000010100010011001011110111110001001100110001110000011110001001111011011110100110110011110111110001001000010010110000001010001111000001011111000110111101100100010000011000110100001100010110011100100011100111011101000110110111011101000001101011000111110010010110111111111001100111001001001101011010101101111001110111000001110011011011011011110110000111011010111111111000010111100111000001100000100001111011111110000101111111001101101011010000010001010110101111011110001000001001111000001000111010001101011100001011000001100010100101100001011100011001111000100101011111111101101111101110110100100110100010001010011110110110100111000011100100100001111100100101100111111100100100011010011110110110111110100111100111001100110110111000010000111100000100010110010110000001111010100101010101111100010111111011100011110010000100110101001101011010111110011000110001111110010100101001110001111000011111111000111111001100011000001110001101001111001011011010111101101101010010001101001111111001111001011101010000100000111100001100110100111000010001110001010011001000111101001001111110110110000011110111000010110110010101100000100001100010001001011001001010000111101011000101010001111010100110000111101000100011010011101011101101000001101011100110000100110000101011100000100001111110111000110010010110000110000101100000110010100101111100111011010110101011011011010100101010001010001100000110010101111010101011101100010001110011101100010110111010100010111110001010110101010100011010100010000101101001011100011100001000001111001000101101101001101011101010001001110001110001000011011011000100011100001111101111100101110100011011111010010110001111101001000011000111000001101100011011010110011010000000100000111111010101000001110000100001000110010111001000000101000011111100111100110101010100100001001011000100011001010010000101000111110111110100101011000111111010010010111100001011001000111010011100100011000111110010101110110000111110000001110010101110110000011001001111111000111000010001010010010000011011110100001011011011100010111001001000101110000100100101111111011011000010111010011101001100001111011001010101010010100011100010000110100001001010001000100011101011001101011111010110010110000010000000111111111101010101010100000111110111111010011001111011100110101111011000011101100110011000001100001010000001010111011001011110001101001000000010111110000000010010111111001011001101110000010111110110001101011011111011100100010111111111001001010101010101000001111100000000000111100100111011000001010001101101110111110100100100011010111101000000011101110110010110111111001111110010000101101010010011101110000000001000011011011111101111011001000000101111001000100010001101100001101110010111000110110101000001000111100001011000110110100010101111101011010010110010101001100001010110010111011100011110010111011010000011110100000011000001111101100011100100100001101100010101010001111110111000100111100111000100001001001010100010011001100101100000110001010000111101111111101100010101010000011100001011110000000001111111001110001101000111011111111100000101001101001010111010010100010010100001111011010010011110111011001100111001000011110110110001001010001101010000110101101111100100010011001111011110001010100001010010101100100001001101101111010111101001111100110010101001110001111010100010010100110111101111001101110001010001000110000110010110011110111000000100010001101101011101001100101100011001110011101011111110001110110001010011011110011100101010011010010011100000000000011001011000111010000001011101011110011001110010100100000001000111010011111000000100110011001000010100001010101100111011110101101011100101101011100100100001110110000000101100000101101100011100100101110101001001010011010010011001010101010001010111100101011001000111110011111101100101001100001101000110101000001111001100111101110101110000001010010111100010101101011000101011001101010001000011011010101111111010000010011010100001101101011100110100110001111100110101001110000111110001110010011011101010111101011001010011110110110011001100011100001100000110101100011000011010111011101000100001101010100001100011110010101111001111010011010001000001110100100010100100010101000101101011101001001100010101101000001010100010011001001100000111110001101000001100010101000011111100110010011100110110010100010001111000100001101110001010111101101010110101101100011011001101011011110110000001110100101110010000010001010001110100100001000101110011010111110110110011010101111100111101111101010000110011110110010011110000000100100110111110111101110010101111000101000101001111110010110111010100111100000010100011110111000011001000100111111001011000010010110110011110100101011110110111000001000111001101101111011010100001001000101000011010001110001101000010101010111110001111110111001000001000100111111100100110111010111000101111111100111011010001111011101110110000111010010100101111101010001010000000110111101100110110010000011001110011010110101011001100111111000110111100010110011011101110011100000100011010110111001101110111110100101100111001010000110011110111011010101001010111110001011011010011110010111100000011111100000101111001000111001100011100011000111110110011100111110001010100101001100111110010011001111001100000010100110101100111010010111110001101101100010001011011100100100101000100100100010010101101010000101100001100101010000101011101100001100011001000010010101000010100100101110000000001001010101000000101110011101101000100111001100111000110011010111100100000001001110110101101010100010010000011110110101011111001011010101101001011101111010101100000100101001111111011010111000100101001101001101101001001100111000011000111111001011110100110100101001000110000101011100110100111101100110001000111110010011110111110010000010101011001011101101110010000101100101101011110000010001110010001010000100111110010010111001110100100101110101001111110001101101101011110100001101111000011110111101010010001000101000110010111100100110110101111110100100111101000011111010110000111010010100101011001100110011001000100101111001111110011011001110100101010010101101001010001011110001110110100000100011001110000011101100100000110000101001010000010100001111010001110100111011110111111111100010101000001000110000011001011001100000010001011011110100110101011110000011111101110110010000110100010101010010100101001011000000001001101101111101001111110010011000101111111111100111001100110010101100101001100110000001100101110100000010111101111101001111000000001010000000110101110011101011010110011111010011001010111100001110011010101100111111100001010001010111101101011001001000001100111001000001101000000101100101110111011001000110111010000101110010111100011000111000001011100101011000010111010000110100110100101000010001101011001110001010011111100111101010011111000000111000111010001100000110010100111001111101010111111001010111001011100010100001011111010101111000000000100000010010111000010100100100111000111000110000000110001010000110111000001010011010110001000111010001100010100101111100011000101100011100101100111111100101111111110011111001101000011010110011111111011110101110101110101011011111011101101001001010100111001100111100111010011011110000001101100010010000000101010011110110100101000000001001000001110000100010000001001100000100100100101001100100111110111010101010001000000110101111000001000011010111010111110001010011110100100001111110111101110100110001000000010000001010110111100001000100001000010001010011100011010111010111100100101110001110000001111111010100011000001100110010010011101111000010110011001110100111001101100111010010100000110100000110011001100100110100011110101100111000110001111000011110110010010111001000001010110100010100010001010000011111010100101011000100011110000000001100101101110011101011101101011111000010001110110011100011110011001111010101110010000001110100011010010001011100000100101010001010011000011000100101111111000100111001110001000100010000010110010110111100010010100010111100100011111011101100000001010011010110010111010101010110100101011101100101110110000010110000110100101111100011011100010100100100101101110001100110010001001011101000010100111110110100110110001101011110001000100001101000101111000101000000000000110011110001011101110100110100010010001010111111011010101010000000111100000001010100110001101001101001001110001110011000001111111000100100010000010001010111111110100101001001111110110111010110001001101001001000010101111010000101100100010101110111111000110000011101001111011000111010011011110001110000011011011111011101110000110101011101100101100101000010110101111010100100001111100000000001010111111010100101010100110101101110110110000111101110111101111001100111010111001100111011011101111000100110011000010110111000100101101100000100010000010110100000000010100101101011111001011100100111111001000001011111011001111101111111111011001110001110011001001101011011100111100001111111101000010111000111001001010010000010110001001111000001011100011100001001010010101101101111010011111101110001100101101110001110110101010100101101101011101110011000111101101010101111100001001111111010000110000100101000000001100000000000111011111001010011100111111000010100000011100100111000110101001110111100110011101000001001010111100110101001000010100111000000000101110000000111001010110111111011010101001111100000100101100101100001011010001100101101100101100100000110010111101001110001010111101111000011111001010100100100011001110010000001101011110110100101101010001000001110001010110110001011111011110010000110101011111000110001110000011101101010100101100010001111000100000111111011010001001100111100111101001100011110101101011010001010100110011001000011110000110110011111110000011111001111100110001000101001010001101010101101010011110011010011011010001000001001001101010001111110111100111110011010001110110111010100011011100111111101111000011111100001111111001110011101101001100101101111111111100100000011111001000100010111111010001010101100"
   }
]