[
   {
      "weights": [
         [
            -0.30477152247617684,
            0.8894387784179869,
            0.02543239321766099,
            1.0163405361370632,
            -0.5282741897127301
         ],
         [
            -0.6716086688938813,
            0.30240643051094535,
            0.005638112572233178,
            1.032871839505941,
            0.3228881460360421
         ],
         [
            0.6098599279715852,
            -0.3275473185288905,
            0.531697224249782,
            -0.9757148277150519,
            -0.2976564710020927
         ],
         [
            0.5480637274210473,
            -0.3247219760837259,
            0.321399096369609,
            0.6436412055236785,
            -1.408967835242124
         ],
         [
            -0.49456284547310403,
            0.304082430554277,
            0.21589546844797325,
            -0.7094664815461952,
            -0.08273593107983379
         ],
         [
            -0.8662794931598046,
            0.446118956492655,
            0.12352660039992316,
            -0.8008342150501573,
            -0.050652059573781646
         ]
      ],
      "biases": [
         [
            -0.008840704496667434,
            -0.7253123733053211,
            1.17602166850721,
            -0.9184999909566939,
            -0.7970539502838468
         ]
      ]
   },
   {
      "weights": [
         [
            -0.29220393980529663,
            -1.7961663730259072,
            -0.52494401239592,
            0.09500056641459713
         ],
         [
            0.3140293524410998,
            -0.9170435746615492,
            0.3144970563176072,
            -0.2990962774320185
         ],
         [
            1.7967522143634354,
            0.7064584595449349,
            -0.2523249852258614,
            0.2775285281497407
         ],
         [
            -0.02505620554242513,
            -0.08707425106157901,
            -0.30954625103648187,
            -0.003441218756217267
         ],
         [
            -0.2852883348340291,
            -0.04750308302088452,
            -0.06282624494890948,
            -0.46010355371193173
         ]
      ],
      "biases": [
         [
            -0.47428140537601216,
            0.5060831744552123,
            -0.16239026222686723,
            -0.06083053319559739
         ]
      ]
   },
   {
      "genes": "1010101011000100110100010011001101111110100110111010010000111011010001111111000111100000001101101000000111000110100001000001011000110011011111100100100010110000011011011111000000111101011100100001011000000010010101001101101101001100101100000101010101101001111101010001001000010011001101000000001100110110110100000110011110011010001100111011100101101110000000011010010111010111110101000011000000001000001111111111101100010000000100100011100001001011101101001101000000010110011001001111000010000011111101101000111010001011100110001110101100111001000000010100101010000001010101100111110010010110101000111101011110101010111111010100000100111010101001000101011101001111001100111001010111100001111101"
   }
]