[
   {
      "weights": [
         [
            -0.36985471501800116,
            0.27369807331843266,
            -0.1709499015210479,
            0.4847838948554175,
            -0.8218591109403217
         ],
         [
            0.6830598808150201,
            -1.5008820101855473,
            -1.3867308929714275,
            -0.3945375057355745,
            0.6906323326226124
         ],
         [
            -0.8825364735813076,
            0.29496771140966604,
            -0.37749302712511806,
            -0.1323121843453319,
            0.1610129927878751
         ],
         [
            0.8763115070287409,
            0.7408965528255717,
            0.445979634086859,
            2.0,
            0.9770002586320187
         ],
         [
            -0.7112548797936066,
            0.30805674212976375,
            0.2536564920341863,
            0.4179688915973886,
            0.010274694247334314
         ],
         [
            -0.49423345007540936,
            -0.34853944000178816,
            0.6442575821956344,
            0.4160259722274207,
            0.47352844438179265
         ]
      ],
      "biases": [
         [
            -0.058859315398606,
            0.5542716820721689,
            -0.6288176739111636,
            -0.22820799039786693,
            -0.15495129304772426
         ]
      ]
   },
   {
      "weights": [
         [
            -0.4003455505454985,
            -0.7495894952528903,
            -0.20444268950528585,
            0.00042005281282975334
         ],
         [
            0.13774887320389548,
            0.29045111267486656,
            -0.4670878649099836,
            0.4977081374284501
         ],
         [
            1.0681200773449209,
            0.20781243816447412,
            -0.36071170567700606,
            -1.0504705939424175
         ],
         [
            0.8942517420504602,
            0.04280982059386183,
            0.03957766891171861,
            0.2840286882078812
         ],
         [
            0.25350807636505696,
            0.2587349551963541,
            -0.6229704713260263,
            -1.3570424595879322
         ]
      ],
      "biases": [
         [
            -0.703114142384521,
            0.09298495498926684,
            -0.14602832214804032,
            0.2987947036143668
         ]
      ]
   },
   {
      "genes": "0110100110110110010111010110000111100111001110111111101110000000110000001101110010101011000100111000111010101011100111001110100100110111011111101010101101010011111000111111010110011010010110000111000001001010111010001100010100001001111011101111000000110101010011000100001000000110111111110000100110000111010010001010100011111111100001111100101001011101101100011010010011111000010100111111011000101011010100111110010010000010000111000100000110011000101000010000010111011010001010001011011011010001110000001011000100100001101001100101101001110001001101111001010010001001011101110101111010001001100010010000001001001011010011111000010010101110011001001000110010011001101100111101011111111111010101"
   }
]