[
   {
      "weights": [
         [
            1.3265784723992824,
            0.15436355939319174,
            -0.6015321829962412,
            0.1864290383280361,
            -0.6786122092404703
         ],
         [
            1.5624819828501686,
            -0.17784754268261013,
            -0.17968491017573862,
            1.3027598225590131,
            0.5007049058661391
         ],
         [
            -0.07845773689627172,
            -0.3024588344245294,
            -0.23044435634606644,
            0.3435718873101087,
            0.6221616931083928
         ],
         [
            1.0830026694702721,
            -1.4926034079867694,
            -0.8684415900404463,
            0.9538181918190128,
            -0.8585457332069758
         ],
         [
            -0.7854265684975332,
            -0.3464830561233694,
            1.4431697782147994,
            0.6733874699434259,
            -0.11191290531742673
         ],
         [
            -0.2350042331386885,
            -0.4721995862830451,
            0.14916024666640187,
            0.6089728697070627,
            0.04481695139586228
         ]
      ],
      "biases": [
         [
            0.130758861975395,
            0.21461329160659715,
            -0.9023150130577191,
            -0.244950445284235,
            -0.6872867029674194
         ]
      ]
   },
   {
      "weights": [
         [
            -0.3289959916095242,
            -0.905194771140364,
            -0.6063205374305117,
            0.3426554512776707
         ],
         [
            -0.3672432075389116,
            1.2098298415223705,
            0.2150280453479636,
            -0.7820635235426716
         ],
         [
            1.2478926403393678,
            0.7059035921655861,
            0.2096175046279568,
            -1.8130601679851919
         ],
         [
            0.061966800927595836,
            -1.2581237937196028,
            -1.226450665294063,
            -0.5815562631640635
         ],
         [
            0.2143231406681762,
            -0.47531991519742983,
            -0.037707646707599254,
            -1.0096345005401923
         ]
      ],
      "biases": [
         [
            -0.6122937865188649,
            0.057067281680990165,
            0.4346159434167359,
            0.49939644375498776
         ]
      ]
   },
   {
      "genes": "0011011001110001000110111100101010111010101000011110111110011010000101011000110011001000111011111100011010110111001011110010101000000101011010100000101011010101100011101111001100100000001000101001010011101110111110110001011001001011101110101111001001100000000010011111010011000011010111100000111100110011011101100101100010001001110110001100001100110110101100111011100011010000000101010000000001101110001001110010111110010000001111010000111100010111001101001101111100110101011001010010000101010001101100100000110111101001101010110100000000000111100010101101101101010110000110001100110011110101011000001010100101011101001111101110010101001110011001101010000110001000000001110101100001101110100101"
   }
]