[
   {
      "weights": [
         [
            -0.6005945422097134,
            -1.305302762387315,
            -0.7535839596115302,
            -0.2774594530109698,
            -0.34511664399621184
         ],
         [
            1.3143050387569286,
            0.7217736983255333,
            -0.26850348008135666,
            0.9864961140038733,
            1.37950135926732
         ],
         [
            -0.19726129193551017,
            0.8557840714735014,
            -0.09358151725834979,
            -2.0,
            0.1336271623023143
         ],
         [
            0.2237787862981824,
            -0.21556006494347818,
            1.5904725475209767,
            0.2116677658271638,
            0.44834320612925743
         ],
         [
            -1.0467062482022147,
            -0.6829715679605347,
            0.09681760364190911,
            0.5009680558916416,
            -0.01037485685110813
         ],
         [
            0.8682762641851276,
            -0.494791621206435,
            -0.6612379770197534,
            0.7245113541128676,
            -0.43317510523146197
         ]
      ],
      "biases": [
         [
            -0.20053097697261474,
            -0.16856191475756926,
            -0.7644327153045745,
            -1.7167840541717159,
            -0.7180477386113736
         ]
      ]
   },
   {
      "weights": [
         [
            0.012282767985219531,
            -0.3609647064401542,
            -0.9148488686218582,
            -0.7185595985561591
         ],
         [
            -0.01405824772654822,
            0.11396085105088635,
            -0.10612236858614423,
            -0.3915405442025689
         ],
         [
            1.0087283480721834,
            1.1068018128373054,
            -0.012632950905358625,
            0.8360807135745969
         ],
         [
            -0.778441140033532,
            0.15658060365714152,
            -0.4195081754402447,
            -0.7053947397323364
         ],
         [
            -0.09338130493953267,
            0.37547213057792744,
            0.4932268515425778,
            -1.479338970263385
         ]
      ],
      "biases": [
         [
            -0.33458762126869573,
            -0.07355837901071807,
            0.7791194640914111,
            -0.47857700197039815
         ]
      ]
   },
   {
      "genes": "1001010010001001010111100101110000100101100001101110010001001110001000010001011000011010001111100001101011010001100000111011011001011000011001111100110111011111001101110100101011100001010010001110001011000100001110101001101001001000000101000010011101010010110111000010010011100010011000001001101011101000010010101001110110011110000001111100011101100101010101010100100001100111101101000011100001100110111111100100101100010001111110111001101010111100101010011111111110000110111110010110010110111110010011100000101100110001000010001110111011001000101010011111100101111010000010000110101111110101110010101110100001001011111100110101010000001101000101011100000100001010110110110001010110001010011111"
   }
]