[
   {
      "weights": [
         [
            -0.3547945410039393,
            -0.19437537783293662,
            -1.1677295058648456,
            -0.20420899144878368,
            -0.15615027579340096
         ],
         [
            0.857411213653291,
            -0.4832590374772017,
            -0.2732353277271691,
            -0.08709678074074692,
            0.8000942841562932
         ],
         [
            -0.3052621577856114,
            0.8668571108008676,
            -0.2774133763590163,
            0.8257099140724935,
            -0.3677613320511273
         ],
         [
            0.658417712069457,
            -0.07813528698270883,
            0.1867796413215039,
            -1.7301109545799203,
            -0.44031209658669
         ],
         [
            -0.16660179897718314,
            -1.3773016260289876,
            0.5330706506966576,
            0.9318830593031661,
            -0.20899255005465772
         ],
         [
            -1.1362989337386202,
            -0.29953144236927637,
            1.0575186268828944,
            -0.1968846235582812,
            0.0021355363736569877
         ]
      ],
      "biases": [
         [
            -1.6446990696409833,
            -0.9053053018116166,
            -0.41761591327238246,
            -0.2146867186424833,
            0.3054814644589443
         ]
      ]
   },
   {
      "weights": [
         [
            -0.8334013048759954,
            -0.9904186784279353,
            -0.18238783719811383,
            -0.10701712437740446
         ],
         [
            0.23007449953104075,
            0.14538032539137766,
            1.6789646123871262,
            -0.06309360753526722
         ],
         [
            0.5919192066717237,
            0.61627786962916,
            -0.710534713352801,
            -0.7990104343976451
         ],
         [
            -0.12071107231888684,
            -0.10533001021517258,
            0.2209139326237735,
            -1.0715881090012145
         ],
         [
            0.12380189302827535,
            -0.18419423943354485,
            -0.12357844725460365,
            -0.7808672592526361
         ]
      ],
      "biases": [
         [
            -0.883008821280518,
            -0.14997345778312698,
            -0.03728316722056754,
            0.9851690188071764
         ]
      ]
   },
   {
      "genes": "1110110110001010001010011110100100010000010011000001011010100111011101011000101111100010001011100110010011000000110100110011000100010100001101000101101001111111001111111001110011101011010100111100110111110110001000000111111000100010011110011100010100101110111010111100011011000101001100110011101110110000100111110111011110101010000111100101100110011011001101011110011011100110111110000010111001001010011001100101000111101111101110100101011110011100111011111110001111000000000011110101001010000001100010110010101011110010011010000010010010100100010100111111100000111100011100110000011101111000001100011110101011011110111101000001110001101000001001101100111011111110001011111000011101010011000011"
   }
]