[
   {
      "weights": [
         [
            -0.6208547089891308,
            0.5693131026541021,
            -0.4325976847460642,
            0.12991841601530335,
            0.27539928193679886
         ],
         [
            0.8281908541703125,
            0.024510873707106064,
            -0.10067516878528347,
            0.04340939777293812,
            1.1230323422688053
         ],
         [
            -1.8554691979291877,
            1.541000477356754,
            -0.3630408049241507,
            -0.1826458143338597,
            1.2341085725014227
         ],
         [
            1.0852327582859647,
            -0.30660343210225177,
            0.8015849340898145,
            0.708158021422273,
            0.9832073409776899
         ],
         [
            -0.4218407452466174,
            -0.9045883772273726,
            1.1103627055153211,
            0.681468876525212,
            0.2509490257180942
         ],
         [
            0.10373113216736363,
            0.15125260577356897,
            0.394248730770763,
            -0.41657487794761683,
            -0.5144317061196738
         ]
      ],
      "biases": [
         [
            -1.392453069964457,
            0.2875716682057666,
            -0.1585407123341991,
            -0.4925185777431499,
            -0.1144052891509884
         ]
      ]
   },
   {
      "weights": [
         [
            -1.0108278386524494,
            0.012576871744146142,
            -0.8075303017306752,
            0.23977932299490562
         ],
         [
            0.5608558958637471,
            0.20783782709714047,
            0.08929973344900335,
            0.07194618167455942
         ],
         [
            0.44705194790044206,
            1.1877929553835638,
            -0.5038214163202207,
            -1.001859966203701
         ],
         [
            -0.22187125175893246,
            -0.8138096525408551,
            0.4171236607507131,
            -0.7027084630582092
         ],
         [
            0.07257094439135287,
            -2.0,
            -0.5364147200099645,
            -0.9397336340872054
         ]
      ],
      "biases": [
         [
            -0.7333619159633441,
            0.4836194550481052,
            -0.6572203233097543,
            -1.0634327213334451
         ]
      ]
   },
   {
      "genes": "1011111110100011010010111110001100011001010001001110110010100010000111110010001000011000100110100100100011001000100010101101011001011001010010111001101101100010000000000011000101110000101000100001011100000111000100100010101011000101001110001100100110101000011101101000011000000010100000000101100000110110011110010011111010110101001001110001100100110000011000010111111100010101110111100010111000011101101111110010000001011010111110011111101000011110101110011010011111011011101110010111101001011110000010101110001110100000100001100100000000011111000011101011101110010010001110001110001010011000011001000010010100010011101010101101110111111100001011111110010011111111000001101110111010110100110110"
   }
]