[
   {
      "weights": [
         [
            -0.35600693299875913,
            -0.04980989718416105,
            -0.3330556585645371,
            -0.07472494149727718,
            -0.2515148737112376
         ],
         [
            2.0,
            -0.4944510446677861,
            0.09246995961515841,
            0.08026604930366368,
            1.36030578618553
         ],
         [
            -0.2026803243076452,
            -1.4418092471528636,
            0.2980821888852419,
            0.3875550382527257,
            -0.04677372525172141
         ],
         [
            1.4695243289341762,
            -1.199940597837632,
            -0.27463362737538455,
            1.2103703953304807,
            0.17722860971863855
         ],
         [
            0.03268049033554215,
            -0.11994587953602197,
            0.5669591782088875,
            0.667644100975991,
            0.25058265389796097
         ],
         [
            -0.1755821371324117,
            0.30498887310294626,
            0.07012219518564773,
            0.775106500901365,
            -0.7765104850068042
         ]
      ],
      "biases": [
         [
            -0.24597345778312701,
            -0.8624380430403349,
            -1.0912362462283298,
            -0.2956813969355929,
            -0.3340920077934718
         ]
      ]
   },
   {
      "weights": [
         [
            -0.5951340485162622,
            -1.5845222196007718,
            -1.1704019620989097,
            0.7779554434401389
         ],
         [
            -0.07136798127947155,
            1.8420177028497429,
            1.1554581209001404,
            -0.3097542560735873
         ],
         [
            1.7017540063523442,
            0.6150628756111777,
            -0.35237808171734875,
            -0.6939484804524155
         ],
         [
            -0.5324809714454533,
            0.24510271714714324,
            -0.7393099867215397,
            -1.8383017841513765
         ],
         [
            0.20138154077994164,
            -0.4696207852677404,
            0.7491542843279216,
            -1.2496778737278373
         ]
      ],
      "biases": [
         [
            -0.590638925771274,
            -0.6434973512042964,
            0.050044257124357276,
            0.04706107000851641
         ]
      ]
   },
   {
      "genes": "1011011111010011011111100100010010101111001111010010100100111100011110001010110110110111011010010101110100010101010111010010001001110100110001000101010011110110100011010100000010010001101101001111111101001101001000001100100000110100111110111111111000001001110100100011111100110101110001100110110101000011110101100000011110110111010101110101110001101101010000010110001001001110111100000011100100101010011110110000110101011100011111110011111110111011101100110101110001100101100011011111000101100000001110010001000101000000001110111001111100110110001001101000110100101001001101100101000100001111001011001100000010111111001100001010111011011111000110001101101011011010101010001111011101111000110101"
   }
]