[
   {
      "weights": [
         [
            -0.8580609254847011,
            0.6661706260637992,
            -0.459939252078397,
            0.6556670644875335,
            -1.6894130762963464
         ],
         [
            0.5622236080596589,
            0.23275865331479983,
            0.19716907748710655,
            -0.06909678074074693,
            0.9380942841562934
         ],
         [
            0.15447145170475615,
            0.5380889494033737,
            0.22283439119093612,
            0.26620461346665064,
            0.5223749388955726
         ],
         [
            0.9448035606416297,
            1.2822894728914487,
            -0.011963721617060302,
            -2.0,
            -0.3272094453794381
         ],
         [
            -0.30838144552307534,
            -0.2574104949375838,
            0.6012529948721056,
            1.2403874639145551,
            -1.025169530321121
         ],
         [
            -1.1855166414114597,
            -0.2849854384725404,
            0.08205141995990013,
            0.5931764283636235,
            0.3411178274950434
         ]
      ],
      "biases": [
         [
            -1.4046752033497318,
            -0.4773053018116167,
            -0.30981146826756095,
            -0.46669556403848417,
            -0.37469817967539965
         ]
      ]
   },
   {
      "weights": [
         [
            -0.08693847543447199,
            -1.398539910392773,
            -0.952282479920887,
            -0.2616622618211522
         ],
         [
            0.3638267078656056,
            -0.12801083282994416,
            -0.03592769752767918,
            -0.3791918450878248
         ],
         [
            -0.4578418410299713,
            1.4843539846484095,
            -0.034032954522681035,
            -0.734544504360431
         ],
         [
            -0.6869336356147775,
            -0.37324506788653417,
            0.9062112548894907,
            0.36372335625191093
         ],
         [
            -1.4039449815416583,
            -1.2724942315960124,
            1.0397896502368609,
            -0.11025399176152245
         ]
      ],
      "biases": [
         [
            -0.7685389203452905,
            0.05341150685233289,
            1.1486203510425597,
            0.6499876128282764
         ]
      ]
   },
   {
      "genes": "0110101100011000010110101110111100001110110110010001111000111001100100110111001001101001001010111000111001110010011101011011001100101001110000110011000001101101100110001010000111110000001010000010000111101111010010100011111000110101101000010111110001111011010000111010101100000110001010000010000101010011011100101101000101000011011000111101011101001100101001100010011101000100100001110101011100101010110100010111111011000000111010001000100111111011001110100101001011000110110100110001111000111011011001000001101110110010110001111011100001100100101010100101000011111100101110010010001010101101000011111101101101110100001010010100111110000010111000110011101010000010110110011001111000010011101101"
   }
]