[
   {
      "weights": [
         [
            0.5916935168071285,
            -0.06987272300836225,
            -0.10244371094962151,
            -0.432761231133476,
            -0.5141962827045721
         ],
         [
            2.0,
            0.16651087370710604,
            0.00021332255372252806,
            -0.5666277516844911,
            0.09120934062188107
         ],
         [
            -0.15045773689627173,
            -0.38563583277760494,
            0.28097598987339656,
            -0.6129369550714564,
            -0.7057976096295846
         ],
         [
            0.8280026694702722,
            -1.4906742073279997,
            0.4039079568377864,
            0.34417572427201604,
            -1.5773740505319198
         ],
         [
            -0.8614371817669604,
            -0.09833793375179802,
            1.3926830463088005,
            0.819387469943426,
            -0.1911164458873753
         ],
         [
            -0.7145051261187075,
            -0.6401199596324264,
            0.7663557775460971,
            0.41035340260121617,
            0.006135536373657005
         ]
      ],
      "biases": [
         [
            0.040449116364730475,
            -1.0533053018116167,
            -1.1940716531335904,
            -0.16295044528423505,
            -0.3799858208393677
         ]
      ]
   },
   {
      "weights": [
         [
            -1.4441366701820475,
            -0.9900177788161593,
            -0.6822559497617552,
            0.16019528570402738
         ],
         [
            0.5615081228878109,
            0.6350643801659807,
            0.1054351385456021,
            -0.5411387365385962
         ],
         [
            0.4602554944992611,
            0.3906381036792791,
            0.14991396104357285,
            -1.9146194671058465
         ],
         [
            -0.1493040092656016,
            -1.0950601141030418,
            -0.4457259011996966,
            -0.7954677609730902
         ],
         [
            -0.03594588959385378,
            -0.03951728026812872,
            -0.8718403819074468,
            -1.5489796578792143
         ]
      ],
      "biases": [
         [
            0.0136708017527786,
            -0.20958849314766712,
            -0.18042477193189865,
            0.5693964437549879
         ]
      ]
   },
   {
      "genes": "1001110100111001101001011111100001000010110101000110011000000110101101110100110111101111010111010110111111110001100000111010101010000100111101000010100110010011100111110011010001011001010001000010100101111100110010010111111101011110101110101101011100111010010110100110100100000110011010000010110110111100011010110011100100100000011111110001111101101010010110111111100011111100111101110001010011100110100011001111000001110011001111000101010011010101111111011011010001010010101000100010011110100001101111011101111111010100011000011000110111101100010010010100011101111000000100100000001001010001001100010110110101111101111011110110111101101101011010010100111011011001111000100001101010111100001101"
   }
]