[
   {
      "weights": [
         [
            1.7415395068374622,
            0.4580210719509219,
            0.07879255336532037,
            0.5678891978728088,
            -0.21710779860021112
         ],
         [
            0.8586359807620934,
            -0.0077262986600316955,
            -0.012583130847458282,
            -1.2095401394591017,
            0.6673801393602244
         ],
         [
            0.5011139252806236,
            0.5303685929348307,
            -0.23057442767803377,
            -1.2521431775958978,
            1.1285723401394971
         ],
         [
            1.360723904273136,
            -1.923207088374542,
            0.08029380540995924,
            0.12632352256920887,
            -0.5832094453794381
         ],
         [
            -0.9171681394471889,
            -0.251706079474228,
            0.813537923937229,
            -0.2978939052882337,
            -1.6712190970946281
         ],
         [
            0.12660812027135904,
            -0.05727833502582172,
            -0.2536768979679308,
            -0.30211030474814954,
            0.26712136927076624
         ]
      ],
      "biases": [
         [
            0.6144132566391468,
            -0.36637608306623476,
            -0.6200468848190135,
            1.7952158915684489,
            -1.4169823031791287
         ]
      ]
   },
   {
      "weights": [
         [
            0.7301960095521898,
            -1.7660487648320795,
            0.2095228007896826,
            0.32930942205967806
         ],
         [
            0.18927628428530474,
            -0.9608913325653083,
            0.9799377632258234,
            0.4704665393488767
         ],
         [
            0.6726917636372998,
            -0.11050346485882824,
            -0.19185418226730833,
            -0.39582016493613315
         ],
         [
            -0.3405163711160683,
            -1.1411963609342588,
            0.03289357796389161,
            0.9137614137615354
         ],
         [
            1.1586071978543273,
            -0.27369158460897036,
            -0.32409968886563395,
            -0.9656256672019334
         ]
      ],
      "biases": [
         [
            -0.8401575216010353,
            1.138299962018115,
            0.057707963267948956,
            0.05528495920947624
         ]
      ]
   },
   {
      "genes": "1100110101000010011001110000010011111111011000000011101011101011110101100001000111000000011100000111111111100101100111011010100001100110110010000110011011011110010010110110001000101110001100111110000010000001000111110101101110000100100000101000111100001111111010100010000111010111110001100011100010000111010100101100111011100110110001000100100010000100100011100111110110110011001000100001011001101010000110000111000100010011110000111010010010100011010111111100100110110011000101001010111111000101010110001010001010111101101000001010100000100101101101010100010011011011110110100010010111000110010001111110100011111011101001101111111010110011100111000001000000110101111000101010100101111100011011"
   }
]