[
   {
      "weights": [
         [
            -0.06710560649080269,
            1.7477971526056093,
            -0.6721428107349575,
            0.19352283811041665,
            -0.4501484958622336
         ],
         [
            0.8652785025689258,
            0.392304675298148,
            0.3181336778164915,
            0.5237881447070536,
            1.341747383059329
         ],
         [
            -0.11495331419827194,
            -0.1757774194023241,
            -0.6442009843641963,
            1.5092284677001613,
            -0.19950735282870086
         ],
         [
            0.7808690382759699,
            0.18805497644993258,
            1.7920110560422655,
            0.7213173048678644,
            0.14472860670420318
         ],
         [
            -1.0658602159697863,
            -1.0229485373750316,
            1.4087414645071776,
            0.47964679498822493,
            0.004457898244013089
         ],
         [
            -0.2291131080761558,
            -0.08630579735263187,
            -0.1606539095845218,
            0.5677781805619857,
            -0.7534839247033189
         ]
      ],
      "biases": [
         [
            0.11473451754256334,
            -0.6503495167338786,
            -0.13188846722352332,
            -0.1378902471546906,
            -0.3637734348734184
         ]
      ]
   },
   {
      "weights": [
         [
            0.20543097810641564,
            -0.1393540847303084,
            -0.28610993742460045,
            0.18511562288018463
         ],
         [
            0.0806320187205285,
            0.22733606223814978,
            -0.047759544570604384,
            -0.11871753049790305
         ],
         [
            1.5837681613974932,
            0.9052151116785475,
            -0.6266869072180763,
            -0.7708732795142322
         ],
         [
            -0.5560429223762476,
            -0.038180450073424445,
            -0.4087249750608885,
            -0.29091245162538515
         ],
         [
            0.36025585898718615,
            -0.04528893521037954,
            0.5080233109726292,
            -0.49903807607759126
         ]
      ],
      "biases": [
         [
            -0.1132778997735137,
            -0.5462451398552962,
            -0.45259733251479717,
            0.2740159349763168
         ]
      ]
   },
   {
      "genes": "1110011000110000111011001010001010000101011010100010011100101001100000100010101010101000100010001011111001000110010011011010001011010000110011011000110101111110110011101001100011100111110100010100000100010101010100100010101001010001001000110010010101010010100101100000110001011101001010100100010001000100001101010010111100000111101100000001100101011101100111001000000110101110011011101111011010110111110011110100010110000001011100110010001001000100101110011101001110100101001101000010011100000000111001000010111010101010100100100100101110110101001000001110110100101011011110000111011011100001111110100011011000000000100011110101111000111010000000001101100011110000010101000110111101100011110011"
   }
]