[
   {
      "weights": [
         [
            -0.27495649434628167,
            -0.862931117091257,
            -1.0064020815199206,
            0.16998124786837515,
            0.03294529186240555
         ],
         [
            0.9676603312237969,
            -0.6115864557932559,
            -0.6826362273389458,
            -0.07404369027813026,
            0.9420208330049245
         ],
         [
            -0.2980595252678586,
            0.03445266941336815,
            0.017604326490726616,
            -0.28050687951927966,
            0.4255298026575989
         ],
         [
            0.7963292098784839,
            0.4299788493729416,
            -1.0664502489419254,
            0.588981035126939,
            0.9496338868118854
         ],
         [
            -0.27337260012707454,
            0.3239363880727687,
            0.08021760725923194,
            0.5144671146806566,
            -0.23724032966235148
         ],
         [
            -0.3575918604362548,
            0.021641100127010184,
            0.388607135102738,
            0.45828260325998604,
            -0.9374339099325857
         ]
      ],
      "biases": [
         [
            -0.6583380557009638,
            -0.3682964564156158,
            -0.8645274050525388,
            -0.49927963147371546,
            -0.45969909978533613
         ]
      ]
   },
   {
      "weights": [
         [
            -0.6052986416110021,
            -0.44074346904933337,
            -0.6009639070008335,
            -0.04170739082448119
         ],
         [
            1.8644461387982287,
            0.07125642352978945,
            0.012134238330938258,
            -0.1887617755645189
         ],
         [
            0.2949811606169531,
            1.284008901211848,
            -0.44259931307929884,
            -1.0210347599555405
         ],
         [
            -0.27214470170452765,
            0.7597575778947341,
            -0.10590906902315088,
            -0.04726025474567448
         ],
         [
            -0.7302485154798488,
            -0.5256119338428689,
            0.7155118228097954,
            -0.7966123960934969
         ]
      ],
      "biases": [
         [
            -0.4463973216628302,
            -0.07845750170576278,
            -0.09278759594743857,
            -0.4615875730377297
         ]
      ]
   },
   {
      "genes": "1111111101111101000001010101111111010010101011100101101011011111000011101001001101110111001101001001100110001110100110011110100010000010010011111110110111011110110000010100010110111000001000010111111011000001110111000001110000000101101111000011011101000001101111010000001100110001100000110000101101010111001100111111011010110001000101101110000110101000010001101000000000001110110001110100110001101100110100101000010100111011000001010010011010110101110011000010101010000011001111101100110111100111010110100011110101100010010101101011101011110010010110010110110000100010101001110100111101010000000111100010000010101010001101100101110011110011011101101000000001011010000000000111011011010110001011"
   }
]