[
   {
      "weights": [
         [
            0.10090809452824899,
            1.50041751570591,
            0.12440673493750093,
            -0.7141187213843849,
            -1.4235626484958346
         ],
         [
            1.641557525218358,
            -1.0193006307336787,
            -1.882,
            -0.38119411024110883,
            1.3334783467684284
         ],
         [
            -0.8942718871183252,
            -0.18816413382459804,
            -0.2204452282250381,
            -0.19795909569137646,
            -0.517815300421586
         ],
         [
            0.5463442548892171,
            0.6053903622541454,
            1.6405929015779737,
            1.9393385072912352,
            0.20842770648953932
         ],
         [
            -0.012938964712563034,
            -0.4350680316107964,
            -0.0012806158240358037,
            1.1330237378756909,
            -0.2645766174898891
         ],
         [
            -0.7577555756231528,
            0.187730474196955,
            -0.06593268123700696,
            0.3418781859879693,
            0.04652492672155259
         ]
      ],
      "biases": [
         [
            -0.34873184764581233,
            -0.02503012016582,
            -0.13306989128903435,
            -0.35665132500073876,
            -0.8360937877246393
         ]
      ]
   },
   {
      "weights": [
         [
            -0.2736552840984217,
            0.0005662645035898334,
            -1.0159532816736654,
            -0.26420031028747104
         ],
         [
            0.06809750600106171,
            0.010650233561250125,
            0.3389324656344157,
            -0.19323168855748782
         ],
         [
            0.5181050383630588,
            1.250084992115615,
            -0.31893825271697546,
            -1.4703192598983725
         ],
         [
            0.29503227856193576,
            -0.5649131756270788,
            0.5036617031881614,
            -0.675958900504913
         ],
         [
            0.09593022060229928,
            -0.11493671843539593,
            -0.5991094181983476,
            -1.3172539736749111
         ]
      ],
      "biases": [
         [
            -0.37089909857956194,
            -0.3177008978031155,
            -0.1174796423256827,
            0.5814778623945155
         ]
      ]
   },
   {
      "genes": "0000101101101100111010010010101101110111010101111011101110011000100001111001110001010000010111111000011101100110111011111101000110101010111000101001001000001010001100010101010011111000000011111111101010001100110110001000100010001010111110001111110011110111001111100001111111010100011001100000011011011111111111110000101010000110011101010011100011111011101100101110011110111011111010101011101010010011110000011000000000101000010011101001011111011011100101100001111011001101110110111001010100110001101010001100110101111000001110110100000111010110111000001100111110010101110100001011101101001110111100000101011011011001101100011011011000011100001100001110011111100101010011111100101110111011100101"
   }
]