[
   {
      "weights": [
         [
            1.2833041204303628,
            0.15780867392723102,
            0.11896160834572042,
            1.252147596778801,
            -0.47032016647954894
         ],
         [
            0.8975572320193165,
            -1.2447068219079935,
            -1.6747451308119898,
            0.30975984667449596,
            0.24254651238613162
         ],
         [
            -0.1861975580591132,
            0.5277394085540117,
            -0.5888806315129755,
            -0.0741891724493273,
            1.2848546113656087
         ],
         [
            1.6527716846601264,
            -0.6773113772835889,
            -0.4597247813764966,
            0.6390960795347851,
            -0.12484662136389817
         ],
         [
            -0.20050886504490362,
            -0.5057166987725257,
            1.133828192795854,
            0.34968835810034843,
            -0.5259226527367526
         ],
         [
            -0.158440544478822,
            -0.21373322109466952,
            0.16020448570414714,
            1.6024719767270441,
            0.04349836641806758
         ]
      ],
      "biases": [
         [
            -0.0017367092977339516,
            -0.13254865570687452,
            -0.7356159132723824,
            -0.3892867210540313,
            -0.8118796157986518
         ]
      ]
   },
   {
      "weights": [
         [
            -0.7140446503308345,
            -0.6210780010611862,
            -0.23338603918033446,
            0.2290890565478289
         ],
         [
            0.5012426344015036,
            1.0680997677788544,
            -0.5626622090413719,
            -0.0210714910308301
         ],
         [
            1.240450171586597,
            1.9149114978090271,
            0.102551118941421,
            -0.660209531168546
         ],
         [
            0.9992774003306201,
            -0.9883476829205623,
            -0.2110807637559483,
            -0.5058217456215003
         ],
         [
            0.8281018972484848,
            -0.6392809556644798,
            -0.13459526013876283,
            -0.5452645929732076
         ]
      ],
      "biases": [
         [
            -0.45034688903922315,
            0.4250150450107333,
            0.270308873731693,
            0.2850070775225748
         ]
      ]
   },
   {
      "genes": "0110010101100100110001010000110101110000101100110001101000010011000110111101110101100001111000111101001100111110010100010011101100100110001001111111111010001110010111010110111100011101000001010000001000100110010100000111001011001010000011111011100101110110011010100011000100100110011001010110100111011001010010101111011111010011101110001011001110011010010110001101001111011001011100001001100000001110010001110111001101010010000111001000111100001100110011000100110011010101111100100111001111000110011010011100010010001110011011010000011110110101110010010100011101100000011111001011110001111111001101100111011010011011000101000110000111110011110110101000100111100100000011000010111101011011000000"
   }
]