[
   {
      "weights": [
         [
            0.22022138794350696,
            -0.9304275481856159,
            -0.9031583037429185,
            1.5246706062632565,
            0.5219634246227638
         ],
         [
            1.354017409650703,
            0.6550559936671293,
            -0.30403090322050746,
            0.7456253134568689,
            1.3613173075071525
         ],
         [
            -0.21674625596808333,
            -0.04903759221061207,
            -0.23485054149150913,
            0.606914762460899,
            0.4352121076453878
         ],
         [
            1.6427752204069779,
            -0.6404715567236346,
            1.607313252017644,
            -0.004287105169507291,
            -0.3286811322747037
         ],
         [
            -1.2572318853813276,
            -1.2312538693310013,
            0.8195206751135832,
            1.0831078746429348,
            -0.023250089139418634
         ],
         [
            -0.4666909638389135,
            -0.30781552367091025,
            -0.06642383885544162,
            0.46874278089137045,
            -0.3719706927825418
         ]
      ],
      "biases": [
         [
            0.06112875145576849,
            -0.924324742390432,
            0.33185930936973534,
            -1.1275026246802213,
            -1.2531946409141117
         ]
      ]
   },
   {
      "weights": [
         [
            -0.2528287346469039,
            -0.7656257547447362,
            -0.995900621121664,
            -0.898181699385532
         ],
         [
            0.37466210874199485,
            0.041395358344369526,
            -0.04945956446587758,
            -0.13300601942536064
         ],
         [
            1.713455782063302,
            0.6630916638430575,
            -0.6461311800174974,
            1.1812001957526208
         ],
         [
            -0.8786933393247905,
            0.17111953606017333,
            -0.4666409648999285,
            -1.1926991576072399
         ],
         [
            -0.09917952621413946,
            -0.5385092826356169,
            -0.42224834698405717,
            -0.8933035464772868
         ]
      ],
      "biases": [
         [
            -0.7808716663971051,
            -0.35194601957179966,
            1.2425468938623199,
            0.0380035236891106
         ]
      ]
   },
   {
      "genes": "0111001011010010110000101000101110000010100010100110110011000100100100111001101110110000001010111100001110100000101011010100001001011010110100000111111001000011011001100001101110110011000111010001010010110011111011011111111111101010111110010111011010101110000100101011001001100001011101101110000000010010010111111000010001110000000000100001100011000000001110101111011111111010111110100101011100111100111001011001110100000111111000010111001101010110111001011101111001101001001100010100001011000011011101011001010010100101101101101101000001101000000001101100111101001100110011010010000111000011001100000001101001001110110101011001101001110110110010110110111111101001010001100111111010110111011000"
   }
]