[
   {
      "weights": [
         [
            0.6661496926078226,
            -0.5540749135577591,
            -0.18856759472459766,
            -0.1879019398503527,
            -0.6670281357763683
         ],
         [
            0.4681280223172409,
            -0.2680024004157658,
            -2.0,
            0.03490321925925309,
            -0.004861452690478538
         ],
         [
            -0.13598517209316383,
            0.16370136310212832,
            0.12870166804882974,
            0.06947008386634602,
            0.6828608109803411
         ],
         [
            1.5166353775402017,
            -0.6502697900559825,
            1.9852743399111785,
            0.5611314731765294,
            0.24687550297807104
         ],
         [
            -0.09950533532692224,
            -0.16538218484728456,
            0.5714122722888264,
            0.26837420486386,
            -0.2726394794873142
         ],
         [
            -0.46705999952692706,
            0.1812251796199829,
            0.5630726103255298,
            0.8515162338514008,
            0.05968421016714394
         ]
      ],
      "biases": [
         [
            -0.5245690163956276,
            -0.3194999969855646,
            -0.9989450994618623,
            -0.1574460225862347,
            -0.3335875911243421
         ]
      ]
   },
   {
      "weights": [
         [
            -0.34592961798072985,
            -0.4412478917473338,
            0.06443386868809427,
            0.19504481148121303
         ],
         [
            0.3298444107153486,
            0.5260546267177841,
            -0.9002153085472945,
            0.0810081356197889
         ],
         [
            0.9521846891291603,
            0.7287708268213852,
            0.02920953955134651,
            -1.7161566256065814
         ],
         [
            0.40657829451641325,
            -0.7567149507351499,
            0.4463652528014159,
            -0.19141466448160296
         ],
         [
            0.17300454966151094,
            -0.4690340599934991,
            -0.03157844725460365,
            -1.1849000010842419
         ]
      ],
      "biases": [
         [
            -1.147122109872679,
            -0.4165884931476671,
            -0.1633185729200534,
            -0.4111079668852706
         ]
      ]
   },
   {
      "genes": "1010110100110111110111111100100111011001101101111101101100110011111011100100001011011010001000100001100101001010101011001001101010111000111100001010001000100110011011010100101010101001000111000001100001000000100010010101110100000010010011110100111000000011011001101000001111010101001010111111100100010010111011110010010101000100100010100000111100111101011100010001100100101000011010101101011111101101000110000000101101010101010000010000011001010111111111110011101110111100111010100100101101100000000011110110111001010001001100011111001011101110011110010000001000110110010011101110110110110010011110001001001110011000100101110110111001000110110101001000110111000001010010001111001000000010111100"
   }
]