[
   {
      "weights": [
         [
            -0.10354941923525518,
            -0.5041842184058408,
            -0.3725587553574676,
            -0.03138158217603544,
            0.7600253665102521
         ],
         [
            0.8981559145546673,
            -0.8449581252047966,
            -0.9479194066172545,
            0.6929368329698302,
            0.8582535736307556
         ],
         [
            -0.14843120070826993,
            -0.0934145833290428,
            0.04353353920723774,
            0.2671515049174221,
            0.1845134317417963
         ],
         [
            1.032320346395871,
            0.0436868246986319,
            -0.8167688399485907,
            1.0637889857342593,
            -0.14718820678284308
         ],
         [
            -0.15262922513076915,
            -0.2942051985519504,
            0.10792557052718092,
            0.10190960754891032,
            -0.6559128872308146
         ],
         [
            -0.27474230451471604,
            0.2117123474654677,
            0.4897841213980723,
            0.914804716749988,
            -0.7346374384447929
         ]
      ],
      "biases": [
         [
            0.13101768476313075,
            -0.806726544025534,
            -0.7271291693086424,
            -0.3230230004411503,
            -0.48485393340301
         ]
      ]
   },
   {
      "weights": [
         [
            -0.8300243016998233,
            -0.7808585013994381,
            -0.7274754011925384,
            -0.47037109093920226
         ],
         [
            1.8143930423067414,
            0.6979696843891459,
            0.0023691887985521683,
            0.4440426573825618
         ],
         [
            0.4472740812857171,
            0.9244513759934895,
            -0.16328073413037483,
            0.07074310665918432
         ],
         [
            -0.3510562055424253,
            0.8017487264698626,
            -0.3562984473133051,
            0.02481939602042721
         ],
         [
            -0.22346800308385573,
            -0.45778007474220245,
            1.0159542975914369,
            -0.9298867239469343
         ]
      ],
      "biases": [
         [
            0.007797337337893895,
            -0.3805902489633518,
            0.17034602921799288,
            0.4708141562509234
         ]
      ]
   },
   {
      "genes": "1100001000000101010011001111101111111100111111001110101101101010010000111100000101011101110001100110101110110011101001011001100110001000001010110011000011000001100110101110001011111110111110001011001011011101110111100111000111010001100010001101111000110101010100101011111011011000001011000001111111101111001010001001001000110100110100100011011100100011010011010100101000101101011101010001101101001001011110110111010110110110000000010010100011010111011111101110100010110111000011011011001101000010110001001011101011001110111001111100110001011000010110111000011011010011011110110000111100100111110001010110111000111100001000000000010000000110010110110110111110001010000000011100111001101110101100"
   }
]