[
   {
      "weights": [
         [
            -1.652587900626625,
            -0.4117311243259018,
            0.21138904414549942,
            -0.06524263530371423,
            -1.126496280895911
         ],
         [
            1.7660619418874879,
            -1.7443537091385544,
            -2.0,
            -0.7654330504816726,
            0.3519703883235759
         ],
         [
            0.6844360460052703,
            -0.3895287257135639,
            -0.24614789993045033,
            0.5284170054614706,
            -0.0806117598516376
         ],
         [
            0.11511682391253461,
            0.8209585067708011,
            0.4559477761919666,
            1.5027433810251758,
            1.1261126331431135
         ],
         [
            -0.46242569058969124,
            -0.21226713441056788,
            0.0002441675627171819,
            0.301298979810194,
            -0.05814299413311896
         ],
         [
            0.12811165300377556,
            -0.4227208520095579,
            0.11708147983701321,
            -0.1523987997044779,
            0.5132098654328686
         ]
      ],
      "biases": [
         [
            -1.1110867282886765,
            1.0225070564215273,
            -0.02880883454403374,
            -1.0821902513749,
            0.1570672696232489
         ]
      ]
   },
   {
      "weights": [
         [
            -0.3376313816339463,
            -0.5124921476659163,
            -0.5344745353424368,
            0.1123890788546504
         ],
         [
            0.34098596719571433,
            0.16270774370743185,
            1.7304793474389946,
            -0.10804050501490947
         ],
         [
            1.6665271584848185,
            1.7359991417347813,
            0.16193163977783318,
            -1.798532535829906
         ],
         [
            1.2491366795560022,
            -0.012983103089337568,
            0.39992366798535806,
            0.08179593552430828
         ],
         [
            -0.3281556418362761,
            -0.253585409712608,
            -0.6732863984648111,
            -1.4053778815653704
         ]
      ],
      "biases": [
         [
            -0.7160495245714112,
            0.02045396595891085,
            -0.44320971606919823,
            0.2839893626150905
         ]
      ]
   },
   {
      "genes": "1111001111011001010000111100111001101011111111101111101110000110010011010011111110111010100000101011010101101011010110010010001001010000100100101001111010111110110111101100010010110100101010010101001001011110011100001111000001100101000000011110100101011010010011100111111010000111000100010000101110011100010011000001011111101001100101110001101011000011000111100111011001101000110000011110010111100011110000000101011011110100010111111110100100110011010100001001101110000000101010101001000001111001011011000100111001001011110000101001111101011110100000100101101010010001011111100110010010000000110101011001111010111100101000010010011011000100100011011001011101100010100110111111000100010010100111"
   }
]