[
   {
      "weights": [
         [
            -0.443102930565181,
            -0.9922178562319008,
            -0.8101450266056112,
            0.8820091401058007,
            -0.17502545382187568
         ],
         [
            1.7538863880644426,
            1.91254711511234,
            1.5031009118694028,
            1.6473185849777943,
            1.7618495318060565
         ],
         [
            -1.4068427015317329,
            -1.332303946547021,
            0.48446272780826627,
            0.7596824879189075,
            -0.38843655348747086
         ],
         [
            2.0,
            -0.76840698714149,
            0.06378583490736543,
            0.5733430053501195,
            0.29842592655837197
         ],
         [
            0.4122043837567117,
            2.0,
            0.759252970756623,
            1.052119831904042,
            -0.6301509375057948
         ],
         [
            0.2636461657232425,
            -0.3099252644584783,
            0.2322859164014162,
            0.2236830488456649,
            0.7877195917511471
         ]
      ],
      "biases": [
         [
            -0.011860193306448281,
            -0.5528292012616568,
            -0.6032574908537951,
            -0.608933572111369,
            0.11213009544745005
         ]
      ]
   },
   {
      "weights": [
         [
            -1.2123198560921151,
            -1.4154204643879749,
            -1.459442659360931,
            -1.0002392276183267
         ],
         [
            -0.5111051265166912,
            0.9730227869095026,
            0.3205589982050957,
            0.6724974771338321
         ],
         [
            0.10022412077482064,
            -0.013884905805177455,
            0.4209006658196538,
            -0.5254175034798009
         ],
         [
            -0.4444066604728537,
            -0.37362294294167814,
            0.14125021442244043,
            -0.4484412127273466
         ],
         [
            -1.2712016427185775,
            1.636042926904722,
            0.28561713788492765,
            0.057046872279918406
         ]
      ],
      "biases": [
         [
            -0.5061601914977869,
            -0.529009711246102,
            0.46492389100962106,
            0.4488482179587279
         ]
      ]
   },
   {
      "genes": "1011100011000011110001010000110101011000101001101011100101100010000111100110001111010010100101111010000110001110110100111111001000111010011000001010110000010011010001111001101010100101110100000001011010101100100100101001111001000101100100010110000110001011000000010101000100100001100011001101100101101111100111001110100110110110000001111000011110001010000000111100100110000010101110011000100110011110001110110001000011010101111100010111011101011001111111100010100011010100000010010110011100000100000110010010000001000111001010001010011000110010100010011000010000011010101101010110100111111010001101100011101110100011110110111001000000011001011101000000100001101000010100000110110001100100101010"
   }
]