[
   {
      "weights": [
         [
            -0.39897948875856126,
            -0.1652328590405388,
            0.5770461087060025,
            -0.0009116691830665241,
            -0.8929671079699462
         ],
         [
            0.6075129628372179,
            0.22216748424151098,
            2.0,
            0.3044293647242995,
            0.33291290832174786
         ],
         [
            -0.08866659314424027,
            -0.03409246260439598,
            -0.750656712167662,
            -1.446242256883074,
            0.44560503374013577
         ],
         [
            0.40748320176153874,
            -0.9491184379253257,
            -0.8609973232698961,
            1.0113951998182815,
            -1.7110213676730974
         ],
         [
            0.14284420552243987,
            0.4418111663349817,
            0.3068627085297556,
            -0.17022490758210446,
            -0.0716191127696909
         ],
         [
            0.07223198897415861,
            0.37234202204560846,
            -1.175374253995324,
            -0.7455377465767999,
            0.7746846581643709
         ]
      ],
      "biases": [
         [
            0.039703525497771903,
            -0.8021982068053171,
            0.8684588396685733,
            -0.7873415914478155,
            0.18440266145633216
         ]
      ]
   },
   {
      "weights": [
         [
            0.27436589420946667,
            -1.8735424862364958,
            -0.21345332689019564,
            0.00837313182059219
         ],
         [
            -0.7123360872113551,
            0.0725174802747904,
            0.6818262666225701,
            -0.3558361046237304
         ],
         [
            2.0,
            0.3598761418965179,
            -1.055641784243618,
            -0.8328776750823148
         ],
         [
            0.030797782120419833,
            0.8635708381512035,
            0.10007411206381898,
            0.8890711834876829
         ],
         [
            0.04439747575625853,
            0.15532435036734635,
            -0.44380675613912857,
            -1.1258460025694295
         ]
      ],
      "biases": [
         [
            -0.7638256474281928,
            0.47975575613915844,
            0.09283363300296327,
            0.5493973397494418
         ]
      ]
   },
   {
      "genes": "1111000010101010110001101100111000000010101000001001010100010101100011000010010001100111110001001011010101010011010000101100100010110101101001001010111011101000111110011111000011000010101001001110100010100001100010011001101001000101011110010010101101110000111011110010110001111111001111001100111000100011001111000001110000000101000010110110010100100001110100100000001101111111111000111101010101111110000000100000000101011001110110000010111101110001100010000001000011100010011100001001011101000010111100111000101010010110001010000101110111001001100010111110000001010011100000000110111110100011001011101010010001000010111101101101100110110110101001000101001011010111101100000100010100101111100010"
   }
]