[
   {
      "weights": [
         [
            -0.5667494180294813,
            1.0393130966252313,
            -0.013846366377082892,
            0.42870868185949296,
            -1.3696874342941374
         ],
         [
            -0.8045135552641722,
            -0.6580607884697893,
            0.5779920791340311,
            -0.6891764194491071,
            -0.6001357745150455
         ],
         [
            0.059577608514506795,
            0.1746199444626004,
            -0.12250187252111892,
            0.20773293260025566,
            0.255166978642059
         ],
         [
            1.212304435535037,
            0.597630198489163,
            -2.0,
            -1.5663914820480904,
            -0.14571741588203177
         ],
         [
            -1.3382672669653304,
            0.29404082524005865,
            0.5975450135175449,
            0.9435113657761431,
            0.060215404169985255
         ],
         [
            -0.3296370075261956,
            -0.40322924036502544,
            0.1942195548303629,
            0.6210790747477785,
            -0.2322538358876266
         ]
      ],
      "biases": [
         [
            -0.9726725515395926,
            0.08257609994707332,
            -0.4501566014910995,
            -0.22196105252479142,
            -1.1318220453637635
         ]
      ]
   },
   {
      "weights": [
         [
            -0.4453543838837581,
            -1.1506859287587978,
            -0.9364506268490906,
            -0.03354810737888984
         ],
         [
            0.16363202474939914,
            -0.5849692395734671,
            1.3297651785274416,
            0.7546842651083282
         ],
         [
            0.6708218590847498,
            1.8412823210130909,
            -0.18999755485206601,
            -0.4155489180151253
         ],
         [
            -0.8316300956477156,
            0.597215097687109,
            1.0608616899246461,
            -0.5992279247380718
         ],
         [
            -1.9180000000000001,
            -1.5550190210116377,
            -0.11421561118132237,
            -0.8374663716986008
         ]
      ],
      "biases": [
         [
            1.0197106150780884,
            -0.07734069545336131,
            0.4399115038378975,
            0.7531973349263452
         ]
      ]
   },
   {
      "genes": "0111010110110111100000011000101000100111100111011101111110110110101010101111110101111110001110110100001100010101100100101110101000011001110001100011010011000010010011101000101101001110001011110100011100011101001100100010100010001011010111110101011110010000111110001000001010010000000101010110101100101001101101001000000101000001011000111000000010110011101111101001100010110111110000010111001100000010011101000101001011100000000010010001011101010111101001010001111110000010011100111011011111011111010101101110000111001000000000010101100110110101110100101100101000001001110100100010100011110110010101100111000000110011010000000010100011110010111011101000111100010110010011000011100110110111000101"
   }
]