[
   {
      "weights": [
         [
            0.1795656191437203,
            0.7050272655367834,
            -0.6700746571749958,
            0.19344437693935876,
            0.39848378832595194
         ],
         [
            0.6865616577317522,
            -0.44733867618556195,
            0.23151421071064493,
            0.1903412683284589,
            0.006138553338392324
         ],
         [
            -0.10987724138111701,
            -0.25298093585679005,
            -0.4970593796528652,
            -0.005485646951555456,
            0.017372268998821574
         ],
         [
            0.7376929359173486,
            0.15208506647139897,
            -1.012883884356437,
            0.18246157344707603,
            -0.8628430735593048
         ],
         [
            -0.28346992962743645,
            -0.8091741944494177,
            1.57206814150222,
            0.8152334840892417,
            -1.0103147191764257
         ],
         [
            0.3305435145159906,
            -0.09444739000622158,
            -0.0904415115608311,
            0.7700790566611667,
            1.5268974740409358
         ]
      ],
      "biases": [
         [
            -0.6708672587712815,
            -0.6176858286768995,
            -0.3996424554892557,
            -0.025279655589198126,
            -0.6647379930007096
         ]
      ]
   },
   {
      "weights": [
         [
            -0.6606110209451939,
            -0.41023727847790703,
            -0.6871462150030583,
            1.4207875959474385
         ],
         [
            1.8400833027249472,
            -0.1888674602451868,
            0.39660325532945284,
            0.22716212750284365
         ],
         [
            0.37007675238824234,
            0.8783018098228706,
            -0.0952187922428867,
            -0.24445511823274488
         ],
         [
            -0.12390576146396391,
            0.2936354680220547,
            0.7282236420612141,
            -0.5351226398072932
         ],
         [
            -1.6694697287551878,
            -0.5531597116419017,
            0.20102067122023162,
            -0.7315000215824021
         ]
      ],
      "biases": [
         [
            -1.1121229877805217,
            -0.2136504591506379,
            0.03166461419578755,
            0.08883894868098265
         ]
      ]
   },
   {
      "genes": "0011100100111010110110111110000111000100100111001000000001001010001000010100110100011110011010111100001001111001101111101010101001000010111010101111010111110110111110100001100100111010001011010100001000000010111110100101011100000010100001000001010011011001100011111001011100100100110110011000100110000110111111110011100000100000110100010111101010010001100101110100001000110010010001101011110000001001001100111101001110100111110110111000000000001001011100010100111010011100011100101110000011101001111100010100111000011011001101100111100010100011000010010111100010101111000010010111101100010001100101111001101011100011100000011101001000011000000111010011111101110011110000011000001011001111110010"
   }
]