[
   {
      "weights": [
         [
            -0.3814078205527949,
            0.03075560758009689,
            -0.3305056468082389,
            -0.08524707910276179,
            -1.631961756118704
         ],
         [
            0.5172439506617998,
            0.07846662864049016,
            0.08078855062182379,
            0.21094747638361036,
            0.7352270314138826
         ],
         [
            -0.48840465849139714,
            -1.0566924047272377,
            -0.2629009801439869,
            -0.4597449177365183,
            0.039516101638547615
         ],
         [
            0.9742115196893693,
            0.07864613346548002,
            -1.2640856449952182,
            -0.18684550829570806,
            0.3217639943170769
         ],
         [
            -0.7885460446466862,
            -0.36265650064298066,
            0.7430441265663964,
            0.8037069268001918,
            -0.14576246726783612
         ],
         [
            -0.06404408263722217,
            -0.5839341038256083,
            -0.7782751385349237,
            1.008433065425059,
            -0.14209454038429387
         ]
      ],
      "biases": [
         [
            -0.08842036430607514,
            -0.823999091947804,
            -0.520597308399315,
            -0.61019557308179,
            -1.0978574510632495
         ]
      ]
   },
   {
      "weights": [
         [
            -0.07314642965911493,
            -0.2627611718990764,
            -0.5251940078742671,
            -0.10488438917755674
         ],
         [
            0.24143734163319264,
            0.06919446355568931,
            0.011311236684013848,
            0.1748745104543577
         ],
         [
            0.1815121255318266,
            1.3716673037351619,
            -0.4423161277721193,
            -0.019428582044742418
         ],
         [
            -0.08670577472747945,
            -0.11272027847091073,
            -0.041488710745946566,
            -0.40081291228324045
         ],
         [
            -0.8935104802770456,
            -1.2889482096126654,
            0.2189259633856553,
            -0.545776123338136
         ]
      ],
      "biases": [
         [
            1.414250431417833,
            -0.24543982900037328,
            0.022814174337535686,
            0.8706309703408569
         ]
      ]
   },
   {
      "genes": "0011011111100010000000111000110110110010001010001111011011001100000101101000011100011110001111110111110100011001100110001100000101011010011101111001111100110001000011010100011111100010111001011111110110011100010100000111000100011001100111001011011001010001010001000001001011110111011110111001101000011011000111011011001101011101001010011111001111110001000111000100000111010100010110011011111000010011101001010000110010100111100001110110011101001111010110111100110100001000010101110101101100111010000001111111010000111100000000101101111110101001110101010011010110110110101110111000010110111101101111001110110011101101111000110000100001001010111101010111110011110101100001001101000001101001100000"
   }
]