[
   {
      "weights": [
         [
            -0.2741777257082318,
            -0.6977461331634108,
            -0.4917622838696748,
            0.4603494116774176,
            0.44197184010814927
         ],
         [
            0.04684748882020032,
            -0.1550174454264985,
            -0.012396415219410265,
            -0.8346693449409678,
            1.5692801218764996
         ],
         [
            -0.12700200306393566,
            -0.43428890756515787,
            0.16248042462913828,
            -0.07816706800263139,
            -0.4512241675215213
         ],
         [
            0.2926646197981789,
            -0.6301149323228272,
            0.1362486764066304,
            1.3586978377620182,
            -0.7161917365008246
         ],
         [
            -0.056620385763638974,
            -0.8395060686222607,
            0.7625804071592891,
            1.2072724134778383,
            -0.6950987430376323
         ],
         [
            0.15960370058779397,
            0.5832233876310744,
            0.13671775982701892,
            1.4919640001955798,
            -1.5180361643880118
         ]
      ],
      "biases": [
         [
            -0.7219424898538185,
            -1.3557114688704477,
            -1.3665388962298082,
            -0.5333504308149456,
            -0.49939289595039416
         ]
      ]
   },
   {
      "weights": [
         [
            0.010052649025173901,
            -1.2116355021640624,
            -0.6108488625929874,
            -0.9867825797049229
         ],
         [
            0.21219840742149979,
            0.47746880949573894,
            0.7467439700752004,
            -0.5536228347210682
         ],
         [
            1.2621433967002393,
            0.6696832266537371,
            -0.48688160239202427,
            1.1498302700990235
         ],
         [
            0.22985531638208428,
            -0.39226010083952606,
            0.6221794090523396,
            -1.924
         ],
         [
            -0.7608308331282662,
            -0.7294968954638936,
            -0.6569412652412729,
            -1.1567230087600369
         ]
      ],
      "biases": [
         [
            -0.6742831611916968,
            -0.46193363240007623,
            -0.14143361732789947,
            0.23095398103108744
         ]
      ]
   },
   {
      "genes": "0010100100101100010011111000011110010011100110001100100101100010000101000111101010011001110111101000010101110101001110111101111000000101111111110011010110010101001010110111000010000110101100010001111001101000101111111111101101110010010000011100001000100011101110010111110111110011100000101010011011110010100100001010110000110110101010101100010011111101001101001000011101011101010001000110000011100001010000010101001111111010100010010100111111011000001110000001111111111000110100101011111000101001101111000011100011110100101001101100100101111110111000000001000010100011111000001010110110101011000000010101000001001010001011001000100111010011100101000011010000001011110110010110110110000010111010"
   }
]