[
   {
      "weights": [
         [
            -1.3092427493164744,
            -0.7915983589817006,
            0.05697221558627644,
            -0.021901939850352714,
            -0.4364228598888948
         ],
         [
            0.485411213653291,
            -0.40669266686284244,
            0.6743292569271521,
            -0.3390967807407469,
            0.7540942841562935
         ],
         [
            -0.2003781042167826,
            0.18806327906547257,
            -0.33440184900852293,
            -0.12816706197376074,
            0.04739706745775123
         ],
         [
            -0.20755573365592866,
            -0.5260467727339944,
            -0.0016398209612461523,
            0.4131668788760153,
            -1.5409182805263597
         ],
         [
            -0.20950533532692223,
            0.0701664889462024,
            0.33158041318815995,
            0.49699809165327147,
            -0.40099255005465767
         ],
         [
            -0.8941980745202768,
            -0.08228810053175954,
            0.03269121761014593,
            -0.6574341933462223,
            0.11213553637365699
         ]
      ],
      "biases": [
         [
            -0.26502654824574373,
            -0.366278753565873,
            -0.4576159132723824,
            -0.13668671864248322,
            -0.10958759112434208
         ]
      ]
   },
   {
      "weights": [
         [
            -0.46043497284640844,
            -1.9312831913360502,
            -0.9155435607813704,
            -0.07101712437740441
         ],
         [
            0.0855789282579118,
            0.20003518011009797,
            0.7573802440363347,
            -0.16299186438021113
         ],
         [
            2.0,
            1.3416141831281923,
            -0.12559046768329807,
            -0.7598737033959766
         ],
         [
            -0.31361372473191285,
            0.14080184104796206,
            0.17691393262377353,
            -0.40992793860447496
         ],
         [
            0.9027806664894218,
            -0.28294822167040645,
            -0.4035784472546037,
            -1.0116964605142933
         ]
      ],
      "biases": [
         [
            -0.8011849417257513,
            0.09341150685233288,
            0.03409292187453815,
            0.31175929188601026
         ]
      ]
   },
   {
      "genes": "0100000101001011100010100100010100011011010110001111110111000010000011101001000011000111110111101010110001011011110100000100010100110010011000101001010110011101001110111010101111111001001011000000100101111001101100010001010010100110001000100000000100111111111111000101110110111000110011111100000111111000001010100100000110000101011110101001001100010101110000101110100011011010011111000110100100011011111001011100010000110000010001011110100011000010010101111111010110010001100111011001000110100110100010001100110011010010010110110100101101111110011011100001101101101001011011111111001110101100101101010010100011111110101110010100010100110000011101011111111101010010010001001010101001011111111110"
   }
]