[
   {
      "weights": [
         [
            0.9291351016231868,
            -0.2423682942814912,
            -0.11277115338115823,
            0.5530449516004184,
            -0.3046122212982116
         ],
         [
            2.0,
            -0.28189177569148477,
            -0.23343446670016438,
            0.3430005547884856,
            1.1273137597025593
         ],
         [
            0.028951983996022567,
            -0.3926906911136477,
            -0.6083735570048363,
            -1.2776405046847115,
            0.28319353291667343
         ],
         [
            2.0,
            -1.7795884991765376,
            0.17040353413978598,
            0.20702528622242533,
            -0.466494392531173
         ],
         [
            -0.570236293007151,
            1.334453197942493,
            0.3983414789764669,
            -0.46042311438742206,
            -1.5786491786756756
         ],
         [
            0.014429372131469914,
            -0.6073146367197618,
            -0.8986318413110503,
            -0.23695102130255827,
            -0.13168747130213812
         ]
      ],
      "biases": [
         [
            -0.12745575191894884,
            -0.7072345024703867,
            -0.5197884859130223,
            0.8490035176602403,
            0.17696107664027427
         ]
      ]
   },
   {
      "weights": [
         [
            0.2378225782960937,
            -1.5212921066695972,
            -0.26728249800749887,
            0.09247313724657584
         ],
         [
            0.24568512124088648,
            0.3960457994083958,
            1.6710528136625409,
            0.8272470517448698
         ],
         [
            0.14024663704551898,
            1.1307531360293834,
            -0.10348427470032343,
            -0.9136414047385023
         ],
         [
            -0.3666048733070414,
            -1.2950078653750432,
            1.3974006404142898,
            0.5620277861845558
         ],
         [
            1.4320293300338283,
            -0.18254114053050935,
            -0.14566694944557682,
            -1.4701531019174705
         ]
      ],
      "biases": [
         [
            -0.9621955670529192,
            0.25978497428165304,
            -0.15169907566985358,
            -0.334784956195041
         ]
      ]
   },
   {
      "genes": "0000000100100110111011111101110011101010100011110111111101001110000000100011000000011011110101001000010110000110101010001100010101100000010000000110010001100000110110111111111010001111001101011001011010011001100000100010010110110011000111010111100001100100111100000011101100010100100101001010010101011011010100011010111101100001101010100011110001111011011100011110101011010100010001100001111000110010000100100010000110101101011011100111100011010110000111010101111101111111111011010000110011111101011011110011011101011011111000000001001110110010101111001101010000000101011110000111011000100001101001011001010110010010000011110001110101001011100100000110110001011111001110001110010110001100001110"
   }
]