[
   {
      "weights": [
         [
            -0.8612529507618981,
            -0.279088638692293,
            -0.9760011879370144,
            -0.028909889251899218,
            -1.468731685389624
         ],
         [
            0.22464926392827056,
            -1.7238522258182893,
            -0.668011420439597,
            -0.6164684501522879,
            0.6252615471477847
         ],
         [
            -0.34220906732299466,
            0.939342946712412,
            0.08893526849589137,
            0.12275594509914735,
            0.3237829100010533
         ],
         [
            0.44413806250912946,
            0.34985054591440035,
            0.3029265436242423,
            -1.7545012107779168,
            0.19692772156171615
         ],
         [
            -0.2592124267158996,
            -0.27346802317037744,
            0.5580794960926583,
            1.4045821590885028,
            -1.8623615555983184
         ],
         [
            -0.9864635509488431,
            -0.03541374615129117,
            0.08473810242915954,
            0.10550917441543814,
            0.1781921686119963
         ]
      ],
      "biases": [
         [
            -1.8166282702997532,
            -0.4311203540569949,
            -0.30790882188340557,
            -0.3525539713848942,
            -0.33213357693446655
         ]
      ]
   },
   {
      "weights": [
         [
            -0.27451280750811885,
            -1.0848124764016545,
            -0.9792276396714561,
            0.89068728505708
         ],
         [
            0.29385680994481356,
            -0.27195862027516987,
            1.7686226838505281,
            -0.004996265977163988
         ],
         [
            0.3249448950962372,
            0.9430832045995656,
            -0.03970286028100517,
            -1.0872648367134912
         ],
         [
            0.10134911978178743,
            0.2594265997163454,
            0.5255979873983767,
            0.724979085261151
         ],
         [
            0.18422667701791534,
            -1.0383420136152548,
            0.8637914181102871,
            -1.6305000034957906
         ]
      ],
      "biases": [
         [
            -0.7290114851483984,
            -0.29800885142487155,
            -0.001047798900079805,
            0.9843442372290845
         ]
      ]
   },
   {
      "genes": "0001111110011101001100110011010100111010100011101010100110010001010111010010011001101100001001100110011101001100001001100111110111111000011100001000101101000001111001111001101110000101000101011000111000011000101001100110010100110111010000100011011010011011100000000110101110101111110100011011100111101101111100110111111010111001101011111011011111100011011000011111011111000000111000011100000111111111011011010010011011001110001100111011000111100011111011110110001000111101111100101100111001011010100100101010111010101111011010110101110001111001101001010101101000010101111110010000101100100100001110011111100111101100100010001101010110101011101100010101100010101010000110001101101011110111000010"
   }
]