[
   {
      "weights": [
         [
            1.7494191588093386,
            -0.2150054642370806,
            -0.08647025316649443,
            0.836372381974214,
            -0.3416299181190838
         ],
         [
            1.7399999999999998,
            -1.4431351537022272,
            -1.5484432879806833,
            -0.6082383613365953,
            0.9369633228587428
         ],
         [
            -0.20257103151730424,
            -0.49331900964436565,
            0.8790379136742725,
            -0.8227661623619835,
            0.7249360058896539
         ],
         [
            0.29049737489329985,
            -1.2266122895559943,
            0.3245141468063257,
            0.2649810351269388,
            -0.34212980064220705
         ],
         [
            -0.17751063291832966,
            1.8628452280427865,
            0.2990228939986722,
            -0.909272670308961,
            -1.31395892428634
         ],
         [
            0.34426564488683076,
            -0.4459341038256084,
            -0.8710858253565729,
            -0.20066783599537868,
            -0.31337773774921485
         ]
      ],
      "biases": [
         [
            -0.017433629385640886,
            -1.211110606637669,
            -0.1973424572979165,
            0.675578739699471,
            -1.4412601607505469
         ]
      ]
   },
   {
      "weights": [
         [
            0.15079603005035003,
            -1.5269204312291857,
            0.4058714938755557,
            0.5261306739197884
         ],
         [
            1.1612505958607915,
            0.25489535532993457,
            1.2211059101540276,
            0.09465413891363764
         ],
         [
            0.8209838124270923,
            0.42298323690281725,
            -1.0070948843524279,
            -0.5475520306685572
         ],
         [
            -0.17125974008350306,
            -1.81555653313966,
            -0.18415331288399261,
            1.001930438597582
         ],
         [
            0.7562594309072616,
            0.8263614757092927,
            -0.2792421654559368,
            -2.0
         ]
      ],
      "biases": [
         [
            -0.6560256462224183,
            0.23898671080495146,
            0.05692039143599292,
            -0.20826723827312132
         ]
      ]
   },
   {
      "genes": "0110111010001100101010001111110001101000011011101111100011001110111010000110011111110101001001011100010010011000110111101000001101101100110100011000000001111000110110111010000110110011001111110010010101111111100011000111011000110110100001001001100000111010000011010110100010110001101000100010101010100000001100100000101111011111001011000000000110011101100111011100011100001110101010100001001000101000010010110101000000001100000110101010011001111110001001111100101000110100111101101101101111011111111111010101110100010011110101111101001010100000100110010011001010001011111110111100101010010010110110001000000100101000110010011101011101010000011110011111010100101011011011111001101111110100100101"
   }
]