[
   {
      "weights": [
         [
            -0.12282314740396474,
            -0.02387272300836226,
            -1.496299024863537,
            -0.024655592313400417,
            -0.4760104449843665
         ],
         [
            0.7125572259904458,
            -0.07069266686284253,
            0.06606287847526124,
            -0.0754419139642853,
            1.9563805268652827
         ],
         [
            -0.4617267671583026,
            -0.3887641241784052,
            0.03288749974016476,
            0.5796205460314193,
            0.63172538176826
         ],
         [
            0.4481345267622774,
            -0.22419723489906765,
            -1.2056630889339726,
            0.6272907747087327,
            -0.7815802308542659
         ],
         [
            -0.10039913631507688,
            -0.3669308586407716,
            1.537094553161133,
            0.5309449951617842,
            -0.42618723919973484
         ],
         [
            -0.34905116015979704,
            -0.07642083573160727,
            -0.036680463859136106,
            1.3447294856674514,
            0.5489448896771949
         ]
      ],
      "biases": [
         [
            -0.7534052891509885,
            -0.5332433538952579,
            -1.2752123497927261,
            -0.2907575179837135,
            -0.1480061694703789
         ]
      ]
   },
   {
      "weights": [
         [
            -0.04559333618206293,
            -0.7383832847861911,
            -0.5067603724597556,
            -0.45524747569479296
         ],
         [
            -0.8454930563836155,
            0.11132470048771814,
            -0.06510469588075476,
            -0.5817345851097403
         ],
         [
            0.5650077028338263,
            0.4599832188162053,
            0.3298457061991763,
            -0.9639091022782678
         ],
         [
            -0.2638349621227337,
            0.0497752928022184,
            0.30562190192059324,
            -0.9856120054368194
         ],
         [
            -0.06076004584477745,
            -0.04620485873184227,
            -0.1645076539422441,
            0.04430398877017931
         ]
      ],
      "biases": [
         [
            -0.35730087007031097,
            -0.12527875959474383,
            -0.1261061809252333,
            0.008502654824574352
         ]
      ]
   },
   {
      "genes": "0000100100000110001100001110100111101011101000101101100010010101010000100101111010011001000000011001000101111100101000110110111001011010001110100001110100000101000010111101000111100100101001011100111100010010111011001010000001111101101011001000101111000001111110010000010111110111011111110100100001010111010111111001011000110001101110001111111000101110100011110010101001110001001110110011010100001100011110001000011001011110010101011011001000110010011001010000000101101000100010111111001010110010111001000000011111010100110000011100110011000100111000010101010101001010001011101010111001111011110011001001111001101001110110000101011110110111011100001010111111111000110010100011001110001011001011"
   }
]