[
   {
      "weights": [
         [
            0.030451180449472762,
            -0.02468688528815656,
            -1.7703937146115014,
            0.12771519919029795,
            -0.7332192891745931
         ],
         [
            0.17004484786202845,
            0.2224506936641733,
            -0.08638667985782578,
            -0.07250298397280175,
            1.894961948519246
         ],
         [
            -0.16851173541108466,
            0.026213729172804442,
            0.022587495519955328,
            0.5265612559540704,
            0.3537448524914287
         ],
         [
            1.3933646216068414,
            -0.2526485611055807,
            -1.5299082287892691,
            0.8181447503138365,
            -0.2739899577754314
         ],
         [
            0.10708404175745789,
            -0.32929192684062686,
            1.53574234241502,
            1.4988268208022186,
            0.7930613759475507
         ],
         [
            -0.6170830180546893,
            -0.05691995480932957,
            0.0919752928829092,
            0.17020916416635812,
            0.13663995907165738
         ]
      ],
      "biases": [
         [
            -0.8889946722642391,
            -0.5903778629974015,
            -0.3084645852572081,
            -0.2808592912831232,
            -0.26946634107289313
         ]
      ]
   },
   {
      "weights": [
         [
            -0.12432697581678384,
            -0.8243664658731613,
            -0.37927631045050797,
            -0.4583474750919058
         ],
         [
            1.0413054541968347,
            -0.20925229545380925,
            -0.26821266276602607,
            -0.40426201427776176
         ],
         [
            0.3836439888527024,
            0.8258876451315281,
            0.3939165055404064,
            -0.7605639750836002
         ],
         [
            -0.27905797341585115,
            0.11151334609163371,
            0.10916260822592169,
            0.020323229525880657
         ],
         [
            0.18368242893686415,
            -0.503994240639319,
            -0.39992269654142903,
            -1.239931865008005
         ]
      ],
      "biases": [
         [
            -0.6595831593830364,
            -0.15889113712027425,
            -0.3678866993500971,
            0.39328851304294055
         ]
      ]
   },
   {
      "genes": "0001010110110110110101000001111100001000100100001100110110111001101011010010001001001010011110010100010111001110100101110000100101001100110001111111001100000000100100010101011111001001000110100100111111110000001101101010010001100111001110111001110100011110110000101001000100001110000010111101010111000110100000011101000010100010111111010011011010100111110100011011010001111110001110001010100101000000110011011001011100001100111010101101111011010010100101101101100000010110001011101101000110100100010111100010100111100011110111010101000010101110110111001110100100001001100110101110111010000111001010110101000100011001100011110001111111111011100101110001011011001011010011100010001000100110010010"
   }
]