[
   {
      "weights": [
         [
            -0.4062963118918008,
            -0.12585502015861938,
            -0.19398353331823692,
            0.1692130985286227,
            -1.429466184845575
         ],
         [
            0.680827140189189,
            0.1025462673488505,
            0.3265301396580912,
            -0.6039861560164659,
            -0.23503578114680307
         ],
         [
            -0.35687368754765286,
            0.8568261247849469,
            -1.2609921160584874,
            0.6294523991032153,
            -0.20702905449469935
         ],
         [
            1.0797292195246762,
            0.9788912492052934,
            -2.0,
            -1.2828959168038316,
            0.09807904957689033
         ],
         [
            -0.7192221500197427,
            -0.39349191357711144,
            0.6371467898313897,
            0.585493687041883,
            0.018476472972727587
         ],
         [
            -0.20914850171790023,
            0.30006279033815475,
            0.2706912176101459,
            0.12907287513304638,
            -0.8493954345700871
         ]
      ],
      "biases": [
         [
            -0.23090266447076752,
            -0.585804420889339,
            -0.4273150251154599,
            -0.2572707921065854,
            -0.9569574504603623
         ]
      ]
   },
   {
      "weights": [
         [
            -1.3127658786783496,
            -1.91,
            -0.4054417874819609,
            0.4175757824249571
         ],
         [
            -0.19841223237495814,
            -0.997495778775905,
            1.8225740311580885,
            -0.32508565210485
         ],
         [
            -0.693974576229819,
            1.4621504501073317,
            0.1697458080864982,
            -0.5390303402719754
         ],
         [
            -0.7265637280477918,
            0.1434213081538086,
            -0.09220110575520193,
            -0.5919704157976649
         ],
         [
            -1.8257345175425632,
            -0.8921296397070472,
            0.9358604495780912,
            -1.1485619393544075
         ]
      ],
      "biases": [
         [
            1.2880282980325584,
            -0.15938495257771856,
            -0.2653619581654387,
            0.6454353852013254
         ]
      ]
   },
   {
      "genes": "0111101101011011001101101001111001100010110001000000000110001100100110111111100101000010000010000111100101111110011010110011000101110101011010010001100000011100110100110101100010001000101110101100110000010010111111111101011100101101010011011110011101000001101010000101101001101001101110101100001111010111000011101010010111101001000100011011101000011011000110000101101101011111110000111001100100011001011110101011001100011000101010001111101100010111100011010111110111001111111000100011011110101000000100110001000001010011100110001101010111101000010111001000111111011011100100101100011000111010010110111110101001101000110100011110101000111100010000011111101001110100011010011101100001011011100110"
   }
]