[
   {
      "weights": [
         [
            -0.088529954540957,
            1.0353839019953321,
            -0.2826295305832151,
            -0.06237980827373876,
            -1.4779883103933185
         ],
         [
            0.9375528123357513,
            -0.9459369046948132,
            0.01706731624543826,
            -0.718731286828456,
            0.4384836865619304
         ],
         [
            -0.3453692829362645,
            -0.2387163373360664,
            -0.639838148290915,
            -0.004063520800925133,
            0.09264883080952462
         ],
         [
            0.6571274552685733,
            0.31367886926821476,
            -1.844970594558502,
            -1.1547277879622402,
            0.18342416471381667
         ],
         [
            0.03306988068343775,
            0.04933285594323902,
            0.13949545277290937,
            0.610467126738398,
            -0.811869968069268
         ],
         [
            -0.2505131116934781,
            -1.1061318927780517,
            -0.054337970387995475,
            1.0917259981515646,
            -0.2285281757988054
         ]
      ],
      "biases": [
         [
            -0.27888672346557997,
            -0.5382380382172384,
            -0.35366988164284185,
            -0.2747309817957111,
            -0.9671583452490427
         ]
      ]
   },
   {
      "weights": [
         [
            -0.30304465635970534,
            -0.33664611543348877,
            -0.4970701120415494,
            0.019044823538954366
         ],
         [
            0.4363488334133489,
            -0.30025684456421164,
            0.2359103491299785,
            0.6472683325435596
         ],
         [
            -0.2281188387801597,
            1.6114416346030351,
            -0.2531833865434009,
            0.04748293385089643
         ],
         [
            -0.15856815978909838,
            0.5139230669839285,
            1.3971493009442617,
            -0.47742263196976137
         ],
         [
            -2.0,
            -1.62690396454605,
            0.10962066157403845,
            -0.583696460514293
         ]
      ],
      "biases": [
         [
            0.9604185723171667,
            -1.1366017521983622,
            0.149362842102152,
            0.6720203426021405
         ]
      ]
   },
   {
      "genes": "1010100011101001010100110100011011101101100001101101110011110000010110001010101101110111011011010111001011101010100100111101010100101001101110011110011001111101110001100011000110000011100110000011110001110000000011110100001001000010111011001000010100001100011000010000010100101010010100000110000000010111100011011011010000011101101101110110111000010001001101101111100111001111111000101110111011010011001000001111010101101101110111010100110010011111110010100101011000110101100000000100001110101101110101111111011111001001010010101001011100111100011001110010110101010101101011100110110111110110100101111000100100111110110000001010010000111000010111100001101101011010100010011010001111011000101010"
   }
]