[
   {
      "weights": [
         [
            -0.8905618003781084,
            -0.20423023134588278,
            -1.0578445502726914,
            -0.1341143137585608,
            -1.5542502691616444
         ],
         [
            0.31537227220695274,
            -1.7843654999411613,
            -0.745361863312284,
            -0.5996516360623546,
            0.6759739361281695
         ],
         [
            -0.41370641249842033,
            1.012578345177253,
            0.15644323296961446,
            0.0720647947153576,
            0.35454751153621233
         ],
         [
            0.4644938150309653,
            0.31505497042106195,
            0.25137698589404234,
            -1.8777994410958294,
            0.17972329705505455
         ],
         [
            -0.2663956126259663,
            -0.35982377569221324,
            0.5549069294808892,
            1.4813883538801387,
            -1.8334084585039438
         ],
         [
            -0.9218458517164225,
            -0.09819870234633211,
            0.13110447424929283,
            0.197550767671915,
            0.24405588560755526
         ]
      ],
      "biases": [
         [
            -1.8353503946417222,
            -0.35781150444078463,
            -0.3563796188130875,
            -0.31848052023352497,
            -0.3188769398730306
         ]
      ]
   },
   {
      "weights": [
         [
            -0.19075351562210857,
            -1.0225921229475468,
            -0.9780232151647945,
            0.9431589659234749
         ],
         [
            0.19966831438559812,
            -0.18950817800536984,
            1.8589262238175897,
            -0.12925821268774865
         ],
         [
            0.3851856032102269,
            0.8826743555862424,
            0.07780510419271794,
            -0.9810551025576807
         ],
         [
            0.009045579814725924,
            0.31166730783033514,
            0.6361528547777254,
            0.8161206779147407
         ],
         [
            0.11883375695203836,
            -1.1603313943169573,
            0.858168409228718,
            -1.6314743391867599
         ]
      ],
      "biases": [
         [
            -0.726822989589183,
            -0.1664796483545535,
            0.04767432544188934,
            0.9117159186983665
         ]
      ]
   },
   {
      "genes": "0010111000011010111111111100000010001110101101011000111000100000101111100011110110110111100110110000110000000000001001110011010100101111011001011100110110001000110110110110000101011001100011110001111001011100110010110101000001111010010001110011100001000101101000110001100111010000010111100000100000100100011111111110000000011110011000111110111101011000001111101000011001001101011110110001001101011011100000111000011101000111010011011110110110111011110011100101110111000001011110011101101011100001100011010111011011000111000000011111111011101011100001110000001010010000111011101100010100100010101011111001011100110110101001111010010110001000101100110110011011111100110110111000011100010110011000"
   }
]