[
   {
      "weights": [
         [
            -0.006522870989511487,
            -1.0171700573318205,
            -1.3794551719825374,
            0.08644438296822944,
            0.18459130721399575
         ],
         [
            -0.49142238317644815,
            -0.5148581438942956,
            -0.4808043682382792,
            0.41345540468410924,
            1.2499526854738334
         ],
         [
            -0.6461834211005761,
            0.14425178668242927,
            -1.6432788310836484,
            0.3859479643474735,
            -0.10503656795676028
         ],
         [
            1.1496540065287537,
            -0.3911751183946303,
            -1.1647068799744906,
            0.06695449291006592,
            -0.053666099321711874
         ],
         [
            0.1613619234443594,
            -0.2756919244290786,
            1.884,
            0.79535206424394,
            -1.0480828624873073
         ],
         [
            -0.7404431842312196,
            0.9169441860679738,
            0.0005496370142974508,
            0.6627418969546577,
            0.749931983745967
         ]
      ],
      "biases": [
         [
            -0.7665132741228718,
            -0.34412830948741163,
            -0.3130229883834092,
            0.22290175641857185,
            -1.1669508149061443
         ]
      ]
   },
   {
      "weights": [
         [
            -0.38902430772869384,
            -0.8777877080870786,
            -0.23050196149602326,
            1.0441858437490765
         ],
         [
            -0.7595891945548097,
            0.6883856169539144,
            -0.042318855749000794,
            0.10743557141956796
         ],
         [
            0.23221126149038668,
            0.9101956168398958,
            -0.2675639194375544,
            0.13287584185903198
         ],
         [
            0.31341456727177414,
            0.5850071555202073,
            0.17103340877292603,
            -0.835892992959957
         ],
         [
            -1.8120980472859056,
            -0.7376543989783175,
            -0.33284393574091103,
            -0.7350902765746241
         ]
      ],
      "biases": [
         [
            0.5394057492059567,
            -0.7429406858071682,
            0.7069920144252297,
            0.7720265361880021
         ]
      ]
   },
   {
      "genes": "0100001011100001110101001000101011000010110101100011011110000100101111011001001100011011110011010110011110001000101100100110111000010111111101111111111001111101001000000100111101001010101001010011000011001001111011100100010001001101000100101110010001101011110001111111111111110100000010111110010000111101101010001011110111010111000011010100111001010100100111000111111011110101000100001111011011011111101010110001100111110011111001010100101010001001010000010011011011101111111110100000110011000001111001110101100001100010000110000001101101101000011000111010101111101011100001001101010001111110100101000110110011000001001011011111011011010110011101101001110000011001000110101011101010100010100100"
   }
]