[
   {
      "weights": [
         [
            0.07745943821848703,
            -0.913568274989105,
            -1.448702957619102,
            0.14558301815334945,
            -0.676069704917362
         ],
         [
            1.4209382068818264,
            -0.10893160710340621,
            -0.2067778260214061,
            -0.12651270727664485,
            1.461929666946071
         ],
         [
            -0.020926796096881556,
            0.16493895935101044,
            -0.1849885983982469,
            0.661558573999578,
            0.13335635813798738
         ],
         [
            0.6033978054068022,
            0.1469558609895327,
            -1.8267882865562777,
            0.708690766268314,
            -0.26507669812184903
         ],
         [
            -0.07110710561189652,
            -0.4144087330930283,
            1.6094469246095595,
            -0.22148860407950338,
            -0.8985164918729482
         ],
         [
            -0.3587786062086565,
            -0.29822614055765945,
            0.04574432013050393,
            0.5146295103858212,
            0.2687735902659594
         ]
      ],
      "biases": [
         [
            0.025097335529232476,
            -0.46778318229274396,
            -0.5254672430962178,
            -0.49329644435787456,
            -0.1574371530747515
         ]
      ]
   },
   {
      "weights": [
         [
            0.20220843892600793,
            -0.45803196400566165,
            -0.035498861688656735,
            -0.2167339270124835
         ],
         [
            -0.22705822963993624,
            1.048300638452052,
            0.24688291694752168,
            -0.14729896420960736
         ],
         [
            0.2799988574378253,
            1.0856469249597973,
            -0.3113356045241589,
            -0.5171763586380009
         ],
         [
            -0.03292699403168821,
            0.07168857054241265,
            0.024516586845460837,
            -0.3196978497887825
         ],
         [
            -0.13697153581627242,
            -0.4885504339237373,
            0.10617375505109047,
            -1.5819389123862264
         ]
      ],
      "biases": [
         [
            0.04915134007291545,
            -0.5502699021410017,
            0.6118203558656561,
            -0.2881627950769603
         ]
      ]
   },
   {
      "genes": "0010111111100110000001011000101101101010100111011100010001110101110011010101111011000001110011000110011101010001100011010110100000000100000111101001011110001101011100011110010010100001001111011001010010010011110000110001001001001111000100111000100000010011010000110011100000000100011011000110110111001000110001000111101111110001001000100000011001001100001101000001111010100110001100000011011100111100110110110000101110011011100100111000110101110101111101101101011011101010101100110011000111100111101010001010100010010010010010011000000000011010010111001100010000100011101110100001010111001111101111001101010111011011010010011010110001101000001111110101100111110010111111000110111000010111001010"
   }
]