[
   {
      "weights": [
         [
            -0.2491511774624881,
            1.3623378769975498,
            0.3490306398135245,
            -0.7121895207256151,
            -1.3585891967415786
         ],
         [
            0.6818404293842375,
            0.1156436149358244,
            -1.6873813460931952,
            -0.26483129828331026,
            0.5733695080041853
         ],
         [
            -0.6827409101457105,
            0.11366504935044681,
            0.017869802919292542,
            0.09681613117095073,
            -0.03368698490530354
         ],
         [
            0.6834973326912054,
            0.054294800627209386,
            1.7550884728511025,
            0.4311898853460362,
            -0.20782007311815448
         ],
         [
            -0.15773542414261446,
            0.0800390453088916,
            0.3429485890549434,
            0.21183791221322568,
            -0.7637642049969091
         ],
         [
            -0.32918479135409906,
            -0.36498720634596643,
            0.24820447967527648,
            0.3972587188821228,
            -0.35929808095424254
         ]
      ],
      "biases": [
         [
            -0.3756663700114722,
            1.2236663458959893,
            -0.5474300695233061,
            0.2596318482486994,
            -0.6677380291739327
         ]
      ]
   },
   {
      "weights": [
         [
            -1.1922897781283892,
            -1.260793023765098,
            -0.206609934410165,
            0.6917961298501941
         ],
         [
            -0.0596193086917587,
            -0.18140728864267294,
            0.2906121067543243,
            -0.44589007902306016
         ],
         [
            0.19337939033197882,
            0.6939876565863822,
            -0.2355373711918108,
            -1.4035590901045194
         ],
         [
            0.08931548195572753,
            -0.8646653899905143,
            0.29480329584175113,
            -0.7016606762158709
         ],
         [
            0.024939065998300043,
            -0.30231548948499426,
            -0.5793041013145539,
            -1.2981035295964498
         ]
      ],
      "biases": [
         [
            -0.8394150305414434,
            -0.005818587992230048,
            -0.34678936382086456,
            0.4167194484163479
         ]
      ]
   },
   {
      "genes": "1000010100101101110001011000101010100111010101000100111001110000010100101010101011000001101111110110100010011111000100100100010000101110101000001100000101111100110000010101111001101011110111100010110010011100010010001100110000110000110001011011111000011100001010110010000110001010101010101111000110110001111110010011111000000000001111111001010110110110011011111100101101101111011011110000011001010010100000011100011001101101111011110110011011101110010110000111010101100101100000001100011101110011010000001100011101100111001101110010001001010101110110111001110011001101111011110100000011010001001110001011101001011100011000101111111100111000101111000111011111100000010010100111101010010101110110"
   }
]