[
   {
      "weights": [
         [
            -0.13505069389492527,
            1.8181905206687112,
            -1.2563361619172242,
            1.8159999999999998,
            -0.34190426405913327
         ],
         [
            0.992145725166985,
            1.5676586599465567,
            -0.46314332596256813,
            -0.002025987428387374,
            0.8440234908439342
         ],
         [
            -0.23092677801026956,
            -0.03375087115658043,
            0.03351581827088274,
            -0.4451936102195047,
            0.295759897502162
         ],
         [
            0.5063646276357106,
            -0.5660069714664262,
            0.23918672246140096,
            0.5766535987242726,
            -0.40669617125656593
         ],
         [
            -0.22625845171368217,
            -0.2227096152210801,
            -0.12518239635809092,
            0.5934405724637838,
            -0.3097890094847091
         ],
         [
            0.13993114301933074,
            -0.05041199033560647,
            0.10746998021932513,
            0.6764228639796358,
            -0.4795591497569847
         ]
      ],
      "biases": [
         [
            -0.2737345175425634,
            -0.9314999547834687,
            0.07348851786603684,
            -1.508465475222792,
            0.07123543463806473
         ]
      ]
   },
   {
      "weights": [
         [
            -1.3471358043319466,
            -0.49733640599604845,
            -0.26595506160483273,
            -0.8848489714203299
         ],
         [
            -1.004806036377549,
            -0.4937834199398733,
            -1.4633613027978376,
            -0.583301603962005
         ],
         [
            2.0,
            0.8355690902980869,
            0.34580952990515357,
            -0.6458201890516156
         ],
         [
            -0.37609159918416957,
            1.5714540379276727,
            -0.17638428563639785,
            -0.3906248406057698
         ],
         [
            0.018611629595633977,
            0.8163393712625974,
            0.7715985269829893,
            -1.0297495570057804
         ]
      ],
      "biases": [
         [
            0.07144776031530738,
            0.9442747758506649,
            -0.17515927741672066,
            0.2778478001058542
         ]
      ]
   },
   {
      "genes": "1000101111111011111000010010000000100010110101100000111101010000100101010001100100010010011110011110110110100011000011010010110010110010010000000110010000111010000110111110100011010000111000001100101010100101011111011111010111010000110010011011110011000001101011110111100110101000100111000011111110101010101010111010011111100110010001111111000101101111000001010011001000100010010000000011101100001001001010100000011100101111101111111101101110100001101111001110010010000001000101101000110110010110000110101111000010010111001100011001011110001011100001111100000011011011110001110001000111111110010101001001100101100010110001001111011010001110001111010111101100110110111001101001100011010101000100"
   }
]