[
   {
      "weights": [
         [
            -0.2292110965752574,
            0.0025937824390397414,
            -0.10913693607847366,
            0.08409731691078204,
            0.3740607929264507,
            -0.3692926415697444
         ],
         [
            0.3149139807958866,
            -0.05775941113649781,
            -0.6870797928274659,
            -0.2714399390575924,
            0.05506961147219256,
            0.04925340246206923
         ],
         [
            -0.5259189213115772,
            -0.3329181926744213,
            -0.069994169277561,
            -0.6185501389141997,
            0.3177381267074933,
            -0.048819029260356334
         ],
         [
            0.27237758807580337,
            -0.031955890288342795,
            0.07117354086963704,
            -0.3468751575645925,
            -0.004715236132933277,
            0.3355801440089032
         ],
         [
            -0.07319666351500931,
            -0.15287780950561447,
            0.01562820799307201,
            -0.0701970905179811,
            0.024782230057438293,
            0.34928193560955345
         ],
         [
            -0.01763414267034482,
            0.13958118978508732,
            0.17287267390367447,
            -0.12198066161631997,
            0.4537147033700548,
            0.2700992304836583
         ]
      ],
      "biases": [
         [
            -0.04052433538952581,
            0.045194247176720624,
            0.2514026554274616,
            -0.009428319736492025,
            0.02905708023556651,
            0.03848274213304896
         ]
      ]
   },
   {
      "weights": [
         [
            -0.15098495466668257,
            -0.07390532511673537,
            -0.1176475006613311,
            0.4310374013063215,
            -0.05689276333012396,
            -0.04331108235956763
         ],
         [
            -0.14102622166149334,
            0.2716439025394017,
            0.18000854963732896,
            0.09614037332733226,
            -0.19402941973455937,
            -0.2392318116186652
         ],
         [
            0.03651354904136957,
            -0.25349239027286796,
            0.17299985438617435,
            0.021208769814348355,
            0.10305391796521307,
            -0.018319809382451112
         ],
         [
            0.16408020256335137,
            0.04511532105298462,
            0.013444487390537121,
            0.22494905924130873,
            -0.8958401696363434,
            -0.1916611420427588
         ],
         [
            -0.14143757139313765,
            -0.15443258438541574,
            -0.3139183364127125,
            0.040678993291436524,
            0.02613164656738759,
            0.12027450258401975
         ],
         [
            -0.06548638839404503,
            -0.08413083464507412,
            -0.21990809303071102,
            -0.10821542958241587,
            0.1282089779533415,
            0.29163253120069293
         ]
      ],
      "biases": [
         [
            0.05498008730847459,
            -0.009261062773871676,
            0.1330619479163588,
            -0.09382079783401258,
            0.013504864666356878,
            -0.13209513171632076
         ]
      ]
   },
   {
      "weights": [
         [
            -0.019684970326306714,
            0.24786877937466964,
            0.17831382897860953,
            0.17461544658200814
         ],
         [
            -0.15509513625457907,
            -0.3165381246690192,
            0.16337847945617415,
            0.18961049732904095
         ],
         [
            0.0021602904547255806,
            0.6650414937139418,
            -0.1963986954961633,
            0.21361929443020544
         ],
         [
            -0.283209290048379,
            -0.05550385844711078,
            0.2317796631141208,
            -0.04829310191492632
         ],
         [
            0.19497463313259505,
            0.40015201867560984,
            -0.08538766807692191,
            -0.43486426346029394
         ],
         [
            0.3011079167242302,
            0.09852359501325336,
            0.22829697732595156,
            -0.08522894808679743
         ]
      ],
      "biases": [
         [
            0.004298230317912767,
            0.09818318591006664,
            0.013459735663027984,
            -0.17636769772520292
         ]
      ]
   },
   {
      "genes": "1001111010100000111101010010111010110111100101111001000101011001011001001011011001011010110111110100011000111100001000111101111101111101011111110010110111101010000111111011100100001110011101110001101001001101001101100110110100110011010011000100011011011011010000111101100101111011111110111011000001001001001001101100100111101000001101110011011111110001000010010000110001011100000100111011110001001010001011100011001100101001100110011111000111110001000100100011010010110010001011110001011011011000110101000001100101110000101011100000111010011110100100000110110001101110110111000010110000100101111000111100110010110000010000111111101011110110011000110111100011111111111110111111110111010000000000011100111011110011011001111111111101000001000111000001100000000001000110001001110000000100001111000111011001111001001100010010011110110111011011100001001010010111101010111100101111001001100001111011110011110000000010101111000011001011010111110000011111010000000111001110110100100110011111010001101011111001000100111101110000011110111011100110100100011000011110100110111000110111101000101101001001110011000111000011011000000010010010001101110100000001011101011010110011010101011101100001010010001000001101101111101111100001010100000000100101001110100111101111000110001010"
   }
]