[
   {
      "weights": [
         [
            -0.859657997069335,
            0.038876967746219335,
            -0.42392011837121835,
            -0.1760885208094235,
            0.05500769643496324,
            0.03243507589342894
         ],
         [
            -0.06333380484067799,
            -0.02152489660836987,
            -0.2735075095183947,
            -0.15429834640400267,
            0.028640407798987355,
            -0.015945712395443536
         ],
         [
            -0.15718440979788412,
            -0.6575469312008811,
            -0.11779948013248397,
            0.08571763892243303,
            -0.3747928502651217,
            0.025840263228541067
         ],
         [
            0.02825369224308561,
            -0.6561282888244797,
            -0.2508220334179272,
            -0.7912158650756954,
            -0.06783028054077944,
            -0.737866756485175
         ],
         [
            -0.2065683449842914,
            -0.24744860583240957,
            -0.6083098440905695,
            -0.2616528424369299,
            -0.0707089215321256,
            -0.28697912716431834
         ],
         [
            -0.07891732797752439,
            -0.046418810214912704,
            -0.09361405197345371,
            -0.460595703009731,
            -0.3955242308416386,
            0.10695321211763248
         ]
      ],
      "biases": [
         [
            -0.07549778714378215,
            0.00022522113490002285,
            -0.22619911485751296,
            0.19943451332235387,
            -0.10248274213304898,
            -0.0057163727244639116
         ]
      ]
   },
   {
      "weights": [
         [
            0.0560725675372404,
            -0.021816828954632935,
            -0.13159440416984347,
            -0.13344489885837113,
            0.07273705661880167,
            -0.7073243534680048
         ],
         [
            -0.3347076366836988,
            -0.15365489953709954,
            -0.21977905836785094,
            -0.05066051181515492,
            -0.7309643043992005,
            -0.014118472919122192
         ],
         [
            -0.5793183100592971,
            0.11260053160167027,
            -1.0934001188986733,
            -0.35122043385885676,
            -0.07540625966617137,
            -0.13363396864781002
         ],
         [
            -0.09346404551769996,
            -0.27795105257580993,
            -1.2026509856614842,
            -0.39361288566061503,
            0.13042831994754955,
            -0.6368292829420928
         ],
         [
            -0.12466323449639416,
            -0.07651665483508245,
            -0.01741833339827701,
            -0.3590245442640769,
            0.22655642452815705,
            0.13630547654219907
         ],
         [
            -0.07019435166199396,
            0.031931113271284665,
            -0.0733372967039162,
            0.1428243958006348,
            -0.12036624408588903,
            -0.05867720235223034
         ]
      ],
      "biases": [
         [
            0.15315707963267947,
            0.022774778865099977,
            -0.1836061959974101,
            -0.00341814240655112,
            -0.018003983744079223,
            0.07601991269152542
         ]
      ]
   },
   {
      "weights": [
         [
            -0.0339902781667943,
            0.042603290888362184,
            0.015066043342044998,
            -0.009871279295120106
         ],
         [
            -0.05746239201142528,
            -0.041679717322608806,
            0.027520072109763774,
            0.1380131527565023
         ],
         [
            -0.578366254776583,
            0.3228866299519153,
            -0.1569385178647788,
            0.2850794720615903
         ],
         [
            -0.27597920123268677,
            0.061151008329350845,
            -0.17015838896952046,
            -0.0019214204456443514
         ],
         [
            -0.038423596582430816,
            -0.010817007366211148,
            0.0174264942028722,
            -0.18253737574178064
         ],
         [
            0.12428490904843523,
            -0.08042330849525932,
            0.1154075960213618,
            -0.1447953187011567
         ]
      ],
      "biases": [
         [
            0.2896035381584005,
            0.2545504416669131,
            0.04834469125518184,
            0.003570354358438381
         ]
      ]
   },
   {
      "genes": "1000010011000100110101100100010000100101110110100111010010100111101011010101001010011010101110100001010110001011000101010000111011110000000111001111100011010011001110111001011011100110111110110110000100110001100000101111010011111010100111011110110010101110111010101101000110110011001111010111100000001101001110100000111101111110011011100001101110100001000100100100111000101011110001010100101001011000010010001010110100110001100111110011111011100101011001000010011100001010011110000001100110000011010001101100010111010110100011100000011101101101010100101011101110110010110000011101101000000011111111011000000011001111011110011100111010001011101011011101011100001000110000011110110000000010100011100001100000110110001000001010100011000001110100111111100110011011101100011010010010110001001111111000111101010101010000101001000111010100001010110011101011010011111110000100010010011101110000000001001011001000100110010011011010111001111111100001001010101101010010100111100111000101010111010111110000000100001011101111010000110101100010001100001010110010010000110011011010110011101000110111100001111001111000000100010001001010010000110000010011010110011110100101000100001101111000000000100111110001001101010001000101010001111100101011011110011100001110110111110011100111"
   }
]