[
   {
      "weights": [
         [
            -0.1005916234405402,
            -0.011631880664216755,
            -0.1565882622849868,
            -0.04012834619247441,
            -0.0583153142552672,
            -0.053361383536622564
         ],
         [
            -0.009081593491677769,
            -0.3605204708959343,
            -0.346396884794114,
            -0.2001257797922335,
            -0.03466932575393589,
            -0.007171375498700067
         ],
         [
            -0.010100339348217493,
            -0.2055425054884449,
            0.019572201336798017,
            -0.08853899813900289,
            -0.014465413862455418,
            -0.21895177048907477
         ],
         [
            -0.009989667681043144,
            -0.07300898677983018,
            -0.07221583742051721,
            -0.25237515455015697,
            -0.10293647352375408,
            -0.1641941928878404
         ],
         [
            -0.13594002645357345,
            -0.061506128036332666,
            -1.2883098380617,
            0.045316078664155934,
            -0.5715496260287932,
            -0.14251452382049806
         ],
         [
            -0.10102794667293477,
            -0.12295863258352824,
            -0.13356095548196642,
            -0.1927372956633207,
            -0.10681626757368949,
            -0.6634981080600102
         ]
      ],
      "biases": [
         [
            -0.023095131716320702,
            0.018349116967617596,
            -0.0077699111843077505,
            -0.002915045613620261,
            0.005977435498335542,
            -0.0466013283166178
         ]
      ]
   },
   {
      "weights": [
         [
            -0.030241591728118584,
            -0.00847612144353031,
            -0.27909882686784415,
            -0.0170245466100375,
            -0.16366559880865983,
            -0.14536417885105504
         ],
         [
            -0.19976515888762178,
            -0.11656640337499723,
            0.021610319922303157,
            -0.236682634348463,
            -0.22695987868676423,
            -0.13306537039876418
         ],
         [
            -0.2551059180644771,
            0.03551203543956777,
            -2.5724399382528547,
            -0.011437245537241823,
            -0.11491068236417185,
            -0.12126228717852804
         ],
         [
            -0.11418086021052043,
            -0.27312803887114406,
            -0.30221922478192537,
            -0.09113058549592234,
            -0.11771327270604018,
            -0.27349300114342545
         ],
         [
            -0.04749509359706081,
            -0.08505205149126223,
            -0.029170547761712556,
            -0.15292720270597351,
            -0.05631082821425408,
            -0.07822992011398072
         ],
         [
            -0.0825394848855324,
            -0.031011364524792254,
            0.08435296974316059,
            -0.09357825962682659,
            -0.01073349984273548,
            -0.09460198332743511
         ]
      ],
      "biases": [
         [
            0.03226327261565417,
            0.003580089720022845,
            0.009256637061435917,
            0.032466813185602746,
            0.10193849405199773,
            0.039763275630089495
         ]
      ]
   },
   {
      "weights": [
         [
            -0.056052226083153064,
            -0.12352945034035612,
            -0.0817038678422628,
            0.0038809350683153415
         ],
         [
            0.010763271091831112,
            -0.07381688426376294,
            -0.025563998339902902,
            0.017176867943400047
         ],
         [
            -0.05123793926030013,
            -0.10975269786609237,
            -0.15235887011311244,
            0.05625203867335904
         ],
         [
            -0.12505884596991776,
            0.00910233755029921,
            -0.07349025108462248,
            -0.22451433930574718
         ],
         [
            0.004492332967902477,
            0.023329010999814364,
            -0.09417527608210212,
            -0.03602852733134451
         ],
         [
            -0.1973743834404624,
            -0.14277286140236278,
            0.039385473488053886,
            0.010540963097510148
         ]
      ],
      "biases": [
         [
            -0.07678584013175396,
            0.008351326809400117,
            0.30718982146428503,
            0.09006150594800227
         ]
      ]
   },
   {
      "genes": "0010011100111100000111110110101110010010111101011100110001101011100000010110101100010100010101011000110101101111000001101001001110001111110011001001111011000101110011000001000101000000000100100110110011001011110111010110001001111101010000011000101011000011001000110110001100110011101110000100110110000011100110001000010010011011011111111100100110011011001011101111011101111010111000110111111000001010001010111111101100111001100100100000001001011001100101001001100001000001011001011101100110010010101111111000111000001100001000101010111111110100111100011110011111001110111111001001001011101010011101001111110110100000100011110010101010111000100010001100000101101000101111001111110001111111010010110100111011101110010010000100111001000110101110110100001110111111000011000000111011111010100001010101010111001110110101011101011110000100001111100011101011100101011001110100000001010011100100010111001100010000011111100001111011100010100100100000000110000011000111110000000000111110101111001011000011010000100011000111011111101110001110101010000001000111001111001110000110011011010101011000011000101001100100011101101101000011101110110100100010001111111001001101110110100111100110010000110010010001001110001100101001101000001100110110101110110100010001001011001111110011"
   }
]