[
   {
      "weights": [
         [
            -0.001202245150385934,
            -0.13826019919493468,
            -0.22830507697780722,
            0.23416730495111354,
            -0.41410292226044726,
            -0.28339678320723793
         ],
         [
            -0.07553291969819086,
            -0.34000277106062665,
            -0.029224324211215246,
            -0.23572312436477205,
            -0.5062824117236695,
            -0.5342436974702588
         ],
         [
            -0.5213171510266029,
            -0.26588763871198334,
            -0.19562248780827907,
            -0.6879704911625334,
            0.05102573772710847,
            -0.1458986739975874
         ],
         [
            -0.4619880481213406,
            -0.07440721649485582,
            -0.028822033417927204,
            -0.0363840059750285,
            0.44867414818609197,
            -0.1020791484799943
         ],
         [
            -0.016997548657496475,
            -0.13325391668733247,
            -0.03917267714941512,
            0.028032998297711085,
            0.03878223005743829,
            -0.14054481967769394
         ],
         [
            0.014573823612039544,
            0.018274711854359492,
            -0.1565476783446592,
            0.1072273046660642,
            0.033643910057695084,
            0.04201516003399133
         ]
      ],
      "biases": [
         [
            -0.030696902001295004,
            0.06813672497279757,
            0.04088495559215388,
            0.1000893800988155,
            0.04303053198982283,
            0.04785442360233099
         ]
      ]
   },
   {
      "weights": [
         [
            -0.19286027487037458,
            -0.1318160342907284,
            -0.36398378245999813,
            0.024639171591295563,
            -0.07240011032235245,
            -1.138998424040756
         ],
         [
            -0.17765332246447102,
            -0.22871684745345847,
            -0.0036728653848764233,
            -0.1266560861027192,
            -0.15342764944958512,
            -0.24105924500689602
         ],
         [
            0.02357107124529262,
            -0.34633752048197114,
            -1.222364719228059,
            0.02469992140391225,
            -0.10917174513804345,
            -0.04074458734322047
         ],
         [
            0.0158855134182741,
            -0.21745104956137462,
            0.23232689180520805,
            -0.1692456299037685,
            -0.8447295509409329,
            -0.15954609763491268
         ],
         [
            -0.1332915530271122,
            -0.9469361903868742,
            -0.17631656612773816,
            -0.19848914760789693,
            -0.7439669122815723,
            0.0911638838886094
         ],
         [
            0.008345470706621467,
            -0.15061313480976657,
            0.2206936772542632,
            -0.2313437450986987,
            -0.009755622376043433,
            -0.05553560969864058
         ]
      ],
      "biases": [
         [
            -0.06416814089933348,
            0.034173008580125674,
            0.017460177631384497,
            0.23969247628885937,
            0.014314159265359026,
            -0.03166592804311561
         ]
      ]
   },
   {
      "weights": [
         [
            -0.11594160738774269,
            -0.031848035318150864,
            -0.4125047529847502,
            -0.5380343177303049
         ],
         [
            -0.014865047438886846,
            0.3787474878587698,
            -0.06784718364708248,
            -0.14368822363797198
         ],
         [
            -0.34984479672450297,
            -0.06298278668178461,
            -0.1051464841471631,
            -0.11411521708348724
         ],
         [
            -0.12188627935814851,
            -0.17350385844711078,
            -0.12219378864013565,
            -0.31905416167436257
         ],
         [
            0.3338330404790053,
            0.16661662201942978,
            -0.2876354537134866,
            -0.5888332895021147
         ],
         [
            0.12593535011246088,
            0.09235432300799828,
            0.10890117820296848,
            -0.7789511340263159
         ]
      ],
      "biases": [
         [
            0.09961681529570751,
            0.12880088514248714,
            -0.030226105071613024,
            0.0171190281519253
         ]
      ]
   },
   {
      "genes": "1100010100001101011000011010010100000011101010101110011000110111111101001000100100011011101001011000100000110101100111111111010111111111110101101001000100001110100110110100100011011110110000010111001011010110001111010101101010110110100110011101101110110110100001100100011000001001110100110001011110001101101001111000010011110110000100010001111101111100001111010001010001110101000001111101000111100110000111111110001110001000000100011111111110001100010111001010011101010100001001101110110001101111011011000011001010001001010111101010011001100010001000110011000001110100101111100100011110100010100011101000100100100001000001011000101101111010010011110001101011011001101001001010100111110010001111000000111110001001111101100000000001100101011100000000101101010011011000110101000011000000000010000111110001001110101011001011100000100100011011100011000100011001110100010111001111000001001101100001001010111100000001001010111111011010110001101010001110000101000101001000101000100100101001010001101101101011011011000111100011010111101011110111110011000111000101110111100100101010001100110101101010011111100000111111100100011110001011011101111011110100000110110000001001001010100010110010111000101110100100101011101100000101110100111001100011010110001010110101001101000101"
   }
]