[
   {
      "weights": [
         [
            0.049448195913639956,
            -0.07011860654134491,
            -0.03811481354516582,
            0.04136723110952531,
            0.08843690010816832,
            -0.727036004508309
         ],
         [
            -0.19281610500537044,
            -0.11252489660836987,
            0.017771250076349027,
            -0.19278507228113084,
            0.015038637514013072,
            0.022523316660812413
         ],
         [
            -0.09612688759396106,
            -0.18626374589370104,
            -0.20687912486971508,
            -0.013853157404361865,
            -0.48996099116445535,
            -0.07096062191394623
         ],
         [
            -0.7342402594703414,
            0.03218127665281123,
            -0.402140618395722,
            -0.8778707318521572,
            0.034028126805630776,
            -1.0446410933819188
         ],
         [
            -0.20385153029147102,
            -0.03676719081020431,
            -0.5996240033559285,
            0.04674085662492532,
            -0.1644478587582539,
            0.025250961651373926
         ],
         [
            -0.11448812430431932,
            0.04172278243867707,
            -0.23412732609632564,
            -0.0408080950045509,
            -0.22598883418545873,
            0.044842593422222105
         ]
      ],
      "biases": [
         [
            -0.057811946409141106,
            0.030738495257771843,
            0.022256637061435915,
            -0.028653982839748612,
            -0.06336769772520282,
            0.0651376089095106
         ]
      ]
   },
   {
      "weights": [
         [
            -0.23784336201309267,
            -0.12798054414153065,
            -0.05787316376458758,
            0.011373683104988208,
            0.09224590502923768,
            -0.3100721421190039
         ],
         [
            -0.3419642737451347,
            -0.25760180304561237,
            -0.014672865384876436,
            -0.0829746710805139,
            -0.5139377561534565,
            -0.7251184729191226
         ],
         [
            -0.44811919520178417,
            -0.19225345003230435,
            -1.1308027743261353,
            -0.009959371084985118,
            -0.10968944497335105,
            0.05173328710903623
         ],
         [
            0.053305865666607735,
            0.002469305701394371,
            0.09693121326766527,
            -0.4605642148815634,
            -0.12179734315570698,
            -0.07001070097873288
         ],
         [
            -0.04477827890424044,
            -0.0937157696925953,
            0.12549317043962055,
            -0.08629445846281986,
            0.043875009505951634,
            0.003473617441532552
         ],
         [
            -0.09084479272602003,
            -0.0037547274633563422,
            -0.0327974743353007,
            0.02499253669996826,
            0.027647033051417986,
            0.2169068650830011
         ]
      ],
      "biases": [
         [
            0.17321460183660253,
            -0.05399513231920776,
            -0.07897787746669205,
            0.011095131716320705,
            -0.10568982447872032,
            0.018019912691525433
         ]
      ]
   },
   {
      "weights": [
         [
            0.029407951548231413,
            0.061943998399464864,
            -0.12901360139518603,
            0.04879686461864867
         ],
         [
            0.023245571256523552,
            -0.0029938765879678093,
            -0.17273656495167217,
            0.10049545292119474
         ],
         [
            -0.616366254776583,
            0.27230698220024896,
            -0.126111084476548,
            0.27258832047202636
         ],
         [
            -0.2892358382941227,
            0.03558021200255593,
            -0.11604334456167437,
            -0.1461161095907215
         ],
         [
            0.03774897002933841,
            0.003961755242968046,
            -0.11906908309912748,
            0.010024569160143073
         ],
         [
            0.055284909048435055,
            -0.11433923804559261,
            0.02521290687628463,
            0.020054237220381986
         ]
      ],
      "biases": [
         [
            0.33023185668911853,
            0.2123513268094002,
            0.13971637272446394,
            0.030826991419874307
         ]
      ]
   },
   {
      "genes": "1010010010010100000001110100111010011011100110110110011111110100100101111111001010110110110010100011001100111010101000000100000100010011010101001100111110010011110101101111000000100010010011000101010011001110111100101011111100100100100000000000100011001001111001001000111101010011010010011100101100100010110001011100010001111000110100111010111101000000010110010011010000110011001101100010110101001110011110011110111010110110110100110001001011001011000010111110011111001000000001011111001010011101000111111010001001001011111001101000111011000001101100000110001101010111000000000000010111101100010101110111111011011111100001000111010011010011010100101111101011101010111000110000001111111001000101111011110110111001111101011111100011011011111001101000101111101000110011111011100010100111100000001110001011111110011100100001010101111101111101001011000010100101000010110111000101000111111101011100110010010001111111100111011110111101111011010110011000101000101000101100111100111100000001001001001111100100010110000010110111011111100000000110011010001001101000100001110100000111100110100101100100110111010000011010100001100110010101000001010011010000110111101101110111001011000001001000011100101110000010111010101000110000000110001001011101011000110011111100101101101111"
   }
]