[
   {
      "weights": [
         [
            -0.27589693730989834,
            -0.11560533241847312,
            -0.3383360509359867,
            0.12543802442188481,
            0.2179722967643482,
            -0.4822926415697445
         ],
         [
            0.19742725491875834,
            -0.06652932232080556,
            -0.025653527884420355,
            -0.4447806465686953,
            -0.27464720322062786,
            -0.01902978284511027
         ],
         [
            0.041811164489680114,
            -0.4674628607512141,
            -0.06579948013248403,
            -0.7007492537717126,
            -0.0193503694546093,
            -0.15235885162897178
         ],
         [
            -0.804700437101726,
            -0.1239558902883428,
            -0.05077336263887558,
            -0.6774149799332082,
            0.5358776887560406,
            -0.48745082994927647
         ],
         [
            -0.13730728221041982,
            -0.14920082019584519,
            -0.15228772155726128,
            0.03994439719487389,
            0.7886893081829006,
            -0.003718064390446703
         ],
         [
            -0.169886354019345,
            0.08244285275369294,
            0.025872673903674467,
            -0.10300720986206376,
            -0.14004635638938173,
            0.15412577872940195
         ]
      ],
      "biases": [
         [
            -0.11415265392024376,
            0.04616769893097698,
            -0.1565707963267949,
            -0.010140708716876782,
            -0.09525265331735672,
            0.061996016255920786
         ]
      ]
   },
   {
      "weights": [
         [
            -0.16083893630065718,
            -0.09970178454678684,
            -0.22464750066133116,
            -0.03871038734467853,
            -0.34818480006217517,
            -0.17342612676741384
         ],
         [
            -0.30422533651900635,
            -0.17146021039202258,
            -0.012964902116927465,
            -0.11845697124520632,
            -0.17457050039660998,
            -0.06574679144984019
         ],
         [
            -0.5162607878553742,
            0.04576867250100368,
            0.08399985438617429,
            -0.22567618577780546,
            -0.15231776350406903,
            -0.1987711355889642
         ],
         [
            -0.1368047530288027,
            -0.06717228996663069,
            -0.03752896436371924,
            -0.3333341260658711,
            -0.0524566356446043,
            -0.3527761864506051
         ],
         [
            -0.25846411963888144,
            -1.125617605409081,
            -0.4449183364127126,
            0.07624536390579569,
            0.029472354078490342,
            0.07378777670689163
         ],
         [
            -0.06434479574045528,
            -0.05913083464507411,
            -0.056107207888223966,
            -0.24867118150136464,
            -0.10936181837345343,
            0.19545111316405225
         ]
      ],
      "biases": [
         [
            0.05646681318560274,
            0.0007482306193563118,
            -0.11008849616210244,
            0.009838494654884788,
            0.10505353845984387,
            -0.05972345024703865
         ]
      ]
   },
   {
      "weights": [
         [
            -0.06705665179558878,
            -0.03475953915604836,
            -0.14430563812723712,
            0.053987128051290065
         ],
         [
            0.004533182276138864,
            -0.21762662083112155,
            -0.09471001670592842,
            -0.09727445826311301
         ],
         [
            0.15763750344018967,
            0.4992096346132751,
            -0.23977037696544534,
            0.011167968223692301
         ],
         [
            -0.6130367234366101,
            -0.02838881403926467,
            -0.13899909949505856,
            -0.18429310191492643
         ],
         [
            0.07674897002933839,
            0.11895290381809674,
            -0.13497616122458925,
            0.11596704695621987
         ],
         [
            -0.1236619944600777,
            -0.42113569747564417,
            -0.0631012523890743,
            -0.08465815176000271
         ]
      ],
      "biases": [
         [
            -0.02721504380495906,
            0.032183185910066685,
            -0.10616858286769,
            -0.21805353845984393
         ]
      ]
   },
   {
      "genes": "1110001101110110110001101000011100001101010111001010001110100001111111011101110001100101010111100001100011111000011111000110011111110101000000101011100011011001111100111110101000000011011001101100001000100101010011000001001000011111001001100100111000000010011110111100101010010000110000100011000110100110100101101101001000001010011111000001001001001100000011110101110010000110110110100111110010111000001001110101110001001000101010111010111001101100000011011111111011001100000000011101010000011101011111000111000000100100101010010010111001011001010101100001110001011111001010111011011001010101000011101110001010001011000101000100100010111110010001010110100111110010111110011010101110111010111101001001010011010000111100010111111001111000100110011010111011101111111001100111100000101000011011111100000101110001111011101111010100010101000010000001011000011000001111111110101100110010010101100100001110011000101101010100111101111010001101100111111001010100111010001011111001101111010000101011000000111011100100000111101110011100011101011011101101100101111111110100000001100000000111100100011010010011111010000100111101011000001001000000101111010001110100110001100000001011011010001100000000011011101100011101111110010111000010101010110010011001001101011000101100000111"
   }
]