[
   {
      "weights": [
         [
            -0.07176490831823673,
            -0.026378539544319526,
            -0.48373067015406446,
            -0.08269110239529684,
            -0.043923352980613464,
            -0.1078059156926161
         ],
         [
            -0.26461393380465636,
            -0.37965055779019147,
            -0.5353301223131022,
            0.1827396378193753,
            0.11083263268417684,
            0.10711913257415215
         ],
         [
            0.021035728448986192,
            -0.11541376997642087,
            0.16852535300583396,
            0.041901187292313666,
            -0.010419470463523227,
            -0.26340300812204154
         ],
         [
            -0.10315176330823825,
            -0.03652652456837576,
            -0.10231264806239557,
            -0.028257123332851238,
            -0.35060801543122,
            0.013350102901050782
         ],
         [
            0.11298527638650396,
            -0.0420860384753825,
            0.08145084188559225,
            -0.8708673158621979,
            0.020611959612817678,
            -0.2758235853013087
         ],
         [
            -0.25553524113938353,
            -0.23557684988332359,
            -0.659903933632609,
            -0.23921381415497447,
            -0.07897856508029136,
            0.03239478010452519
         ]
      ],
      "biases": [
         [
            -0.016743362938564085,
            -0.06905752220392304,
            0.034429203673205094,
            -0.11834513322353846,
            -0.03765929248889735,
            0.005287611019615319
         ]
      ]
   },
   {
      "weights": [
         [
            -0.08075850759983577,
            -0.29885505601254964,
            -0.31734872936767083,
            -0.12720221578421104,
            -0.00776002210140574,
            -0.6084010794682165
         ],
         [
            -0.011861288746855344,
            -0.17746671615600906,
            -0.026129539693411277,
            -0.21423548435797396,
            0.08383341332428658,
            0.013569073523821897
         ],
         [
            -0.1324161821318988,
            -0.11181189701573047,
            -0.1466671878420923,
            -0.25007058683529515,
            -0.2544163263614849,
            0.05655819274604343
         ],
         [
            -0.30428067283099347,
            -0.001521129114597758,
            0.08637556258425957,
            -0.2648152912358105,
            -0.32374724776180486,
            0.02451942136431541
         ],
         [
            -0.07028530872046687,
            0.08099187064733068,
            0.05773844367135615,
            0.05315388083613459,
            -0.02952608476449225,
            -0.013454472352769413
         ],
         [
            0.01194710560283628,
            -0.09414191409070849,
            -0.047847988562349716,
            -0.2570969358934588,
            -0.12381600402239101,
            0.04308503270365884
         ]
      ],
      "biases": [
         [
            -0.06448672587712817,
            -0.01142920367320508,
            0.02548672587712817,
            -0.06391592955033328,
            0.013429203673205105,
            -0.03345575191894878
         ]
      ]
   },
   {
      "weights": [
         [
            -0.3424841433672911,
            -0.260663577363554,
            -0.040479999168320874,
            -0.3249015765015863
         ],
         [
            -0.0410669414350317,
            0.01031385847312873,
            -0.43379394387865744,
            -0.08203335686151046
         ],
         [
            -0.11741559305129781,
            -0.415794435185065,
            -0.3642400560665762,
            -0.1888528506228734
         ],
         [
            -0.17557838054599353,
            -0.15581735222995396,
            -0.19456796059079423,
            -0.06676092013801278
         ],
         [
            -0.18786964684620208,
            -0.24598394570620788,
            -0.7521495778087318,
            -0.26553475792974934
         ],
         [
            -0.0867440323403792,
            -0.08106602924033512,
            -0.6564891812642878,
            -0.11820334537531543
         ]
      ],
      "biases": [
         [
            -0.08573893722612838,
            0.27900000000000014,
            -0.023769911184307754,
            0.018654866776461616
         ]
      ]
   },
   {
      "genes": "0011010010000110001001110010010110000011111001111001000001100010100011110111110011011110111000110111101000000010010000110111101100100100101010111011111000100111001000111000100011010101010001010111100101101001001001011010010010110011011001000011000001011001100001110010000101001000101111000111000101100111111011101011011001111101010110000001110110101110101010001100010111000111010010101111011101110110101110100001011101011000111111000000110100010001110011101100111001000010011110000110000001001111110100101010111110101011000000111001100101010101000100101011001010110000010101000111010101101010010101110100110011111000011101111010001100100001001100100001011011000110100100010110001010001110000110001100001100011000101111001111001110101100011100010010010110100010110011000001011100100011100100011100100100000000001000010111001111010010100101011011011001011111011110000000110010010101001100010110001110110111100001010011010000101010010101001101101111100011001101101011001011000010010010001010100110000110110111000001011100011111100000111011101001010011001110100000011110000111011010101101010010011011101010011001001101111011111010001011111101010011011011011011100010000111100100100111011011101011011110010101110110111111101101111001101111001000101111101000010101011110"
   }
]