[
   {
      "weights": [
         [
            -0.08088808588502698,
            -0.07137524360278084,
            -0.11888472472947362,
            0.007765460824551017,
            0.07986167806893771,
            -0.7102616676115655
         ],
         [
            -0.1548249564302418,
            -0.14194967456913926,
            -0.028025209353702406,
            -0.22504170934256668,
            0.09733067424606409,
            0.02517818343727405
         ],
         [
            -0.2291534358397047,
            -0.1692283462230859,
            -0.006657887478894231,
            0.02960702022702262,
            0.09873812670749307,
            -0.06552699252830527
         ],
         [
            -0.024140111759504385,
            -0.8342035078492751,
            -0.001968051783952752,
            0.04675316096612557,
            -0.0024630247839331054,
            -1.0806410933819188
         ],
         [
            -0.08582055633329157,
            -0.027815861589255933,
            -0.5632744444199543,
            0.07374085662492531,
            -0.31213369949289493,
            0.011826183690604546
         ],
         [
            -0.13108546887685787,
            0.0335546415393436,
            -0.08427334446235102,
            -0.08943641353526889,
            -0.22041361214622818,
            0.03593108958432456
         ]
      ],
      "biases": [
         [
            -0.059179202165987446,
            -0.007319026946151211,
            0.05157079632679487,
            0.04366017642561036,
            -0.07505353845984385,
            0.07293849405199772
         ]
      ]
   },
   {
      "weights": [
         [
            -0.10178141409673377,
            -0.17023718120296655,
            -0.08352803054104928,
            0.12938253452985965,
            0.08084767531421197,
            -0.15124913444320895
         ],
         [
            -0.348902325828776,
            -0.20039826247566378,
            0.05004394930794398,
            -0.050151663404718785,
            -0.14331386333517407,
            -0.7993751099805586
         ],
         [
            -0.3761457434475277,
            -0.18374017590943248,
            -1.0860594113875714,
            0.02910257683137367,
            -0.13465847101517164,
            -0.012244590357655842
         ],
         [
            0.01765099889014611,
            0.00592948333277887,
            0.12436484265330613,
            -0.023590763127306832,
            -0.10365132478968153,
            0.01336540620298482
         ],
         [
            -0.11314996037352244,
            -0.10545470691872373,
            0.16704184423310753,
            -0.08214844009679435,
            0.07667589464843887,
            -0.17675204566172403
         ],
         [
            -0.44858372995214846,
            -0.021661805588818167,
            -0.03573552641894191,
            0.046081032862070714,
            0.02999216627495636,
            0.18242013920587297
         ]
      ],
      "biases": [
         [
            0.19467035375555133,
            -0.005738495257771839,
            0.002106192982974691,
            -0.003161505345115212,
            -0.12028716905125882,
            -0.04509513171632072
         ]
      ]
   },
   {
      "weights": [
         [
            0.010213262403154285,
            0.07774930925438774,
            0.004605865710660451,
            0.08785438682257173
         ],
         [
            0.04610397860293376,
            -0.015905380425865354,
            -0.11441797997387744,
            -0.006504547078805251
         ],
         [
            -0.6344812991844292,
            0.31073176016101844,
            -0.13076595125300963,
            0.5040794720615905
         ],
         [
            -0.27235088270196883,
            0.045230659095452534,
            -0.2301849372152642,
            -0.07117805750708026
         ],
         [
            0.05769587353785108,
            0.035678569935788454,
            -0.10574607240889702,
            0.005599791199373691
         ],
         [
            0.05023181255694771,
            -0.12789675723508032,
            0.13744299569197693,
            -0.24271124825149004
         ]
      ],
      "biases": [
         [
            0.3338601752198365,
            0.17858141562509242,
            0.1476588505205409,
            0.037658850520540854
         ]
      ]
   },
   {
      "genes": "1111001100110101001001101000101010110011001010011100111011001000100101100100100101010010111001101100100011110011000110110011111110001110010010110010111100101001011111010100010001100100111100111010010110111011000111111001100100111000001011010010000000110100010110111111111110011101111100100001011000000001101111110010100100101001101110001100110110110011010011101011001111101111011010000110100000110011000011010100100101000110111001100100000111111010100100100000001011100111100011010010011011111011111011010010010100111001001111111000110110000000001111110011111101001000111110111100010000111101001110000110010001111000100101010000100111110010110010101110111100111110101011001001110110111100000110101001011101011100111100101000001000001011100010000010100100101001010011000011000111010000010001001010101010110100111100111010100000010110011101110110101100101100110111101111000111101111010111000111011000000101101101001100101001011010000011010100100000110000110100001100100110110110011100100101111001101110101010110010011101101010000110001001100111011011001111111010000101011001101111110101000111111111111011010100010101101101101100010011100100000101001110110110010001000110111110101100001011010111111100101100011011100110000011110100000101000000111100011110100000010010"
   }
]