[
   {
      "weights": [
         [
            0.011819877382921992,
            -0.07814072907465289,
            -0.19550861754775584,
            -0.04650002766175644,
            -0.053456906908856995,
            -0.14271536818503242
         ],
         [
            -0.004134689983165102,
            -0.15232578175085704,
            0.0584969161940409,
            -0.19468772469415685,
            0.06280854869832082,
            0.019381724007222628
         ],
         [
            -0.1056932582083204,
            -0.2556265759381116,
            0.018089901172105575,
            -0.16162749430110532,
            0.11617175609313385,
            -0.11696062191394621
         ],
         [
            -0.08513126033463295,
            -0.8135707636061215,
            -0.12933088182836333,
            0.027753160966125574,
            0.0651431712134769,
            -1.0417517120773296
         ],
         [
            -0.08333383045616337,
            -0.02102382787164028,
            -0.6167655960095181,
            -0.10599808060120305,
            -0.35230184039222845,
            -0.09540390512508773
         ],
         [
            0.0038570089192191404,
            -0.2955250031978874,
            -0.23926006732504385,
            -0.087865617208474,
            -0.023214497288715212,
            0.04538684150327333
         ]
      ],
      "biases": [
         [
            0.005617257264063988,
            0.04476504350351551,
            0.11185840734641023,
            0.006686724671354036,
            -0.13954469004940773,
            0.02870840523630549
         ]
      ]
   },
   {
      "weights": [
         [
            -0.08017521809932376,
            -0.1155159407977104,
            -0.0671563490717672,
            0.06529403836775724,
            -0.024758520683198018,
            -0.16573586032033713
         ],
         [
            -0.4634952446888789,
            -0.21527879235538186,
            0.04318111624909805,
            -0.08934192683736024,
            -0.21484483427891812,
            -0.9422025433687896
         ],
         [
            -0.08443778017957884,
            -0.3828773428505866,
            -1.1931744557954185,
            0.06204948033988633,
            -0.1119991785262743,
            -0.04170034227660462
         ],
         [
            0.02191206166401774,
            -0.2703979470410166,
            -0.008405068531001644,
            -0.4753341260658711,
            -0.18211150242106602,
            -0.14794875306237407
         ],
         [
            -0.10364995735908708,
            -0.07660072528474918,
            -0.07971037013032804,
            -0.29343162540397405,
            -0.033319679639125424,
            -0.306088327460391
         ],
         [
            -0.5016058524854565,
            -0.08901578420835732,
            0.12952111064249403,
            -0.08403843725821109,
            0.0166912781180339,
            -0.1307612728018971
         ]
      ],
      "biases": [
         [
            0.19781194640914113,
            -0.06448185819633595,
            -0.026827433388230813,
            -0.00956416077257665,
            0.012765927440228527,
            -0.011896016858807864
         ]
      ]
   },
   {
      "weights": [
         [
            0.007354855056744075,
            -0.07419759425412496,
            0.05255276921917312,
            -0.22427392869371085
         ],
         [
            0.022657078108856442,
            -0.3381929914454808,
            -0.15424098764967253,
            0.050442356429707416
         ],
         [
            -0.7226804140419423,
            0.2285636192616849,
            -0.1883411732922403,
            0.45192018258712857
         ],
         [
            -0.2814393788640712,
            -0.021990584324238966,
            -0.15284422970416156,
            -0.06797009122469598
         ],
         [
            0.017748970029338396,
            0.04526706308345558,
            -0.10643633885597378,
            0.036484746791527564
         ],
         [
            0.02157694578048609,
            -0.0660162273553622,
            0.06624388083446409,
            -0.0226271778018233
         ]
      ],
      "biases": [
         [
            0.36825840493486234,
            0.18683805268652834,
            0.18394646154015623,
            0.055340265542746174
         ]
      ]
   },
   {
      "genes": "1000000100011010001101001111011101001001011111101011011011000000010011011011011001110010000011110101011000011100101000010101101110000101110111100011101110100010011011001100100110100000011100011001110010001010111010010110010011010111001111000110001100000100000101101111001110100100111110011101110100000111011111010111100100001001000000011101001001001101100010010010001101111101101000000011101001101110100000111111101001010011010000011000010111000100011111110010101011011010110111010010111110000111110010001000101101010000010010111010000001101100111011100000111001010110111110110101111010111100011110110001110110110101100011111111010001001101100101000111001101111110111111100100011101100011100110110101110111010001110111101110100010111000010110101100000001011111101101100111101001010110100100111110110111111101010011000101001110011100100111111001001001101010111001011000001100101110010100101100000011011001010110001010010011001010010100101010011011001011011010110001001111010100111001010110101001011000011110001110101001001100001001101100100111010100110001111000000101101011001111001010010010001011101001100101101011001100110100101001001000101001000100111101010111001110001100100101000110101011011101101011001110011011100100111110111010011011011001111010010111001100"
   }
]