[
   {
      "weights": [
         [
            -0.1022110965752574,
            -0.08497701388775514,
            -0.5833537477568593,
            -0.05658852382385891,
            -0.05868699572454926,
            -0.1388569608386222
         ],
         [
            -0.03028513406162635,
            0.04247067767919441,
            -0.03165352788442036,
            -0.37603728363013117,
            0.011153681921859195,
            0.013970217154889723
         ],
         [
            -0.011560516979602004,
            -0.19034781634336778,
            0.01734211252110577,
            -0.1146274943011053,
            0.029162904668262546,
            -0.34338982558715125
         ],
         [
            0.0008598882404956161,
            -0.02576120114326571,
            -0.1073662814989785,
            0.036753160966125575,
            0.0691431712134769,
            -0.04905260023425063
         ],
         [
            -0.11296657469931709,
            -0.7543379871369995,
            -0.02757533257687656,
            0.009740856624925319,
            -0.01896555859356152,
            -0.004319834675420968
         ],
         [
            -0.3431252942599087,
            -0.3437550920135797,
            -0.1011007778505819,
            -0.061436413535268866,
            -0.4512100715762796,
            0.04318330093332475
         ]
      ],
      "biases": [
         [
            -0.03826769832808988,
            0.0008800879113616458,
            -0.012,
            0.13494336173278995,
            -0.08342521992912591,
            -0.03254823182513044
         ]
      ]
   },
   {
      "weights": [
         [
            -0.04444070658563145,
            -0.05656019189319704,
            -0.05178909331492085,
            -0.292369679833576,
            -0.016780643216505922,
            -0.11010754178961914
         ],
         [
            -0.1932253365190063,
            -0.5831725993724075,
            0.003663416413790494,
            -0.07397467108051389,
            -1.0007342155835082,
            -0.024746791449840155
         ],
         [
            -0.10100415079393801,
            -0.2763906169734585,
            -1.944869147954932,
            -0.01744609696211328,
            -0.1676894449733511,
            0.001733287109036228
         ],
         [
            -0.017636612129469195,
            -0.07817228996663071,
            0.02444448739053712,
            -0.06570580753515297,
            0.005742479212908554,
            -0.6277496382048616
         ],
         [
            -0.3990880124571638,
            -0.5278131172795695,
            -0.03628559216955868,
            -0.0924935733203327,
            0.051932531709874746,
            0.03122140609253235
         ],
         [
            -0.20668107753912218,
            -0.05081667537971512,
            0.029326421497416898,
            -0.06064020754318538,
            -0.3588750924963254,
            -0.41273915026858937
         ]
      ],
      "biases": [
         [
            0.026466813185602747,
            -0.015880087911361647,
            0.0,
            -0.01621902754903827,
            0.03705353845984385,
            -0.026466813185602747
         ]
      ]
   },
   {
      "weights": [
         [
            -0.0587424925302298,
            -0.04205600160053516,
            -0.15127908988149344,
            0.08907562421339249
         ],
         [
            0.004533182276138865,
            -0.07599387658796782,
            -0.05313922037913353,
            -0.02750454707880525
         ],
         [
            -0.03783970954527442,
            -0.1627261496203487,
            -0.13168630651577862,
            -0.2681152170834873
         ],
         [
            -0.20014734213202023,
            0.00800941567576103,
            -0.30814069214864837,
            -0.0766647833842084
         ],
         [
            0.019748970029338394,
            0.014895381614173538,
            -0.3522637722442047,
            -0.011860386432011046
         ],
         [
            -0.369657568747642,
            -0.23110029780502891,
            -0.5643800119838184,
            -0.04214930334956661
         ]
      ],
      "biases": [
         [
            -0.010586725274241099,
            -0.010586725274241099,
            -0.03705353845984385,
            -0.03705353845984385
         ]
      ]
   },
   {
      "genes": "0011000100110000011101010010100010111011010001010001010101101011111110000001001111011011001100000101000001001111010000011011111101101000000111100001011101100110110011011011011010100011100000011000111111100001011011111111011100001011100001011111001101000101100010011010110100111001010000101001110000010101001100101011001001111101010011001000010101010100101110000111000111001110110100111011110111110000001001011101000111111101110001110101110111000111011111111010110101000111000110111111101010101101001100001111101000000110110111010010010101010100101101111100101000110011010011100100000001001101001100011010001011111000000001100101010010111101000001001110001001101010111001101000010111001000001100000001001100010011000000000111000101010101011100000101010000000100100101101110011101100011000111000000001110101111101010001000011001010011101011110000000000111111100010001001110111011110011110011111010100110001011100010100110101000110011001100100000010011101111101011111010110110100011100101111001001110011100101010001111000000111001010000010101011000011101011101011011111101100101010001010111010101000000111101110000010001100001001011100011110001101111001100111010111001011001111001111000100111010110111111011110000010010010100001111111010011111000001111011001111000101"
   }
]