[
   {
      "weights": [
         [
            -0.5741532745093375,
            0.0195356505870454,
            -0.034044745135420454,
            -0.14492119121098904,
            0.11367520993008728,
            -0.009863437896539168
         ],
         [
            -0.004441367192887206,
            -0.10802666497190903,
            -0.32221507790525583,
            -0.29532445463506346,
            -0.47320719269887423,
            -0.17891272826900512
         ],
         [
            -0.12378473995942813,
            0.008620487407483073,
            0.08500322745809058,
            -0.1546120868305581,
            0.02880930365847651,
            -0.08209614739996503
         ],
         [
            -0.04375353359321253,
            0.027212412657752594,
            -0.09408255924670335,
            0.056282699035764244,
            -0.38480809169903946,
            -0.42499699836241356
         ],
         [
            0.03390734265747206,
            0.041561979310245495,
            -0.09854915811440773,
            0.03579464726460789,
            -0.0017938620373690352,
            -0.0836775669352832
         ],
         [
            -0.1497689604783546,
            -0.10061466945023011,
            -0.45284641142868576,
            0.3110737968646411,
            0.0779329387576062,
            -0.1462534627264317
         ]
      ],
      "biases": [
         [
            0.01760177028497429,
            -0.02203097395817939,
            0.02211504440784612,
            0.08402654824574372,
            -0.10630973355292328,
            0.136942477796077
         ]
      ]
   },
   {
      "weights": [
         [
            -0.23055354554255017,
            -0.00957187070536998,
            -0.07497704789838877,
            -0.0837199156195186,
            0.04709838524500445,
            0.0815052075605673
         ],
         [
            0.035505967009990966,
            -0.6803142605040557,
            -0.04376443888106099,
            -0.04123548435797395,
            -0.10254075966744562,
            -0.15439219203657728
         ],
         [
            -0.05036379832109805,
            -0.2634402155464484,
            -0.4398337482843144,
            0.015495783779064125,
            0.25649781030634944,
            -0.06044180725395658
         ],
         [
            -0.5487792909295826,
            -0.19222296577112968,
            -0.2637570570255469,
            -0.16619139841752817,
            -0.08574724776180483,
            0.054085791978674594
         ],
         [
            -0.06692068020480293,
            -0.1600679419760572,
            -0.6405458632370129,
            -0.015872667409609045,
            0.007385419073405293,
            -0.07762279902387237
         ],
         [
            0.026217569272604657,
            -0.026456073356067464,
            -0.2142897932576092,
            -0.322583661770587,
            -0.058824855447262445,
            0.0731618753286216
         ]
      ],
      "biases": [
         [
            -0.00042920367320510404,
            0.059685840734641026,
            0.020000000000000004,
            -0.007203540569948576,
            0.03871238898038468,
            0.019858407346410208
         ]
      ]
   },
   {
      "weights": [
         [
            -0.07279382686747984,
            0.020048811616830683,
            -0.08819681386114131,
            -0.1441771713410726
         ],
         [
            0.06897880339963464,
            -0.019570755789430544,
            -0.2659089882865034,
            -0.6111780714557908
         ],
         [
            -0.3592438679066139,
            -0.4764994718347336,
            0.053144008784154824,
            0.11586865639538521
         ],
         [
            0.09119960744094455,
            -0.11218644116744772,
            -0.01246444141316282,
            -0.08350368167763292
         ],
         [
            -0.008666106276253499,
            0.047980654623177056,
            -0.07632114541427563,
            -0.04702148380687756
         ],
         [
            -0.13097582689596127,
            -0.11496322788242357,
            0.04041789686117438,
            -0.3601320037381787
         ]
      ],
      "biases": [
         [
            0.06734513322353837,
            0.21988495559215396,
            0.02371681469282045,
            -0.004115044407846125
         ]
      ]
   },
   {
      "genes": "0110011111101011010010111010110110011000110101110110101010011001111011101101010111110111001011111110111101001101110110110100000110001101000011001111011111101011010100001100111101001101111010101100100111111000111111111011100011011001011000111000101101001010011110110010001101000100000010011111111110111110110100000000010110101100100010000111000010100110011101101010000010101110011110011001000110110010111101100111011000011100100101001010110100001110001110001010010010101111001001101011100001011101000001001001100001101001100110110111100100011010001100010000000010100001111010011001110111000001011010000001101000101110111101100100001100111011001100110011101000101111001000010100110000111000011001111110100110000010100001100011101110111001100111000111010001100010100110111011110100110110101001001110101101010010101011011101111000100011011110011101001011111001110000011000000000111111111010001110100101011011010010000100100101100101000100111011111001101100011000010110101001010111110010100011001101010000001010001010110110000001000000001110011101100100110010110010100000110110100001001111100110100011001111101111011011001001110101000101000111010110111010110100011001111000011101101001111100101110110011010111001010110011100110000100101010000010010101101011110011010010"
   }
]