[
   {
      "weights": [
         [
            -0.0026933967399498243,
            -0.01972037682631922,
            0.05904005624573115,
            -0.03810179794673074,
            -0.056456906908857074,
            -0.12460032377718627
         ],
         [
            -0.03259486761454959,
            0.0544706776791944,
            -0.0036535278844203496,
            -0.12017887628372081,
            0.015153681921859195,
            -0.10248553476405904
         ],
         [
            0.008439483020397997,
            -0.14434781634336774,
            -0.3058525766239715,
            -0.08462749430110533,
            0.0436496305453907,
            -0.08175708134399762
         ],
         [
            -0.429330375192146,
            0.03132729501883675,
            0.011660266746765215,
            -0.4107512617318747,
            0.011975030314143454,
            -0.009450829949276335
         ],
         [
            -0.07528073396467613,
            -0.06731143889125553,
            -1.1640089559336473,
            0.038201034256309815,
            0.05289284875284869,
            -0.0472623124714979
         ],
         [
            -0.47523148724288355,
            -0.1177019955220923,
            -0.10821582225842803,
            -0.13397623590388436,
            -0.04604635638938172,
            -0.39658218453854743
         ]
      ],
      "biases": [
         [
            -0.021466813185602746,
            0.025167698930976964,
            -0.002115044407846123,
            0.007173450548482199,
            -0.03642521992912591,
            0.06005353845984384
         ]
      ]
   },
   {
      "weights": [
         [
            -0.06412212160783677,
            0.01643980810680296,
            -0.5312404195214342,
            0.008232090451398418,
            -0.0014089617472238802,
            -0.05573586032033711
         ],
         [
            -0.5330129445241865,
            -0.4261902961932797,
            0.0019820013915851963,
            -0.032974671080513905,
            -0.11931386333517405,
            -0.009773339695583826
         ],
         [
            -0.008004150793937998,
            0.10899876131669595,
            -2.429767374655523,
            0.03801408066927123,
            -0.1913177635040691,
            -0.7316516654686828
         ],
         [
            -0.008211834168699837,
            -0.03717228996663072,
            0.0770462576755114,
            -1.6984093390617976,
            0.03274247921290856,
            -0.13709477142839965
         ],
         [
            -0.004950845516009576,
            -0.04679541442982635,
            -0.3243077147028666,
            -0.09726348450464048,
            0.09093253170987474,
            0.07056653931607071
         ],
         [
            -0.0446810775391222,
            -0.05515738289081775,
            0.16752111064249403,
            -0.4318791417548787,
            0.006523137218700428,
            -0.18736746879930716
         ]
      ],
      "biases": [
         [
            0.008121679962064376,
            -0.009765043503515529,
            0.0011150444078461249,
            0.04206858347057704,
            -0.02474734668264329,
            -0.029466813185602746
         ]
      ]
   },
   {
      "weights": [
         [
            -0.004769040775973458,
            -0.03427723899135594,
            -0.012279089881493434,
            -0.039464198155223035
         ],
         [
            0.009019908153267035,
            -0.09193635438404474,
            -0.05639585744056945,
            -0.022986847243497675
         ],
         [
            -1.0987202394249935,
            0.0013003986253949619,
            -0.10948276594583008,
            -0.1407125616560258
         ],
         [
            -0.11714734213202022,
            0.020009415675761033,
            0.002230989320633661,
            -0.07866478338420842
         ],
         [
            -0.05390589674712324,
            -0.24183912989951906,
            -0.08040536489779442,
            -0.05425861614703682
         ],
         [
            -0.21694517976725727,
            -0.13147197927431095,
            0.04204034026451551,
            0.027629459259612604
         ]
      ],
      "biases": [
         [
            -0.004383184704292521,
            -0.023701769682087225,
            0.12591548758197676,
            -0.029938494051997732
         ]
      ]
   },
   {
      "genes": "1111111000101100111001011011011011000111001001100100110100100000110001011011100101111100111011011110110100101100111100011010000101100110001000101101101010100111110111011000101110100101000001101100010100110111011101010110011100101101010000111011101111001010110001001010010010001000110111110001100011111001010000010001110111011011101100111101111101110100000110101011110100100000110110010011110111110001001111110001101101001010101000010000000011100101000000011100011000110100010000011000111101010100001110110000101011111111111010100100110110110001000101001011011111010101110110101101001100101100101010100101101000111101010111010111110011000001001000101110011010000001101001011111111110000000001100101110001111110110000000110100000010011101000101000000010110011000001010101001011110000001000100110001111011111000010011110001100111011100000010101000111010000010010001111110011100000010001011101000011010111011110001100000100000100011001011001101111000000000110110100100111101100111001001101001000101010010001100101010101000000001000010011001000110010000110111100110010111100000101110101111110000001111101100111001111001001111111110100111111110011000110001111001010010010100001011111110001001010110101111100001000111101010101110001011101001101000000100101101011100100100"
   }
]