[
   {
      "weights": [
         [
            0.005018992240434851,
            -0.00011860654134491534,
            0.10820819714506463,
            0.09993279042298547,
            -0.231828588378139,
            -0.1467419164307761
         ],
         [
            0.09122814006124547,
            0.05932908502560462,
            -0.017224324211215246,
            -0.07458153171118219,
            0.11889704486042318,
            0.2517976505431206
         ],
         [
            -0.36812246188152553,
            -0.14748940899695753,
            0.07058105276166952,
            -0.46820057997822556,
            0.029162904668262546,
            0.05259699187795851
         ],
         [
            -0.35278450755139207,
            -0.47711944342847884,
            -0.0014238037029015074,
            -0.26448721214854337,
            0.4548953855769128,
            -0.04736675949960961
         ],
         [
            -0.10453737102611198,
            0.19788741327887388,
            0.019110508157764466,
            0.08274538727809576,
            0.0056429335709970545,
            -0.16240765273653995
         ],
         [
            -0.03728900944680639,
            0.04043959713149742,
            -0.16972909638129993,
            0.07636447160721828,
            0.48374125161579856,
            0.2008691416679659
         ]
      ],
      "biases": [
         [
            -0.015210176124166822,
            0.014194247176720624,
            0.03488495559215388,
            0.08474424687527711,
            0.03597300978589976,
            0.09711106066376686
         ]
      ]
   },
   {
      "weights": [
         [
            -0.11640894866386153,
            -0.014874351158556016,
            -0.011490322021260381,
            0.09724589685291135,
            0.15353351604885315,
            -1.1370559462446788
         ],
         [
            -0.09151615552331696,
            -0.3227808754213682,
            -0.7368905994528483,
            -0.030116263734103685,
            -0.13540110120384147,
            -0.04005481929446024
         ],
         [
            0.021283460225677307,
            0.0888837169088498,
            -0.5810505599626996,
            0.003354788180373881,
            -0.13400360423871002,
            -0.3857338439860077
         ],
         [
            0.4276509988901463,
            0.21868611737977958,
            0.207034855073157,
            -0.40956421488156325,
            -0.372233973638933,
            -0.12183813436696374
         ],
         [
            -0.05763668625065061,
            -0.590108756998643,
            -0.20031656612773815,
            -0.03398029919746083,
            -0.7944315156253925,
            0.07733645050037848
         ],
         [
            0.6263409096054267,
            0.06504173196669506,
            0.2051538548856477,
            -0.04558268533926231,
            0.04760720766836715,
            0.5638316460582059
         ]
      ],
      "biases": [
         [
            -0.06416814089933348,
            -0.05900442571243576,
            -0.0033716814692820417,
            0.048084070449666796,
            0.1653676977252029,
            -0.01803760951239764
         ]
      ]
   },
   {
      "weights": [
         [
            -0.01759476206270138,
            -0.03699847939661209,
            0.8435200008316798,
            0.23496057980554647
         ],
         [
            0.0090464563990107,
            -0.1826797173226089,
            0.06769391946608337,
            -0.09991831245366421
         ],
         [
            -0.05132643542240259,
            0.01935792082931801,
            -0.1148278991693684,
            0.09768124234656415
         ],
         [
            -0.24288368838648114,
            -0.13656071516851798,
            -0.02899909949505859,
            -0.061492216772439205
         ],
         [
            0.03492153664110758,
            0.1477537889605838,
            0.24624965091251946,
            -0.0034046345130622673
         ],
         [
            0.03839552774384536,
            -0.02373304204818259,
            0.2751578152644044,
            0.010169281628228107
         ]
      ],
      "biases": [
         [
            0.024141592653589783,
            0.10639822971502567,
            0.20680088514248726,
            -0.025252653317356703
         ]
      ]
   },
   {
      "genes": "1100101011101000011011001000101001011111010100101011101111010101000011111111000111011100000100010101100100011101010101110001100000100111000100010100000101101010001000110100000110100101000111000001100010011010000110011111011011110111000100011111101011100110101110100111001001011000000101100001101011100011000110011101010100100100110011010001001100000000100010100101011010001101101000100110101110111001100110101010000101111101001100100001010110111111100001001110101101110110111101110111000101000000001111101101100101110110000010001111100111001110101001101000000000010011101010011101101010101110000110110110011010010111010010101111101011111010110101011100000111100010000110011010000000100001101100111100001001011001101010001100100101001011100100001000100011111101101000011001010001110011000111000100010011001011111010001111011101001010011010011000000001101101001101000001001011000100010100100011010011101011001111110001110000101010101101011111001101101101011111111001110011001011101010001010101010001101100010110011100010110011011001001111111100100000011011011000111001000100000111100010100011001011010111101100010110000101010111101111010111111101110101100101010000000000110101100111000001111000001010110011101010100101110110011001000011011101111101011110011000011111"
   }
]