[
   {
      "weights": [
         [
            -0.22362094595170695,
            -0.14075902382293745,
            -0.5814311790955342,
            -0.9597086460617696,
            -0.15283177670192952,
            -0.3651486567438781
         ],
         [
            0.35412156216284696,
            0.21235563642264954,
            0.3657255870144608,
            0.17219456134767414,
            0.36466171916486745,
            -1.2794073786345705
         ],
         [
            0.6210371464328928,
            0.860247104268907,
            -0.07898148070675062,
            -0.22377445756212677,
            0.17044947892335094,
            0.030421849646303463
         ],
         [
            -0.3943542895550901,
            -0.002335261509036018,
            -0.2209379584300479,
            0.20558681751969182,
            -1.0087862298051415,
            -0.4367388657818071
         ],
         [
            -0.1535898660831566,
            -1.1715510413632122,
            -0.3185328851527045,
            0.14805523708228815,
            -0.1635783695330617,
            0.22874863118977692
         ],
         [
            -0.44091242115610096,
            0.18819116179580603,
            0.12513240412132298,
            -0.13476934466547036,
            0.01148959363454452,
            -0.024902248970926827
         ]
      ],
      "biases": [
         [
            0.027230088815692333,
            0.5151238958327177,
            -0.1215398223686155,
            -0.28584955592153877,
            -0.43738937829015445,
            0.05354867379348699
         ]
      ]
   },
   {
      "weights": [
         [
            1.319977598702254,
            0.4460520655007748,
            0.004172844601475264,
            -0.6022632762839829,
            -0.2477012539684264,
            1.1585351673753719
         ],
         [
            0.13200681349050483,
            0.2000258354053535,
            0.14117069909767577,
            -0.6645760021673501,
            -0.14539031391389565,
            0.7226991227474792
         ],
         [
            -0.7934250409989381,
            -0.337267282402019,
            0.14169660090895722,
            -0.09959499413739938,
            -1.3101072784686565,
            0.6203401328086957
         ],
         [
            -0.0653882925016531,
            0.3059183584818075,
            -0.35073413388207375,
            0.1400736269009554,
            0.05501666511055938,
            -0.046498111986060325
         ],
         [
            0.032978543286828726,
            1.00716293707627,
            -0.17328124665972972,
            -0.17307558431269746,
            0.14957656793291493,
            -0.26225664858105474
         ],
         [
            -0.6518141757371587,
            0.4654691479240681,
            0.09403043696605276,
            0.3589996658927577,
            0.3446100078519706,
            0.6929861236935086
         ]
      ],
      "biases": [
         [
            0.7074247779607695,
            0.007000000000000005,
            -0.2756814150222055,
            -0.32551327412287184,
            0.38599114857512845,
            -0.24680531085492283
         ]
      ]
   },
   {
      "weights": [
         [
            0.10173705954691642,
            -1.0739909048936214,
            -0.09115984874586808,
            -1.1120971081884166
         ],
         [
            -0.05036140138924546,
            -0.20400279970033108,
            -0.03368398014963082,
            0.2505295689641815
         ],
         [
            -0.66067935681863,
            0.5655068999523174,
            0.5526601978326093,
            -0.023731879844094667
         ],
         [
            0.7205557127034866,
            0.23448376738388396,
            -0.5456044551806526,
            0.11692774337409723
         ],
         [
            0.44643465221614814,
            -0.3526126993995545,
            0.40132493310810025,
            0.00021338716092112603
         ],
         [
            0.1758086479620354,
            0.2894080929747694,
            0.1551009521693824,
            -0.7558265327389474
         ]
      ],
      "biases": [
         [
            -0.30340708113989723,
            -1.1499646003293853,
            0.04994690350851267,
            0.48111504440784614
         ]
      ]
   },
   {
      "genes": "11111110110100101110111111001100010001011110111110110100100001110111001001010010111101101000010000010111101001011111110101011101011101111001010101001101001000000101100110101110101011101110101000100011101111111011010110011011000010010000010010101001001011001011010011101000100110001011111011000101011100000001101000100101011100001100110111010010100000010011000100111001011100001100000010011011011001101101000111111100100001001110111110101001101000010111110011011110101011010100110110001111011001001011100111010110001011010001111100110101101000011001111110010001001110011011110111111101101001011001000011101101100000111011011111110000001000000011111101110000111001000000110100111011101111111101101010101001011000011000001010000101000101111010111110010110111001011010100001101111001001011110111011100010000011101100111111101111010111011111010001010110000010011101100110111001101000101011100010110000000111101000110010101000010010011011011011100000110011000001100000110111110111010000100111111010111100001011000101000010001000011000000001011111111111010100100000100011001010111101111010101100110000010011111000010111100100000110000110011111000100001111101101010111100100011111100111010111010101100000001110110111111011010111110001111011110010101111111101111010011010011111110100110000101000110110011100011001100000001110011000101100010110001110101111001010001011000101011001100000111110111100010110110010110001111010110110011101111000011011011000000110000110001011100101000111111111100011000111001101101011010100011100000000001111001100111100110111101101001000110111001100100000101001001001000000000010111000000110011110101111111010100000011000001010011010000111010010101111011101011110000011000111110111110111110011100111101101000101110110111001110011110001110111011111111001010101001001011010100100111100111111111100001010111110101110110011011010011100010110101111111100000011011001100010110011001010110001101011001100101010111100101111110000111101001001011111011101011000001011000011111011101001111101011001010101000001001010110011010010111000001011011111000010001001101101011011000011101100000011111011111000111110000001001010101110111001100001111111110101011010100000011110101000011100101100110011010011100010001001001010101011001110100000110101010001010011100110000001011011101010010111011110001011010000111011100011110001110101000100010011111010001110011000101011010101110011101101000100001000100000010011001110011101100101111000010110110001011100001000"
   }
]