[
   {
      "weights": [
         [
            0.3858188440571323,
            -0.09470592733145033,
            -0.39363719331254376,
            0.16797304778955982,
            -0.058513191724134855,
            0.604353018313567
         ],
         [
            -0.018723568046256016,
            0.036355636422649544,
            0.48580523175169193,
            -0.10261154869214548,
            0.32659093188137867,
            0.21976069724568842
         ],
         [
            1.525934468461582,
            0.6577584063474228,
            -0.7900899256617903,
            -0.1417744575621268,
            -0.2908110990735939,
            -0.20754274465421074
         ],
         [
            0.03303508873506433,
            -0.1201051726933438,
            0.16054607853594552,
            0.19808110001050372,
            0.007285301146286063,
            -0.7857080343186436
         ],
         [
            -0.07558986608315671,
            -1.479055470090083,
            -0.41401961102983276,
            -0.008635029364788696,
            -0.3214367768794719,
            0.07957953605991691
         ],
         [
            -0.4270097687430747,
            -0.07985308929968055,
            -0.15754901090088233,
            -0.06977819609034176,
            -0.1315104063654555,
            -0.06990224897092684
         ]
      ],
      "biases": [
         [
            -0.07200000000000001,
            0.5633495589359744,
            -0.0051504440784612415,
            -0.039991148575128546,
            0.036000000000000004,
            0.2012035405699486
         ]
      ]
   },
   {
      "weights": [
         [
            1.7178407044966666,
            -0.13706441107050554,
            -0.23186065404564496,
            -0.19991814306044453,
            -0.34758039270918506,
            1.806915700269526
         ],
         [
            -1.2602213130658437,
            0.22090193957263599,
            0.9346921949913857,
            -0.022890161432708903,
            -0.40839916533876724,
            0.38970355448878496
         ],
         [
            -1.3509073471925008,
            0.20872386014423874,
            0.12160662802068724,
            0.020170491334472653,
            -0.08395276165996665,
            0.46695959991454233
         ],
         [
            0.41285064773891045,
            -0.08183420803760126,
            0.3688451799875095,
            0.03687606400443101,
            -0.05352074692767855,
            -0.3161883784331373
         ],
         [
            0.16689687666603137,
            0.07605050905018695,
            -0.03471487604537052,
            0.2768316231748071,
            -0.13063581803303453,
            0.6835752105196122
         ],
         [
            0.44575219487720064,
            -0.07224766676875236,
            -0.16977150133324867,
            1.48599966589276,
            0.15673941358219473,
            -0.029315051420824884
         ]
      ],
      "biases": [
         [
            0.032230088815692254,
            -0.15000000000000002,
            0.09186725877128168,
            -0.07325663706143593,
            0.09852212554774328,
            0.2982079602535136
         ]
      ]
   },
   {
      "weights": [
         [
            0.5424892739103522,
            0.16229228041355867,
            0.12071228057302025,
            -0.3670705599426718
         ],
         [
            -0.5880206938781429,
            -1.0960824384086918,
            0.13907577576516014,
            0.06868954131994622
         ],
         [
            0.0250772580513043,
            -0.4186877831638889,
            0.5825186051790197,
            0.3170308473979717
         ],
         [
            -0.31291574560370083,
            -0.05801904829921678,
            0.30197076685857815,
            -0.1883864219201326
         ],
         [
            -0.1432621526852624,
            0.010643937661881455,
            -0.19924146122090264,
            -0.02978661283907887
         ],
         [
            0.3900873738080133,
            0.36722150103825485,
            0.2588699147687276,
            0.5881115193446946
         ]
      ],
      "biases": [
         [
            -0.16930088815692243,
            -0.0008495559215387577,
            -0.008575222039230494,
            -0.29511504440784614
         ]
      ]
   },
   {
      "genes": "10010101110000000110100110100111000001110101100101100100111110001010110101011110000111111001011001001101000001101101111101111011000011111010011111000111101000000101101011100101001101110110101101011101110111111010100010111001101110001010001010010001101011011100100100011010011011100011100101011110000101101001100101101001010000111010011101000011001100010011111111011100110010001010011010101110101011010001110011000111010011101100001001011101111000100110001101001010101010001100011011110000110110100111011100110001010111100001011111100010100100011111100111011000100001110101110101101100001010001100001101011011101001101101100101100010101011011001010101011110000101111001001001011110110101010101001000110000101111010110100011100000011100000010011000010001010011000100101111011011000011100000101001111001001111000000011010101101000010000110010110001011111101010111000011001010011100011011010011111010110011110100010110111001100001110010101011101001010110000000011001010111001111110111001000110010100001101010010101111010111110100001000111000100111011001010100111001110100010110100011100111010001111100101100100011101001110101011000000000100000011101000011010111110110001111010001010111111011011110011100001101011000001011101101010111110111110101011010110111000010001000001111011110010001010011101100011101101100101111101100101101111000101110100000010000110000101010000111110110101111111101001010101001101010011101011001110110010010101010010001010101001110100100100101001010011111000101011100100100001101111000100000110001111010110001011100011000000100111000101000100101110000110010100001101011000000101001111101101001001000111111111010011000001001100010101111100110010101111100111100011000000111011111010111100101100000111101000100000110000011001100111101000011001011100100010110011000110011000011101100000001011000000000101011011110000011011001001010100111100010011110100110001101100110111001000000111111111000011011100000101001101010110011110000011010110011010101000001001110011011110111000001101101010001100001100100100011111010001000010111100101111001001000010001111100010000001100001011110010101101010101000100000010010001000100011010100111001101101010001010001101010111101001110011001010100110010010001010111010111011011001000001100101110001001011100100100100101000110111001100110010001000101101000011100001111111010101111011000100000011100010111111100110000110011001000001111001110111010101101001101111001000010100010001000101111011010111011011111101001"
   }
]