[
   {
      "weights": [
         [
            0.373925037040107,
            0.3875374325926785,
            -0.3444602009883387,
            -0.4332747378470049,
            -0.6829556665057765,
            0.5918928406821826
         ],
         [
            -0.16294038575351177,
            -0.4487948076558118,
            0.0942123128915888,
            -0.3930009269822997,
            1.0767413699309691,
            0.7481235272900989
         ],
         [
            2.0,
            0.7120769913252175,
            -0.8820501002787393,
            -0.18874790931638316,
            0.13244553798784203,
            0.07042628138760987
         ],
         [
            0.18017225567621836,
            -0.3858175616737285,
            -0.041878699424823904,
            0.15665632204973434,
            0.06805005500796131,
            -0.9112832503290035
         ],
         [
            0.06383933759004842,
            -1.7041085665815707,
            0.04173259730473217,
            -0.008130606666788304,
            -0.3095872209579332,
            0.09272112871350671
         ],
         [
            -0.366319502295998,
            -0.0577424645753995,
            -0.21677909971657458,
            0.9766828861823176,
            -0.1466387218817381,
            -0.3444686195852861
         ]
      ],
      "biases": [
         [
            -0.11416814089933347,
            -0.026389378290154263,
            -0.04194690350851267,
            -0.0017831822927442467,
            0.03671238898038469,
            0.17763273821428277
         ]
      ]
   },
   {
      "weights": [
         [
            1.7159557489045127,
            0.054218774236674136,
            -0.2748872022913887,
            -0.05591814306044452,
            -0.0159343773575946,
            1.7671457890852182
         ],
         [
            -1.2599956559914578,
            0.5098930941766353,
            1.0518514904947183,
            -1.3342883851188647,
            -0.22077084680804923,
            0.2503362832536129
         ],
         [
            -0.9556462844186293,
            0.1318255448893514,
            -0.2905084163871589,
            -0.5173826021425794,
            0.04393219393218724,
            -0.12119968955991958
         ],
         [
            0.5971249816212187,
            -0.025851910887344107,
            0.4440708370618955,
            0.06488934114173817,
            0.31530668646055227,
            -0.3135804174886221
         ],
         [
            0.1283836025431595,
            0.0566168796645461,
            0.0024576905663986678,
            -0.11341173674932177,
            -0.5577508624408807,
            0.9358539701143564
         ],
         [
            -0.022442494267876395,
            0.2447213592730683,
            -0.6097715013332488,
            1.5623713473620409,
            0.057465079699886394,
            0.02268494857917512
         ]
      ],
      "biases": [
         [
            0.020230088815692254,
            -0.03385398163397449,
            -0.052646015351590164,
            -0.2117699111843078,
            0.10251769983530762,
            0.7545707963267949
         ]
      ]
   },
   {
      "weights": [
         [
            -0.002975329433468281,
            0.23723918392207152,
            0.21049104318219944,
            -0.2861502046799028
         ],
         [
            -0.2745959159173735,
            -0.34253376461520463,
            0.5773147099768531,
            0.05768954131994621
         ],
         [
            -0.32806876031472126,
            -0.5475063651272485,
            0.7428770095109947,
            0.663738810665921
         ],
         [
            -0.021490967642931378,
            -0.2879925000534732,
            0.8630459858833732,
            -0.038417389849441166
         ],
         [
            0.043082980538275965,
            0.4321837600304971,
            0.055762964491533104,
            0.08203639483671622
         ],
         [
            -0.07400554203765422,
            0.26610645663040877,
            0.5504097371373433,
            0.6352531119982844
         ]
      ],
      "biases": [
         [
            -0.11310177329940958,
            -0.024053096491487326,
            0.07434513322353839,
            -0.02073451151369264
         ]
      ]
   },
   {
      "genes": "10110010011100101000000100110110100000010110111000111001000100010000000010111000010101010101110000100101100001000011001110111000101001100001100111111101011000000110111010010100100001111100111101011010011000001110101100000001010010111001100111100101001001110000000000011111000100101000100000101011101110001110001010100100111100111000001100011110001100010111100010010000111101001110100001011011101100101101010110011011000110000110111011000110001000011100111110001110010011010111110010100000101111011111000000111001111101100100111100000101000101000101000110110010110110111011111011100101111100110001001110100110011001111011010101001001101101100110000010111100001100111011001110000001100100110000110000100110001111100010001110100001000100001011110100000110100111111000001111010000110010011011111100000011111000100111101010100111010101010000000111100001110001101111110000011110011010010001100100000100000010011101011001110001101011001001001010100101000100111111011000101101111001101100011101011111010011010110010011111110101111011101101100111000100001000111000010010011100000001001001110011101100001111010000001100110011100110010000001010010100100100011000101000110010100111000001010000101010110100011110111111001000001110110001101000000101101011001101111100101100100010010111110011110010010000111000011010110100100101011011001000000110100010000110010011111101001110111100010111000000010001111110110101101111000101010101001011100100010010011110011100011110000111101110011010011100001110111111111001000111010000110000101110011000010111001010011110111111010110111000110110111010001101100101100011111010001000110000101110000101011001100011101011100001000001101101000001101010001011111010010110000010011011011110111000101111011001100011000001110100101010000111100010101010110101101011111111100001010000010001001101010101110001001010110101110010010000011111101110011001101100101101001010100101110101000001100111100101111110101100011010100001011000100100010110110001001111000101100001001010011001100001111111011000010101001000000000100011010011100010011111100010010101100000011101110111000100011010011111001001000000110001011101000000111100111101000011000100110100111000001001001010101001101101101010110111001100101010101100011101111001101101101011010010110011001000011100000010101111000110010010010100100001110001111111000010100000000110101001001100000000101100101110011000100010100101101101110010110101111101011111101100011110000100001010101001000111111000000111111"
   }
]