[
   {
      "weights": [
         [
            -0.3146076688143997,
            -1.0545908829236044,
            -0.46103099731513353,
            0.0915748180745341,
            -0.6284600952326475,
            0.052264522151464134
         ],
         [
            -1.0759934822449997,
            0.1904087329141369,
            0.38064594227722975,
            0.2060256212634439,
            0.09976038032214649,
            0.08497751495294417
         ],
         [
            0.3310937579360445,
            0.024563717202345507,
            0.4747530308069421,
            0.32532288399597653,
            -0.029943840302312265,
            -0.17142770627523524
         ],
         [
            0.4020963068720923,
            -0.13811402411821525,
            0.3182982868705103,
            0.10268729600791376,
            -0.20890127421298707,
            -0.7757080343186434
         ],
         [
            -0.021222610326310377,
            -0.5977545819331602,
            -0.012236422708217454,
            0.12139151888095497,
            -0.648693413940908,
            0.023694580467763036
         ],
         [
            -0.008455046520899748,
            -1.376565472251195,
            0.30043329227824545,
            0.6694527973666248,
            0.04043207143062146,
            -0.08095977117484991
         ]
      ],
      "biases": [
         [
            -0.26430088815692243,
            0.5020088514248715,
            0.5123495589359739,
            -0.35701769682087237,
            -0.2605398223686156,
            0.36016814089933374
         ]
      ]
   },
   {
      "weights": [
         [
            1.2271504440784604,
            0.48913912949944327,
            -0.07792260196200373,
            -0.16351977606993592,
            0.6406704275008556,
            1.4457962301492437
         ],
         [
            0.30911300647347967,
            -0.11823965308095385,
            0.41391406203623987,
            -0.2319122779371461,
            0.12075127873969407,
            0.4061017842038107
         ],
         [
            -0.9937878710433486,
            -0.37162126705042897,
            0.06563317626643089,
            0.21691385427303678,
            -1.171178071781016,
            -0.8157572087494076
         ],
         [
            0.6956736554147058,
            0.06722809203473071,
            -0.39952208179820753,
            -0.023411547015184296,
            -0.03837915427408876,
            -0.9368874902762148
         ],
         [
            0.5112617285940084,
            0.6753447528063057,
            0.08448866452457804,
            -1.1747039028434159,
            0.03544382670419659,
            0.4110442395758678
         ],
         [
            -0.0829247944325689,
            0.022637288823401523,
            0.14606035776741794,
            1.19082709928099,
            -0.13905704584785689,
            0.19526017061840575
         ]
      ],
      "biases": [
         [
            0.014761065788306984,
            0.22594247779607707,
            -0.34962389281828216,
            -0.08460177028497427,
            -0.01965486677646162,
            -0.39518584374907645
         ]
      ]
   },
   {
      "weights": [
         [
            0.23565741480968544,
            0.09372148408676377,
            -0.08099568872379923,
            -0.12809710818841577
         ],
         [
            -0.13299857134483486,
            -0.19511784410817723,
            0.530721797145621,
            0.1785744969121001
         ],
         [
            -0.11013513394351576,
            -0.3745959134184917,
            0.44319116877635334,
            -0.16762401937849
         ],
         [
            0.8590955350721026,
            -0.2609144623311417,
            1.922,
            -0.3037536716481081
         ],
         [
            0.020994484376173465,
            0.17786960076513791,
            0.30493995681573816,
            0.608018698015844
         ],
         [
            -0.2544081637163494,
            0.019620484969589402,
            0.5947991154274975,
            0.34175310898384875
         ]
      ],
      "biases": [
         [
            -0.39194690350851275,
            -1.3935840734641018,
            1.0010265482457439,
            0.8483097335529235
         ]
      ]
   },
   {
      "genes": "01111110011011101000110111000011101011011101000110101101100000100101011011011001101011010001110010101000111001100111010111010110011110111110110110000100011110100100111011001001111111101110111011101110101001001100011001100111001011000100110101110110110010011000011100000101101001010001110111101100001010001001011100011101001001110011101010101100100001000001100110001110111000110100011000001011100100001111011111101100000100111110000110110111110001100011011111101001000010011011110011110111011100101000001001100010111010001011110100100111110010101100010010001001000101100111110100010110111111000010011011111111100101000100001111000001000110000111000111000010100011111110111101000110001000100100101111101101010111011010101110010101000000100101100010001111001001010001111111001111101010011110101011101001100110110111010101110011010001001011100010110010001010000000111001000011111101011100011110011000000100110000101110000010100011110101010101011111111111101111010110010001001011100000111011111000100011010001000100110101111010001000101101110110010001101001101101110010101010001100101111001110010110100001001001111101111010011111110101011010100110100110110111100111001111111101111010010000011110010110101110110000000110100000011000111111000110001000001000101111010110100010100010010001000011000101011011101100001110000001010010010110111101111111110101011111011111010010000100111111010000110000111001011000010110110111111000001010010100011100001111001011110011100101111000001011101011101101010011100011100111000101111110100111110010001111110010100110001011000110001101100000011000100000100011110111001111010001000010100001000011110011001111001111001111001101011010000011000111001011101111011111000110000001000111100111101010000001111001101110001111000100110110100100001111001110011101101110000110000011111110011101100010100101001011111001001001010101000111100010110110010110110000011110110010101101101111000010010101000001110010000111001000010000110001111001011111101101101001000101011010101110101111101110100000111010000010010111111100011100100001001100011100000110000000100100100011010111110010011000100100111111000100001010001101001100010000010010111100001100110000001010000101001101111001000001010010110110010100100111011000100100100000111010001011111100101001111010000001001110001010011100101110111001111010011101011110111010111101011001111000000001010110101101100011110000001100111100010100101000001011110001101001011100100100111001001001010101100110000010"
   }
]