[
   {
      "weights": [
         [
            0.13925247344277303,
            -0.1609581386804503,
            0.215407057782943,
            0.042778358644482685,
            -0.3468052284561858,
            0.40765390647048927
         ],
         [
            0.08659059121910292,
            0.036355636422649544,
            0.0884689499530247,
            0.22779553244775164,
            -0.10685155495800443,
            -0.012664080715080963
         ],
         [
            0.36207606111517227,
            0.6537053098559354,
            0.07890347488540331,
            0.18096890537643728,
            -0.033519062341542914,
            -0.25358700177856786
         ],
         [
            -0.021964911264935688,
            0.013779782898810091,
            -0.32898220349666385,
            0.38901159548046116,
            -0.030786229805140945,
            0.18576541442117744
         ],
         [
            -0.318173933518388,
            -1.1678607749161352,
            -0.360581555931756,
            -0.23835029161347995,
            -0.3358527094442405,
            0.1411193584285324
         ],
         [
            -0.6068239249939985,
            -0.15349910465127078,
            0.2704067440325018,
            -0.09781359576095686,
            0.1640780867822116,
            0.1496729730683038
         ]
      ],
      "biases": [
         [
            0.01324778563656447,
            0.5143451332235385,
            0.01884955592153876,
            -0.18573451151369266,
            -0.5365265452313084,
            0.22543362938564085
         ]
      ]
   },
   {
      "weights": [
         [
            1.7522831853071794,
            -1.1522460717551926,
            -0.45717923902343977,
            0.06446252108032116,
            -0.19254499906744033,
            0.1847037557966409
         ],
         [
            0.3334315914512742,
            0.10071610185243032,
            -0.021289478533708724,
            -0.2422839654352989,
            0.0747689755605663,
            -0.1088053093999769
         ],
         [
            -1.2455046857361696,
            -0.0491390554400335,
            0.05611990214355908,
            0.32287402888998595,
            -1.1818683382280932,
            0.6236144727198745
         ],
         [
            0.6116736554147059,
            0.3005909220791414,
            -0.35668988278658714,
            -0.07226110293672307,
            0.055474827359885695,
            -0.41171050398088027
         ],
         [
            0.43050066280570143,
            -0.22875480180473592,
            0.8675265507671883,
            -1.273646380639492,
            -0.07255617329580343,
            0.2916460098608421
         ],
         [
            0.004699098385713359,
            -0.08870784440013686,
            -0.10901044157381234,
            -0.22074369704580624,
            0.9810668439559902,
            0.17018966426345694
         ]
      ],
      "biases": [
         [
            0.0027610657883069822,
            -0.4071150444078461,
            -0.4999380520836414,
            0.25051327412287183,
            0.03920354056994858,
            -0.08118584374907638
         ]
      ]
   },
   {
      "weights": [
         [
            -0.053882401530059396,
            -0.11668117134069769,
            -0.0625576336257227,
            -0.7922741005126209
         ],
         [
            -0.09059149020493772,
            -0.2408523556218699,
            0.003500553725929542,
            0.2927337863865621
         ],
         [
            -0.1226484080663876,
            0.08609982484129083,
            0.07439471537517259,
            -0.043221363951028574
         ],
         [
            0.966281372792308,
            -0.7428613658396543,
            -0.2017548932302431,
            -0.6169041157265697
         ],
         [
            0.43172014446499474,
            0.14884305251939428,
            0.0978027898745839,
            -0.26647687928615554
         ],
         [
            -0.5214081637163495,
            -0.3343618182095384,
            0.5381531000759072,
            0.22574868930028386
         ]
      ],
      "biases": [
         [
            -0.21926548848630734,
            -1.8529292066876408,
            0.9382300888156928,
            0.28499114857512853
         ]
      ]
   },
   {
      "genes": "01001101001110001111110101011101001001001011110110101110101000000011000101001111001110100000101111010000001011111000000100101001100110010101010100001001000100100111110010100001000100010101100100101010011010101011101110111011100001110111001011011000111000100110111001101011011001010101010011100011100100110010100001001010111011010010000000100101100001000011100111001100011101110110011110100000111010111111000110010010010001111001010010011011011110100101100111110110011110011111110010111100111000111001111000011010100101011000010110110110011001000000110000110101011111001100101100100101001100100110010100011001110100110010111111011110000110010001110100010000100010101101001111111111100000101001001010100101000110000000011010011000110011101101001111011111110011111000001010010111010000101100111011110100010101010001010000100100010001101010101100010111101000011111111000110010100001110000011110010001000101011010101011101111110010000111101100001110010111001101010011001111010101001001100011110110011011000001110100001101101001110011110010111011101100101011000011111010001101011101110001111111110001001100011111010000111100010111111101011100100010101011101101000010000011011110011100000101101101110101101010110100101110011001101111100100101101001100110101001110001000101000010110111011011110011100100101011001011010100111101010111001010000011111010011011100001111101011011100001111110000011001111111100100101110011011100101100010100101010111101101011011011000110111110110011010000111110010010000110011000100011111010100110011100010110101001111000001000001100111011011111110000001010111010010101001110000011100000000101101100011000010010010110101001011001001100011101111011000110011110101011101001001111000001100001111001010101001111100110101101101100111111000001101111110101000010001011100110011001101010111000010111101000000010110010001001011100011011000001100000111010000101011001111100101111011000001001101110100100111110001111010110011110101011010000001000001111100100010101111100010001111001011101110111111110001110101001110010100010101100010111100010011100100101101110010000101011100101100111000000100100100111101001111001111011000010111101001010011011111100001011011011011101111011111100100111100101001010011100101011100010101100011101101000001000001101101010100011101100111110100010101000101111011101001101000001000101011111001011010111101000101001100001011000111101100001010001101100000011001000001000101010001001111001001100111110101101101000100011111"
   }
]