[
   {
      "weights": [
         [
            0.2338188440571322,
            -0.052475838515758017,
            -0.03712391918967176,
            0.4355748180745342,
            -0.5838937246182883,
            0.6031494777436184
         ],
         [
            -0.1616925940880766,
            0.166054748265727,
            -0.11430096123128303,
            0.4436804880399054,
            -0.3923294233813905,
            0.08004830826530371
         ],
         [
            0.0806247349086592,
            0.39815663606244833,
            0.3599100743382098,
            0.248862706364592,
            -0.2868110990735939,
            -0.1748790324817484
         ],
         [
            0.029035088735064316,
            -0.17911402411821525,
            0.0029708564967148403,
            0.511011595480461,
            0.008024238372414422,
            -0.06972131145595072
         ],
         [
            0.5532596898383821,
            -1.2676749371959295,
            -0.27596650850947435,
            0.12139151888095497,
            -0.5386934139409079,
            0.29973883156324943
         ],
         [
            -0.40224870295476767,
            -0.20413627460686018,
            -0.027433966493036192,
            0.8743023532881637,
            0.6943081755979039,
            0.39780571429702216
         ]
      ],
      "biases": [
         [
            -0.19794690350851277,
            0.5765752220392308,
            0.13788495559215388,
            -0.11724778563656447,
            -0.4510530964914874,
            -0.32720354056994855
         ]
      ]
   },
   {
      "weights": [
         [
            1.699309733552923,
            0.0759355889294945,
            -0.17542703068887475,
            -0.18868792299814008,
            -0.26391667450785183,
            1.433313929984552
         ],
         [
            -1.118451401881536,
            0.2029019395726359,
            0.6167497171953085,
            -0.5331689210274528,
            -0.30039916533876715,
            0.348075235958067
         ],
         [
            -1.4665312400107837,
            -0.057692066391659136,
            -0.03839337197931276,
            0.2130908465972416,
            -0.37905011527581123,
            0.1589949995851574
         ],
         [
            0.44166038430626947,
            0.5503254396217045,
            0.1137522581129713,
            -0.2910575623667745,
            -0.3017818097015502,
            -0.053161830187393636
         ],
         [
            0.33788119569985475,
            0.7511235093866142,
            -0.14271487604537048,
            -0.23830554376634708,
            -0.4276358180330346,
            0.8079203437431507
         ],
         [
            0.40307963127986685,
            0.1550443699632987,
            0.04400726127593059,
            1.609822673568555,
            -0.4473402311550365,
            0.5118796377242524
         ]
      ],
      "biases": [
         [
            0.006097347586973895,
            -0.18200000000000002,
            0.14006194791635881,
            0.10078318832161498,
            0.15691150383789754,
            0.14119468914507705
         ]
      ]
   },
   {
      "weights": [
         [
            0.6609494515417365,
            -0.38844223110013404,
            -0.1741598487458681,
            -0.7870705599426722
         ],
         [
            -0.09522866016052711,
            -0.0703213846781258,
            0.011075775765160126,
            -0.8422219625179513
         ],
         [
            0.03107725805130429,
            -0.48748424259394063,
            0.2518283387319427,
            -0.019988516905530586
         ],
         [
            -0.11277415295011099,
            -0.09971977318606452,
            1.9877168146928204,
            -0.2362138492794926
         ],
         [
            0.0608794399683274,
            -0.0020463287851952804,
            -0.07624146122090267,
            -0.1904060799449254
         ],
         [
            -0.09457191868088408,
            -0.7475122622879999,
            0.1589185855477792,
            0.589261963423156
         ]
      ],
      "biases": [
         [
            -0.16097345175425626,
            -1.437292036732051,
            -0.5737787626091794,
            -0.038115044407846126
         ]
      ]
   },
   {
      "genes": "10100011111001000111010101010101101110010011011111001010110011111100011100010010011011110100000001011100100101001001100000010110111000011110101010110011101010100110011110110001101111100010100111100100011010111011110100001100011000101110001011000000000010010110100010101100101000101000000010001001011010000011000100011000000111111010110000101110001110001100010110110100110100101001001101101110001001110110100010011111010100101001010000111110110101101100010001101011010101000001000011000100011011111010000010011100100111010110111011001110011110010000111000000101110010100100101001000010000000110001000011101110010000111110111000110101111011011001101110011101011001101110010111000101011100000110111001010111001011011001010011100111110000111010001100010001111000100001101100101111011111111101101110111101101010101000001100010111011000000110001111101100111101000000010111100001011101010100101011011000010001001111000110101101010100101011000101100010110001001111100011110010010111101101001000110100000001111000000010010100010001010011101001001101001000110111111010110101000000010001101011100101100011011101101001010011111110001101000001001100001011110000000100101110100001101010010111100000010000101100011001111111001110000010011111100100110111101000010000100000110110011111001111010111100110000111010101111100101111101101011111011111001100001011010100011001101001011011110101010110111110100100110100111110100011100100110000100010100011000011101000100011101000001011001110111011101101011000011110001111101101110010011101110011110011001111101111000110101010110101001001011111100100110101101001011001110000101010100110011110010101110010111110000001111011011010100001000110100010001111101001111001001011101010001101001111011000110101101101101110000100100011001110000000100000001011000000101111010011011100110000011111100000101010000100100100000011110010101000011011010011111110100101011111101011111110011010101111001111100011110100111011011001111010110111100011100110001001101100100100001111011101110110101000000100110100001111110100011001000100000101011110101001010111011110110110101110000101011101001101110010011011101010000110011100100101000010110011101100100100111111000100100011101011010110111001101111100010111010111101101011000011110110000101111100010010011111101011111000010000011010001110110011110110000000010011101110101010101111000000111011011111011100111000111011101101111101110001000001010101001100110010011101010111000010000000000100011110110010011100"
   }
]