[
   {
      "weights": [
         [
            -1.3118236693438063,
            -13.39974854491077,
            -0.14608426498229177,
            -4.736166180703989,
            -9.475405556683434,
            -1.154961147431649,
            -6.9246712415279905,
            -2.413480260314632
         ],
         [
            -1.5408756952024811,
            -1.3128484481399618,
            -1.6831884916472868,
            -1.608192962823606,
            4.16979464438033,
            -0.16294047455481753,
            -1.2033143899459273,
            -0.5078339952188302
         ],
         [
            1.1979900661975744,
            2.498391450044681,
            -0.06418948602205576,
            -4.32268185853554,
            0.25622890129049214,
            0.20304138598721455,
            -2.0743112548012745,
            -3.537454738878409
         ],
         [
            -2.201983713270613,
            -1.3344496698354529,
            -5.730270014334,
            -8.319915501717503,
            -1.4465858136007408,
            0.33628927160002076,
            -1.9750187713636747,
            -13.688930706423477
         ],
         [
            -1.1860718866554318,
            -1.4386515606903518,
            0.7841800274664084,
            -1.6332835564692125,
            -6.613015345661905,
            -1.1964065494317064,
            -2.6853176572477806,
            -6.900911043774653
         ],
         [
            -1.017336641030086,
            -2.7702799991978044,
            -2.658337128448401,
            2.8053512260483613,
            -12.35513714208572,
            -3.3529554587410457,
            -4.733816251800881,
            -6.275647894575977
         ],
         [
            -1.572606784477642,
            -1.3799948925497634,
            4.079306672117491,
            -2.9569703977539277,
            -3.671914843650938,
            9.391968188040597,
            0.11782539275203124,
            -11.544781489185828
         ],
         [
            -4.577117545488531,
            -1.7952217298464705,
            0.4127907924597416,
            -0.7889565794159958,
            -1.4394203907770318,
            0.8082834599537674,
            0.8465825437905143,
            -4.206568269397544
         ]
      ],
      "biases": [
         [
            -1.824899999999999,
            0.29166000000000025,
            0.5614300000000001,
            2.153260000000003,
            -0.14184000000000016,
            -0.38316000000000017,
            -1.4267899999999991,
            0.07136999999999966
         ]
      ]
   },
   {
      "weights": [
         [
            -2.3033300613835763,
            -2.8275020669806423,
            -9.581306767079555,
            -12.230389239156363
         ],
         [
            -4.7539987203279175,
            -0.9371833763546453,
            0.48572793793044067,
            -10.228127740227295
         ],
         [
            -2.8511284433412376,
            0.6945862910694167,
            0.35871828191610744,
            -1.8123661151843748
         ],
         [
            0.5669839276915778,
            -0.014867554277379513,
            -3.8010912886558588,
            -0.5303220838429419
         ],
         [
            -3.086470914130225,
            0.607445306671484,
            -4.1497123766316335,
            -0.27975000314719667
         ],
         [
            -0.8269282340360564,
            1.38788570436719,
            -23.978707368997043,
            -1.5116227155618667
         ],
         [
            -2.820619518346846,
            -2.1350077556962246,
            -1.8024984467312677,
            -0.49509663788943103
         ],
         [
            -1.2652545228465926,
            0.045138649159086164,
            0.24621362685964532,
            -2.1645350041407196
         ]
      ],
      "biases": [
         [
            0.32482,
            1.7088500000000009,
            0.8090799999999991,
            0.8814999999999997
         ]
      ]
   },
   {
      "genes": "00011101010101110111000111010100001010001000111111001001101011011010001000100100100000100010101000111100110100011110010000101110011101010110100111011110101001111100101000101001011111001011011100000011111001001010111000111011010011111001101011111000101001001010110000100101000001001000001110011011110100111000011111101011111011101110100011010111010010101100111100011111111110100000110111100110100011001011101101011100111011111100000011001011101101011000100110100110110001111011100000101001011011010111011100010110110011101001110100110110011110010100011110110010010100100000001000100110011011011111010111011100111101100001110100000010"
   }
]