[
   {
      "weights": [
         [
            0.29681420036673467,
            1.2462791364959442,
            -0.31774379880135784,
            -1.9817787626091792,
            0.21572676626013482
         ],
         [
            -1.4672354155596827,
            -0.6972901435508139,
            0.40157860997288874,
            -0.1795195012331106,
            -0.20994956034276846
         ],
         [
            0.05724246742572151,
            0.4989733050321213,
            0.8435537543639696,
            -0.24427756754338506,
            0.9926871118464596
         ],
         [
            0.30392429802928983,
            -0.019635461429516988,
            0.4508932231670924,
            0.04179480927022791,
            -0.7745086775793116
         ],
         [
            1.026067351558768,
            -0.6784421076865533,
            0.5552910466595103,
            -0.015128379943524853,
            -0.7099005948946567
         ],
         [
            0.10795005164781157,
            0.36300517653243203,
            -0.15176711960534564,
            -0.054963525939327344,
            -0.5665703242001598
         ]
      ],
      "biases": [
         [
            -0.4809000794658845,
            -0.21483907025279936,
            2.8517156703922515,
            -0.8288239588250493,
            -0.4549135254824413
         ]
      ]
   },
   {
      "weights": [
         [
            1.6801421990862129,
            0.06993063933497941,
            0.2639847887225815,
            0.7928313945168082
         ],
         [
            -0.16468274612139286,
            0.2713608984173786,
            0.16289701752329366,
            1.0921518922905198
         ],
         [
            -1.1959072461199625,
            0.6406367017456122,
            -1.8919920445695828,
            -0.06719043863989214
         ],
         [
            -0.016469042186790465,
            -0.061100299119329446,
            0.0508548397622145,
            -1.4381429071926113
         ],
         [
            1.3087783432402447,
            -0.16169623424672938,
            -0.9003233755336875,
            -0.6330455526508719
         ]
      ],
      "biases": [
         [
            -0.21680834619177566,
            1.4289163394183095,
            1.0116589490992873,
            -0.4706978910618717
         ]
      ]
   },
   {
      "genes": "1101110011010111001101010110111011011100100010100000001111001001101110100001101001111100001111000111000101011000111010100011010110001001000010011001010100101001011111111011110010010101100010011000100100000010001010101001110001110100101101000100011000100001010000000010110100010110110100001010100111100100110001000010010010010110110000101000000100011011111000110111100000001110111011001110000011010000011100100111110001010011101000011101010100111010110110111100011010110110010111010100011000011110110111110000101001110011010110011010010101000011100010001011110111101111010111011000110001110000101100001000000110001010011010000110000011100111110111111101111000010001100010110101000111110001110111"
   }
]