[
   {
      "weights": [
         [
            0.2138764709244582,
            1.2650376698011019,
            0.08974563834100133,
            -0.0710521929155032,
            0.16116263867780742
         ],
         [
            0.2902239901826896,
            0.28034301812840656,
            2.0,
            0.1311777290216127,
            1.39294748330728
         ],
         [
            -0.08234999740828389,
            0.5002126812121708,
            -0.23162022088982973,
            -0.1424509284924218,
            0.05834190752689471
         ],
         [
            1.769238826499753,
            0.37084688654933395,
            -0.9429513565539821,
            0.805147879420764,
            -0.05621179166988743
         ],
         [
            -0.33649279449176167,
            -0.32548602449974073,
            -0.31422168944988277,
            0.06550647248422455,
            -0.0035756017925009514
         ],
         [
            0.7746388603882787,
            0.22131023366119523,
            -0.15372423620021597,
            0.34193272354459264,
            0.4036901165728496
         ]
      ],
      "biases": [
         [
            0.09962529452695647,
            0.2811404910999368,
            -0.096192002700934,
            0.11524405648769566,
            -0.6251564313804723
         ]
      ]
   },
   {
      "weights": [
         [
            -0.030034827743988544,
            -0.07759855167759731,
            0.12732196048683211,
            0.3011687695954323
         ],
         [
            0.12209855458299697,
            -0.34864552737678856,
            0.260349221637649,
            -0.5967386581685025
         ],
         [
            -0.060011015139461554,
            -0.15329912802169765,
            -2.0,
            0.7861069310231777
         ],
         [
            1.5846508570104918,
            0.23087932210530593,
            -0.260715753250207,
            -0.43293968365196156
         ],
         [
            0.08731500718001846,
            -0.016554653650880963,
            0.05042160766976467,
            -0.8600453674231103
         ]
      ],
      "biases": [
         [
            0.46218151784676353,
            1.1803729395175542,
            -0.2281443720644162,
            0.37390082078421516
         ]
      ]
   },
   {
      "genes": "1100001000011110111110001001001111011110111111100111111011100100100111010101110011010101000010010011101111001101110010110011010110011001011011110010000111101011010101000000000000100111010110101011111001110011101000010000101110011100001100000100100001110000001110001111111101100111011110011110110001001100010100000000100100010011110111001111011101101100101011011101100001000000110110101110111100010011110010111001010110000100101111011101100101100001111101101110100101110110001011111010011010011001000000011001111101100000000100000001000011110011011111001110101100000110010100100001001001100000101111001111011010100011011100100000011101101111011011010010001001111001100110111101100110000110001011"
   }
]