[
   {
      "weights": [
         [
            0.2981907615745499,
            0.8910750346306473,
            0.07216842744416646,
            0.04698058467251889,
            -0.02366982350349434
         ],
         [
            0.12626741118449183,
            -0.19591039938186422,
            1.7241596956864016,
            0.37330496934455,
            1.5041836222663598
         ],
         [
            -0.13310638074355977,
            0.40164769637478026,
            -0.27085823540839304,
            0.9240162004720618,
            -0.27472204088800234
         ],
         [
            0.03475785951942023,
            -0.7008986078556937,
            -0.7980798572980261,
            -0.007713549357693637,
            0.036438708849230235
         ],
         [
            -0.9088293864572445,
            -0.10780321808850285,
            -0.0922982942516463,
            1.122338730934348,
            0.5218840438542742
         ],
         [
            -0.3101722313948882,
            0.15493523742923937,
            0.043022387657993204,
            -0.4084395248321003,
            0.4761769441071647
         ]
      ],
      "biases": [
         [
            -0.027040567615390358,
            0.182134166129342,
            0.03805104663957103,
            0.03811424189632286,
            0.38085837975472653
         ]
      ]
   },
   {
      "weights": [
         [
            -0.18228283436473128,
            -0.1944092497233729,
            0.37517387530469093,
            -0.10488836406635553
         ],
         [
            -0.22513678400994458,
            -0.014001238530144101,
            -0.5186990842979428,
            -0.6080415829971877
         ],
         [
            -1.6578361241373676,
            -0.318248928023203,
            -1.760339405721516,
            0.9875458519713552
         ],
         [
            1.528556657045042,
            1.256269377435685,
            -0.24608221466978566,
            0.34189080734154076
         ],
         [
            0.16228787352344395,
            -0.1714414667159063,
            -1.65717761349145,
            0.008955318811292464
         ]
      ],
      "biases": [
         [
            0.3043617952060961,
            -0.013264432501986825,
            0.36662967753057135,
            0.0680561446012098
         ]
      ]
   },
   {
      "genes": "0111111000010101101110101001111001101010010010010000100100001001101011101000111011110101001110001011101100110011010010011000001001001111101010011101000000101000010110100101111000110010100011101000100100110000101000011111111110001110010011110001111100011111110100000111101000000001101001001000000111110000010110110101001000100100011000100111000110011001100000001011110010101011100010011010111010011010110010111111011101110010010010110101000100001100011110110101011011001010010011101110010010101101001011001011010111101011101111100100001001001001001101010100001011100101010111101110110001000011111110011111000011100000111110000110101011000011010111100110000111011000011001101010001100011110110011"
   }
]