[
   {
      "weights": [
         [
            -1.0090613115272309,
            1.7213490650637473,
            -0.14288929765732283,
            -0.4526006633946169,
            1.410379174695371
         ],
         [
            -0.531430183080076,
            0.7143018845100908,
            -0.16607819181814987,
            -0.5151081615219271,
            -0.0224750187397976
         ],
         [
            1.1887755698359315,
            -0.23883601284874822,
            0.31091871109639474,
            0.037153923513306625,
            -0.5003922331144671
         ],
         [
            0.7100886279377576,
            -0.3676157395778162,
            1.0534946821411602,
            0.6429636962758638,
            0.12703730781400524
         ],
         [
            -1.38205138201211,
            0.06282610370591961,
            0.26733866636069875,
            0.4485043160686635,
            1.5967891492823645
         ],
         [
            -0.07635462296768726,
            -0.53889279862282,
            -0.011802788074297065,
            -0.713052171155967,
            1.0888424474349208
         ]
      ],
      "biases": [
         [
            -0.1912955979156791,
            0.10374041596978055,
            0.3327300963197778,
            0.32478771312904503,
            -0.1998416095793863
         ]
      ]
   },
   {
      "weights": [
         [
            1.6527843263220383,
            0.2575670804372633,
            1.0084758679656973,
            1.924368839068877
         ],
         [
            -0.6402717346636382,
            -0.1767952253489473,
            0.46873983623342763,
            0.12977524834574283
         ],
         [
            -0.7841261306433344,
            0.13797363485588016,
            -1.1222804475187957,
            -0.3267971003043336
         ],
         [
            0.5368639304612655,
            1.536336601993276,
            0.011993338637308667,
            -1.7085020877752408
         ],
         [
            -0.15062196971027758,
            0.16839090586595018,
            -1.3788505837175329,
            0.2324272921746992
         ]
      ],
      "biases": [
         [
            0.34182965946956123,
            0.015710476542071895,
            -0.2558211464188783,
            0.14690061185777845
         ]
      ]
   },
   {
      "genes": "0000000100111110111111000010111010000001000110001110100101110101111010010111000100100001000000011101001000001010101101101111010011011100111001111000001101011100010000000101000110100100000111011111111010100101011010001101111011011111100110000101101001001001000000011001001110000011111010011001001001011110011000010100010001111000001011010011101011011011100010001100011110110000000100010001110100110100000011000001110000101100110111101000101100010000011101110101001100100001011101100011110101011111111001001001001101010111110011111010011010001000001100100110010001000011100100100000101100000001110110010100110100111100010001110001111001110011111011111101101100110101010100011111011101101000110000"
   }
]