[
   {
      "weights": [
         [
            -0.6328028889225654,
            0.6739767632608323,
            1.7643773664290938,
            0.8822182528510452,
            0.5006810135233896
         ],
         [
            -1.2112576578367875,
            0.3864887496094838,
            0.21614367838085258,
            0.40322963660482664,
            1.6887785353504623
         ],
         [
            -0.6568030910714161,
            0.9420752036873935,
            0.6566620675892809,
            -1.051950727775676,
            0.389328797530737
         ],
         [
            -1.168150239122743,
            -0.14332298605020172,
            0.4973228209944963,
            0.4806522607502852,
            1.2899045476650601
         ],
         [
            -0.29862919682319466,
            -1.1135275574675105,
            0.23719148320188232,
            -0.4509368022467498,
            1.665435655092427
         ],
         [
            0.013934749896483422,
            0.34218145808994277,
            1.2587829447435583,
            0.0654348709168479,
            -2.0
         ]
      ],
      "biases": [
         [
            0.02057341064241642,
            -0.04259496983443184,
            1.0524643265605858,
            -0.03963703468737092,
            1.0983424775203905
         ]
      ]
   },
   {
      "weights": [
         [
            -0.29009586760815165,
            -0.41724387996116985,
            0.7712856226196678,
            0.9121457088655757
         ],
         [
            -1.0358283634707353,
            -0.4019688787949959,
            0.6929967955194204,
            -0.6005451695726332
         ],
         [
            -0.13178698249602772,
            -0.36366017210607016,
            -0.43379769374480726,
            -1.615152219184371
         ],
         [
            -0.9259998391269001,
            2.0,
            0.6392751437795827,
            -1.2841765928328268
         ],
         [
            0.028750404439085185,
            -0.44607320124967764,
            -2.0,
            1.3059335715119562
         ]
      ],
      "biases": [
         [
            0.4636499675210593,
            -1.0527913232397224,
            0.3066496022798383,
            -0.1774156017491479
         ]
      ]
   },
   {
      "genes": "1110100011010010001001010001111001111100010011110010011101010100000101111100001100110110110111000010001111111110100010110100111001111000101111110101111111100110100100000100000000111010101010100001000100111001010010101100001001111101000011000110010110110101110011111000101000000110010111000111101110010110001000000000101011110100011011000110110010111100000001000000110010111100000101111011101000011010011000100111011001001000111010001010110011010001011111001010101000001011111001100011101100011000110101100011000001011101011011111111100001010011010000010111111111000100011011010010110001110010001010010010111111011000100110100101100011101100101000011101110101101000000010001001001010011000000100"
   }
]