[
   {
      "weights": [
         [
            0.04326785012995799,
            0.4354135105404514,
            0.11796342355554489,
            0.8324142851541865,
            0.04400322384748338
         ],
         [
            0.23707877821167295,
            -0.6087713448234859,
            -0.2662384487998994,
            -0.08242917171361945,
            0.38322400953270497
         ],
         [
            0.16655521076975774,
            0.06091590860086808,
            -0.22034376676518452,
            0.6999388672337987,
            -0.04563098854407697
         ],
         [
            -0.7618153909152034,
            0.2551346349825526,
            0.32838699683924916,
            0.4509893429150904,
            -0.3027262840117713
         ],
         [
            0.7894771267108979,
            -0.36353514327601916,
            0.007459378815475384,
            -1.20998642805854,
            0.14156313573657622
         ],
         [
            1.3568936098324895,
            0.44760826669360504,
            0.45203765926496786,
            -0.08610719704996692,
            -0.598481834066928
         ]
      ],
      "biases": [
         [
            -0.35227080548562023,
            0.11129908789431776,
            0.26733156204999947,
            0.20536949318079006,
            2.1220932755456956
         ]
      ]
   },
   {
      "weights": [
         [
            0.5622961022034351,
            -0.6147463853143996,
            0.3882684513377266,
            0.8166978408642102
         ],
         [
            -0.23755725558526977,
            -0.4040674626875937,
            -0.18589516524885952,
            0.1745859584492599
         ],
         [
            -0.03332004395456269,
            -0.05823453432407055,
            -0.5388819248899478,
            -1.400851617912398
         ],
         [
            0.09922436585293973,
            0.22503595976962884,
            -0.5097576032472784,
            -0.009317535008430003
         ],
         [
            0.12730844916750417,
            -0.3843723215331739,
            -1.5378092945990018,
            0.5247273558500011
         ]
      ],
      "biases": [
         [
            0.04988650708001566,
            -0.04916870934596436,
            -0.0473576066274693,
            0.7587389148392224
         ]
      ]
   },
   {
      "genes": "1000011111010101011111010101100001111011001001000100110011100010100101111100110101010011001111101110001010110110110101000001000101001011001100110100110101101101100000101010111000000111110011111001010011001111010100110100101110011001000101110111110110000100000100100110101100101101000000111001011010001010001001001110101111101111110011101101110001010100100011111000011010000010100011101001010110111001110101010011101001111100000010011101101101010010111111001011011000111000111000101010111010000101101010000100010100001011110111000010111101100111001010001010011111000000010101000111101011011000110100100010011110101111001101111111101001000010111010010010010100001110010101000000100110111111111001"
   }
]