[
   {
      "weights": [
         [
            0.16845699658396682,
            1.3467992550994712,
            -0.010744485869375323,
            -0.1871403246509532,
            0.2684637357611669
         ],
         [
            0.06168366036175484,
            0.08466966019380513,
            1.8127094390520906,
            -0.6701162242215958,
            2.0
         ],
         [
            0.23405864829066572,
            0.46052021095218226,
            0.9079815365037892,
            -0.24789534431750967,
            -1.0238099869788835
         ],
         [
            0.13179329494645126,
            0.05543502129921891,
            -0.9490040946476873,
            -0.024841512505065187,
            -0.045530376647682204
         ],
         [
            -0.04732061039325661,
            0.030027876402442186,
            0.7962522602965791,
            -0.11910607821132602,
            0.24886861674708394
         ],
         [
            0.05160244581302502,
            -0.009912442932815888,
            -0.9299395242712213,
            -0.7081686190105865,
            0.01710629423727817
         ]
      ],
      "biases": [
         [
            -1.2350709075149642,
            0.10282413405053634,
            -0.2964363779465087,
            -0.02524597209436541,
            -0.4457400749339591
         ]
      ]
   },
   {
      "weights": [
         [
            -0.24968241971237254,
            -1.1186375340756074,
            0.10900019213109644,
            0.746169318833039
         ],
         [
            0.006112984455353427,
            0.09891074303252667,
            -0.07624030450126872,
            -0.02518695088522719
         ],
         [
            -0.06270021845093451,
            0.015916477078609374,
            -0.5267043949690701,
            -0.6501696833801334
         ],
         [
            0.4170728582220672,
            1.4908472841779083,
            -0.14290445212379527,
            0.25631354863054767
         ],
         [
            -0.09881082366727478,
            0.05312587140574067,
            -1.5422921263314946,
            -0.36234928990343646
         ]
      ],
      "biases": [
         [
            0.2140274126655879,
            0.03218498841749669,
            0.08745754124622482,
            0.16602754762596245
         ]
      ]
   },
   {
      "genes": "1011110100101100101110011100111110010100101101100111101001110011111110111110100000001011100011001000111101111011011100100110100011101010110110000011111110000000001110001101000101101000111110011100100101001011100001111100001111011010111010000000001110110111100100011000011010100111101100100110011010011001000111010110111101000100011010001001001111101111101010101100101100000010010001111000000000100111110101101100001001000100000011101110110100001111011010101011010101011000100000111010111000000010010100111000010101110111011001100101100011110100010110001011111011001000000101001100100010011010010111010101111101111101100001010101011000110000010011101101111110001010111000010010111010010011100100"
   }
]