[
   {
      "weights": [
         [
            -0.21858026617158305,
            0.14320468443683676,
            -1.3701670294560715,
            -1.3855222063152355,
            0.4417431583084453
         ],
         [
            0.17199126161459966,
            0.19560231905772285,
            1.7776823885583644,
            -0.23116728445812673,
            1.6919615366952427
         ],
         [
            0.25204112463981365,
            0.029556530732734773,
            0.19268548068804905,
            0.12232250035212591,
            0.7839945519870252
         ],
         [
            1.081281292052008,
            0.43522014463540926,
            -0.5966327896627992,
            0.5795856838071152,
            -0.04107559826489181
         ],
         [
            0.4485639028137334,
            0.11150102058750996,
            -0.12240024674994682,
            1.8654353197173645,
            0.37759383486754877
         ],
         [
            0.023767934902219453,
            0.08981600637974785,
            -0.13183248997043567,
            -0.7204955178165801,
            -0.34632293313460094
         ]
      ],
      "biases": [
         [
            0.03622281829838605,
            0.16496791845929643,
            0.20190010674972453,
            -0.10282234083977466,
            0.048384740175080286
         ]
      ]
   },
   {
      "weights": [
         [
            0.33111009734208,
            0.38995372937557504,
            0.3811394134138176,
            -0.1468392573478181
         ],
         [
            -0.028666476862777193,
            0.02827831540186733,
            0.9086126252212287,
            -0.9461558985517285
         ],
         [
            -1.3663736828211712,
            0.17744124237875017,
            -1.7631350647854265,
            1.5974005736827617
         ],
         [
            0.05825709562680384,
            -0.060723308000898674,
            0.0372661613867857,
            0.10346564125544355
         ],
         [
            0.6923824792840262,
            -0.15175996209425555,
            0.0025437356290562672,
            -0.5061963732137273
         ]
      ],
      "biases": [
         [
            0.08813021334418479,
            1.5164966858789268,
            -0.17182562597434275,
            0.037174784627807426
         ]
      ]
   },
   {
      "genes": "1010111000010011101001001000101101101111111000011110111111001100100011011000010100100010011110011100110110010000100110110100001001011011011110001111101101110001001100110011101000001100000000101000001011101011110110100100001010011111101000110000011010001110001100010001111111111001011111001101100110011011111100110100110001000101101100001000011101000000100011001101100000110110101100011010011001101111100100011011011011111001100100010011000110100000000100111110011000110100000010110101110011001000000101101000101000001110000110101000001100111101000111000110101101100000000000010110000110011101101011100011011111010110000010010011011110101110111000111111111001100100101010010111110100101000110100"
   }
]