[
   {
      "weights": [
         [
            -0.10541116379383259,
            1.0635380790274775,
            -0.07097824181665245,
            0.1065780188445028,
            0.39619006483139335
         ],
         [
            -0.3987509063868204,
            -1.270925025289302,
            1.920920164006137,
            0.03069074640388965,
            -0.05588585661072505
         ],
         [
            0.24042037341418504,
            0.04424347638826707,
            0.19559145389261945,
            0.7662203682381282,
            0.24207606667167625
         ],
         [
            0.06915829907622845,
            -0.23826473499297368,
            0.6162603772667511,
            0.4710750735521235,
            0.1289159802208519
         ],
         [
            -0.13618370019269752,
            -0.04492830241268652,
            -0.11949427354537623,
            1.7495105507999007,
            0.2935782225325968
         ],
         [
            0.678254797776144,
            0.17947706071320055,
            0.8877875078695984,
            -0.05344299509498987,
            -0.3080901864798991
         ]
      ],
      "biases": [
         [
            -0.6397662393451439,
            0.10457355919022918,
            -0.7405745477345598,
            -0.2573352923212814,
            1.0132106439270614
         ]
      ]
   },
   {
      "weights": [
         [
            -0.3168458122579053,
            0.2951655958314638,
            0.7467244362985953,
            -0.02461438858182914
         ],
         [
            1.096708560320852,
            0.7774947562079216,
            1.6372045102564656,
            -0.7895160888437412
         ],
         [
            1.0462474307470728,
            0.8201576922281105,
            -1.7715967893060611,
            1.6037340244723988
         ],
         [
            0.7979733602484028,
            0.17316826505886143,
            0.14524270089066688,
            -0.5837235646536574
         ],
         [
            0.01740925495962603,
            0.0002277343045957239,
            -0.20840792787419116,
            -0.724226044965512
         ]
      ],
      "biases": [
         [
            1.360670016792574,
            1.2162499276215495,
            -0.02441143155545413,
            -0.41135658005332765
         ]
      ]
   },
   {
      "genes": "0101110111111110011000110111010110011101111001001011100100101010011010010111010011101100100111101101100101010001101101110100001010011011100111101010001111110011110100010110110110001010000100011111000000110100110111101111100010100011111010010010011100100000100101110100100011101000011111000100110010101011010000101010100010000101000100010111001010000011100101111011111000111101101001001010110011010001101100110000000000101010010111111011010111111001101011001000101010111010100000011000011111001001001010101101101100100010011000010110100010110010111000000000111010001111111010100001110011001111001111101000110110100001010000100010001011110001010011010101011101101110010001101100100011111010111100"
   }
]