[
   {
      "weights": [
         [
            0.22989173691936957,
            -0.1664291466405963,
            -0.38472820413621045,
            0.05165311251343603,
            -0.7208260006960415
         ],
         [
            0.10086737181075273,
            -0.18340437595158704,
            -0.2972509372120028,
            0.06666631840048355,
            0.030509721294161643
         ],
         [
            -0.6591299485089291,
            0.551609591050998,
            0.26103739290827954,
            -0.5508667115858448,
            -0.18835912727301715
         ],
         [
            -0.6694827404917044,
            -0.4795104421724885,
            -1.1803683044401974,
            0.790277987342763,
            0.027097499914679316
         ],
         [
            -0.09461776551782418,
            0.011290581693877658,
            -0.2813143963691128,
            -0.3767351790215704,
            0.7509388535425443
         ],
         [
            1.4609704709580422,
            0.7849660856147493,
            0.052215571699109925,
            0.11374461049864183,
            -0.3000164906456761
         ]
      ],
      "biases": [
         [
            1.334019779151884,
            0.4441915031055033,
            -0.03713354874613992,
            -0.021947299808096114,
            0.0871203148243768
         ]
      ]
   },
   {
      "weights": [
         [
            0.08001914062647045,
            -0.05802776740854372,
            0.5816592330746546,
            0.15784224124496196
         ],
         [
            -0.325140021230914,
            -0.12536150033499044,
            -0.20890119169357174,
            -1.0576142846110124
         ],
         [
            -0.5859708908137212,
            -1.1159486843153956,
            -0.9353404660326395,
            -0.11820088476816885
         ],
         [
            -0.18561722860931124,
            0.2425748986183389,
            0.12423047483122218,
            -1.3735886075542867
         ],
         [
            0.17914579108733966,
            0.08309578138427426,
            0.5018936167895881,
            0.4823859496299466
         ]
      ],
      "biases": [
         [
            -0.6519306352633472,
            -1.3164302132545809,
            1.0246077872055686,
            -1.0407948557187758
         ]
      ]
   },
   {
      "genes": "0110100100111101111010100100000111110011000101001110110001011110111011111000001000100100101110010101011100010111110100010111110011110011100101101010011011010000101111001111111011011110011110001110011011011011101000101011101010100110001011000101110110111111110000101001100001000100110001011111111001011111010001011110110001111011011100111001111100111111110010000111000011001111010100100101010111001101000001110101011011110011000011011111000100001100111110010001111010110111011110010010000101110111000110001110001111010110100110011111111010011000110101101100111010010011000111010101000011110001001000000000101010101011011101011010001110000110111001010001000100111111011100010110000001111010000110"
   }
]