[
   {
      "weights": [
         [
            0.07922651964294677,
            -0.04294096347366564,
            -1.400505389711788,
            -0.06839440553056628,
            0.3454219275493823
         ],
         [
            0.07174029260009415,
            -0.045455107517884084,
            1.3422634759300278,
            0.09935339544074816,
            1.7106414466134876
         ],
         [
            0.031381939836973786,
            0.12545050489090961,
            0.3932981627683323,
            0.08506949466585816,
            -0.009716301328238464
         ],
         [
            1.009297979580305,
            0.3471424529993658,
            0.08799843097297443,
            0.00507587433507041,
            -0.10648355731263129
         ],
         [
            0.41433310926021893,
            -0.5170757061388741,
            -0.1367196260650091,
            0.1361357585222303,
            0.0534812871864334
         ],
         [
            0.04006651758904329,
            -0.037246293905522004,
            0.14548104812767593,
            -0.48086894346061293,
            -0.07448931218937913
         ]
      ],
      "biases": [
         [
            -0.012253090994943198,
            0.12160451506179645,
            0.12167325515500182,
            0.03380083518294409,
            -0.034063217425730236
         ]
      ]
   },
   {
      "weights": [
         [
            0.3766003589660602,
            -0.13309792749591454,
            0.05636594881285305,
            -0.15126261980407255
         ],
         [
            0.018425997014533804,
            0.04178716381230344,
            0.8155209517100558,
            -1.0839524355234844
         ],
         [
            -1.719571626857024,
            -0.1096749724339498,
            -0.15910735536809206,
            1.59958712216966
         ],
         [
            0.05996674319760406,
            0.22697746402954738,
            0.046979965871685334,
            0.12986758591621217
         ],
         [
            0.7274709276319707,
            0.08302126709730111,
            0.1131780625178744,
            -0.0440590572180353
         ]
      ],
      "biases": [
         [
            0.07097711745558455,
            1.0042664122522802,
            0.013086618357793636,
            0.038839828734210026
         ]
      ]
   },
   {
      "genes": "0001101110100110100111011011001100100011001011010101101011010001000011111000101010101111011100000110110000111000101110000011001000100110110110000101101000101100100111010111101100101100010000100011101011011101100000111000110100011000011100110111101001101101011011100100100000110011001000011100000111110100001100010100011000001010111111111000000001000001111100000001011100101100101000111111001111011111011110100001110110011001100101110011010110001010100001000111010001010011001011000011011001001011100111111110011111101101010101101011101000101001111001101010110010110010101100111111001100010111010011101011001010110101000111101000111101001100011111101011011100101010010010101110101111111100111010"
   }
]