[
   {
      "weights": [
         [
            -0.18413270272497087,
            0.26105524965095067,
            0.3612342096332594,
            -1.1562958983460574,
            0.3960361267913677
         ],
         [
            0.558442432320897,
            0.1732750200686601,
            1.616016030604634,
            0.3789488584249327,
            -0.07573129740345187
         ],
         [
            0.3951689443447109,
            0.10594749769742423,
            -0.0020178656108319638,
            -0.39279502227903174,
            0.5620818717154026
         ],
         [
            1.4802462387214348,
            -0.3043517803109526,
            0.5411825960312627,
            0.27752636400222097,
            -0.08387665657739915
         ],
         [
            -0.15354099960378104,
            -1.0118822468537423,
            -0.3668287215698467,
            1.6745238757513674,
            -0.16921364965593255
         ],
         [
            0.845067084496455,
            -0.32063493731350035,
            -0.2947429186149882,
            -1.0868416241594685,
            -0.40450566501857
         ]
      ],
      "biases": [
         [
            0.06413313364481753,
            0.3617761917079819,
            -0.2586448098959246,
            -0.2356991437160085,
            0.5015186397509112
         ]
      ]
   },
   {
      "weights": [
         [
            -0.14322012786752134,
            0.7705275656378378,
            -0.05735970524709745,
            -0.14381269704433303
         ],
         [
            1.0976290469683536,
            -0.31644956616967057,
            1.0256872170499056,
            -0.8604469677764914
         ],
         [
            0.09230282148453225,
            0.038834174502368535,
            -1.9977788939939123,
            -0.004351239247184689
         ],
         [
            0.6691586366732607,
            0.9565062034627828,
            0.016130816162086403,
            -0.29665167244927754
         ],
         [
            0.795618355473641,
            0.7889239488210653,
            -0.22213264685082046,
            -0.33651895399334236
         ]
      ],
      "biases": [
         [
            0.02502190011887304,
            2.5993188505696794,
            -0.6283716832972999,
            -0.22255628635054175
         ]
      ]
   },
   {
      "genes": "0001001010101111111010011001101001111101011000111111110001110101000101011011111011001100100001001011110010100111101111111001101101011100010011011110000100110110011011111101010101001000010101100100010000110111101110101110110100111101111000010010101001010101011100111011010101110001111011100110100101010010101111010001001101001000001101110010101110110100010010010101100110101100110110010100100010000010100100010111110010000000000100011110001001011010010011010010100110001100001001111111001011111101111110010110000110101101100001110001001010001101101001100000000101100010010100010000010101101101000000000110010110110000101101001100111101001001011110000010111011001001110001001110001000010001100001"
   }
]