[
   {
      "weights": [
         [
            0.04705845628531735,
            0.05068558115475575,
            0.0825639575348951,
            0.11002231534259924,
            -0.04205349196143073
         ],
         [
            -0.20362668230067457,
            -0.24302058816665958,
            0.7423887824797323,
            0.8541029338785618,
            0.6915180584042286
         ],
         [
            0.4270033118130428,
            0.6486035172089353,
            0.07687005840395514,
            -0.03683076267762388,
            0.13864227014488592
         ],
         [
            0.05061976082739508,
            0.15917313446053405,
            -0.07171385635022345,
            -0.03612660309927429,
            0.9432985911552474
         ],
         [
            0.02714375429658083,
            -0.16852153185641283,
            -0.28696081190377176,
            1.5349189761545834,
            0.01853200066611801
         ],
         [
            -0.13461152882745944,
            0.11203590580775774,
            0.47585694596614936,
            -0.16469745807106007,
            0.3368816464554687
         ]
      ],
      "biases": [
         [
            0.040136108096320164,
            -0.6847814821481059,
            -0.08966838410697184,
            -0.008982532337561723,
            0.6429695778320971
         ]
      ]
   },
   {
      "weights": [
         [
            0.6058141544076528,
            -0.4152762216097062,
            -0.07875094101012307,
            0.26795536227916644
         ],
         [
            -0.16353062979782199,
            -0.011868144932514695,
            0.03218341032389671,
            -0.21583294815020534
         ],
         [
            -0.03342394352518021,
            0.20455121620823802,
            -0.6968969578429396,
            -0.93699588046274
         ],
         [
            -0.16361139342123118,
            0.0867435887552788,
            -0.6600733632449143,
            0.0799775059026711
         ],
         [
            0.28681749486344277,
            0.2662904584716101,
            -0.36031977805212867,
            -0.7203297476674346
         ]
      ],
      "biases": [
         [
            0.24817206334125658,
            -0.10071058044408401,
            -0.4850622844434832,
            0.2041319847932525
         ]
      ]
   },
   {
      "genes": "1101111101111101111010001101110010111110011111111000001000100111101111010111101110000000000100100101011000111100000001111111101000110010011010001100010000110001001010110000111111010001110000001100100011011110000000110111000100101010110101101001101001011110111000011100011011011110000010101101000111001010000000010110111100111010011100010001011010000010010001111111011110101011111101011011000010111010000000011000111010111010000100111111101110111000110000000001110010011110010010010100010101000000000101001110010010001100010110100110111001101111011100110000011101010000010101001010101010100100001000010101001101100101000001101101001000111001001011011100110011111011100100100000111010010111001100"
   }
]