[
   {
      "weights": [
         [
            -0.7422081483460082,
            0.016387882404644824,
            1.7325404664776147,
            -1.4828336659562988,
            1.933787360339353
         ],
         [
            0.034160167123654696,
            -0.616518512307238,
            -0.42040896668216504,
            -0.03593360044049049,
            0.6753292944634842
         ],
         [
            -0.006810438225941491,
            -0.0805185926637444,
            0.0005918781911712833,
            -0.45060928018714136,
            -0.1666639871162774
         ],
         [
            -0.46856782065075353,
            0.15780809457434072,
            0.7584080200637293,
            0.4878173561020885,
            0.002329792543283368
         ],
         [
            -1.2225524546078255,
            0.9114906395263885,
            0.29757512193227303,
            -1.2674147417661616,
            0.9188487273374265
         ],
         [
            1.4461949692685065,
            -0.05676888512029699,
            0.023053182417281715,
            -1.0822989772275022,
            -1.1241702607109378
         ]
      ],
      "biases": [
         [
            -0.18728692568969843,
            0.07980147994942649,
            -0.960779384065224,
            1.046015704984269,
            1.5036770448718528
         ]
      ]
   },
   {
      "weights": [
         [
            1.1378478094867106,
            0.012772090354756124,
            0.1629471430369596,
            0.6339074139077414
         ],
         [
            0.8349110019987785,
            -0.2540878294052172,
            0.42536229546058196,
            -0.6416300942314669
         ],
         [
            0.2539723210309166,
            0.25854793720198094,
            -1.3978735214623048,
            -0.2581935263895166
         ],
         [
            -1.7492977646508807,
            1.8567727694741274,
            0.3540248140189367,
            -1.2563300234205341
         ],
         [
            -1.8096900388660502,
            -0.3089612743190033,
            -1.3460904613210303,
            0.2505165826740691
         ]
      ],
      "biases": [
         [
            -0.8029388474343584,
            0.10456728315620557,
            0.3660037299539151,
            0.5613757505125138
         ]
      ]
   },
   {
      "genes": "0000110110111100010000011100000100110111011011100001101000000110000011011111011001101100001100101001111101011110111110010100011111101001011001001000101011110001001111011100011011010111100011101001001011000110010010001100101100101010001001101111011011011110001101111000111000001111100000101001000001110010000100000111111010101101110100101001010011101010111100010011011111110111101111010100010001000101101111101010010101101100110111011010010001010110110101011000111101011011111001011110111010111010100110100101110110011100011111100010111100101111100111011101010001010001000001100011101100001101000110100010001010101111011110000011011100011011111001111010111111001101010110000111001010011111011000"
   }
]