[
   {
      "weights": [
         [
            0.27633004272917033,
            0.09734685647238657,
            -0.5506897524723867,
            -1.4716597316541729,
            0.9326746127436463
         ],
         [
            0.2148688769147131,
            -0.22332399674898823,
            -0.26437664270343314,
            -0.8052465285954832,
            1.051897587617871
         ],
         [
            0.5556914162324946,
            1.0138206506950702,
            0.17739474013352133,
            1.0169006839515067,
            0.02952533250775165
         ],
         [
            1.055754896292043,
            -0.24500885090032565,
            1.5811499904691697,
            -0.03606956464899472,
            -0.5708580754030066
         ],
         [
            0.2367289262358957,
            -1.0796705595967435,
            0.33028047517537046,
            0.4385171930229015,
            1.7437728378216513
         ],
         [
            0.00767041414522538,
            0.053420070077079426,
            1.3688962988196824,
            -0.13964829750949376,
            -0.7793469902656769
         ]
      ],
      "biases": [
         [
            -1.2305093149819517,
            -0.3861517601706148,
            -0.5634295627765923,
            -0.6439946382363998,
            0.8927006427815761
         ]
      ]
   },
   {
      "weights": [
         [
            0.12845852162961674,
            0.6144262399188457,
            2.0,
            0.20976098974658375
         ],
         [
            -0.1647288546897512,
            0.28399010088480964,
            -1.103877963405759,
            1.087152495371155
         ],
         [
            -1.484000717232108,
            1.579059505449462,
            -0.8006220839931814,
            -1.7431573014036652
         ],
         [
            -1.088653559197184,
            -0.22956820516808216,
            -0.014012765349107642,
            -0.096188855065495
         ],
         [
            -0.5021064973865578,
            -1.3606291309310163,
            -1.318814932918384,
            -1.0636637533067408
         ]
      ],
      "biases": [
         [
            0.45807292979424497,
            -0.7640409189518056,
            0.21454828300652656,
            -0.34498532891146666
         ]
      ]
   },
   {
      "genes": "0101011001000010010010010001010110000001111000000101001000111011101001011101100010100100000110000000111110010111110110000000111100100110000011101000110010010100101110000011111101100101100010001001111001011010110010011101011100100000000110001011110000101010001010110001101011101101101101010100010011001101110001011100110001100000011010001110010100111111111010110010111100001110001110001001010101001111001000010000001110001110111100010101100011111101100001111010100000011110010000100111100101011010100010111000010000010001011000100111110101110110000111000110000101000111100000000110010001111010111000011100001000000110101011111000000100011101001110001011101000001010110110100001100000001011111100"
   }
]