[
   {
      "weights": [
         [
            0.21020982005690853,
            1.3938215628605404,
            0.0026323678354519646,
            0.017024447642677677,
            0.3745678860435086
         ],
         [
            0.11252091268214484,
            -0.23314013582864543,
            1.8952978301348433,
            0.02447039294978187,
            1.478524467191066
         ],
         [
            0.07589878546311479,
            0.5171571060805645,
            -0.43378556653655,
            0.8789017832603336,
            0.20822474890558218
         ],
         [
            1.447899373380886,
            0.11030953076309538,
            -0.977866933735404,
            0.39690577388887066,
            0.39166249639300327
         ],
         [
            -0.19760396284158563,
            -0.1520967478667732,
            -0.3822190255820017,
            1.5107133088966251,
            0.0568050922139314
         ],
         [
            0.7179277258001301,
            0.45228092591925506,
            -0.01841920921580607,
            -0.04144839434358404,
            0.5012088916015024
         ]
      ],
      "biases": [
         [
            0.2898047594624095,
            0.3566378362753622,
            0.37475452432318473,
            -0.08273968589462288,
            0.6431855831154731
         ]
      ]
   },
   {
      "weights": [
         [
            -0.05118402948795504,
            -0.06577359692948528,
            0.29735687640380337,
            0.7561629878335735
         ],
         [
            -0.32800957341455317,
            -0.005661504555199905,
            0.44106696808134094,
            -0.0711798673337818
         ],
         [
            -1.6924895275951566,
            0.07002753171350554,
            -0.14038346315269687,
            -0.3177830766439155
         ],
         [
            1.4189584823788193,
            0.9871727466442746,
            -0.12707444446713004,
            -0.9796469538230249
         ],
         [
            -0.05301340275880616,
            0.03810352788825444,
            0.03886054670455426,
            -0.7943002426399915
         ]
      ],
      "biases": [
         [
            0.0009668565550687951,
            1.5058455340482086,
            0.49640179855666167,
            0.06947764958459282
         ]
      ]
   },
   {
      "genes": "1010111111100001000100100110110111101100001000111000010100000001011110011000010010101101001000111101101011001100011100100100101110010011110000000011100011111111100111100010001101000100010101001110100100000101101001000111110101011001111010001100100000010011010010001110011010011110001110011101100010100011000010111101010010000110011111000110111101100010100101011100101010000001011111000101010010001010010111111111011100110100101111101010001010010011010110010001100011010000101110010001001110010100001111101001100111100111111111001011010001011010001110010000100110001000000001010100001111000010111101010000110101011110001000101001000011001001010010011010101111101000100000010101100110001100101110"
   }
]