[
   {
      "weights": [
         [
            -0.11017695984932821,
            -0.0972528172689259,
            -0.09001629329740658,
            0.9313656324617461,
            0.41433470344932105
         ],
         [
            0.1934734721798462,
            0.1448814249925071,
            -0.04619895769914739,
            0.4068147852622741,
            0.14750085178267816
         ],
         [
            -0.5301086319538225,
            -0.22574185466858612,
            -0.17546266353237702,
            0.3140633247786717,
            -0.9536517963964413
         ],
         [
            0.14499320414123243,
            -0.19188258369673905,
            0.9962014569176432,
            0.4345622056411923,
            -0.22529230828608995
         ],
         [
            -0.12523839138759066,
            -0.03930079027697718,
            0.4975887514384906,
            0.24360964320153705,
            2.0
         ],
         [
            0.07136306360410491,
            1.5927187889270857,
            0.04033136865893597,
            -1.4358443896845372,
            -0.01766418427124712
         ]
      ],
      "biases": [
         [
            0.17554503465134721,
            -0.9811457750943825,
            -0.04588987220951681,
            0.6242705207460565,
            0.15325769672083858
         ]
      ]
   },
   {
      "weights": [
         [
            1.3705185095823023,
            -0.4764534767033772,
            0.5564143266780855,
            0.08391507122908384
         ],
         [
            0.026845465326154463,
            -1.116291649997629,
            -0.8771555047814904,
            1.4107975190999749
         ],
         [
            -0.13261007977126812,
            -0.7548607141090306,
            0.35194808796197397,
            -0.08019556909014963
         ],
         [
            0.6923633420359998,
            0.49504328197505754,
            0.38986572744204073,
            -0.2721494595930592
         ],
         [
            -0.05769365901709176,
            -0.7242737970956684,
            -2.0,
            0.9580553772466914
         ]
      ],
      "biases": [
         [
            0.5687707993028276,
            -0.18673905164666155,
            0.6649325541282906,
            -0.023339152447598772
         ]
      ]
   },
   {
      "genes": "1111111010010100001101101010100101011011111100000000100010011111101010011010000100110101101001101101011111010000010101010011111001010100010100111111111001111001111010001010111010011001100101000000110011011100001001001011100000000100001001000100100001010010101111011111011011010111010101111011011001100000000011111110001000110110000000111111010011001001111000111010000000001101111011011110010110100101100101001000010001110110111010100100101011010100111001100011111110011000011001000111111001010100000001001011001001100001001011011110000101111110011010101101111110111011101101010110110111101011111111010101100011111000100000001110110101101110001001010010011110111011010100000000001010110011101111"
   }
]