[
   {
      "weights": [
         [
            -0.01442329422496106,
            0.11950392404732463,
            -0.8045486315147001,
            -0.3503382510170002,
            1.0244055501879021
         ],
         [
            0.11975944068189803,
            -0.39606712061676197,
            0.21684641598703472,
            0.012072139536080738,
            0.9924989822520655
         ],
         [
            0.279561559855835,
            0.24716405866408486,
            0.0017281611956122545,
            -0.6847523956144967,
            0.1566395524339766
         ],
         [
            0.22892769636253898,
            0.13346280626739437,
            0.27616850688688327,
            0.7756029511341809,
            -0.47969848137379145
         ],
         [
            -0.9384978293137026,
            -0.34747779424211667,
            -0.1269273175201864,
            -0.2693669143889562,
            0.17909030816400268
         ],
         [
            0.36294081812648327,
            1.0949283623874233,
            -0.20116232102583856,
            -0.7833960025899186,
            -0.06548307078935932
         ]
      ],
      "biases": [
         [
            -0.42736429468437687,
            -0.47094583658886335,
            -0.08845662492033281,
            -0.4423569728862327,
            -0.08629338981199738
         ]
      ]
   },
   {
      "weights": [
         [
            0.7613085789746039,
            0.28362826977277183,
            0.059249930868848465,
            0.2621564065391915
         ],
         [
            -0.04113859969752871,
            0.07898362083080662,
            -0.5198691063688231,
            -0.012221598003862182
         ],
         [
            0.5170046863781286,
            -0.715808638967861,
            -1.3122793361522227,
            -0.6422367979199731
         ],
         [
            0.5898952387017444,
            0.18546066018869423,
            -0.35775355401923586,
            0.24726386253005037
         ],
         [
            0.33760838748694394,
            0.17471235199712845,
            -0.5610447988870909,
            -1.0029750815630694
         ]
      ],
      "biases": [
         [
            -0.10248857875138564,
            -0.7439593930430282,
            -0.019259219603566864,
            0.08283393367423059
         ]
      ]
   },
   {
      "genes": "0010001101110101011010010101011110010110001100101110011110111010011101110110100001010100100111110100001001000111011101000111110011100011110111111110010011000110011011011100100000111111100110001010000001011101100110101010100001110100001010001010111110010111110100101011101011000010100100011111101001001000010000000011111111101011001101001010010011000010100100101001010100011001110010100001001111001100001001101001001001101111000011001110111000100101011000110101111001110110011000010001100001100101010011101001010010011000011010001110100000101000011011001010110000100001010100001101000011111010100000100010001101011100011011111101110101000010001100101100001100110110111101011010000100001110110100"
   }
]