[
   {
      "weights": [
         [
            0.07402072141705764,
            1.2003256392185004,
            -0.37784385204149973,
            -0.08187812119977367,
            -0.00817863012864309
         ],
         [
            -0.1275658810904943,
            -0.09826100378363736,
            0.06162678535736147,
            0.023565614265548,
            0.03576068427979638
         ],
         [
            -0.1609458846910195,
            0.5265376389747182,
            0.12165960142371048,
            -0.20030964039358515,
            -0.8699033628795191
         ],
         [
            1.5289524638435028,
            0.18533411987878082,
            -0.8893766660825532,
            0.7806306275826828,
            1.6120768872637832
         ],
         [
            -0.060892290656764526,
            -0.3172469171180271,
            -0.28468628676483165,
            1.2618940342531828,
            -1.2325390903385085
         ],
         [
            0.029089792857400557,
            0.13830590357707562,
            0.09456839758359976,
            -0.20035329235480923,
            0.22986022865998268
         ]
      ],
      "biases": [
         [
            -0.8045595210093197,
            0.01730263569891114,
            -0.03827465161721521,
            0.42537035300202064,
            -0.0662610899487483
         ]
      ]
   },
   {
      "weights": [
         [
            -0.149957553960819,
            0.08409293901736221,
            0.10463337834260661,
            0.7376449356293548
         ],
         [
            0.17604173108802545,
            0.48275053344812735,
            0.647950137713456,
            -0.6525341440623958
         ],
         [
            -1.4080654604010783,
            0.11572487568315701,
            -1.4638042838925436,
            -0.09776477674240762
         ],
         [
            1.1227446989949668,
            1.4755917102520766,
            0.15364376161472262,
            -1.2001798300537982
         ],
         [
            0.07730686049296899,
            -0.08839659445317227,
            -1.51276115538775,
            -0.4757293687714919
         ]
      ],
      "biases": [
         [
            0.1121164046390757,
            1.5681862833445968,
            0.45317348364326604,
            0.2009075519667493
         ]
      ]
   },
   {
      "genes": "1111101110111011001010000101100101101001101110010100100110001110111101100100100101111110100001111001011101111001111010110000101110001100010010010110111111011111011010101001110101010010110101110100001001011100010101000101001010001111100010011010100111111101010110011110100010110101111001110000111011010010110000010100101010111110110100011010011001011010010110111110001001101001000101101101001110000001110000110101011110111101101110111100000110101111111010000010000110111111001100100001001011111100000001101000111011110100101000011011001100100000110011101110101101110101111111001101010110101011001101001001010101000100100001001011000101111000011100111000101111110100111110001001110010011100111111"
   }
]