[
   {
      "weights": [
         [
            -0.18337807562218675,
            0.11473310522762864,
            -0.06320027354474084,
            -0.11891325810092314,
            0.35355966784362597
         ],
         [
            -0.015355448225732534,
            -0.781813648846655,
            1.454318508677434,
            0.08945251693001877,
            0.3641597023032189
         ],
         [
            0.1365414920809016,
            0.11242599331692833,
            0.35436916542393615,
            -0.01798740034194682,
            0.4550143160408202
         ],
         [
            -0.08915500597996352,
            0.22530996109051832,
            0.3877446546481146,
            -0.03456865399917145,
            -0.09956135663473224
         ],
         [
            -0.260840788868683,
            -0.35151683734564065,
            -0.3460082045919123,
            -0.284685379622952,
            -0.23001302969445941
         ],
         [
            0.15563871736261167,
            0.16546402825874706,
            0.22520495240081245,
            -0.35482476429476745,
            -0.15014186746687153
         ]
      ],
      "biases": [
         [
            -0.20048731863812297,
            0.15647953842367057,
            -0.16153119907920563,
            0.0806221645847586,
            0.5512037701356669
         ]
      ]
   },
   {
      "weights": [
         [
            -0.03165130272852647,
            -0.037341914616161376,
            -0.22693960371048782,
            -0.04082642820773808
         ],
         [
            0.21940262611786043,
            -0.25238697941625954,
            -0.5707424872131325,
            -0.043445176621198275
         ],
         [
            0.3592551182127684,
            0.04336494254854659,
            -1.3069011087281677,
            -0.9722386373062335
         ],
         [
            0.08945632981130823,
            -0.1200537546114856,
            -0.6137544138404667,
            1.0759204911510676
         ],
         [
            0.5061657994071812,
            0.6229602444861353,
            -0.3902702173074938,
            -0.19003930563878868
         ]
      ],
      "biases": [
         [
            -0.02168421170507515,
            -0.09436907859571372,
            -0.08727310585038005,
            0.03137376207171675
         ]
      ]
   },
   {
      "genes": "0100000001100000000000011011101100100001010001000001111010101000100000001001110000011110110101001000101010010000100011011000010101010001111001101101011000001110100111000010110010011101011111110100011111011100011110011001100100111111111010111111100011111001101101010100101101011011010110111001111010100110110111000110010000011001001011110010111111010110101101110101001011110001111101111101010001101110000011100100011110001000011111001011010100010100111111111001001001001100000100010010001000110100100010110001011101100010001000110011000100001101100111100110101011000001110100110101110011000001101111011011101110000111110010010111110111000011001111010110000011101110110010101001000010111101001100"
   }
]