[
   {
      "weights": [
         [
            -0.035375471626205725,
            1.405793503481966,
            -0.646905554858197,
            -1.8814010217477508,
            -0.17609675746301748
         ],
         [
            -1.455143425436015,
            0.22129752469842523,
            1.76079462045152,
            0.06709238048103441,
            -0.47941024542647254
         ],
         [
            0.0910062268094545,
            0.19752178195691283,
            0.092383153327936,
            -0.1705650411493969,
            1.078116440875527
         ],
         [
            -1.0342922797735599,
            -0.04689494114091652,
            -0.12036514559454693,
            -0.005759478727160785,
            -0.8954442867792507
         ],
         [
            -0.3120060746435039,
            -1.363286789481622,
            1.5599492394227725,
            0.15019793345163798,
            0.2959399834125327
         ],
         [
            -0.01168179660088776,
            -0.11746486742846246,
            -0.5527504855032698,
            -0.5870382310661248,
            -1.9764694710246125
         ]
      ],
      "biases": [
         [
            0.34032785251743963,
            0.0194986089637704,
            -0.7521016844055681,
            -0.13746937151281066,
            -0.441643438113678
         ]
      ]
   },
   {
      "weights": [
         [
            0.05586259859046357,
            -0.8357496819904611,
            0.18852961015672207,
            1.0806232727342087
         ],
         [
            -0.0037590463684042926,
            0.2936392220726364,
            -0.1375083551982694,
            -0.35497878128846927
         ],
         [
            -0.04883216534238527,
            -0.21451306087689495,
            -1.7316074564185164,
            -0.11147954873459662
         ],
         [
            0.30006000538331223,
            0.04358070969093604,
            0.3423160981990075,
            0.03416665838555063
         ],
         [
            0.08530486560649413,
            -0.11740920260907399,
            -1.136414063450961,
            -0.32454673251583926
         ]
      ],
      "biases": [
         [
            0.2280725894830751,
            1.5697947787832365,
            0.188701647693463,
            -0.05479295729423108
         ]
      ]
   },
   {
      "genes": "1101001101101101011101001011000110011100001110101101110110010111000111010101001000111000011101111111110010100000000101001110001110101010100101100110101011111001011001010111011100100011101101110111011001000011111101000001100000101011000010100101000001001110001110000010000010111011011111000100011001100000011010001011100001010000110100010010101000001110111011001000110111111100010000101010111010100000001000011111111110011000001101011010111000101110011011101110110010111001101101101100101111010110000101100111000100101001111100110111000010010101001010010110110000101111110001011011111101110101111011010110110101011101001011100110100110101001111100101110010011000111110011010011011110010000010010"
   }
]