[
   {
      "weights": [
         [
            0.6848480169748776,
            -1.2297172944232688,
            1.7561903759738386,
            -0.7803724497215997,
            0.8035999231372922
         ],
         [
            0.8183494264589771,
            0.39431759850222975,
            -0.6008502590012109,
            -0.010207438511412908,
            -0.8818168484247878
         ],
         [
            1.2360693145695083,
            0.13362403339790335,
            -0.35926712017813206,
            -1.18479764955688,
            -0.06082509830719414
         ],
         [
            -0.7660557169327351,
            0.0572085879741777,
            1.3565421342843933,
            0.347634336916363,
            0.19029955907934282
         ],
         [
            -0.5526662691557261,
            0.016393364285862456,
            -0.17156205062094426,
            1.1895030194743343,
            1.9700774954433067
         ],
         [
            1.9195438121415647,
            -0.04309089857569452,
            -0.35877342046045746,
            0.33952940516459656,
            0.7643944661354357
         ]
      ],
      "biases": [
         [
            -0.09035622595583903,
            -1.0424070230960159,
            -0.3078563537104488,
            0.6396611831559922,
            -0.04231587074308699
         ]
      ]
   },
   {
      "weights": [
         [
            0.41447514928601487,
            -0.8736858766012312,
            0.11990151863905302,
            1.7899840717189204
         ],
         [
            -1.0991817209230272,
            -0.28548510928275916,
            -0.08036971890957123,
            0.7111144025219194
         ],
         [
            -0.11110901965009962,
            -0.6845267377804628,
            -1.1509679661106083,
            -1.5430903668963296
         ],
         [
            -0.18418184902004872,
            0.11790450868956336,
            -1.9668561975046277,
            -1.5816759923498207
         ],
         [
            -0.16111488917326752,
            -0.2805332595540701,
            -1.4885836793099039,
            1.4994808117143161
         ]
      ],
      "biases": [
         [
            0.5492542819301149,
            -0.46459721389341074,
            0.13780472278245937,
            -0.031231012392307623
         ]
      ]
   },
   {
      "genes": "1011010000011100000010101111010110010101000100101010011000111001111110111011100000101000011010110011011111011000010111100010000001110101001001110111100001101110010111111011110101100101111000000000101011101101110111000110010110011100011111111001100101001111011110011000010001110110001001111111110011010001000001000101110010010010000001111010011111001010111010000100100100001100011010111100111001100001011010000100011101001001100001101111000111101100100111001100111111001011110011011111001110100010100000111110000011111100001000111100111000100000000001100010100100001000000000010101010111010010110001001000010101111111000100011100001001110001100110100100111101110111001110001001101101011001111110"
   }
]