[
   {
      "weights": [
         [
            0.7547011564574265,
            -0.670345672825887,
            1.8736451005136023,
            -0.5622516717828607,
            1.7394340511180237
         ],
         [
            0.42334583728590336,
            -0.9045585763442718,
            0.8900649473078813,
            -0.8398820142482194,
            -0.3341402536860249
         ],
         [
            0.41743624248973216,
            -0.11292983071774103,
            -0.2725642873604417,
            -0.5169444807635932,
            -0.3505441525693433
         ],
         [
            0.7160144780774371,
            0.09608089923720589,
            0.9752784498447358,
            -0.4093346228078798,
            1.2977742372623027
         ],
         [
            -0.7804763460342555,
            -0.10974472234842143,
            -0.007739186387623472,
            -0.9401998534614185,
            1.3763857902098429
         ],
         [
            2.0,
            0.2679586380534587,
            0.16960219652193806,
            -0.3508638547956427,
            0.7134476164699516
         ]
      ],
      "biases": [
         [
            0.27568958366982915,
            -0.06380386183881673,
            -0.8783852397514659,
            0.08193109777154363,
            1.070319471050368
         ]
      ]
   },
   {
      "weights": [
         [
            0.7512880330580898,
            0.7342370038653926,
            0.7879921342098782,
            -0.7385218483869409
         ],
         [
            -0.15453367576215943,
            -0.619153402251066,
            -0.1150797188492827,
            0.4638900773814747
         ],
         [
            0.4308345626500612,
            -1.3347135843764373,
            -1.3460875559746885,
            0.2655816104565578
         ],
         [
            -1.3235806512545494,
            0.06676252188177512,
            -0.6423076804875387,
            -1.467100890054388
         ],
         [
            1.7042598923690178,
            -0.8757928107783037,
            -1.9654424808105122,
            0.26754295172092196
         ]
      ],
      "biases": [
         [
            0.34031799210783664,
            -0.8598770422358217,
            0.10626627413307144,
            0.169196315721414
         ]
      ]
   },
   {
      "genes": "0001011011001111111011110101000111011010001011101101011001111010010000001101111110100111100011101000011101111011101100011110010010000101001100000110111001010101011001100110111101011111111110111110010100001100100010111111100101010000110010001111001011100001110001011101000010000101001001110000111011101111000110101011101010100100001101101010001100100100001010011100110010010110011000110000101001111110010101011010000011011101000011011111010000110000110001001111111100101111000011010000101111111010001110110111001110111000101111100110000011111011101011011101001101111001010111010001001011100010101011101010010001010100010001011001011110011110101111110100111111011010111011100110011111011001101001"
   }
]