[
   {
      "weights": [
         [
            0.0875208140309384,
            1.3752684633546175,
            -1.3830219725684634,
            -0.09605784890469236,
            0.06417636984121258
         ],
         [
            0.28150089833343267,
            0.3745264129649103,
            1.70746893945681,
            -0.118446940047325,
            1.540099683201426
         ],
         [
            0.09617587884161945,
            0.5056146319018101,
            -0.2760774839416096,
            0.8281851417375335,
            0.07495642941024487
         ],
         [
            1.6504294543590465,
            0.1845978047352455,
            -0.7782368533601308,
            0.004246493874522704,
            0.4919704681013712
         ],
         [
            -0.06242060979036955,
            -0.24810452409829936,
            -0.5078066287640852,
            0.06751709178252205,
            -0.493893881798735
         ],
         [
            0.4709632689132193,
            0.09347882858662654,
            -0.032617081738824175,
            -0.1870142932620398,
            0.4376989800554624
         ]
      ],
      "biases": [
         [
            0.2575925406376098,
            0.2822033169241377,
            0.11171859911363846,
            0.3706057514668616,
            -0.5689339038409986
         ]
      ]
   },
   {
      "weights": [
         [
            0.11289578841929615,
            0.25881126484301364,
            0.4069821545822472,
            0.652086490717867
         ],
         [
            -0.12525099229523567,
            -0.278084436684032,
            0.7658484600423634,
            -0.3337136869563605
         ],
         [
            -1.680636322211837,
            0.17935407212171733,
            -1.9329664220458396,
            -0.3522131642538334
         ],
         [
            1.3807315829699385,
            0.9341677953929075,
            0.08455319905331171,
            -0.3722797040950493
         ],
         [
            0.09448173257483695,
            -0.0881169927070028,
            -1.308428421393677,
            -0.9995719066255486
         ]
      ],
      "biases": [
         [
            0.29447073562752585,
            1.6399041491152804,
            -0.3920955996281778,
            0.16342279727742082
         ]
      ]
   },
   {
      "genes": "1010011101001110100111100010101101111111000110110011011010010001010111001100000100101110001101101001011111001111100001101111111011100010010111100000010110000001000011101010011011010110001011010111110010011010011111011101010000110000110011100100111011000111011010010010111100011101001100000100000100010010000010011111111101110111100011011100111110000010011101111011010100101110011010101011001110011000011010100010110011001110001101010000111111111011100111101100011100011000010101100111011111111101100011010110111100100110010001110010100010000010100010111100100010100101100000110100010001011000110101001011101101101001000000111001001100110111111111110101010111110001011101101110001110110000001100"
   }
]