[
   {
      "weights": [
         [
            0.8510058788870833,
            1.9862680985111585,
            0.039074890431251605,
            -0.10040661350339843,
            0.7984818323483013
         ],
         [
            0.029610173453968824,
            0.7033094518151799,
            0.43501763860712295,
            -0.5370364782439838,
            1.2695646864826466
         ],
         [
            1.1606300412524206,
            0.15962160818400586,
            -0.8304871686606792,
            -0.17117136853153997,
            -1.1281137836865385
         ],
         [
            0.7169153087740087,
            -0.871380920078128,
            1.9518927916955826,
            0.24307585021958739,
            0.038642315319949196
         ],
         [
            0.17713450185502483,
            -0.8985571279789183,
            -0.1974662499232181,
            0.45708714719827076,
            1.564443311321004
         ],
         [
            0.9278617519375975,
            -0.47815939805888874,
            0.6622416237166608,
            -0.24341510285756374,
            -0.9601796794600279
         ]
      ],
      "biases": [
         [
            -0.055987202325566664,
            0.30033185945346913,
            -0.5196782383787407,
            0.4996058410663052,
            0.27833078344555606
         ]
      ]
   },
   {
      "weights": [
         [
            -0.10908986527892207,
            -0.49917661636679217,
            0.9966823291441215,
            0.7534135984502974
         ],
         [
            -0.1393968909174626,
            -0.15527217407920363,
            -0.22076435300584576,
            0.14014250410258916
         ],
         [
            -0.21996206350433237,
            0.1412031921037704,
            0.23748101803577631,
            -0.6508628226215284
         ],
         [
            0.2814295545525157,
            0.9501813862791453,
            -0.018608915401309503,
            1.2209257883256677
         ],
         [
            1.2015289331727304,
            -1.6470318160860236,
            -1.6646538337852093,
            -0.0380240577304893
         ]
      ],
      "biases": [
         [
            -0.3804067836274645,
            0.2967510721469074,
            -0.25985809297874135,
            -0.3333265619615023
         ]
      ]
   },
   {
      "genes": "0111011001111110111011100000111101000001010010011001000010100111111010111110110110111000101110011100001110101111101000111110001101110100110110010000000100110110100111000111001100110000111110110111010110000011100010111010000111110111100110001011110100000010101101101011010101110111000100100001000101000111100101000000011000111011000011000111011101001110111110110110100011110000001001111101101110010001001111100110001100111011000001010001000111111001110110110101101101100101011001100011111111011001111000100000100110000101000001101110100110110011001010100111011010011110011101110110010110010011110111000100101011101111011001101110011100010111001110011001010011011100101001000001011101001101001100"
   }
]