[
   {
      "weights": [
         [
            -0.6294759423024138,
            1.861123376322657,
            -0.17373071894955366,
            1.0292993661022023,
            -0.020688452075237628
         ],
         [
            -0.25829561452284144,
            0.2699230957906881,
            0.14110279630787606,
            0.4343704827353077,
            0.8507476931938236
         ],
         [
            0.5137165967878814,
            -0.15032540259375662,
            -0.04557586855396372,
            0.5672225362946223,
            -0.668499083021106
         ],
         [
            0.11183055208993857,
            -0.01435432443503342,
            -0.574780749072271,
            0.3269123917732844,
            1.0700250929786874
         ],
         [
            -0.06589728411022534,
            -1.2982500100629084,
            1.2923146855209047,
            0.47872643739619714,
            -0.368965535349132
         ],
         [
            -0.21648222168840636,
            0.5196292782771516,
            0.49671574746675795,
            -0.6537876501769477,
            -1.2916207503780883
         ]
      ],
      "biases": [
         [
            0.017749118846839093,
            -0.5649600213615597,
            -0.39085936994723985,
            0.6785464433029006,
            0.8168606072663143
         ]
      ]
   },
   {
      "weights": [
         [
            0.008555015424231392,
            0.5691747393365384,
            0.16800558535081989,
            0.21261355587604255
         ],
         [
            0.036664393629554176,
            0.6811368537162031,
            -0.6621103460506156,
            0.6002666144738074
         ],
         [
            0.1890607336224443,
            -0.006023474263190866,
            0.1952046056964184,
            -0.08031180801833246
         ],
         [
            -1.2138592260383396,
            0.5513563302906546,
            0.6025829660166055,
            -0.4730932271209816
         ],
         [
            -1.9004191804418875,
            0.13447427157779474,
            -1.7697800885142485,
            1.0494317411690044
         ]
      ],
      "biases": [
         [
            0.22021666680565447,
            -0.6323091070624091,
            0.09890864646855962,
            0.2790045829412294
         ]
      ]
   },
   {
      "genes": "1101111010101111100100011111100011010010100100011000001100010010001110011011000001110101100100110110010010010110010011111100011011110010001010000100010110010101101110010010101110010000001000110010100000011111001100001010100100001001101011001000111000110100011101100110101011110110011010101001101001010101101000101000100011100011110011000110001010001100001011111010111100110000010001001100101101111010010011101011100110010111110100010011001011011110100110011110100000000000011101111000100001000010011011011001111010111001011011000101110101110010010111111100000001000101110101101011101010110001111010001111101101001010111101011101100111000000111011000000101000001110011011001110010111000101110111"
   }
]