[
   {
      "weights": [
         [
            -0.019821613539432233,
            -0.045655299526367224,
            -0.1266786795647995,
            0.07253115772416464,
            0.04884127653401167
         ],
         [
            0.04302259999943144,
            -0.06567439783638798,
            0.5048552432964238,
            -0.011657922566500759,
            0.18722943247997462
         ],
         [
            0.22445165795598815,
            0.10688997549350114,
            0.16259155554980625,
            -0.019859699964040935,
            0.41206136197211285
         ],
         [
            -0.1066546505966171,
            0.12567588491342438,
            0.10295241200406183,
            0.1449772783847311,
            0.12269562676674399
         ],
         [
            0.0024547836102200606,
            -0.3560518695751682,
            -0.07727519818217993,
            -0.02087475911888037,
            -0.03315755501426591
         ],
         [
            0.20820455640916896,
            -0.09472487309560085,
            0.0030663699551434324,
            -0.08372794827559547,
            -0.0780581614438571
         ]
      ],
      "biases": [
         [
            -0.15596838852606182,
            -0.06928594101933072,
            -0.06556252540629612,
            -0.010803497312723793,
            0.04993385593692376
         ]
      ]
   },
   {
      "weights": [
         [
            0.012898177459969563,
            -0.14815872267722405,
            -0.16385969620379146,
            0.0039112727127661884
         ],
         [
            0.039323871346213096,
            -0.08310999372381236,
            -0.5445770816945134,
            -0.2624525944549428
         ],
         [
            0.11517675759531959,
            -0.22481434318801563,
            -0.7355833241165118,
            -0.13982299765528372
         ],
         [
            0.3026792872613969,
            -0.032185080335688995,
            -0.33723238392103994,
            0.06683467091458656
         ],
         [
            0.6072118597445739,
            0.0851198509898991,
            -0.09714528245465504,
            -0.15731347237994733
         ]
      ],
      "biases": [
         [
            0.08568932723707834,
            -0.13435712133460542,
            -0.13248850202425014,
            0.45455974281758915
         ]
      ]
   },
   {
      "genes": "1001011001001100011110010011001110110000001011110011001110001100101001011101101000000010000101111101001001010000010000001111100011101101110001010101101110100001110101011010111001011011110101010110111101101001011010100110101000110000000011011011100101000011101000111100101011111111101000111111111010010010101011100011101100110110000111000010011101000101000010010100001111011101001011001001110000100000100000000111001101110101001011110011001101000111110111100000110110101000111010111011010011100000100100001111011011000101011001100001100000111111001101100010000111111011100111000110111011011111110011100011111100000001011011111101101101000100010111101001101110011011110100100111110101001110100100"
   }
]