[
   {
      "weights": [
         [
            -0.4288004283690587,
            -0.38118305091894633,
            1.838679217238164,
            0.42648559839341377,
            1.561459395351859
         ],
         [
            -1.2848173808391874,
            0.24308132815841704,
            -0.5496391804369116,
            -1.056636462152113,
            0.9732213568889513
         ],
         [
            1.0050494677787511,
            -0.2492912331998952,
            -0.5163254664468696,
            -0.7319048164928211,
            -1.0025489121472706
         ],
         [
            -1.8509125705274125,
            -0.6940285900050234,
            2.0,
            -0.46370001506298425,
            -0.9354493276300619
         ],
         [
            0.5950831909067689,
            0.35983227317629857,
            1.4751518542707203,
            1.9162130905100712,
            2.0
         ],
         [
            1.7873009709948497,
            1.2221365195096332,
            0.3690996132101975,
            -0.2612907650564905,
            -0.641492889304711
         ]
      ],
      "biases": [
         [
            -1.4412850492966,
            -1.0916984205742073,
            0.8666971748724739,
            0.4960275670338664,
            0.9023013499309461
         ]
      ]
   },
   {
      "weights": [
         [
            0.6090633077345768,
            -1.3302221210209002,
            -0.24595627356898078,
            1.4282925095111274
         ],
         [
            0.8814843308087219,
            -0.42849237764515985,
            -1.6267897774104723,
            0.8957520859586989
         ],
         [
            -0.27646674897179835,
            -0.32320902509844823,
            0.45708462770700997,
            0.5077534960291801
         ],
         [
            -1.1715656363881695,
            1.321383854102504,
            0.19203801361453968,
            -2.0
         ],
         [
            0.12087760900560579,
            0.106931928783773,
            -1.79045577000556,
            0.9114542699142506
         ]
      ],
      "biases": [
         [
            0.15407237452776737,
            0.613896749784956,
            0.19842173536366986,
            -0.38715757288187197
         ]
      ]
   },
   {
      "genes": "0011000011110110001101001110100100101000010000101011010101101111101010111101101000010110000010011101100000110001000011011111000011000011001111111011010010100110111000011111110101011110000001100001001000101101000110101011100011000110001010110001001001000010110010010100100101101110001100001010111111111000110100110111100101100100101101011010000100110101001100000000101010110010011000000110011111010001000001010110111101000010101110100001100110000111100010110101011111101010101101000100111100111011010010111010101110111101011110010000000011001110111100111010100000111001010011001011000011111101010100111100100010011111101001110010010111101010001111101110111001100100011101101011101001010110101010"
   }
]