[
   {
      "weights": [
         [
            0.0022178534458368714,
            -0.460141995259142,
            0.030620864600441444,
            -0.08701148359573938,
            -0.0005445599804198725
         ],
         [
            -0.46468444315858043,
            0.08508832813928771,
            -0.3486908855393672,
            -0.4977540037034972,
            0.41441688299019824
         ],
         [
            -0.1488268388692902,
            -0.021452959529188752,
            0.17355996042437938,
            0.05019153302570426,
            -0.07044642891478271
         ],
         [
            0.056368875383464405,
            0.05759128892482639,
            -0.1285484090463164,
            0.686349090821939,
            0.0548749245610476
         ],
         [
            -0.03342220449377538,
            -0.1602049835503806,
            -0.13096501663202947,
            -1.4194364102733696,
            -0.035117908830105946
         ],
         [
            0.5757790254796115,
            -0.003493022435353264,
            -0.016625132797557386,
            -0.08762352316604681,
            -0.14168483745701121
         ]
      ],
      "biases": [
         [
            -0.00035902120845224435,
            -0.013503821862190365,
            -0.062389516826170416,
            0.30892895341372345,
            0.06738226153496145
         ]
      ]
   },
   {
      "weights": [
         [
            -0.04589224949649901,
            -0.1408073958678239,
            -0.005253249494657158,
            -0.16567450272399178
         ],
         [
            0.7529056031669925,
            0.08061724901067328,
            -0.022268453479288734,
            -0.0294350410765447
         ],
         [
            -0.015651726870773777,
            -0.06508320630889627,
            -1.656268023757038,
            -0.5586733896993779
         ],
         [
            0.21533430350920357,
            -0.016096984356655665,
            0.08723448269078418,
            0.009217861647749761
         ],
         [
            -0.5738740199469992,
            0.031156713979187227,
            -1.101250697936552,
            -0.0007467851530935134
         ]
      ],
      "biases": [
         [
            -0.6295166497708949,
            0.021239679612389872,
            -0.7731838985047776,
            0.4169367757213073
         ]
      ]
   },
   {
      "genes": "1111101100001001001100000011000110100011111000011100110101000101110111101111100100011110000010001001010100111011011000010001101000110010111000010000001010100111010011101011110011010100111100011001111011110000111110010111000001110000001110000010000000101010101100100100011110101000010111000000111100100100001100111000110110111110001001010101011010110010011000100000100111000000110011000110011101101111100110101110110010111011010110011011001101010110010111111110100000011110101100110111100010101010111100110001010011001100010011010101010100100001111100001100010100111100101001100111101001011111000001011000000110101100111110010110110000110001101110110010101110101011010010000010011110010110100011"
   }
]