[
   {
      "weights": [
         [
            0.7349081311170402,
            0.7313441206748653,
            0.8441482278676928,
            -1.3759625013994499,
            0.3236418928781624
         ],
         [
            0.7028261722916668,
            1.0257935732795198,
            -0.47009405444801816,
            -0.5278196906810816,
            -0.9829533291315403
         ],
         [
            0.28071755265423576,
            -0.2333172856342537,
            -0.21047597642610077,
            0.1925617033621553,
            0.6376645115883778
         ],
         [
            0.93799502544088,
            0.33878032208071385,
            1.2838031616123227,
            1.2393070969655855,
            -0.4852333524910402
         ],
         [
            -0.14265927562053402,
            0.35335116753194296,
            -0.1718986610898473,
            -1.2576663797620702,
            0.061831640459675055
         ],
         [
            0.5762549593052303,
            0.4461266475680594,
            -0.0009300046985592156,
            0.5268719998761165,
            -0.10770902077756413
         ]
      ],
      "biases": [
         [
            -1.5571080690301369,
            0.3614187372134905,
            -0.7874609903440619,
            0.9543942968349756,
            0.5932205649332144
         ]
      ]
   },
   {
      "weights": [
         [
            0.5748236390575138,
            -1.0545661734390293,
            -0.07774911971047577,
            0.13337321218870604
         ],
         [
            1.2496649123059997,
            -0.7162791434989136,
            0.012913997548602285,
            -0.3097649436447809
         ],
         [
            0.3593595670209928,
            -1.2709292075633558,
            -1.3516986071783421,
            0.5457039352845449
         ],
         [
            0.14008907405446208,
            1.0757536696232892,
            -0.5857419430981682,
            0.22152358734111105
         ],
         [
            -0.39430902866393075,
            0.06575507387317157,
            -1.2250181602082866,
            -0.09097646775684597
         ]
      ],
      "biases": [
         [
            -0.7136198084304656,
            -1.0817655456325694,
            0.18283943580186454,
            -0.5444408417596268
         ]
      ]
   },
   {
      "genes": "1111011100100110111110111111001111011001011110010010000000100111101001001111000111010001010100011111011011011001001010010100001111111001010011000101011011110001101000010000111100000100011000101110100001110001100110110111011001111011110111000110110011100101011100101110010001111000010111010111100110001000100111111000000000110010100101111111011101000000001100011000100101001001001110101011110101000001010000111110001100010001110011001110100010010100101000011000110110010001011000100110001010011000010111001000101100011011101100101101110110000001111010100100101111000010001000011111101011101110011000010010110010001000011101101100101000101000110000100110000001001100001000010111011001100011001111"
   }
]