[
   {
      "weights": [
         [
            -0.9095199482982392,
            0.061797077758008405,
            -0.5201742206935748,
            0.7175001295061494,
            1.5887745135294677
         ],
         [
            -0.29862245948580496,
            -0.5947284256619392,
            -0.059836790607272206,
            -0.5707035469644072,
            1.0130121482720726
         ],
         [
            -0.00819902217882818,
            0.17875909173765425,
            -0.03070583864555147,
            0.0381278172359195,
            -0.185608692840749
         ],
         [
            0.281300721823502,
            0.06293199643592896,
            1.9172661574677132,
            0.42240939705434877,
            1.0723783612483404
         ],
         [
            -1.2037531641687438,
            0.49186151501746855,
            0.6711460375860587,
            0.22383017585453568,
            -1.167217950012508
         ],
         [
            -0.43637485788377045,
            0.7486156487709329,
            -1.32866019090658,
            0.03935336870674548,
            0.44769365231970204
         ]
      ],
      "biases": [
         [
            -0.2227020996736163,
            -0.3539110938419123,
            -0.08734947045894131,
            0.9097836811540013,
            0.18681304785383102
         ]
      ]
   },
   {
      "weights": [
         [
            0.31469833374915174,
            -0.46857289900950055,
            0.09921679446623718,
            -0.8084383512903635
         ],
         [
            -0.4135071331284791,
            0.2768801989849623,
            0.46412862911275105,
            0.021848006817031418
         ],
         [
            0.1192042793772217,
            -1.0572672813509318,
            -1.5998324533279507,
            0.10163353051432059
         ],
         [
            -0.037190772374561226,
            -0.12406724067522967,
            -0.6485845826094117,
            -0.923427508421111
         ],
         [
            -1.8617399459507258,
            1.049593245469883,
            -0.23284261436656514,
            0.3206620634434221
         ]
      ],
      "biases": [
         [
            -0.8066459267655945,
            0.12581701586508692,
            0.257191526804179,
            0.46352031158873674
         ]
      ]
   },
   {
      "genes": "1010001101100000110010000100000001100100111000101011110010100001100010000000101100100000101010000101011000101001110110101100001011100101000001111010100101011111110010000100110110110000100000011010011001011001110110010011011111011101100010011000010010100101100010000010001101001101011000000011110111100001101100110001001000011101000011110011010001011111001010101011100100000010000011000100000000000001101100110101011100010011100011100110100010010110101011000101010011001101001001000001111100111011000000000100010101101001111000111001000110100001010110101000111100010100010011111011001010100101100000001001010110001110011110100111011101010011010111011011101001000011001100101110001111010000000111"
   }
]