[
   {
      "weights": [
         [
            1.1637307785430133,
            0.09956591995641023,
            -1.517902527461587,
            -0.26557056714838023,
            -0.5157313199395406
         ],
         [
            -1.0234557789332148,
            0.13434786515928027,
            -0.4284598533665256,
            0.11098622728819796,
            -0.840156026335655
         ],
         [
            0.14731795031293965,
            -2.0,
            1.3718235034301118,
            -0.5386167420007177,
            -0.5368362645628328
         ],
         [
            -1.1248556887796837,
            0.28506359353730765,
            -0.15611263622802704,
            0.4712485452306606,
            -0.34869129714403857
         ],
         [
            -1.505,
            -0.9992011411441635,
            1.8799867228626943,
            -0.6462139843267003,
            2.0
         ],
         [
            0.1387038788566057,
            -0.7019869396652021,
            -0.2911739472664119,
            0.519222668026906,
            -1.117872282095852
         ]
      ],
      "biases": [
         [
            1.4441504440784612,
            -1.5584380490692076,
            -0.35318141200777003,
            3.436225657074383,
            0.6600000000000001
         ]
      ]
   },
   {
      "weights": [
         [
            2.0,
            -0.7397882132775043,
            1.8639667794721906,
            -0.98292159383202
         ],
         [
            -0.590027526398857,
            -0.11302052542447263,
            -0.7366184021123235,
            0.20020089357550125
         ],
         [
            -0.42403144358479516,
            2.0,
            -0.11356156918042948,
            -0.3833999500009996
         ],
         [
            0.3446490357609383,
            -0.3941671604620603,
            -0.8835575191894901,
            0.6839553280323631
         ],
         [
            -0.6041515137674944,
            0.1253076426665724,
            -1.7170261532236324,
            -0.6165771801957147
         ]
      ],
      "biases": [
         [
            -0.4179999999999999,
            1.4802212434196906,
            -0.05186282702997537,
            0.19956195093079396
         ]
      ]
   },
   {
      "genes": "1110110000000000100111010001110111010100000010001010110000000100100001000110111000010110100110101010010011101100010010100111000001010000001001101110111111001001011111000111101100011110110000001100000111110011010110010010001111010000010100011110000110101010010010101110101000101101100100001010110111110000010001100001001001110001110010111001001101000001111001110111011000100000101110011110011011001010001011011101010100010100101111011001101101001111101101001000111000100101111101000010010010000000011001111110001000111000110100100010101010100100100011111001001011110100011110101011111000000011000100110101011001001000010000001001000010011001001001000110111010110001001010100001100110110001000110"
   }
]