[
   {
      "weights": [
         [
            -0.07696974306122412,
            -0.7687566400758721,
            -0.4355000090433097,
            1.8080265482457436,
            -0.3195012311238481
         ],
         [
            -0.30137170848354733,
            0.06907353127697216,
            -1.6350884961621026,
            -0.37003147556154503,
            -0.20083744738672954
         ],
         [
            -0.15153160560859896,
            -0.1669891810209256,
            -0.38575171258024876,
            -0.05403266853661565,
            0.07958851339793666
         ],
         [
            1.8969999999999994,
            -1.4829955742875662,
            -0.10358521338606216,
            1.545022876098535,
            -0.15890368913885836
         ],
         [
            -0.6573097395817954,
            -0.8316845712275878,
            0.08409231407069795,
            0.967697519511197,
            -0.09428917359098932
         ],
         [
            -1.2391014440560568,
            -0.6644426915841508,
            -1.4933097335529233,
            0.18311947012028107,
            0.24831856555785473
         ]
      ],
      "biases": [
         [
            0.10381415625092374,
            -0.15874336293856411,
            4.519681415022212,
            0.7542876049907447,
            0.7177610597594367
         ]
      ]
   },
   {
      "weights": [
         [
            -0.16337162112162895,
            -0.2686763645600879,
            -1.7224424808105137,
            -0.11403663823986593
         ],
         [
            -0.266894785170138,
            0.19530248526575777,
            -0.34683627878423207,
            0.2062739775380073
         ],
         [
            0.09400394402807921,
            1.5391955895225937,
            0.2331463940875195,
            -0.3779530495069222
         ],
         [
            0.46283628481310374,
            0.09496116108309297,
            0.7005495405749876,
            -0.7251021941715603
         ],
         [
            -0.35573451151369206,
            -0.18485165886563046,
            -1.3566279355663502,
            -0.46263912811207325
         ]
      ],
      "biases": [
         [
            -0.02874336293856409,
            1.5134646033438215,
            0.11106637362879442,
            -1.8840619479163585
         ]
      ]
   },
   {
      "genes": "0100010001101111000000100001100000001101111101111110100001011110101011100010101000010111101011111000100000111101100000011001111011101011001110000101100100100110000001111010001011000111001101001001011001110100011101111110011000110100010000111100100111100010001011000100100000100111110010011100101101001110011110101100000110001100110111101000010011111011010001010000000110100110001000111100000001001101111010011010011100111101000010010100100001001101110001000111001001111100100001110110010110100110001011111100101000010111010011110011011001101011111001111001010000110010011011100010010100000110111110111110010101001110001011010110010010001010000000000111001110110111010011111001000010111111101011"
   }
]