[
   {
      "weights": [
         [
            1.0148413972384251,
            0.6105250145166656,
            0.6878187069148005,
            -0.10518351565862614,
            0.30822440551477037
         ],
         [
            -0.17945390123146976,
            0.5767532626387407,
            -0.19533293318358957,
            0.5776708984794344,
            0.19029529987085939
         ],
         [
            0.11061391729291761,
            -1.360482492702139,
            0.21483124407109655,
            0.42708441591188084,
            -0.08290970958542715
         ],
         [
            0.11076686724735658,
            0.2460635935373077,
            0.43394487994702546,
            -0.7650129999185478,
            1.2033599012231513
         ],
         [
            -1.0052715245903192,
            0.01210304280646246,
            -0.5275957123610114,
            0.6331282652045434,
            0.05256281528257637
         ],
         [
            0.18586316833106784,
            -1.0350920445654013,
            -0.5047757115225153,
            -0.32052426111320365,
            0.6585790501395302
         ]
      ],
      "biases": [
         [
            0.765256637061436,
            0.5380000000000001,
            0.06243361732789961,
            1.6063539786195395,
            0.7658230016469243
         ]
      ]
   },
   {
      "weights": [
         [
            0.9244225281701508,
            -0.5831940643953957,
            0.23761280688152292,
            1.021774822268735
         ],
         [
            -0.1403372599517797,
            0.6784396294566091,
            0.5738171750015646,
            -0.5446132687042932
         ],
         [
            -0.3532172873338717,
            0.47002366609670004,
            -0.5422543204383873,
            0.942196489654013
         ],
         [
            -0.31426246204808844,
            0.25423057209889466,
            -0.29637966611265293,
            0.6054455054644153
         ],
         [
            0.2926004213233426,
            0.3533610326589242,
            0.15976587446511054,
            -0.6792399425996093
         ]
      ],
      "biases": [
         [
            -0.35482300767579517,
            0.30507964473723087,
            1.126,
            0.00599999999999995
         ]
      ]
   },
   {
      "genes": "0000010000100111100000111001010001000010000000010111000100000101000010000100110111101001001011101101000100000001100000111111111000000111010011101001100100101010100011001000011001110011011011000001100110101011001000010110100011110101101110100110101101001010011010100101111000010001101100100000011010000101101001101011000100000000100000101111110110101001100011101010111101000001010101011101111101001010111111010010000010000111001101000001000001110100110101110101001001111010000011001110011010010101010001101001100001111101001110001010010111001110000000001110101001011011010100101101001011111010010000110011111000111100101000100100000000110100000011100100000010100111001010111111011000010001111001"
   }
]