[
   {
      "weights": [
         [
            1.372570796326795,
            -1.9634340800435899,
            -1.755973451754253,
            0.6493674849352596,
            1.6429999999999998
         ],
         [
            -1.5258628600731126,
            -0.0009353201478994877,
            -0.6588138319860654,
            -1.4100000000000008,
            0.05811830754665452
         ],
         [
            -0.7407882486989067,
            -0.2652345145281293,
            0.22933235786941802,
            -1.3135193944137444,
            -0.6872212231694221
         ],
         [
            -1.712,
            -0.0029364064626916375,
            -0.383333873618847,
            -1.7379999999999998,
            -1.0079999999999991
         ],
         [
            -1.9186238928182824,
            -1.2051790186108569,
            1.0576946921595154,
            -0.5784042537882121,
            1.3399999999999992
         ],
         [
            -1.8561368316689326,
            0.4199112930642589,
            -0.27427509475690137,
            0.26190409510685186,
            -0.3308141816997343
         ]
      ],
      "biases": [
         [
            2.337672569626203,
            -0.7338849495632809,
            1.832000000000001,
            1.2076902604182083,
            -0.7186238928182824
         ]
      ]
   },
   {
      "weights": [
         [
            1.7039999999999997,
            1.7968059356046053,
            -0.40981018676429287,
            -0.4589746842946361
         ],
         [
            -1.4943328342393447,
            -0.35197628035785716,
            -1.8050265482457433,
            0.2845704339536234
         ],
         [
            -0.2222615384293583,
            0.2546159417709265,
            1.5539999999999998,
            -1.1442052608559228
         ],
         [
            1.715983591845567,
            -0.947609641272573,
            -0.31193805208364267,
            -0.41737210234143307
         ],
         [
            1.968,
            -1.066997671202784,
            -1.914,
            0.5823520264919255
         ]
      ],
      "biases": [
         [
            -1.0382831853071803,
            3.1742831913360456,
            1.0696194731347175,
            -1.4580000000000002
         ]
      ]
   },
   {
      "genes": "1101101111011100011011001011101100111101101110011100011000001000000110110111001001000001001001110011101000010010011000101000110101111011111011001010000110101110011000111011110001001100011110101111110011111010111000000001101101101101010101101111111001100111001111101100111000011100100001110001100100110100010001100001101001000000010011111000010001001100011110010000100000011001101111001000111011001001011001110001101111000010001111101010001110100011010111001001000101100010000100101100010101001111001000101011100110010110000101010110100111000010001000101010111111110110101100110010100110010110100101000111111000111000010010110111010101001111010110000010011010111100011010110101001011111111100110"
   }
]