[
   {
      "weights": [
         [
            1.840137166941153,
            -1.954,
            1.643884955592153,
            1.2610666028072093,
            0.5213274303737945
         ],
         [
            0.1164734217255558,
            0.9246310504664597,
            -1.968,
            -0.41924337198187106,
            1.9304103442787053
         ],
         [
            -0.1036997465079327,
            0.3781814180366391,
            0.8505004987687518,
            0.39257794714435945,
            -1.5279291804085013
         ],
         [
            1.469265488486307,
            0.792957400554334,
            -0.698408221061857,
            1.8753008821280517,
            -1.590283185307179
         ],
         [
            -1.91,
            -0.4646049204614865,
            -0.2915227333515822,
            1.7560000000000002,
            1.4591533011906535
         ],
         [
            -1.0966147061211888,
            1.9257787626091791,
            -1.1250000000000013,
            -2.0,
            0.17317696687539438
         ]
      ],
      "biases": [
         [
            -0.48773451151369274,
            -0.7495398223686164,
            1.9173185789489238,
            0.0677079632679488,
            1.21164601535159
         ]
      ]
   },
   {
      "weights": [
         [
            1.9,
            2.0,
            0.9389862786946293,
            -1.8339999999999999
         ],
         [
            -0.5093195571020368,
            0.3597316889389631,
            -0.4473716814692831,
            -1.1914605339756834
         ],
         [
            1.9639773957823348,
            0.009722134753901171,
            -1.0255615691804298,
            0.3387814620067705
         ],
         [
            1.258902658441899,
            0.5818018716086303,
            -1.2603451271946668,
            0.3012031136689277
         ],
         [
            -0.525938052083641,
            -0.5684313066172968,
            -0.5568004961492488,
            0.14451130993751723
         ]
      ],
      "biases": [
         [
            -0.3096017702849748,
            1.6290708053701033,
            0.3258584073464109,
            -2.4329867228626934
         ]
      ]
   },
   {
      "genes": "0101101100001000010011001001101111000101011011011101011110101000101010110111010110100000111100000110100100111010110010101101011001001010011001011010110111000010111111010101101100010000011000111001110110110010101011110010011001111111000011101000100010100011110101010001000101011001100011001011100111100011111111100100010001101000010000011110100000010100100001011000010001000000111101100110000000000001110111001111110011001000100101001000110110100100101101111000100000001100011000010101011000001010010001010000010111100000110100101010100000111011101101111110111010010001100100101000100111001010110101110001000110110101010100111001101101111011100111110011010100001101100010101001011010000010000010"
   }
]