[
   {
      "weights": [
         [
            0.9624019384080575,
            0.042238489582614794,
            -1.5765404593940924,
            1.836517699835308,
            1.9680000000000009
         ],
         [
            1.93,
            0.02324167217630555,
            -1.5858230076757955,
            0.14693755048027568,
            1.2626315816695266
         ],
         [
            -1.3405139027588566,
            0.42431613284843234,
            0.275124391587034,
            -1.2516344388215896,
            -0.012035379420345757
         ],
         [
            1.5052168116783846,
            1.369119470120283,
            0.5808130163289635,
            0.6508237672698927,
            0.4778883566365001
         ],
         [
            -0.033299917104453465,
            -0.508852706098051,
            -0.07423512233196844,
            0.5263612437414011,
            0.49202055996193395
         ],
         [
            0.2076375052278112,
            -1.746792033717615,
            -0.08553982839748811,
            -0.3106681378848988,
            -1.6566371699555889
         ]
      ],
      "biases": [
         [
            -0.5127876080051801,
            -0.21142477796076942,
            -0.4714336293856409,
            -0.1908407044966673,
            -0.4825132741228718
         ]
      ]
   },
   {
      "weights": [
         [
            -0.5604778201334742,
            1.4930265482457434,
            -1.4014247779607691,
            -0.7036472599497113
         ],
         [
            0.5825122959697592,
            2.0,
            0.23637274646280487,
            -0.5887083256411204
         ],
         [
            1.7615526238504366,
            1.8699999999999999,
            1.339022498254802,
            -0.3103999500009995
         ],
         [
            -0.10288937527571757,
            1.0921469988032988,
            -1.8184062143583957,
            -0.02612874241730362
         ],
         [
            -0.7771681469282038,
            -0.6876436925832463,
            -0.37702173956894025,
            0.31730776936756844
         ]
      ],
      "biases": [
         [
            -0.3982876110196151,
            0.8105619449019247,
            -0.1119911485751285,
            0.5697654854718722
         ]
      ]
   },
   {
      "genes": "0101010011010100001100000000010010000010101000000010110011101010111010100011100101111010101101111101101100010001010000001000010111000100100000001000010010010001101101000100000101001100000011101101100100011011010011000101010010110001111101100110000000110011000000101100101111001111010001001010111111100110000010001011000100111010101011010111011111010100101110110100110100101010110101100100100101101101001000000001010111010111011011111101011001000100111101111100011000111001000111111101011011010010000100111101000010100010110100110010010100101110000110011001111001100000101001100001010010001100111100111000111011110011010010110110000011110000110100001100111011100111110110100011011111111111010100"
   }
]